0.205
-0.03
0.1275
0.4565
-0.248
0.424
-0.095
0.066
0.2675
0.024
0.4315
-0.1715
0.24
0.064
-0.227
-0.368
0.4335
-0.2705
-0.4765
0.3505
0.2275
0.309
-0.164
-0.0055
0.365
-0.0865
0.0335
0.423
0.0075
-0.4355
-0.0085
-0.3735
0.4995
0.02
-0.274
-0.1875
-0.004
-0.09
0.104
-0.103
0.2845
-0.422
0.3435
0.374
0.08
-0.449
-0.4245
0.2415
-0.2015
-0.205
0.2595
0.306
0.0495
-0.0185
0.0785
-0.459
0.098
-0.318
-0.313
0.411
0.0575
0.3875
-0.3985
-0.1715
0.2595
0.231
-0.0935
-0.009
-0.4955
-0.45
-0.0275
-0.4625
0.1665
0.151
0.3445
-0.1575
0.3615
-0.3705
0.2775
-0.1955
-0.3585
0.0985
0.125
0.415
-0.1325
0.214
0.449
-0.3435
0.277
0.0175
0.3005
-0.1135
-0.177
0.23
0.1765
-0.1365
0.1665
-0.42
-0.026
-0.4505
0.272
-0.298
-0.397
-0.2585
0.4825
0.357
-0.2875
0.183
0.084
0.3185
-0.4595
0.4205
0.3175
-0.093
-0.2
0.0245
-0.152
0.1325
-0.033
-0.471
0.2185
-0.168
-0.062
-0.2635
0.29
-0.1365
0.3495
-0.0215
-0.4325
0.1995
-0.328
0.4075
-0.059
-0.3145
0.4865
0.067
0.301
0.3275
0.16
-0.464
-0.018
0.331
0.167
-0.0375
-0.1425
-0.4985
-0.015
0.378
-0.3525
-0.3135
-0.2205
-0.203
-0.3295
0.122
-0.0415
0.485
-0.4565
0.0035
0.2185
-0.232
0.265
0.369
0.0685
-0.2365
0.4735
-0.4885
0.2065
-0.338
-0.165
-0.2155
0.233
0.4075
-0.166
-0.4155
0.376
-0.355
-0.461
0.288
-0.154
-0.198
-0.082
0.411
-0.2115
0.2815
-0.2025
-0.059
-0.458
0.048
-0.2325
0.201
0.4095
-0.103
0.4975
0.0115
-0.3555
0.138
0.444
-0.028
0.233
-0.4585
-0.4625
0.3925
-0.168
-0.0445
-0.057
-0.2675
-0.0855
0.4805
0.276
-0.3065
0.2595
0.423
-0.3735
0.143
0.453
-0.229
-0.308
0.074
-0.302
0.319
0.0815
-0.141
-0.1095
-0.162
0.4085
0.32
-0.102
-0.2005
-0.1975
0.363
0.3145
0.322
-0.207
0.483
-0.3705
0.2175
-0.0155
0.183
0.3935
0.2815
-0.3285
0.022
0.3505
-0.482
0.068
-0.104
0.4635
0.103
0.098
0.1305
0.491
-0.3475
0.4205
-0.0585
-0.109
0.4495
0.342
-0.413
-0.484
-0.026
0.221
-0.014
0.2865
0.206
-0.4775
-0.213
0.069
-0.402
-0.216
0.3445
-0.3485
0.2455
0
0.301
-0.4345
-0.1525
-0.143
-0.2065
0.414
0.1465
0.0885
0.15
-0.108
0.1735
0.245
0.466
0.03
-0.3555
-0.0075
0.4695
-0.32
-0.2425
-0.393
0.115
0.3215
0.3705
0.3165
-0.2645
0.0235
-0.1635
0.1775
-0.1355
0.149
-0.1
-0.2045
0.1235
-0.3935
0.384
-0.434
0.0755
0.401
-0.1115
-0.3255
-0.48
-0.3715
-0.3645
-0.159
0.287
-0.192
0.3195
-0.03
0.4565
0.3795
0.1985
-0.1895
-0.2885
0.2415
-0.478
-0.0685
-0.24
0.155
0.0415
-0.0025
-0.469
-0.3215
-0.024
0.237
-0.249
0.0665
-0.2645
-0.069
-0.3155
-0.2165
-0.149
0.2595
-0.1225
-0.2285
-0.1865
0.0115
-0.1445
-0.114
0.232
-0.406
0.0055
0.3855
0.1465
-0.181
0.173
0.1165
-0.2125
-0.0085
-0.4605
0.365
-0.3755
0.3985
0.1965
-0.25
-0.3735
0.435
-0.391
-0.0685
0.237
0.1355
-0.293
-0.1495
0.3515
0.17
-0.0365
-0.0275
0.329
-0.31
-0.275
-0.024
0.087
-0.3555
0.4145
0.197
0.0345
-0.087
0.158
-0.1645
0.1515
-0.0355
0.1755
0.243
-0.262
0.243
0.067
0.0275
0.442
0.2605
0.196
-0.4195
0.0075
-0.176
-0.2665
0.106
0.3835
0.2675
0.296
-0.395
0.366
-0.068
0.262
0.3995
0.158
0.4265
-0.285
-0.0655
0.087
0.4255
0.276
-0.0365
-0.2625
0.1005
-0.3865
0.1485
-0.014
-0.401
-0.445
-0.361
0.4875
0.2535
0.2445
-0.258
-0.49
-0.19
0.1145
0.289
-0.0155
0.228
-0.489
0.065
0.0015
0.095
0.096
0.0205
-0.437
-0.043
-0.291
0.1765
0.3875
0.4945
-0.216
0.2475
-0.0245
0.2865
-0.4165
0.414
0.353
-0.2135
0.1535
0.1205
0.0835
-0.201
-0.303
-0.2335
-0.269
-0.163
0.461
-0.206
0.464
0.4155
0.037
0.007
0.427
0.3965
-0.1595
-0.0265
-0.254
0.0495
0.3005
-0.435
0.102
-0.3135
0.335
-0.42
0.2885
0.422
0.3545
-0.488
0.1595
0.352
-0.129
0.022
0.2905
-0.4135
-0.4555
0.4855
-0.1635
0.29
0.161
0.024
-0.2805
0.226
0.412
0.0915
-0.2975
0.252
-0.3605
-0.267
-0.22
-0.3995
0.225
0.3105
-0.1965
-0.3025
0.3725
0.043
-0.188
-0.004
-0.476
0.2655
0.3955
0.4975
-0.072
-0.107
0.472
-0.026
-0.3935
0.034
-0.4895
-0.093
0.374
-0.2155
-0.245
-0.0895
0.277
0.2445
-0.167
-0.208
-0.0105
-0.0685
-0.3025
-0.059
-0.31
-0.288
0.1
0.4075
0.3365
0.3415
-0.3105
-0.113
-0.4805
0.449
0.3625
-0.282
0.3695
0.1505
0.318
-0.432
0.31
-0.163
-0.1305
0.4095
0.3435
-0.3815
-0.1385
0.1335
0.302
-0.01
-0.1535
0.222
0.1345
-0.113
0.103
-0.3595
-0.2645
0.2865
0.366
0.378
0.2085
0.0465
0.1605
0.452
-0.4695
0.1815
0.2455
-0.391
-0.158
-0.301
-0.149
-0.346
0.4425
-0.4605
-0.25
-0.0325
0.494
-0.477
0.059
-0.4165
-0.3605
0.1455
-0.3825
0.2775
-0.1045
0.0895
-0.398
-0.112
0.2515
-0.4225
0.416
0.1065
0.089
0.078
-0.282
-0.331
0.47
-0.054
-0.093
-0.3895
0.392
-0.2495
-0.0135
-0.1475
-0.119
-0.4365
-0.318
-0.4485
0.2205
-0.4475
0.387
-0.0705
0.126
0.437
-0.09
-0.372
-0.345
0.159
-0.1345
0.067
-0.2095
0.0475
-0.004
0.1855
0.0935
0.197
-0.097
-0.2975
0.265
0.099
-0.028
-0.263
0.2265
0.292
0.306
0.1905
0.2755
-0.233
-0.024
0.246
-0.341
-0.465
0.006
-0.0735
-0.01
0.447
0.0745
0.3315
0.27
0.062
0.3295
0.1235
-0.0085
0.297
0.4045
0.4605
-0.369
-0.3005
0.2755
-0.1505
-0.411
-0.431
-0.273
-0.171
-0.053
0.077
0.279
-0.0455
-0.4255
0.428
0.4465
-0.339
0.3775
-0.4265
-0.4885
-0.344
0.246
0.389
0.2115
0.4555
-0.216
-0.3565
0.2425
-0.2595
-0.08
-0.142
-0.4475
0.1965
-0.485
-0.485
0.005
-0.445
-0.0295
-0.208
-0.3065
-0.032
0.3895
-0.349
0.468
0.056
0.3565
-0.1315
-0.157
-0.0175
-0.353
0.237
-0.147
-0.2755
-0.326
0.114
0.251
0.4215
-0.384
-0.3515
-0.2535
0.3645
-0.354
-0.3575
-0.4835
-0.2825
-0.279
-0.407
-0.397
-0.0845
0.0675
-0.1255
0.169
-0.451
-0.4315
-0.242
0.3855
-0.132
0.1695
0.251
-0.1715
0.0145
-0.419
-0.478
0.4555
0.3495
0.263
0.3415
0.205
0.078
-0.2015
-0.4645
-0.3605
-0.204
-0.4165
0.309
-0.0835
0.439
-0.45
0.1425
0.2745
0.203
0.36
-0.049
0.198
0.365
0.356
0.3695
0.298
-0.3955
0.121
0.2125
-0.2905
-0.04
-0.104
0.349
-0.207
-0.0425
0.329
0.18
-0.3995
-0.0855
-0.491
-0.1865
-0.2735
0.123
-0.2155
0.2675
0.078
0.4305
0.346
-0.245
-0.414
0.3625
-0.3455
-0.327
0.204
-0.259
-0.365
-0.2655
-0.0295
0.3135
0.365
-0.3695
-0.003
-0.1865
-0.0765
0.498
0.438
-0.2575
0.19
-0.4615
0.0885
-0.393
0.4015
0.0115
0.0555
-0.1165
-0.359
-0.0085
-0.156
-0.118
-0.0195
-0.436
-0.3655
0.4182201268285078
-0.30436194747499534
0.3556111637279487
-0.10022803638249655
-0.30549401048245284
0.009999966782827965
0.27938864736015273
0.11861973306257861
0.09677617701496605
-0.4385011378347057
-0.12549274128985333
0.060129805286995255
-0.4959796447117613
0.13878161031746622
0.18954231924025006
0.1178860702891493
-0.471497643945761
-0.4263631519986807
-0.203006301417271
-0.42279838042963436
0.49254682156359825
-0.2884999999827822
0.3219650086535671
-0.36587728547273296
0.45493313309451955
0.11149970889589514
-0.09049999407190794
-0.3478842742627368
0.06639036641444764
0.046000000580136965
0.12649298175268067
-0.1965004411701924
0.3216580472620962
-0.19238913569195307
-0.4080001637880666
0.37902945958717954
-0.10004667329394301
-0.441234294298296
0.35649630883975436
-0.4469999960421111
-0.2369999997852217
0.08199997176988337
0.2529830604295795
-0.4249272059506249
-0.3980425567812199
0.46699892152869316
0.26801200711748635
-0.07918448757071765
0.15299948736308228
0.4990071786438837
-0.42224687818175555
0.1805001118156742
-0.3155000014703265
0.3879989375740588
-0.15398666562582194
0.3920858996040195
-0.15247661760625264
-0.2806009673295605
-0.31278392476985034
0.09474613747346185
-0.14577987317149224
0.13313805252500466
-0.3953888362720513
-0.22322803638249647
0.45500598951754717
0.281999966782828
-0.3816113526398473
0.43811973306257856
0.017776177014966046
0.0844988621652943
0.07200725871014665
-0.2193701947130047
0.3090203552882387
0.05778161031746623
-0.10495768075974994
0.2358860702891493
-0.250497643945761
0.3066368480013193
-0.300506301417271
0.016201619570365606
-0.012453178436401775
-0.14799999998278204
0.42296500865356707
0.480622714527267
0.4089331330945195
-0.3480002911041049
-0.032499994071907935
-0.19588427426273683
-0.19060963358555233
-0.276499999419863
-0.45100701824731937
0.047499558829807574
-0.3648419527379038
0.3366108643080469
0.3024998362119334
0.19002945958717957
-0.30104667329394297
0.441265705701704
0.14349630883975434
-0.14949999604211123
-0.36449999978522174
-0.14750002823011663
-0.48751693957042047
0.04557279404937509
0.3329574432187801
0.23249892152869314
0.09451200711748631
0.4248155124292823
-0.18600051263691772
0.19450717864388362
-0.3312468781817556
-0.07349988818432572
0.32299999852967354
0.30299893757405877
-0.14198666562582193
-0.00541410039598046
-0.4444766176062527
0.4853990326704395
-0.062283924769850355
0.08174613747346185
-0.3587798731714922
0.0866380525250046
-0.2223888362720512
-0.13072803638249647
-0.26849401048245286
0.241999966782828
-0.06961135263984733
-0.19488026693742136
-0.06572382298503394
-0.18000113783470575
-0.25249274128985333
0.2616298052869952
0.24552035528823865
0.17828161031746623
0.31254231924025017
-0.32661392971085074
-0.009497643945761145
-0.3563631519986807
0.44049369858272897
0.0472016195703656
0.2145468215635982
0.4675000000172178
-0.20803499134643294
-0.34887728547273295
0.40393313309451956
0.3204997088958951
-0.07199999407190794
0.3026157257372632
-0.4726096335855524
0.07500000058013698
0.011992981752680678
0.4374995588298075
-0.050341952737903845
-0.13238913569195307
0.4174998362119334
-0.14147054041282042
0.418953326706057
0.343765705701704
-0.3160036911602456
-0.2714999960421111
0.03000000021477825
0.07749997176988337
-0.3665169395704205
0.3635727940493751
0.4319574432187801
0.26299892152869314
-0.41498799288251365
0.12381551242928235
0.17349948736308227
-0.47499282135611626
0.2922531218182444
0.06550011181567428
-0.16550000147032634
0.3289989375740588
0.08101333437417801
0.24658589960401953
0.14452338239374735
0.19489903267043945
-0.48578392476985033
0.20874613747346182
0.4742201268285078
0.42863805252500464
-0.29638883627205126
0.20027196361750355
0.07000598951754719
-0.48350003321717194
-0.4381113526398473
-0.21088026693742135
-0.26722382298503394
0.2524988621652943
-0.24849274128985332
0.1731298052869953
-0.09047964471176134
0.3142816103174662
-0.02795768075974992
-0.1536139297108507
-0.16299764394576113
-0.18336315199868072
-0.16100630141727099
-0.42979838042963436
0.38654682156359826
0.4885000000172178
0.36846500865356707
-0.1258772854727329
-0.47856686690548045
-0.5000002911041048
0.2580000059280921
-0.23738427426273684
0.19739036641444768
0.42800000058013704
0.08499298175268068
-0.008500441170192436
-0.08484195273790386
-0.2338891356919531
-0.3565001637880666
0.25102945958717954
0.300953326706057
0.0017657057017040482
-0.03700369116024563
0.4615000039578889
-0.011999999785221739
0.37199997176988336
-0.07801693957042045
0.3825727940493751
0.3749574432187801
0.16499892152869314
-0.1674879928825137
0.21281551242928237
-0.034000512636917675
-0.0004928213561163427
0.30975312181824444
0.39650011181567435
0.22949999852967368
0.28999893757405876
-0.03948666562582197
0.18858589960401953
-0.001476617606252629
-0.4231009673295605
-0.14328392476985033
-0.11775386252653815
0.0785
0.1375
0.302
-0.272
-0.019
-0.1475
0.0085
0.043
-0.492
-0.0895
-0.419
-0.1425
0.412
-0.1695
0.0095
0.478
0.4555
-0.026
0.2855
0.3015
0.359
-0.4005
0.0655
0.4675
-0.3935
0.041
0.0005
0.2255
-0.2445
0.433
-0.369
-0.4605
0.2435
0.3555
-0.2315
0.0185
-0.1965
-0.1135
-0.056
0.3545
-0.0755
0.1465
0.4625
0.0975
0.423
-0.426
-0.305
0.4025
-0.445
-0.421
0.148
0.0695
-0.0215
-0.002
0.169
0.4325
-0.136
0.226
-0.086
0.06
-0.2895
0.4125
0.33
-0.0395
0.249
0.182
-0.23
0.2565
-0.4215
-0.371
0.3235
-0.2365
0.054
-0.1535
-0.3155
0.092
0.366
0.14
0.2735
-0.0235
0.49
0.1195
-0.4265
-0.3325
0.0905
-0.256
-0.4055
0.4625
0.441
0.036
-0.4955
0.293
-0.3785
-0.171
-0.396
-0.239
-0.2295
-0.2705
-0.4775
0.001
-0.181
-0.187
0.473
-0.0115
0.0435
-0.106
0.472
-0.094
0.182
-0.0745
0.432
0.0395
0.163
0.2075
0.318
0.33
0.1265
-0.45
0.04
0.3725
0.049
-0.452
-0.467
-0.4355
-0.2525
-0.1435
-0.4565
-0.211
0.389
0.0055
0.225
0.3295
-0.435
-0.1275
-0.1965
0.211
-0.2065
-0.2245
0.211
0.4255
-0.368
0.076
0.4325
-0.433
0.461
-0.105
-0.486
0.116
0.106
-0.4805
0.2185
0.35
-0.3855
-0.4745
-0.3185
0.0725
0.397
0.082
0.3785
0.3185
-0.1245
0.172
0.269
-0.195
0.405
0.132
-0.3725
0.0075
0.489
0.3445
0.181
0.1055
0.4525
0.004
0.1285
-0.2005
-0.0835
0.258
-0.3
-0.2715
0.4485
0.321
0.187
-0.335
-0.2515
-0.4025
-0.087
-0.364
0.3385
0.4025
-0.454
-0.455
-0.446
-0.3025
0.495
-0.0265
0.152
-0.225
0.08
-0.4595
-0.464
-0.1005
-0.2405
-0.219
0.355
-0.477
-0.157
-0.462
-0.4895
0.0865
-0.0935
-0.2315
0.178
0.2235
-0.0995
-0.4195
-0.4515
-0.4935
0.487
0.198
-0.162
-0.227
-0.0725
0.388
0.005
-0.334
-0.0865
-0.2035
-0.0145
0.444
0.389
0.0045
0.1035
-0.3125
-0.381
-0.467
0.005
0.1885
-0.1655
0.352
-0.325
0.19
-0.401
0.24
-0.4595
0.0005
-0.2795
0.4935
-0.1895
0.4905
-0.431
0.0995
-0.4625
-0.186
0.4885
0.064
-0.4125
0.285
-0.1245
0.4805
-0.1085
-0.3135
0.2205
-0.1845
-0.173
-0.4665
0.4755
0.1345
0.33
-0.39
0.4505
0.4475
0.043
-0.1345
0.0015
-0.2035
-0.003
0.064
-0.467
-0.4745
0.1535
0.444
0.1915
0.2565
-0.1815
-0.263
0.423
-0.1995
-0.475
0.3505
-0.4485
0.2125
-0.227
0.2125
0.04
0.2055
-0.0315
0.3025
0.1785
-0.2015
-0.15
-0.2125
-0.077
0.3445
0.44
-0.39
0.39
-0.26
-0.49
0.3905
-0.35
0.152
-0.223
0.415
-0.1815
-0.3065
-0.1645
0.19
0.2775
0.056
0.361
-0.067
-0.27
-0.364
0.1305
-0.387
0.1695
-0.0485
0.448
-0.2215
0.3075
0.396
0.191
0.3485
0.38
-0.176
-0.081
-0.139
-0.059
-0.1505
0.495
-0.017
-0.2195
-0.2555
-0.022
0.0585
0.208
-0.152
-0.301
0.26
0.3955
-0.0535
0.012
0.167
0.349
0.445
-0.1325
0.203
0.218
-0.312
-0.4955
-0.3955
0.4695
-0.0685
-0.4445
0.477
-0.4625
-0.1005
-0.136
-0.1905
-0.237
-0.1755
-0.3455
-0.465
0.123
0.416
0.025
0.0675
0.372
-0.1285
0.414
-0.175
-0.3065
0.131
0.1965
-0.2255
-0.2865
-0.0555
-0.215
0.097
-0.2105
-0.4135
-0.2205
0.441
0.032
-0.0045
0.4425
-0.001
0.268
0.207
-0.479
-0.437
0.354
-0.43
-0.324
0.2005
-0.4615
-0.4005
-0.348
-0.4645
-0.426
-0.4985
0.4035
0.1335
0.099
0.0765
-0.3405
0.2425
0.412
0.2575
-0.295
-0.383
0.149
0.189
0.259
0.3115
0.1175
0.034
-0.4105
0.1165
-0.4015
-0.471
-0.0765
-0.076
-0.3455
-0.103
0.0225
-0.3745
-0.0745
-0.1595
-0.313
0.449
-0.3545
-0.396
0.2045
0.4015
-0.128
0.0735
0.109
-0.0085
0.3585
-0.3575
-0.058
0.2245
-0.3545
0.0585
0.3545
-0.124
-0.1455
0.0805
-0.066
-0.4415
-0.1165
-0.007
0.4075
-0.29
0.0165
0.038
0.105
-0.4735
0.0675
-0.216
-0.2395
0.4415
-0.233
0.4795
0.034
0.0795
0.0295
-0.4375
-0.4305
0.1275
0.086
0.3325
-0.062
-0.0155
0.025
0.1295
0.3975
-0.229
-0.1515
-0.345
-0.071
-0.36
-0.213
0.2075
0.2825
0.1425
-0.1075
0.4925
-0.261
-0.3345
-0.11
0.251
0.4685
-0.072
0.316
0.2475
0.0485
-0.2895
0.062
0.2975
0.381
-0.0385
0.3965
-0.2705
0.388
-0.32
-0.4415
0.4435
0.4115
0.3475
-0.1505
-0.213
0.347
-0.478
0.152
-0.007
-0.1655
-0.011
0.485
0.2405
-0.222
-0.2315
0.0105
0.312
0.023
0.4395
0.4675
-0.2855
0.1955
-0.3795
-0.123
0.1325
0.1915
-0.443
-0.2455
0.059
-0.2125
-0.427
0.4945
0.1045
-0.304
0.143
-0.033
0.198
0.1605
-0.1995
-0.21
0.059
-0.422
-0.2425
0.264
-0.2115
0.13
-0.1965
-0.322
-0.484
-0.1255
-0.426
-0.348
-0.382
0.2195
0.2665
-0.245
0.2935
0.44
0.4085
-0.1705
0.29
-0.154
0.021
-0.002
-0.103
0.3495
-0.282
0.071
-0.1555
0.053
0.2595
0.2555
0.014
0.2195
0.292
-0.2265
0.337
-0.3945
0.249
-0.084
-0.393
-0.326
-0.262
-0.398
-0.317
0.1125
-0.056
0.154
0.4385
0.4205
0.281
-0.438
0.4465
0.4635
0.238
-0.3055
-0.441
0.2665
0.4205
0.2875
-0.2265
-0.1465
0.277
-0.2405
0.494
-0.1695
-0.172
-0.114
0.3865
0.408
-0.4135
-0.0295
-0.171
-0.091
0.159
-0.1175
-0.257
-0.356
0.206
0.391
-0.2145
0.043
0.469
0.4265
0.457
-0.1225
-0.3655
-0.291
-0.465
-0.2575
0.1975
0.1615
0.275
-0.3565
-0.203
0.052
0.3905
0.2165
-0.4545
-0.0555
-0.124
0.2745
0.462
0.463
0.104
0.461
-0.2315
0.0975
0.1025
0.0505
0.174
0.391
0.357
0.2895
-0.3015
0.3515
-0.218
0.3425
-0.253
-0.119
0.279
-0.3285
0.438
0.3635
-0.224
-0.211
0.4045
-0.401
-0.071
-0.2555
0.4605
-0.1105
0.325
-0.0455
-0.168
-0.003
0.3435
0.4635
-0.454
0.288
-0.4535
0.2625
-0.222
0.2265
-0.267
0.317
0.0055
-0.4695
0.4805
0.4165
-0.0885
0.2145
-0.075
0.12
0.343
0.4765
0.1085
0.398
-0.4745
-0.298
-0.069
0.419
-0.2755
-0.19
-0.395
-0.091
0.326
-0.125
0.1085
0.2755
-0.1835
-0.3005
0.1465
0.4165
0.45
-0.3285
0.383
0.0195
0.211
-0.281
0.184
0.251
-0.0515
0.163
-0.3465
-0.128
0.2145
-0.2885
0.242
0.469
0.279
0.441
0.47
0.411
-0.2555
-0.205
-0.421
0.387
-0.431
-0.317
0.456
-0.0395
-0.344
0.3875
0.099
0.307
-0.0535
-0.1195
-0.2145
-0.195
-0.301
-0.4515
0.268
0.1645
-0.09
-0.2295
-0.183
-0.0785
0.2655
0.457
0.449
0.209
0.4425
-0.094
0.419
-0.0095
0.4245
-0.3785
-0.4335
-0.3385
0.0635
0.1295
-0.274
-0.1525
-0.3495
0.484
-0.3185
-0.434
0.4275
0.0845
-0.2225
0.142
-0.4475
0.014
0.3125
0.2
-0.075
-0.022
0.229
0.4185
-0.3605
0.3985
-0.336
0.2195
-0.1935
0.0665
0.0705
-0.295
0.269
0.127
0.461
-0.176
0.4905
0.4375
-0.481
-0.2625
0.1905
-0.486
0.349
-0.1085
-0.268
0.387
0.3385
0.446
-0.126
-0.2525
-0.067
0.3665
0.4695
0.4925
0.424
0.2965
0.3795
0.0155
0.162
-0.2725
-0.074
0.4235
0.272
0.1805
-0.446
-0.2885
0.285
0.0195
0.481
-0.444
0.0915
-0.11
0.33
0.459
-0.1265
0.498
-0.424
0.4775
-0.314
0.186
0.2425
-0.0025
0.2925
0.367
-0.3635
0.322
-0.4725
0.358
0.2105
0.101
0.299
-0.205
-0.0645
-0.386
0.2555
0.496
0.3445
0.2795
0.422
0.481
-0.2305
-0.3445
-0.0895
-0.082
0.1965
0.1
0.0415
-0.0905
0.01
-0.488
0.0485
0.377
0.0215
-0.237
-0.263
0.0445
-0.1725
-0.039
-0.209
0.276
-0.0095
0.428
0.1835
0.158
-0.314
-0.487
0.4645
-0.071
-0.322
0.2335
-0.021
-0.214
-0.4035
-0.2655
-0.485
-0.4635
0.063
0.1195
-0.24
-0.2845
-0.189
-0.327
0.4585
-0.096
-0.4795
0.333
-0.392
0.3865
0.4305
-0.3995
-0.3595
-0.2915
0.319
0.335
-0.076
0.177
-0.229
-0.4805
-0.2875
-0.4745
-0.166
-0.4135
0.002
-0.307
-0.033
-0.44
0.4155
-0.379
0.3255
0.479
0.2625
-0.3025
0.352
0.299
0.112
-0.4455
0.14
-0.487
0.1325
0.2255
-0.0475
0.3505
0.457
-0.1615
0.331
-0.1895
-0.1075
0.0635
-0.304
0.076
-0.1275
0.2275
-0.037
-0.4565
-0.432
0.268
0.1075
-0.1385
-0.148
0.373
0.216
-0.472
-0.0445
-0.216
0.498
-0.3335
-0.3035
0.2805
-0.161
-0.3835
0.222
-0.0765
0.1365
-0.23
0.36
-0.237
-0.1175
-0.417
-0.43
-0.024
0.469
0.098
0.33
0.046
0.148
0.488
-0.208
-0.365
0.385
0.234
0.2535
0.1775
-0.1905
0.2295
-0.497
0.1875
-0.192
0.181
0.1875
-0.063
0.294
0.193
0.305
0.3985
0.19
0.3865
0.4765
-0.417
-0.0845
0.0085
-0.079
-0.4985
0.075
0.1515
0.153
-0.08
0.0465
-0.2655
-0.4445
0.3805
0.002
0.1485
0.388
0.0695
-0.458
0.2305
0.44
0.1755
0.0955
-0.4355
0.0455
0.2255
-0.347
0.0225
-0.354
0.298
-0.3445
-0.4535
-0.4065
0.4605
0.3835
0.4355
0.014
-0.4295
-0.4885
-0.1835
-0.278
0.373
-0.2225
-0.1515
-0.372
-0.0815
-0.362
0.067
-0.2965
-0.467
-0.3265
0.2945
0.406
0.3805
-0.418
-0.39
0.0975
0.494
-0.145
0.2745
0.3675
-0.121
-0.186
-0.2615
0.447
-0.3335
-0.1005
-0.069
-0.414
-0.4495
-0.4545
-0.1365
-0.1165
0.448
-0.4945
0.0725
-0.0155
-0.3745
0.206
0.018
0.215
0.4575
0.442
0.4665
0.32
0.452
-0.414
-0.4125
-0.3245
-0.31
0.075
0.4765
-0.051
0.412
0.129
-0.2295
-0.0365
0.2165
0.242
0.082
-0.0815
0.3785
0.149
0.2305
0.382
-0.196
0.316
-0.459
0.135
0.2335
0.4575
-0.2995
-0.227
-0.233
-0.268
0.2115
-0.388
-0.217
0.3005
0.265
-0.429
0.272
0.3215
0.316
-0.4775
-0.3065
0.124
0.449
0.431
0.112
0.117
0.2985
0.3015
-0.1715
0.497
0.126
0.3145
0.0815
0.4555
-0.4835
0.0545
-0.2275
0.3095
-0.472
-0.1275
-0.2565
0.323
-0.076
-0.134
0.4365
-0.4175
-0.0735
0.0685
0.2415
0.1025
0.0515
-0.02
-0.056
0.142
-0.0065
-0.4755
-0.4615
0.044
-0.036
0.4075
-0.0745
0.071
0.0075
0.169
-0.4984632104388573
0.08400166808062953
0.04270010647500294
0.48430286138000866
0.16136973531989535
-0.12850022477109505
0.44375179681124627
-0.07051122739431777
-0.3067554672949173
-0.3391161622173479
-0.13950050223407284
-0.08600000307323889
-0.426840145386088
-0.2601896442370412
0.21426523020047744
0.038203520402642285
0.48501563745808474
-0.04999771361312607
-0.19025335249882558
-0.37499989153243724
0.45797542757196835
0.29306854365761614
-0.4448357039081087
-0.09947803392947416
0.41702416968757855
0.43439612916568127
-0.32695961788852607
-0.09780042562477602
-0.38056455618876484
0.0028169402656380857
-0.42483906115844333
-0.0195000174011345
0.4056174755187349
-0.07472776117018634
0.26471497394092813
-0.25549417459823703
0.4924566928645762
-0.43000290389767665
0.1249916719677831
0.029000909433006917
0.2014918630880094
-0.45693307486135387
0.37937179421717093
0.2094959626575716
-0.2633753504272101
-0.3808526675027466
0.20826248868149794
0.44155960402451083
-0.4096756047390975
0.27100024700552555
0.21899866760909084
0.00692826088590715
0.41571926746826504
0.4704595299831306
-0.1964957277958482
0.49707083341641667
0.16419949809683757
-0.014047070027254893
0.1760001994881431
-0.3585118583653099
-0.3169632104388573
-0.35949833191937064
-0.1227998935249971
-0.12869713861999135
0.3968697353198954
-0.31550022477109496
-0.1822482031887538
-0.2900112273943177
0.41724453270508266
0.032383837782652046
-0.39300050223407273
0.4179999969267611
-0.20184014538608802
-0.0786896442370413
-0.10423476979952256
-0.05179647959735771
0.1770156374580847
-0.3959977136131261
0.2607466475011743
-0.18699989153243715
-0.20802457242803157
0.1860685436576161
-0.4063357039081087
-0.2459780339294741
0.36352416968757856
0.42239612916568126
0.31704038211147395
0.2731995743752241
0.11643544381123522
-0.13718305973436196
0.48916093884155665
0.40799998259886533
-0.09238252448126509
-0.4572277611701863
0.02271497394092822
0.041005825401762945
-0.24854330713542377
-0.31400290389767666
-0.04550832803221692
-0.27999909056699307
-0.13650813691199062
0.45956692513864617
-0.18512820578282904
-0.1900040373424284
0.12912464957278993
-0.4753526675027466
0.3352624886814979
-0.37294039597548917
-0.06617560473909744
-0.2589997529944745
-0.26650133239090923
-0.43057173911409297
0.06371926746826509
0.2349595299831307
-0.2009957277958482
-0.08492916658358333
0.34769949809683764
0.2744529299727452
0.41250019948814315
0.09698814163469016
0.1835
0.397
-0.1775
0.101
-0.161
-0.4815
0.3855
0.132
0.4185
0.39
0.162
-0.494
0.468
0.1695
-0.1365
-0.2675
-0.3475
0.4835
-0.269
-0.493
0.461
-0.0715
-0.1455
-0.3825
-0.3455
-0.369
-0.1045
-0.3325
-0.1885
0.413
-0.0405
-0.235
-0.1225
-0.0455
-0.014
0.0255
0.39
-0.0605
0.3685
-0.246
-0.319
0.2995
0.186
0.4965
-0.365
0.0895
-0.0115
0.0265
0.1555
0.183
-0.185
0.297
-0.0835
-0.24
0.1285
-0.318
-0.0125
0.3345
-0.4545
-0.1745
-0.24497884332970377
0.4380200108621135
-0.15984071750463158
-0.2221912787390486
0.35886077486069345
-0.17516465070009943
-0.3310132935640832
0.08768956760816513
-0.16289072538780763
-0.4667398776845875
0.23497298349771062
0.350541675843058
0.23830957576528639
-0.20451518625403706
-0.4596742403653452
0.37538975114135303
0.11665121123109075
0.2205140399489644
-0.155500951828678
-0.14842191247127506
0.43302033154729574
-0.23862366768088789
-0.19086461924746517
-0.2152377013354287
-0.1943895359200774
-0.16151936544512538
0.17911979386140067
0.33181773228268285
-0.2078502312100561
-0.06047388397392159
-0.30991483412714455
-0.09989862826856447
0.4598525321655415
-0.4695946676911941
0.020996125926419976
-0.07782217777097467
-0.2623417880049975
-0.43456835307357927
-0.16605760897725053
-0.2303235814943218
0.3029367397177631
0.4019247518480323
-0.27102231910216695
-0.4527663443172978
0.350509644559267
-0.1245500465983308
-0.0574479288040991
0.06795178336922167
0.017561503125940292
-0.19447624622516874
0.35977489144707403
0.19138926165687478
0.3228033901840753
0.15700504849254238
0.18297500959561414
0.3000620647131431
-0.3171488379752481
-0.2509676403859865
0.29111992108463725
0.2283619828805662
-0.4131450492512205
0.442102848842907
0.06810982631406749
-0.2762921846064508
-0.38198960628188444
-0.4853641610588535
0.2584013009785721
-0.08808502004422974
-0.22785107038224944
-0.4296263676122529
0.04906017378206377
-0.041582586489069435
0.26546426427365677
0.1360971693619022
-0.008708424580890009
0.27379056057269124
0.161158535500986
0.34884159984202645
-0.15702863754843438
0.03384384002607292
-0.18216377431081995
0.19012392247803594
0.12480638312538549
-0.013132310721523556
-0.49009487418210185
0.16556690619046396
0.464672004595393
0.06401569082515729
0.14222254691322458
-0.16139727286177072
0.4431941397622147
0.19057556992973626
0.15846036731967503
-0.17220769363803523
-0.15554529867463077
0.159814183729151
0.13508077561181916
-0.34622283812923804
-0.13333019720151063
-0.04024662937833636
-0.0999161485612459
0.011580785800520696
0.060605300172742495
0.3207928390530144
0.2644614601809546
-0.18699218871893541
0.33393056796920023
-0.5140635083224793
0.20251981932894833
0.206561179582656
-0.4766280907431551
-0.39253931772056194
0.07025811362472813
0.43313825686367774
-0.06341410029118963
0.20323871166450577
-0.11438762611361492
0.4367222467221297
-0.15414893365677404
0.10085973188001075
0.2783924158563264
0.0885688306395952
0.2436149798383161
-0.14582060617974146
-0.10168675670973452
0.41000799828593065
-0.4835486198563338
-0.27623155892467904
-0.1298364626467272
0.23007128958665893
-0.32002694852326463
-0.38203306327687586
-0.2762972199732106
0.3747351910102453
-0.4331210845008608
0.0652735057309181
0.38569220516037606
-0.3481356176364503
-0.017096636969031017
-0.372414155072673
-0.04043765956568006
0.273795681917555
-0.3701056690045
-0.24080174381926478
0.16511024656809103
-0.4630167003143006
-0.44924914645056946
0.18073839611937878
-0.3344082264042589
0.11852617676379278
-0.44212059841996826
0.4664375102182821
-0.4221225310515298
0.10202486077341243
0.1671092387323367
0.26054643485256834
-0.02920771623641606
-0.28200510581597243
0.5004157068122074
0.1746766772155752
-0.375839124537999
-0.431175223645657
-0.06116708507762919
-0.27672975738234906
-0.1949166922597647
0.48544987291194186
-0.4012936852169663
-0.35108635606590716
-0.16193849580096092
0.2056541826627116
0.3978770583397125
0.42388943642994686
0.36230173590474885
0.19600051330915788
0.19508470500613673
-0.020509155110517856
0.03458495465511858
0.2801802220265533
0.4308510083710004
-0.29183817938617057
0.25136825924563294
-0.3400271209211398
-0.1558887902087295
0.43167859253676666
-0.4734858886995549
-0.4092784964612105
-0.48345479735475766
-0.40422765493035506
-0.38794762439289315
-0.19174476419755765
-0.18213422705715526
-0.36844039375107207
-0.4395144310828802
0.3446632533513438
-0.21253260901751642
0.06788095313412279
0.24020380858004858
-0.10251129138438737
-0.11566953577637
0.08467738286119311
0.03351468546608045
0.13013517352387077
-0.15620886874161072
0.2248287993904886
-0.36499898664606173
0.4876323401437977
-0.03126370947847218
-0.1285953900640409
-0.09313320372706468
0.289385940619164
-0.25142892842993
0.4104099386629485
-0.16272585006978227
-0.32389496589286154
0.1441236009183451
-0.27163528061594255
-0.037713388629425366
0.3099982797612609
-0.2523731197308884
-0.1884997334374618
0.33872742651337095
0.40691019629105163
-0.07264508180276982
0.02781706823231028
0.42716517655682934
-0.42000025920590206
0.44702974957824954
0.1040935220643197
0.309124996170234
0.08179965711765484
-0.056243919546293444
-0.11600121782794648
-0.3411855520773034
0.46601329187603124
0.33611171606632495
-0.3320945001539697
0.03884255374361245
0.18815420963419704
0.3462415028738373
0.17370125296678093
0.37822751789196657
0.2329709504976568
-0.30498947348528466
0.0790008078833456
0.03325457356672346
0.12250017027438949
0.417276907158538
0.35300002161620264
0.4499913763408011
0.3944818504517762
0.30649999101065334
0.12699999988811558
0.35527408059651117
-0.1946619335864269
0.21195699956850095
0.23935032328396844
0.21614098517641595
0.32642579933782206
-0.3065131497469187
0.2335000000122826
-0.2049310568015258
-0.23299450379215883
0.3604910624611754
-0.36699486804542386
0.14463884534632462
-0.3640229451616189
0.43617526413337937
0.41550296616051957
0.2552819932635364
0.3580968268762545
0.4750937914624594
0.314205963936165
-0.022229621569793568
0.2984096288082175
0.38152175711539604
-0.2505000054789022
-0.06596392824791794
-0.4219937915749049
-0.21099490486617628
0.41750000132536863
0.2841568215238315
0.25449983985860203
0.39264661858977135
0.46505071345859694
-0.05350027833783846
0.46813379515924064
0.3915030841033034
-0.20097355156611013
-0.2099996713584316
-0.35450359791135455
-0.20605185242843935
0.4584997763003795
0.27358155528913747
0.4304996711426231
0.36949999999999805
0.20096494530311051
0.11197488249042203
-0.29250746481891804
-0.3795000002283294
-0.05449998504143566
0.43394764472047437
-0.5043909969773386
0.30862169024266406
0.39027277150084905
-0.3852394369157293
-0.1449998629427825
-0.4758344454813093
-0.17188024532121862
0.08676755335576714
0.3734807126170705
0.0835072497208001
0.02712980517511087
0.21779443588474987
0.4026196767310393
-0.26100068119124886
0.13473639357311776
-0.05235665876934516
-0.07143735266085861
-0.39601945116418974
-0.09329838041735182
0.009615764762072414
0.3225054962250589
-0.2615439288852575
-0.36687215351815683
-0.33092802155915585
-0.0980232362657238
-0.3998247299385286
-0.4563813081022172
0.11317235967798402
0.12059682745639144
0.0010867732151401447
-0.29829447723402747
-0.3445715743076975
0.02652049311626443
0.16002159332732943
0.3105294541082773
-0.08551060154186095
0.2002719141267992
-0.23149859602642195
-0.33799999471674247
0.2421568217386098
-0.4160001883715146
0.37562967901935085
-0.11787649249202799
0.38645716488094173
0.15313271668793385
0.11251509122078981
0.3978419608631722
-0.08300018399534934
0.49900358073252915
0.2102012693898051
-0.48100011188394615
0.09458155381881113
-0.2665013912833181
-0.4009866656258239
-0.3029491550928702
0.024998264884169407
-0.38360843214847856
0.42771607500182024
-0.09825384756797384
-0.38755235527952564
-0.17889099697733857
-0.11487830975733593
0.11527277150084905
0.4262605630842707
-0.3989998629427825
0.3241655545186907
-0.22238024532121864
-0.4262324466442328
0.21448071261707044
-0.20449275027919986
-0.19987019482488913
0.10129443588474987
0.13261967673103936
0.2779993188087511
-0.2772636064268822
-0.10835665876934518
-0.43293735266085864
0.3324805488358103
-0.4887983804173518
0.11911576476207242
0.3810054962250589
-0.3335439288852575
0.045627846481843155
0.07657197844084415
-0.2470232362657237
-0.2803247299385286
-0.13738130810221724
0.2081723596779841
0.2030968274563915
-0.09041322678485984
-0.40929447723402745
0.36492842569230244
-0.26147950688373567
-0.35147840667267055
0.06402945410827736
-0.2330106015418609
0.48127191412679904
-0.007998596026421896
-0.1594999947167425
-0.005843178261390231
0.15549981162848545
0.39312967901935086
0.435623507507972
0.23895716488094157
-0.23036728331206616
-0.22198490877921018
0.29684196086317216
0.2284998160046507
0.11600358073252919
0.03170126938980512
0.44749988811605385
0.17208155381881116
-0.4860013912833181
-0.4414866656258239
-0.2664491550928702
-0.0785017351158306
0.25589156785152145
0.30621607500182024
0.18174615243202613
-0.09067213551581398
0.10052399387149683
-0.06157586676177757
-0.2737274382899707
0.41325253174562154
-0.05549986298188393
-0.09930568590685528
-0.1994497749087097
-0.034763406670617
0.32198154991839606
0.37215742784498157
-0.07244873158133074
0.22959016660552425
0.0021420558109109347
-0.05419855877337925
-0.08716229999309659
0.3816432218027251
-0.11959068448901715
-0.20744040642750874
-0.04155552926669537
0.0736157336843808
-0.3879944999150858
-0.20547793496239716
-0.4964906579686494
-0.49360540289479277
0.38936562760707827
-0.4508247261188029
0.42485520443202734
-0.4308236718657635
-0.04440338272308314
-0.0869138411684436
-0.46979447804070174
-0.12357158969522844
-0.03032871848905165
-0.00797855030403701
-0.4710450031504062
-0.017178812824044678
0.15327145053965846
-0.16140170178589774
0.29649999814095696
-0.10384315875325545
-0.14248994022254852
0.10613040074764145
-0.11687654811091014
-0.42203436214816964
-0.04686533111820869
0.13007092191310438
0.495291470188678
0.21578142975186562
-0.1710643461907991
-0.04484237643777891
0.05850581714907348
0.291581032215746
-0.2160016398349142
0.37351596034118983
-0.14607853260954298
-0.04789029204959046
0.11260178873950404
0.36171662972543733
-0.36525395583166004
-0.017172135515813956
0.22902399387149686
0.12992413323822244
0.4112725617100293
0.19775253174562155
0.03250013701811607
-0.48580568590685513
0.0055502250912902625
0.416736593329383
-0.11501845008160395
-0.12784257215501832
-0.15394873158133074
0.33809016660552427
0.2796420558109109
0.08380144122662074
0.31833770000690353
-0.3718567781972749
-0.2710906844890172
0.0500595935724913
-0.29405552926669537
0.24411573368438078
0.0965055000849144
0.2595220650376029
0.15850934203135064
0.43889459710520723
0.31186562760707826
0.13567527388119707
-0.34014479556797267
0.18617632813423662
-0.20290338272308311
-0.42091384116844366
-0.2742944780407018
-0.18557158969522836
0.12217128151094836
-0.377478550304037
-0.3485450031504062
-0.37567881282404464
0.33127145053965834
-0.25890170178589766
0.35849999814095695
0.23115684124674457
-0.13648994022254854
0.15663040074764148
-0.2873765481109101
-0.20153436214816983
-0.03586533111820869
-0.2564290780868957
0.395291470188678
-0.38171857024813427
-0.3665643461907991
0.31015762356222115
-0.1514941828509266
0.03108103221574618
-0.29050163983491406
0.40051596034118986
0.3284214673904568
-0.2198902920495905
0.4971017887395041
0.1407166297254374
0.34824604416833993
-0.5160523552795256
-0.19689099697733856
-0.34487830975733597
-0.033227228499150926
-0.3342394369157293
0.03000013705721746
0.4291655545186907
0.4911197546787812
-0.4012324466442328
-0.2790192873829295
-0.4889927502792
-0.09437019482488912
-0.21620556411525013
0.22761967673103936
0.30849931880875114
-0.43026360642688216
-0.4078566587693449
0.09106264733914139
-0.27401945116418974
-0.4442983804173518
0.2141157647620724
0.4700054962250589
0.10995607111474248
0.09062784648184317
0.022571978440844152
-0.4450232362657239
0.43367527006147144
0.2596186918977828
-0.46232764032201606
-0.34440317254360847
-0.0014132267848598553
0.3697055227659725
-0.4605715743076976
0.48702049311626433
-0.4549784066726706
-0.0549705458917226
0.33798939845813913
0.25227191412679906
-0.3439985960264218
0.09950000528325757
0.37165682173860976
0.22599981162848545
-0.171870320980649
0.01662350750797201
0.024457164880941636
-0.22136728331206615
-0.09398490877921019
0.49434196086317217
0.4839998160046508
0.20900358073252912
-0.39829873061019483
0.3569998881160538
-0.423918446181189
0.1589986087166818
0.4955133343741761
0.03255084490713
0.019998264884169403
-0.32160843214847856
0.4057160750018202
0.4287461524320262
0.06772751789196663
0.2334709504976568
-0.24598947348528472
-0.42949919211665444
-0.15124542643327651
0.06400017027438949
0.2167769071585379
-0.0809999783837973
-0.07100862365919891
-0.2270181495482238
-0.25850000898934666
0.18049999988811558
-0.27872591940348884
-0.17416193358642687
-0.254543000431499
0.45335032328396857
-0.04485901482358401
-0.023574200662177937
-0.049513149746918735
-0.44449999998771744
0.1855689431984742
-0.48649450379215886
-0.4950089375388246
-0.49799486804542387
-0.3518611546536754
0.31197705483838106
0.46967526413337934
-0.4129970338394804
0.3382819932635364
0.20109682687625444
-0.2759062085375406
-0.303294036063835
0.40777037843020625
0.2314096288082175
0.14302175711539608
-0.4090000054789022
0.3020360717520821
0.18450620842509516
0.16100509513382372
-0.37049999867463135
0.3976568215238315
-0.41900016014139796
-0.24635338141022858
-0.15944928654140303
0.4809997216621616
0.2631337951592407
-0.11799691589669649
-0.041473551566110115
0.40850032864156843
-0.0955035979113545
0.12344814757156064
0.3164997763003795
-0.28491844471086253
0.059499671142623035
-0.181500000000002
-0.1885350546968895
0.3144748824904221
0.17799253518108193
-0.4075000002283294
-0.45699998504143563
-0.5042724821080335
-0.10752904950234321
0.012010526514715293
0.2190008078833456
0.1092545735667235
0.41850017027438946
0.20027690715853788
0.2065000216162027
0.47149137634080107
0.3139818504517762
0.2864999910106533
-0.2630000001118843
-0.3142259194034888
-0.23716193358642687
-0.06354300043149903
-0.31214967671603144
-0.4133590148235839
-0.040574200662177935
0.2984868502530813
0.006500000012282577
0.41956894319847415
0.39000549620784114
-0.3835089375388246
0.0015051319545761165
0.025138845346324653
-0.10802294516161894
-0.3058247358666206
-0.4404970338394804
0.07828199326353638
0.18709682687625448
0.19759379146245945
0.264205963936165
0.3722703784302063
-0.04609037119178249
-0.04047824288460395
0.16549999452109787
0.12003607175208206
-0.22499379157490484
0.1535050951338237
0.19650000132536874
-0.4683431784761685
-0.08550016014139794
0.07414661858977141
-0.28644928654140306
-0.4200002783378384
-0.32536620484075934
0.4950030841033034
-0.32797355156611013
0.36200032864156845
0.005496402088645491
0.41694814757156073
0.3924997763003795
-0.04191844471086247
-0.47500032885737686
-0.182500000000002
-0.40103505469688966
-0.130525117509578
-0.41150746481891803
-0.1405000002283294
-0.2909999850414356
-0.196
-0.5
-0.339
0.2575
0.197
-0.226
0.4745
0.184
0.18
-0.383
-0.1995
-0.017
-0.213
0.4485
0.2455
0.4895
0.491
-0.4075
0.0445
-0.152
0.426
0.1715
-0.496
0.4445
0.037
-0.057
-0.017
0.3815
-0.0805
0.468
-0.2855
-0.2295
-0.3455
0.0895
0.253
-0.3445
-0.4705
-0.248
-0.0045
0.191
-0.114
0.395
-0.36
0.1845
-0.0955
-0.0495
0.415
0.12
0.439
0.462
-0.25
-0.473
0.4265
-0.4735
-0.023
-0.069
-0.284
0.268
-0.4375
-0.442
-0.030425139187923857
0.44303390194430553
0.1060219713888521
0.3008445068077533
-0.05049874186465059
0.23361661516906534
-0.15757342468282584
0.17425325324696606
0.06233761380744445
0.07837716984396936
0.04351512683959204
0.012351582902925748
-0.4494416252897284
0.40806072021377177
-0.08054803945795182
-0.03499027144860257
-0.18047321992959942
-0.07917717228119377
0.011070037203596129
-0.28725553290080685
-0.07191323785951682
0.15595293675131597
-0.39579238927280425
0.06904815468577444
0.37191320036439746
0.09727149808529381
0.16806806936482613
0.14026123119771353
-0.269049654566253
-0.26848172848145774
0.21885894832104952
0.08286583301207218
-0.17618760702740763
0.21770145880358613
0.30302326991403916
-0.046791357203265424
-0.2209588544725656
-0.2776155698120136
0.13754506557529506
0.013020567775375627
0.482241103226726
-0.060998092241672304
0.09597713761656616
0.037466917882449394
0.3522731583776295
-0.4041780448355503
-0.3052162807716189
-0.1733735578462745
0.49951733878509397
0.2863070018674348
-0.38386065833094424
-0.3019931006351737
-0.011446086544385427
0.43268992602643624
0.019926968918000075
0.14323030261097727
-0.42776405921171917
0.1492916472315278
0.3490120807400054
-0.13283841573769223
0.0890748608120761
0.11403390194430542
0.07302197138885207
0.24384450680775324
0.2760012581353495
0.3871166151690655
0.053426575317174124
0.3782532532469661
-0.27616238619255556
-0.1296228301560306
-0.23698487316040784
-0.49364841709707413
-0.0024416252897285287
0.4820607202137718
0.40295196054204824
-0.17549027144860257
-0.18597321992959942
0.22882282771880622
0.056570037203596116
-0.28825553290080685
-0.32591323785951676
-0.15904706324868403
-0.02429238927280422
-0.45645184531422556
0.25591320036439746
-0.05722850191470614
0.1825680693648261
0.22476123119771355
0.12495034543374704
-0.45548172848145774
0.06385894832104953
0.2693658330120722
-0.3391876070274075
0.08270145880358618
0.08752326991403916
0.38220864279673467
0.43154114552743444
0.15088443018798645
-0.5109549344247051
0.37852056777537557
0.20074110322672603
0.22950190775832766
-0.12802286238343386
-0.2980330821175506
0.13577315837762963
-0.15717804483555015
0.3297837192283811
0.0016264421537254743
0.42801733878509396
-0.4056929981325652
0.41463934166905575
0.3880068993648263
-0.4809460865443855
0.21868992602643617
0.3049269689180001
-0.22176969738902275
-0.0812640592117191
0.2302916472315278
-0.3744879192599946
-0.1088384157376922
-0.46292513918792383
-0.16446609805569457
-0.2509780286111479
-0.3336554931922467
0.2745012581353495
0.01461661516906536
0.4344265753171742
0.18375325324696604
-0.49716238619255554
0.06437716984396936
-0.46298487316040793
0.2323515829029258
0.08805837471027143
-0.4824392797862282
0.22195196054204816
0.2880097285513975
-0.08297321992959941
-0.17617717228119378
-0.43142996279640383
0.46924446709919315
-0.2519132378595168
0.15045293675131596
-0.2017923892728043
0.37504815468577446
-0.2285867996356025
-0.38872850191470604
0.3240680693648262
0.4352612311977135
0.19495034543374704
-0.3789817284814577
-0.08114105167895047
0.2213658330120721
-0.4011876070274076
0.19170145880358613
-0.3614767300859608
0.48570864279673465
0.06404114552743441
0.35038443018798643
0.19554506557529505
-0.1709794322246243
0.06524110322672604
-0.3579980922416724
-0.37452286238343374
0.4709669178824494
0.4212731583776295
0.07082195516444974
-0.4352162807716189
-0.2078735578462745
-0.425982661214906
-0.2796929981325652
0.42213934166905576
-0.21649310063517377
-0.05794608654438543
-0.043810073973563776
-0.09407303108199992
0.2857303026109773
0.24023594078828092
-0.03920835276847216
-0.16998791925999443
0.46816158426230786
-0.304
0.252
0.2935
0.376
-0.3505
-0.2455
-0.2555
0.2205
0.3895
0.0295
0.184
0.1295
-0.218
-0.1345
-0.0565
0.037
-0.3935
0.2395
0.181
0.057
0.303
-0.308
0.3905
0.238
0.4575
-0.143
-0.342
0.1875
0.4545
0.039
-0.159
-0.3525
0.104
0.1875
-0.03
0.4275
-0.1475
-0.119
0.191
-0.0395
-0.2685
-0.191
-0.451
-0.2665
-0.3945
0.114
0.395
-0.1245
-0.18
-0.005
-0.4355
-0.0735
0.447
0.391
0.19
0.01
0.051
-0.1615
-0.2075
-0.049
-0.0675
0.0405
0.211
0.4795
-0.0645
-0.058
0.0815
-0.1495
0.419
-0.05
-0.401
-0.0555
-0.2105
0.15
0.4655
0.345
0.299
0.077
0.3215
-0.0075
0.0715
0.1635
-0.3385
-0.034
-0.196
0.095
-0.1475
0.3475
0.2865
0.388
0.257
-0.3585
-0.2855
0.141
0.445
-0.3135
0.2425
-0.048
-0.089
-0.199
0.147
-0.3015
0.1905
0.0085
-0.268
-0.205
0.0395
0.221
-0.1295
0.4075
-0.395
-0.1185
-0.153
0.404
-0.24
0.174
0.3275
0.219
-0.023
-0.263
0.374
0.3895
-0.2715
0.325
-0.3705
0.4375
0.4835
-0.3485
0.031
-0.323
0.2455
0.0475
0.4385
-0.1345
-0.3705
-0.283
0.2625
-0.4555
0.142
-0.4645
-0.4005
-0.3065
-0.3685
-0.4185
0.013
0.03
-0.4995
0.217
0.3345
0.2445
0.0375
-0.0155
-0.394
0.4165
0.4085
-0.4145
-0.3535
-0.015
-0.2235
0.0955
0.4445
0.2815
-0.136
-0.2055
-0.38
-0.3805
0.2075
0.3585
-0.0715
0.0905
-0.117
-0.0955
-0.3565
-0.492
-0.0775
-0.2135
0.2005
0.3895
0.423
0.1605
0.000505441792265341
-0.0018301608307761128
0.0760261548553297
-0.08796211884001394
-0.012010245823697724
-0.1795000122717452
0.419291474528396
0.2589023193800735
-0.3880411671487976
-0.40954941410141793
-0.23812989049423358
0.01449997987380392
-0.3569222425364992
-0.14945981692300728
-0.23050110690070855
0.36721642294980783
0.20363950876031298
0.40599931304602055
-0.1259847965745466
-0.11599968473656422
0.39096970202422276
0.386027119709274
-0.4929990294306561
0.01384282174109145
-0.2250256391159007
-0.3188446738969294
-0.213000108769754
-0.2634935448134416
-0.37846545461017006
-0.025893057607979875
0.16758483564698243
0.048499962285978304
-0.24201762447974037
0.49600026317578644
-0.09799450221964674
-0.2660000393519391
0.2799492008097303
0.26744915763793115
0.1557603398462504
0.2494998195444592
0.47749221828066973
-0.08500364744450437
0.1839394453664135
0.49621030885452055
0.04575160078235668
-0.19367008446211875
-0.03777925688988851
0.16985446197800436
-0.4274991032456507
-0.46250009605611103
0.23126126103469077
0.39449995675082805
0.14872469245100498
-0.18298221007470894
-0.4495005320203947
0.4191180260185365
0.4460959446137547
0.15049978896775634
-0.14100066057583793
0.3289931515314402
0.21550544179226536
0.4396698391692238
0.08752615485532969
0.016537881159986074
0.13248975417630235
-0.2225000122717452
0.311791474528396
-0.4495976806199265
-0.13104116714879765
-0.053549414101417926
0.07037010950576632
-0.2410000201261961
0.2050777574635008
-0.2239598169230073
0.19749889309929147
0.4147164229498078
-0.042360491239686986
0.4229993130460205
-0.4034847965745466
0.30850031526343585
-0.33353029797577727
-0.1304728802907261
-0.3254990294306561
-0.3236571782589086
0.1439743608840993
-0.15784467389692944
-0.49850010876975415
-0.11899354481344158
-0.08696545461017018
0.3931069423920201
-0.08541516435301759
-0.2545000377140218
-0.17651762447974037
0.46550026317578647
0.030005497780353267
-0.3855000393519391
-0.37805079919026974
-0.43105084236206886
0.41176033984625054
0.16649981954445922
0.36249221828066974
0.4444963525554956
0.4414394453664136
0.4587103088545206
-0.1772483992176433
0.39282991553788127
0.1407207431101115
0.03685446197800435
-0.09949910324565055
0.28349990394388896
-0.4592387389653091
0.18949995675082798
-0.3757753075489949
-0.436982210074709
0.27699946797960534
-0.0013819739814634018
0.05159594461375457
-0.32250021103224374
0.3564993394241619
-0.3790068484685598
-0.4005
-0.3395
-0.104
-0.2395
-0.425
0.3155
0.3945
-0.424
-0.172
-0.4125
0.2755
0.028
0.059
0.1035
-0.403
0.2305
0.351
-0.2245
0.4915
-0.263
-0.467
0.306
-0.1795
0.0425
-0.465
0.2965
-0.403
-0.3825
-0.399
0.4975
-0.2785
0.3075
0.241
0.2275
-0.123
-0.359
-0.3415
0.2675
-0.223
0.285
-0.0455
0.469
-0.2755
-0.4425
-0.42
-0.453
-0.2135
0.2605
0.3975
-0.1785
-0.023
-0.381
0.0845
-0.4595
0.069
-0.1725
-0.441
0.149
0.2695
0.1825
0.4155
-0.428
-0.1
-0.0295
0.397
-0.4765
0.208
0.237
0.2215
0.4455
0.0045
0.463
0.0515
-0.195
-0.202
-0.473
-0.375
0.1625
-0.172
0.4045
-0.119
0.207
-0.0155
-0.302
0.4995
-0.4005
-0.376
0.1155
0.0695
-0.357
0.336
-0.2155
0.4665
0.1475
0.054
-0.405
-0.0445
0.009
-0.0955
0.213
-0.403
0.4495
0.4765
0.177
0.4355
0.3425
0.06
0.476
-0.4335
-0.247
-0.0745
0.014
0.2735
0.421
0.1705
0.295
0.4375
-0.092
-0.478
0.1375
0.2685
-0.4485
-0.354
0.038
0.213
-0.2805
0.4025
-0.076
0.217
0.019
-0.253
-0.126
0.1435
0.096
0.092
-0.417
0.089
-0.2235
0.1835
-0.0435
0.103
0.0365
0.049
0.274
0.0375
0.028
-0.0575
0.0275
-0.315
0.0795
-0.356
0.486
0.268
-0.5
0.433
0.4135
0.2635
-0.189
0.287
-0.082
-0.459
0.2905
0.355
-0.232
-0.4755
0.1805
-0.0215
-0.241
0.1905
-0.165
-0.036
-0.1215
-0.136
-0.15
0.3435
-0.402
0.269
0.4265
0.224
0.341
-0.056
-0.39
0.076
-0.439
-0.048
-0.1255
-0.0225
0.267
-0.217
0.4845
-0.1915
0.0145
-0.1475
-0.366
-0.2505
-0.1785
-0.4405
-0.2195
0.478
-0.082
-0.283
-0.1085
-0.3335
-0.4625
-0.483
-0.352
-0.458
-0.4715
-0.42
-0.2795
-0.0765
-0.462
0.181
-0.232
-0.3735
0.3365
-0.375
0.3815
0.1105
-0.1835
0.4675
0.4065
-0.051
-0.115
0.1665
-0.326
-0.104
0.084
0.42
-0.19
-0.348
0.311
0.171
-0.2905
-0.1675
-0.176
-0.4025
-0.0795
-0.043
0.4825
-0.3575
0.1095
-0.196
0.1895
0.277
-0.348
0.4085
0.14
-0.241
-0.038
-0.135
0.395
-0.1335
-0.265
0.0275
0.427
-0.1925
0.284
-0.4
0.3415
-0.2265
0.236
0.1475
-0.001
0.0065
0.3115
-0.3705
-0.286
0.2985
0.1545
0.496
-0.444
0.2805
0.496
0.0605
0.476
0.1335
-0.07
-0.0755
0.3465
0.34
-0.368
0.0455
0.1575
0.474
0.27
0.2235
-0.4025
-0.2745
0.0145
-0.226
-0.0605
0.366
-0.4995
0.0835
-0.239
0.339
-0.4685
0.237
0.19
0.089
0.426
-0.208
-0.4535
-0.29
-0.148
-0.0785
-0.2805
0.1475
0.0185
0.0135
-0.36
0.304
-0.3785
0.145
0.181
-0.3775
0.449
0.2515
-0.3585
0.3485
-0.1965
-0.243
0.166
0.2185
0.0115
0.072
-0.0045
-0.2915
-0.3785
-0.3285
-0.121
0.1285
-0.171
-0.3655
-0.3725
-0.076
0.0885
-0.0275
0.1215
0.005
0.2125
0.271
0.264
-0.342
-0.311
0.1615
0.225
-0.2495
0.144
-0.403
-0.346
-0.185
-0.3685
0.084
0.328
0.395
0.4275
0.08
0.1645
-0.495
0.436
0.022
0.217
0.203
-0.173
-0.002
-0.1705
0.2935
0.219
0.2175
0.3815
-0.27
0.022
-0.1985
-0.228
-0.207
0.263
0.389
0.14
-0.178
-0.203
-0.2695
0.2095
-0.1425
-0.071
-0.4195
0.083
-0.348
0.05
0.4075
-0.3775
0.3525
-0.1695
-0.24
-0.022
0.3365
0.247
-0.312
-0.171
0.418
-0.079
0.1435
0.4165
0.013
-0.131
0.224
0.25
-0.1925
0.4855
0.466
-0.305
0.061
0.265
0.111
-0.4745
-0.325
0.1545
-0.4685
-0.435
0.48440306399944894
-0.11113629276536584
-0.1665615085495228
-0.2729350732831778
0.2928775457934491
-0.05877185915054997
-0.27897393379455904
-0.31388129160045225
-0.4826497772565138
-0.35832066263194057
0.1942844457693309
-0.1608227529762418
0.3993411833448745
-0.08716148976992161
-0.14821127343669985
-0.10779403438951718
0.08982714508447315
0.010559603521578047
0.010815228438058481
0.1916435245674781
0.33331591317265447
0.3521692099122156
-0.195748945751421
0.36073564035481925
0.38303668151409476
0.14535912060172107
-0.301989135924711
0.20461726016820517
0.37878984511852154
-0.12031040503928735
0.15064449528242407
0.4422855927156263
0.33223385725184434
0.019701988147625315
-0.01561428255142134
0.29496180751165685
0.38533330771467184
-0.1501511284505891
-0.10740133172108073
0.39807844393801556
-0.4690956751538569
-0.2106982518383979
-0.19938741437713572
-0.3897530130416266
0.44918882849528013
-0.1994074601075622
-0.49742651013497224
0.22276979825452708
-0.16647059391968075
-0.2562587933612882
0.28774276048627356
-0.49700252093148983
0.2528936818844699
0.3858371662855763
0.4352071427701809
0.14470827524088792
-0.08087536091704559
-0.006563696885024878
0.22735183664436695
-0.3510747589186166
0.09180095671638816
0.036750755737364145
-0.3810592779811515
0.34455173360394153
-0.49135680869606363
-0.15527191157117193
-0.3071421453967941
0.48607651120702705
0.4983047053838356
-0.39164002358291733
-0.22971777570212118
-0.22882275777925504
-0.19496290664785634
0.3068840953046692
-0.3636666068755729
0.1622402018823243
0.419326890811534
0.4862562318173856
-0.42791867656135446
-0.12131280724820084
0.4434636580998789
0.28257645271140763
-0.38807719495712556
0.036861534021907234
0.029092774009828737
-0.032185427685915285
0.46347254354117057
0.42047004971073704
0.0362629516062341
0.4766906506840415
0.28800894881591194
-0.15321899576479422
-0.29676212484111153
0.19034518925461338
0.32010354113923006
0.3439619000379302
0.47383300947942597
0.05884892548376076
0.41356559023721
0.3580655913763683
-0.3139445843137351
0.2962224007172793
-0.46908947162405346
-0.49375296912426336
0.2990606697369937
-0.10103563022658021
-0.10394182592645256
0.24116376667799846
-0.21631022783987996
0.032241243942046714
-0.13612217151138778
-0.3664899556400538
0.23006019212042375
0.3008251854464309
0.4259899355071798
-0.2062681096467489
0.004061508670323419
-0.07219013927967706
0.34434892166884484
-0.0075309469328244125
-0.206293488817629
0.4902860392921335
0.28788179182937357
0.30954018965002794
-0.20774498094165447
0.3952285719987668
-0.2624865316878239
-0.13305429177548223
-0.30072063813497424
-0.25056452215109454
-0.33790838671678863
-0.20286990823355477
0.27102559097143664
0.23041633247761795
-0.2811391811592585
0.46089685230500044
-0.31820095942432286
0.022072688746396844
-0.2425696458751698
-0.10796625157601174
-0.0594554314807543
0.17553596987135692
0.4262590409422921
0.4284997531006606
-0.27325657182046664
-0.34715080423974615
0.4590066213509358
0.26546352006396523
-0.1395225210327509
0.26752772316110157
-0.1843566515492922
0.3011791401198683
0.45681242350567003
0.3180368265287613
-0.2537856290658542
0.03718872228047879
-0.19356177425158835
0.20412075624270692
-0.3752133854772654
0.01848206826324583
0.06945574669107564
-0.02401395156504322
0.32217234845187365
-0.382726817195015
0.41886885123055967
-0.10784919483552599
0.3000624452929633
0.3521238394942842
0.1333921911163887
0.43748398120275245
-0.4485886656097457
-0.3205453691916868
0.41378214527317625
0.13192278104060556
0.025622118199532133
-0.16960052428176486
0.4648614508316296
-0.06738808316754746
0.1078528790875965
-0.17894047048154688
-0.05345212362791481
-0.11308073420630507
-0.32206720225664853
-0.2219409682605467
0.10472911889714359
0.35273654334633936
0.03438256184035169
0.3486642226105915
0.3160192522085378
-0.04412691257789936
-0.32255933459788805
0.44609778308782694
-0.4357276444034243
-0.23780195258536146
-0.33880609216726487
0.34810975023279406
-0.1613142302453959
0.44551958552344956
0.01302904341595338
-0.02070747504524193
0.06282687657081404
-0.1606003639096837
-0.36991299148788354
-0.343303184635043
-0.41635198780512034
0.38372649766624556
0.3662108849636067
-0.38892254515434815
-0.21860428175816918
-0.21282821211347006
0.18929040647301915
-0.09201587173516974
0.2789637404596016
-0.3477097285414472
0.02760601715573046
-0.3651635977371059
0.24975349330523494
0.06843008619254821
-0.02500123382659674
-0.4194160093953967
-0.10017845063014083
0.16647627801098996
0.012793822617084675
0.22966627126159705
0.47620952244001297
0.19180215665947065
0.30603407484236483
0.0891754288737742
0.21907180333832463
0.43590685318924477
-0.21952184990409582
-0.13710247163863762
0.2788129083632038
-0.39910692865885933
-0.3327257196253922
0.40538770608009295
-0.2933831836782529
0.3983070064823901
0.28635923585341694
0.4216045101204289
0.30980713983621766
-0.32180761379543144
0.38511420810659686
0.25957842516305457
-0.15584830935494715
0.4580664397013366
-0.05573062291712189
0.04303208204723477
-0.19485654279114634
0.4624262746423632
-0.46747986278019105
-0.15563930017625013
0.3837015365187419
0.18187921292864656
0.40556789332689036
-0.2302212881359378
0.28399563973175285
0.4564264196058787
-0.33719102635338066
0.4522376278070049
0.19347541902433588
0.25421154370110927
0.1861868991842691
-0.2967150661914392
-0.4843266075597873
-0.3558664702942752
0.17348820873409096
0.41416202950210995
0.09952230392651251
-0.3474839413004734
0.3343332639614894
-0.13186936704347466
-0.3014709907162197
-0.021476516617444954
0.10464717504297748
-0.215544693739314
-0.4204705734340017
0.47804198666168957
-0.4235595642018601
-0.11376005169145124
-0.2933532002319568
-0.19234518442007054
-0.04414360353923995
0.13563069784709442
-0.15457776463473677
-0.2733278605819573
0.262798888893097
-0.16279533720066988
0.41924703151199
-0.33453363777409567
-0.001892437744526091
0.38507464457663326
-0.10194287498288422
-0.24258474036372663
0.04177607497298073
-0.2298448466916575
0.3300039167361635
0.0477710348743123
-0.050436687631301616
0.2836047309656411
-0.4578222924257276
-0.1515801756854896
0.40486817042847395
-0.09202358363277306
0.46849467394357125
0.1615808607324243
-0.3832554149842801
0.051172693609058933
0.280511996813214
-0.13444994041462172
0.054125628382831574
-0.3819997471290309
-0.13660110791110236
0.3769724933682173
0.06501300160047008
-0.28193789909555605
0.3062107504685719
0.1155533692780173
-0.19556452008216818
-0.07243719360494674
-0.2815969036554863
0.281286037421052
-0.34676741399890637
0.47300075179946993
0.23272163951691308
-0.4030980925982831
0.015214520141458738
0.4466952328516112
-0.2209093961159558
0.4828215731945061
-0.06896352507862959
0.05325629895411962
-0.1819669920035473
-0.08647388519716635
0.27997555637109756
-0.04994317528902631
0.38978821238318184
0.006540809199339761
-0.3743290725695992
-0.10389131929450351
0.4523878457999145
-0.37279784323180476
0.22447837676388224
-0.45134210867895763
-0.24529640081671136
-0.07045088577694696
-0.26106600851642126
0.06291297536691925
0.14912896407227028
-0.07086090069413185
0.046126939450591396
0.45252480640040127
-0.2732016889987055
-0.10035168229294218
-0.5009480835872611
-0.32331901639345384
0.012129139126193476
0.3832609163151247
-0.2221561873553036
-0.2684591943898154
-0.11387147800300117
0.48634282328444506
-0.14753956179321065
0.016759957818276584
0.13784124163225037
0.5412272190868951
-0.21742268318610708
0.425004737884028
0.08285867512525254
0.18920852876063124
0.18949715092490751
-0.29855246618983583
0.3717350222067673
0.2072957351216326
0.190612761207669
0.4632856012207357
0.3065640859995421
-0.1336168300791816
0.06748807824343478
0.261186478948209
-0.553779916837721
-0.20594458869747834
0.04089137647559485
0.44529093961047556
-0.2524091361834128
0.19380139212618921
0.297297295596813
-0.18095195995205124
-0.17299059280901055
0.2937910774970802
0.0963559070678927
0.5012058844948097
0.0019313986308798212
-0.48203052121253254
0.3275210991416003
-0.17260931135251018
-0.2526021833157485
-0.2615355465688249
-0.4235337213199299
0.3904738491293324
0.3731074932770418
0.4930932334372295
0.2506999906143305
-0.314063900137327
0.24755545431173706
-0.23430861824528046
-0.1730423876065946
-0.15696079818276554
-0.23306077850884369
0.47971861163599017
0.011486350442961774
-0.11534404817311229
0.4218166662213029
-0.2441059973870099
-0.39258359291022227
0.2667426859673311
0.2671354381063123
0.11197863290659094
-0.32664849547536995
0.12333186424102406
-0.02698609115977112
-0.18217361243990035
0.3117173589003072
0.18042940279106956
-0.22021010618048317
-0.17501876031713592
0.34109195098990736
0.15732250789064753
0.36387839425508817
0.25152447978022213
0.22737349795701114
0.11840585772983747
0.1476534964843011
0.23079520797110653
-0.48883099480079323
-0.2570074333345303
-0.03943179992549052
0.1533682553183655
0.3950830396335444
-0.47896427396981367
-0.22596268481271098
-0.062431010005785006
-0.1036876180056347
0.031142015762854965
-0.17333550173359724
-0.20240836789120162
-0.4638581853986685
-0.21140103884428002
-0.3755115633648932
-0.31076832274191524
-0.241270997652773
-0.39389739984407307
0.164876270880738
-0.4644863288853761
-0.1388864312194414
-0.009700794886354423
-0.4012429811662666
0.29772521527896256
0.1616647011250765
0.12464849059069695
0.29170860568099044
-0.1856400477301472
0.3876024670290259
-0.5074841653942131
-0.1436743619129991
-0.1560635141039127
0.19015268313490785
0.11251960958919775
0.12863562367498516
-0.04538028477210726
-0.4505894788094396
0.48342924695130246
0.2532582890426891
-0.4637984666426392
-0.20558215485739817
-0.2629360041427268
-0.41386091329915237
0.39208036408453345
-0.42458369653864947
0.18780938719959353
0.1341314286171895
-0.3737702090885563
0.0802867989235524
0.41530746925045303
-0.40026635895335094
0.11759139662141203
-0.25158644267080604
0.16975383987644055
0.00558192989435125
-0.18923621426441756
0.06567798684668662
0.48769619779183043
-0.22833383912511374
0.23571433393148422
0.4123630890890962
-0.08078398897710684
-0.37775681467798566
-0.2252478748244877
-0.17851627872828654
0.058047263779774524
-0.3247183390337853
-0.12697241062455938
-0.33259366002197227
0.09612168556328936
0.4884394546688802
-0.14795104445016502
-0.31688002734466175
-0.032486717585437086
-0.25859317037630536
-0.49774236916378434
0.3067375228208267
0.3437585338431294
0.3398814706937136
0.028098577664032665
0.14425199723611154
0.27251866379849465
0.10083069223633223
-0.3878905886082073
0.010620842215409333
0.16140473265441352
0.42558521985712366
-0.22112171671545783
-0.12678072718866254
0.007538217062808683
-0.453925519593574
0.4187582107731856
0.003592534127951982
-0.3921779646206881
-0.015329479766137619
0.21270113163729668
-0.04519235071594929
0.14877770253799885
0.39852793209652904
-0.33482432856944727
-0.07388680675606922
0.4095896845684541
-0.40773253902777473
0.20546484255297534
-0.44306985740817867
0.40355027430721757
-0.39227091196657266
-0.37454832509917046
0.2829931527474694
0.2980697113021237
-0.18157048178945864
0.0663044579757536
0.07415527110028736
-0.22022036389153626
-0.11417831370253709
-0.16229834714391844
-0.3441297316354251
-0.09103515999894705
-0.3208851744589085
-0.02916402384680624
-0.3872889987199006
-0.4380614524987949
-0.491395621239395
-0.3646738054565173
0.35850331608888075
0.12645344907850076
0.14759896570851277
0.3443148454263348
-0.25359986397168277
0.015458993683592973
0.3232344692833932
0.33964068533109015
0.09219925549405224
0.032034109844683405
0.42609114837799744
-0.340727224794741
0.26163781328415747
0.29984494142716567
-0.21677603599244102
-0.4021926380261673
-0.0017627474535581973
0.04404161471236663
-0.22445880645736282
0.3381117571198443
0.5186478481581076
-0.1152298392832771
-0.46357806008858166
-0.04582744124660448
-0.04286076771154854
-0.4829266999158765
-0.0867292182877886
-0.3773147669494224
-0.3424641932280937
0.388451676860839
-0.22631324398506664
-0.39467850849289626
-0.14015948606069878
0.19545966073922774
-0.44841260849749215
0.3487858059033207
0.271658066767701
0.32336797397685574
-0.13902276978575445
0.38254022709224367
0.3183984395144934
-0.42409300284882245
0.01256511384727395
-0.10786258505692997
0.11480784317205213
0.4898867267015283
0.17964926543829984
0.5179176332486406
0.35882608978498615
-0.058456779169412075
-0.0656868995278902
0.003092611292885476
-0.15594227712277442
-0.22079360819830707
-0.3065845203759633
0.40793256052022175
0.046779176419471
-0.10700599916997161
0.2595697687850315
0.4402484605893611
0.15583190963220256
0.04440428963704794
-0.28785297247526
-0.24662055946053066
0.3857358361151658
-0.036660988036629955
0.45120488108442613
-0.2189508248817812
0.36754250259085774
0.07334895239882767
0.025338872493756655
0.03647179640546525
-0.2931864310367881
0.0394440207361713
-0.09247844903872449
-0.04238084029076318
0.3115077077558414
-0.12669886491558022
-0.5249679951664427
-0.2841601445502982
-0.2964674551467785
0.42336700315490366
-0.20810303644509584
0.30785027002371446
-0.005202275898801634
0.3808036489170498
-0.4124654247160886
0.4191150384820925
-0.36143031727038044
0.46912663702000207
-0.17918475851315754
-0.23267570555655168
0.19513490390907257
0.2897870002843218
-0.36610311521812466
-0.0021203737063314834
0.5080148893046199
-0.1055118462358351
0.04908441716016409
0.18456589677996524
-0.36827052191273646
-0.29943215519076616
0.31637417256639666
-0.2856135939224634
-0.4853717824912468
0.44254970893926443
-0.10942116655943919
0.3129539946781954
-0.49740709936414274
-0.021056870662973688
-0.011680534661955662
0.20014097092054126
-0.054032160453330313
0.23840364972461817
0.14089592787204114
-0.3966755763942486
-0.3985581933531079
0.2788310989026858
-0.3770611870560591
0.03918591460674744
-0.41684125210671724
0.14091622073184346
-0.49870030462156356
-0.009789574663653563
0.18258463722554943
-0.23734099414628498
-0.18445665219483548
0.5051006684984988
0.0809000463470208
0.1403007369317707
0.4041955186845088
0.32998442027930075
-0.43611993436028973
-0.4539306353498274
0.015777431536340866
-0.3696853611663475
-0.4299870744141136
-0.22370641501327956
0.4135330512008502
-0.12520615072795757
0.1711792784609123
-0.37150428586443096
-0.4316968928852354
0.3255044324516101
-0.3168237860550619
0.03611294734767511
-0.2880911197039558
0.04464611149163909
0.05599566703612029
-0.41062825157642835
-0.17508564235919857
-0.27418353603788775
0.42681150419392194
-0.19505920666805707
0.42969360050652394
0.33103955891784287
0.317883656672857
0.11718890590237785
-0.11873621895054454
-0.16092281556973584
0.420570827310205
-0.2639411889305777
-0.12199679673040817
-0.48920273434903994
-0.4127500886745643
0.26285216865763367
-0.29646081202714586
-0.25117815738464
-0.3605001786004072
0.2072273340791221
-0.4782231434132823
-0.08678689595977233
-0.26374158836394485
0.3000800191524116
0.06830793826994744
0.430731467436067
-0.0004612587832681901
-0.24086777923642944
0.1556065548272061
-0.23532306367703773
-0.28412515719226583
-0.18933426482372667
-0.29979537641534143
-0.06349170026379033
-0.05075322669638328
-0.05659792297557199
0.37665821793345866
0.28737007037207474
-0.2657452841359832
0.08183689650672236
0.2409761051987411
0.15738309696880157
-0.2627642885991849
0.19371704152799807
-0.042436673673713364
-0.1819536287428083
-0.49784343112579127
-0.03941950958280307
-0.18436352811985046
-0.017089200515925204
-0.2955811407856212
0.1774627832305071
0.033277607046346094
-0.2832054906388562
-0.4537172464859858
-0.4854651211692166
0.20856322987250162
0.06505703233264373
-0.07348684150946304
-0.2330730554890083
-0.3425919173889318
0.027555288581782744
0.4635166799210665
0.03889772525017113
0.027532407814407606
-0.4517061789815652
0.1943610445798663
-0.444560527345606
0.22249868469188444
-0.2023875738276986
0.5117061044633939
0.46543427165522144
-0.3150789091851101
0.016789550475306093
-0.29295201603395465
-0.2286255459176936
-0.09959254719954132
-0.3365277498045045
0.10506682510710583
0.3492121451969833
-0.09237145753615386
0.0033282174132745986
0.13343577419385266
0.13831084743580174
-0.0768552579641969
0.45307708394132307
0.2618261144367338
0.17105229915264117
-0.34918668207798714
-0.33900008985072777
0.07135337672277742
-0.06551264025301912
0.157263701836697
0.2447854446366125
-0.24232867290576618
0.45337766649700645
-0.020488473794461816
-0.21674469281214986
-0.053773355378474524
-0.11236062018389874
-0.16697040144195818
-0.21827157420519458
0.36940545147449344
0.01816895643391386
-0.38207785968934954
0.1952892026250408
0.1802857902488104
-0.4815351152649737
0.45216404937566745
0.15843011334851081
-0.453050643285999
-0.048082837506075095
-0.07268489932899094
-0.39434965967312696
-0.3109690530032091
-0.09620679698365175
-0.1609317176165767
-0.41751711505484906
-0.401842557375362
-0.12108979275936611
0.3154324669417646
-0.20924695869831617
0.2306808402755323
0.148062462843584
-0.09951857224537765
-0.34997171766347757
0.4811355717355783
-0.18252634271486118
0.21580875677977776
0.23836795038452188
0.2612948069414031
0.1766980187908031
-0.4637225653804535
0.43950944674637576
-0.26029096068384094
-0.0058368108532612945
-0.3714446948671899
0.18231125106203622
0.16224689297200026
0.26788025691234413
0.3164414545031968
0.1754163191869424
0.3902227351331424
0.20453871623672187
-0.36725760890786285
-0.31266867689152594
-0.35923658464978403
0.29505889707182886
0.5097708110771977
0.05153764289013466
-0.18418324752039217
0.35454455608294
0.23986875888435424
-0.32080308799363527
-0.04710051575836943
-0.17747510167533806
-0.14246840486512125
-0.19527109412661364
-0.3906889887862486
0.014083818392052767
-0.19995694251027582
0.4006099689425613
-0.09294268790435249
0.38887352736922143
0.31950508038957975
-0.48845638800701346
-0.39161703655991237
0.14742419300834955
0.4519165923866447
-0.37380303095820083
0.48659755992927495
0.2956383581323091
-0.4924870611819328
-0.30139430776039505
-0.3629852113145692
0.24929968842167136
0.34784924458687977
0.12539614844922364
0.26033282425823656
0.12169081292193396
0.3870952399087836
-0.15796427061897586
-0.39637397995754725
0.4773974453267456
0.4690442789754681
0.33031287162514233
-0.07624415357471336
0.2814251805513442
-0.36355840714176685
0.316993569965131
0.3952706983489272
-0.12254731465534388
0.2936953629039057
-0.16665104704781014
0.4431769851072558
-0.37285803487785946
-0.2024851868736757
0.14408443838830537
0.014330886228417458
0.34239911011077967
0.10020057541491856
0.4493787467703089
-0.1892770992181061
-0.46392522991279084
0.30588176689951696
0.12531402508128384
-0.0052055748169720075
-0.21812183888562067
0.03472115670072643
0.06912741607577892
-0.2252314192548235
-0.27595777973034036
0.3717147373794596
0.3362214827138861
-0.4123729180090299
0.2135012097873357
-0.29307824824660395
0.018571544067618604
-0.3528606352022658
0.14567542914738715
-0.26166129431689694
0.47524479140686887
-0.5179122061430881
0.27912981495110717
0.46650616817979823
0.20510696226374653
0.23123777400994425
-0.3820685501911812
0.248443014611252
-0.23493846522166548
0.2749861771462201
-0.08634188558172116
0.22899372329061243
0.011876027176603049
-0.060622785258963675
-0.16082303415185925
-0.4761511411164842
0.14096242170463635
-0.0996670916450374
0.29090576646531713
-0.4074045929411714
-0.034423977371839165
0.25804597087146586
-0.4050600590155656
-0.1299011069975503
0.22860639864458993
-0.4942432123531441
-0.3724506095898756
-0.2715733673378799
-0.051862230317687774
0.11831331615097344
0.26835927556523637
-0.3532754552737736
-0.23772715716598677
0.3464901317443042
0.1450545896364592
0.21152625128680655
-0.17618696225995112
-0.33678443504032946
-0.44701295146788644
-0.26704987787448103
0.4215067716513258
0.30569120483423307
-0.16126444732003528
0.4040989793431655
-0.09457396943233996
-0.2254262408576914
0.3954203199828397
0.22758518706536265
0.41333957731508775
-0.030835455071646874
0.12384203963555408
0.071515916038187
0.33580050773501846
-0.1416480729298963
0.42241820957474996
0.257544734768502
0.12818138215867883
-0.12574147548533834
0.01538285334484635
0.5034973588181296
-0.0567801028313833
0.448285629937323
0.4380847937063427
-0.21445450137342062
-0.4481325847282838
0.3607538539804802
0.3971665036300368
-0.3103933377832425
0.40220076213896955
-0.3127879820279118
0.144496289426076
-0.36069337336523305
-0.49557804827317603
0.18336302272410201
0.16269104099761342
0.47109602007830537
-0.04588948787856275
-0.40406647981589827
-0.3405651933319096
-0.0573053161134676
-0.5144412917268156
0.4148069954212668
0.013325793907492313
-0.05339500293510274
0.4998766957219811
0.29882636827531056
-0.18040588656522327
-0.13753920277821585
-0.36483878020086685
-0.269033229958013
0.22974657245953423
-0.2511840325005904
0.42815092255889126
-0.11809971148029773
-0.4558685895933589
-0.506215150627944
0.20504348470804462
0.3606882245003649
-0.29110475246034107
-0.19440800279726866
-0.01375741900588916
-0.24060812430163747
-0.12145965098040801
0.19004736873955577
0.3108566438133751
0.30090741697284806
-0.45048548919535575
-0.21892559912110848
0.38686685944620297
0.4640792977114084
0.0809806638450461
0.3837110996080937
-0.232455148083728
0.05159068215306522
0.2781039292015618
0.13136087745074304
-0.03577760839221856
-0.3383504744763705
0.014769095470396718
0.4379855851390766
0.22148950991649813
-0.08993939844121109
-0.016620198358326933
-0.3961676852225234
-0.08574962492937617
-0.47600641264379584
-0.2909573668710836
0.0007335082056318817
-0.1304474070026237
-0.1428432606254752
0.28940262656357923
-0.38838352529383563
0.3653214586435257
-0.2834160335494796
-0.10139415683444666
-0.3275476859781785
0.39465142749333865
-0.18943274095270785
-0.025538794883460624
0.06875752509765189
-0.4822493842121603
0.09078361461015703
0.10652465042213016
-0.1664730627026864
-0.16717838056765524
0.09123790720253568
-0.10804660238320767
-0.3159696297298697
0.40294778497816897
-0.5110170637405806
-0.08467190926518965
0.056088449607443025
0.38167997206123444
-0.15611023799501303
-0.21436939747670467
0.1875302758053325
0.26004331443365547
-0.1690886826581732
0.05139522592345609
0.13310062086193025
-0.30373926945766533
-0.07360811531229125
-0.1199596508685236
0.06877328814304476
-0.2134814226001981
0.05795041740434716
-0.15683581247932418
-0.09256658429752436
0.24244106010838082
0.3640924474583271
0.34898066383276355
-0.2823578435903805
-0.5069606442915686
-0.10340038030811022
0.11159879724698546
0.10772203210441843
-0.3427546632305992
-0.2940257386097499
0.014266129309877144
-0.4727964081244598
0.17739268304024366
0.46346681009632956
-0.3828261622944919
0.23606193634727046
0.3608407462624064
0.4389718302408081
-0.4389573613921814
-0.2903025635464505
-0.4364536154277189
-0.30034835575929886
-0.20659737476178944
0.2009596531823331
0.2563216187849237
0.13093734786074926
0.45305512970695616
0.01245259235966021
0.027017632334097836
0.06856417494398871
0.1779347566826494
-0.14274280354391658
-0.17874578630080554
0.12983546703859633
0.47352487412175065
-0.4380546179918241
-0.056178051710278246
-0.13726209279746227
-0.15251154768631825
0.19455548777970805
-0.10254475020291265
0.05098293648774849
-0.08767192422375397
-0.18240773724673764
0.1815522566687194
0.025249740256535345
-0.5126806887094467
-0.0945361750349832
0.07236118213930935
-0.19147183855801667
0.26600891349216105
0.17336068096687865
-0.41699451251533054
0.3365019490434733
0.3041622610709191
-0.26412895510904216
0.172302168756791
-0.1563055061635545
0.14088264490100474
0.4242103626151888
-0.32889989926254454
-0.4820204856787982
0.3042382765649876
-0.3131081113981272
0.017819382661702028
0.14123823551103779
0.13848199236377973
-0.30143049276195133
0.1354090502996345
0.41188154669719973
0.3472489004972766
0.2699145717953416
0.4582731478368051
-0.36233417175459903
0.475505988701917
-0.030162394547807784
-0.30103185588142434
0.2590165612396703
-0.09702552088768113
-0.49405178232237157
0.08191726657992716
0.04960195342182636
-0.17303940850918592
-0.14148349561108484
-0.42568965624985905
-0.024483962172522602
-0.08181117597652544
0.1345665794449107
-0.244061731977595
0.1739345806632691
-0.2605995425871959
-0.07952412483978759
0.21471327586929326
0.03324617891333993
0.4153866448387514
-0.12476771659854517
0.42771330675515823
0.25600034903401236
0.2761345820706052
-0.32744212504764836
-0.2135809507404194
-0.23375430648547169
-0.1408035514698761
-0.2491238027966631
0.0012519391858383446
-0.5570589419445597
0.22283464340317755
0.4065741022906029
0.20852354813041382
-0.23590356636006343
0.08519751316185072
-0.18572620529043143
0.1388374059516762
-0.46381988224924253
0.2820387944318674
-0.01576582645753397
0.20345776821245737
-0.20246390096842215
-0.4213476684321201
-0.2600263652269364
0.4122073899710465
0.43260136205031374
0.20109727478854902
0.5337016893807559
-0.274641491035576
-0.13662004342624431
0.4054259521057686
0.12405740965279238
0.004456631822481131
0.18944556086809886
0.1612042539455697
0.508127074266249
0.5012172417510667
0.3538703099691879
-0.453698034896573
-0.43277195697706033
-0.4985413708421401
0.03225460771236794
0.4905794975025559
-0.4446673971852511
-0.4640223212827008
-0.11151366650060461
0.33540959830745404
-0.18287559473740275
-0.07313098251572349
0.4745678466864117
-0.20133216255393757
-0.22314678609356262
0.23396648203371495
-0.009351485936837137
0.3673324880271838
-0.10592238517214127
-0.10826543339532638
0.46554270329391695
-0.4522618368892906
-0.24665170308775933
0.05785868231691163
-0.11930205901081485
0.40429138647532875
-0.4740715676106929
0.31305170415172284
-0.39629926698799617
-0.45640428554425283
-0.504698663608739
0.04621803724153289
0.31841908666658814
0.17549013659542428
-0.47692715584474654
0.3084069329613484
-0.3678301416772378
0.11244425991488467
-0.17406381909787585
-0.008539763892293243
0.12466499091116547
0.45718721152894154
0.4391757988321947
-0.22160295200131444
0.2365841384895297
-0.14435739698351774
0.2729468547026629
-0.2041154377477597
0.35003132484671756
0.23385280768935576
0.3461149272402727
0.09490557221310805
0.24167234584655992
0.4293777974199941
0.21714420928839495
-0.43081486626281285
0.28087749150327274
0.4574430227478561
-0.3598232711674979
-0.45780102976747505
0.4510113616481383
-0.11306386790864524
-0.2500843499496528
0.24325717035427377
0.2697313377983288
0.17787085470582106
-0.23170854271268543
-0.3814067514706873
0.19544126792410033
0.3573890305320785
-0.5091166979641287
-0.2951328902740512
0.42059070906984547
0.04120091956361315
-0.4419199444711923
0.2926445268692649
0.35436479483478167
0.17470604587345823
-0.4104397239572351
-0.1385724352627614
-0.3035966383751388
0.14473126374588313
-0.32370561654337404
-0.1488312437095245
0.264270972071185
0.3335610838643514
0.35819249160102623
-0.3077399430798049
0.3391886522719984
0.4189341301934393
0.13500544179226537
-0.16483016083077612
-0.31597384514467025
-0.10046211884001395
0.21998975417630232
-0.1565000122717452
0.14029147452839605
0.3594023193800735
0.0949588328512023
-0.49654941410141795
-0.2331298904942336
-0.2360000201261961
0.2695777574635008
-0.1919598169230073
0.3499988930992914
-0.49178357705019216
-0.153360491239687
0.40449931304602055
0.4855152034254534
0.21650031526343577
0.25396970202422275
0.2425271197092739
-0.18999902943065622
0.054342821741091465
-0.4950256391159007
0.23465532610307055
0.26649989123024587
0.2765064551865584
-0.26196545461017007
-0.020393057607979877
0.1755848356469824
-0.19800003771402175
0.37048237552025975
0.3475002631757864
0.09850549778035327
-0.003000039351938989
0.49244920080973026
0.40044915763793115
-0.2832396601537494
0.08149981954445921
0.13999221828066977
0.3929963525554956
0.3679394453664136
-0.08628969114547941
0.3527516007823567
-0.16117008446211875
0.15322074311011152
0.45385446197800433
0.2785008967543493
0.00999990394388902
-0.3947387389653091
0.023499956750828
-0.39827530754899493
-0.410482210074709
-0.4900005320203947
0.3661180260185365
-0.32690405538624534
0.10699978896775629
-0.3930006605758381
-0.14850684846855977
0.3190054417922654
0.043169839169223886
-0.0704738451446703
0.36303788115998603
0.11148975417630229
0.40849998772825474
0.312791474528396
0.10840231938007353
0.10695883285120229
0.021950585898582065
-0.46412989049423364
-0.1340000201261961
0.07757775746350089
0.05654018307699273
-0.029501106900708566
-0.05028357705019217
-0.40286049123968687
0.4309993130460205
-0.15298479657454658
-0.01899968473656422
0.45596970202422277
0.13052711970927391
0.3545009705693439
-0.4176571782589086
0.4984743608840993
-0.03184467389692944
-0.243500108769754
-0.1794935448134416
0.16103454538982984
0.13360694239202014
-0.05841516435301754
0.23099996228597827
-0.43801762447974024
-0.07349973682421361
0.3080054977803533
0.3449999606480609
0.2054492008097303
0.2414491576379312
-0.07123966015374958
-0.1660001804555408
0.37949221828066976
-0.26250364744450444
0.3894394453664136
-0.22928969114547937
0.2617516007823567
-0.09267008446211872
0.32722074311011146
-0.08664553802199564
0.36350089675434927
0.29099990394388897
-0.19573873896530924
0.08399995675082798
-0.4967753075489949
-0.16698221007470895
0.15099946797960526
-0.10238197398146343
0.3360959446137547
0.3904997889677563
0.04799933942416202
0.3819931515314402
0.4695054417922654
-0.3893301608307762
-0.31347384514467025
0.288037881159986
-0.09801024582369772
-0.1340000122717452
-0.369708525471604
-0.3225976806199265
-0.047541167148797664
-0.19854941410141796
0.29087010950576636
-0.2480000201261961
-0.07942224253649911
0.3720401830769927
-0.3965011069007086
0.4062164229498078
0.26063950876031317
0.051999313046020554
-0.037484796574546606
-0.15199968473656422
0.26546970202422276
0.08952711970927393
-0.012999029430656226
0.3923428217410914
0.4234743608840993
0.3481553261030706
-0.29800010876975414
0.028506455186558418
-0.23346545461017018
0.20460694239202012
0.030084835646982437
-0.2535000377140218
0.26398237552025977
0.46250026317578646
-0.15899450221964673
0.3744999606480609
-0.37205079919026973
-0.0660508423620688
-0.26673966015374945
-0.33350018045554103
-0.22400778171933025
-0.2835036474445044
-0.16406055463358651
-0.4187896911454794
0.3557516007823567
0.39432991553788127
0.2932207431101114
0.06985446197800436
0.22500089675434956
0.07049990394388904
0.006261261034690842
0.25249995675082804
0.03322469245100498
-0.411982210074709
0.45899946797960534
-0.3363819739814635
-0.010904055386245413
0.02399978896775631
-0.03650066057583798
-0.4455068484685598
-0.2649945582077346
-0.2918301608307762
0.29002615485532973
0.38603788115998605
-0.07901024582369771
0.12349998772825475
0.323791474528396
-0.3745976806199265
0.1014588328512023
-0.08454941410141793
0.022370109505766345
0.1684999798738039
-0.010422242536499133
0.19854018307699273
0.4904988930992914
0.33771642294980786
0.169639508760313
-0.09700068695397945
0.0910152034254534
0.07550031526343579
-0.1915302979757772
0.11452711970927394
0.07850097056934377
0.022342821741091447
-0.2760256391159007
0.13965532610307058
-0.08550010876975409
0.1940064551865584
-0.01346545461017017
-0.10939305760797986
0.0800848356469824
-0.3505000377140218
0.11848237552025968
0.2950002631757864
0.05600549778035329
0.139499960648061
-0.3590507991902697
-0.43855084236206887
0.010760339846250449
-0.1895001804555408
0.4594922182806698
-0.16900364744450433
-0.11106055463358648
-0.42178969114547943
0.2277516007823567
-0.16517008446211875
0.37172074311011144
-0.04264553802199565
0.4545008967543493
-0.01150009605611098
0.40326126103469095
0.294499956750828
-0.037775307548995024
-0.498982210074709
0.04049946797960529
-0.055881973981463405
0.49159594461375467
-0.1200002110322437
0.021999339424162025
-0.1350068484685598
-0.2665
-0.142
-0.351
0.2175
-0.007
-0.224
0.412
-0.3235
0.332
-0.3545
0.418
-0.388
-0.066
-0.127
-0.2955
-0.0485
0.429
-0.008
0.1285
0.0075
0.498
0.2435
0.3595
0.051
-0.154
0.324
-0.2825
0.3655
-0.4525
-0.2225
0.496
0.3615
-0.3375
0.2525
0.1375
0.007
-0.35
-0.1285
0.272
0.4775
-0.425
-0.463
-0.3675
-0.082
-0.118
-0.2
-0.288
0.028
-0.193
-0.012
0.0225
0.1535
0.254
0.1685
-0.304
-0.447
-0.3875
-0.4535
-0.374
-0.202
-0.355
0.216
0.2045
0.0045
-0.4745
-0.023
0.3935
0.079
-0.125
0.4135
0.047
0.011
-0.098
0.2415
0.2215
-0.43
0.419
0.157
-0.351
-0.4835
0.164
-0.445
0.482
-0.1595
-0.303
0.3065
0.413
-0.47
0.346
0.347
-0.0645
-0.0695
0.3695
-0.238
0.01
0.2485
-0.182
-0.0735
0.1875
0.0145
0.4725
0.41
-0.3745
-0.0345
-0.398
-0.1615
0.301
-0.426
-0.116
0.1315
-0.27
0.411
-0.298
0.1615
-0.101
0.2325
0.261
-0.369
-0.2355
0.29
-0.4835
-0.253
0.139
0.354
0.1435
-0.0155
-0.0975
0.02
0.0445
-0.2785
-0.077
0.3235
0.12
0.0395
0.0925
-0.081
-0.2565
-0.102
0.3185
-0.211
-0.171
0.4235
0.0675
0.0645
0.4815
-0.254
0.18
-0.3255
-0.422
0.0315
-0.1985
-0.269
0.3185
0.2785
-0.0485
-0.2375
-0.3615
0.065
-0.4645
-0.3225
0.0155
-0.428
0.461
0.4305
0.0055
0.1615
0.2075
0.399
-0.2475
0.427
0.114
0.2335
-0.4495
0.2005
-0.173
-0.4925
-0.4665
-0.1455
0.094
0.1985
0.125
0.1115
0.26
0.391
0.074
0.0515
0.2715
-0.3005
0.037
0.1385
0.4375
-0.382
0.2735
-0.1455
0.364
0.131
0.463
0.3125
-0.1925
-0.35
-0.472
-0.3435
-0.363
0.2295
0.382
-0.4525
-0.282
0.1175
-0.412
-0.1855
-0.0145
0.498
-0.2345
-0.498
0.0995
-0.214
-0.203
-0.005
-0.1885
0.4965
0.4555
-0.263
0.131
-0.2615
-0.3485
-0.0515
0.475
0.0255
-0.285
-0.0575
-0.3915
0.119
0.055
0.411
0.0635
0.3185
-0.242
0.306
-0.3085
0.454
0.108
0.016
-0.351
-0.008
0.0545
0.2205
-0.0085
-0.3275
0.223
-0.267
-0.2215
0.217
0.2005
-0.0985
-0.041
-0.025
0.354
0.334
0.395
-0.451
-0.0255
0.4465
-0.2065
0.4325
-0.378
-0.151
0.2885
-0.2025
0.1045
0.013
-0.249
0.0165
-0.153
-0.144
-0.1165
0.4455
0.368
0.145
-0.065
-0.151
0.1365
-0.062
0.107
-0.448
0.006
-0.41
0.448
0.2645
-0.439
-0.025
-0.4905
0.0325
-0.323
0.3275
-0.047
-0.4525
-0.376
0.161
-0.45
-0.144
0.1879177762170878
-0.20134118569153597
0.06213938239041057
-0.38727790753581703
-0.28047011445737985
-0.4611429573031215
0.33123157044874574
-0.4340537411516468
-0.4432745664954869
0.42105031806603
-0.4857037226372841
-0.4104855394824524
-0.012988372679712135
0.482091878871063
-0.1903509032661816
0.20446939352019045
-0.2510897441571607
0.3903148219321219
-0.13013492528890755
0.30269816571055314
0.4937410981115437
0.45105524105321776
-0.16246558953152232
0.4405924864030989
0.48813546215855175
-0.2640689191561662
0.4311913640615922
0.29847750561135
-0.4574575639159425
0.041262525713518294
0.06007105376902816
0.20817864240128564
0.4480020373671288
-0.4132657845017433
0.4488514160204271
0.35928117241088703
0.44784452163986194
-0.435899370296315
-0.11300655747531681
-0.11874762441559351
-0.17334479828595395
0.3906306071526803
0.027619570690852413
-0.43384951787613274
0.09555801672648832
-0.1786806619105275
0.1684301663837603
-0.4989958924488596
0.0560891631510633
0.19712904674570025
-0.4936207699742701
-0.14916224740260478
0.13902479741233315
0.4173539394785121
0.1832164802952146
0.0676878454263194
0.07195341277567431
0.2613084931379424
0.2529011457146148
0.14537465143578865
-0.07320770643534752
-0.13725732464675963
-0.2719890777296736
-0.12176050010724014
-0.4582487543756323
0.2487307655699338
0.3853602769332365
0.31798632388765136
0.05036215227885447
-0.3550323513093797
-0.39171124448929906
-0.430828388790366
0.4389550080403749
0.4363335681561672
-0.15307031718280273
0.081420647828616
-0.3407901772017906
0.33506549262560364
-0.2690130201316485
0.47442767020580356
0.42497062318142165
-0.03533939904358726
0.34611522811319
-0.41045715099028623
0.39024411991699054
0.34274082199566497
-0.18614164508078188
-0.16020452461082704
0.09576027518005184
-0.31092822952382465
-0.3840015614578929
0.16255976983850606
-0.2687014251634206
-0.10708821352335092
0.4888770622385229
-0.19839153301265086
0.03866106833047755
-0.4709246751335885
0.2592882346569416
-0.1182467363717749
-0.12123217447118695
0.14272671888099953
-0.34969847669909093
-0.06557988910015085
0.11948412729729607
-0.23261610034508048
-0.4449244632761664
-0.3598839975320291
0.2819655005565855
-0.06437649163601344
0.4108152624145026
-0.3574251586888758
-0.047016817962718546
-0.3068078984759975
-0.3222967824377738
0.29394241490222445
-0.3522482340209019
0.4360295818481269
-0.3041324147141976
0.21439681669261368
-0.0357979656424816
-0.03204310391266537
-0.08106464417691416
-0.45866634078963975
0.0007582553286348368
-0.39311126381645656
0.2333987080128228
-0.0403403786919715
0.18610061288975754
0.44025651249070985
-0.04444718560259998
0.44333069342385983
-0.23026554646328465
0.08264465423193644
-0.2604523241816772
-0.26345952943762135
-0.22992495525363857
-0.1434821633670702
-0.2050940580988988
-0.440146106450389
0.4752369533332077
-0.10810438523887456
-0.4837216218091241
0.501282665643867
-0.13300390023426142
0.029071452706054927
-0.34150084759326216
0.3725938699360771
0.4110882699163507
0.05804887615894184
-0.17465462768109025
0.2472972711456867
-0.407030719335993
0.05601893084792883
0.47979731383497964
0.4093611055661732
-0.02739199505321764
0.4157801747895843
0.21322197506231041
-0.37183515719218274
0.015709905904427765
0.028537610259812402
0.09415730499914597
-0.39303731011888177
-0.16436536069547683
0.29386856587132254
-0.08656832310697608
0.34852614076067306
-0.3633320720608451
0.34418203725076063
-0.22257121635872024
-0.17389537633466634
0.2005491617922633
0.33930570110373476
0.40687920785658016
0.00629733627254389
-0.2047996080028723
0.28935101752328557
-0.21919614155356398
0.44558616765062997
0.07112210496903147
0.30954150988307505
-0.11065533678308016
0.44450359264084377
0.11732514299636694
0.1027629289452245
-0.010406024064497647
-0.16793315197505987
0.12631297800943872
0.2800931517789462
0.34848452738085384
0.48738379887224237
0.4596020729848561
-0.4425148810990384
0.08519568628373499
0.37808016601223954
0.2298423105775085
0.1281984859766761
-0.4549114179390317
0.15957932566115016
-0.07288259598657996
0.046449296000615085
-0.3951058313456018
0.4548952124036119
0.3242535695945903
0.28532396654750536
-0.1055290556153184
-0.48026232044827716
0.2728785297235588
0.3827635294763686
0.40315982535115996
0.1035507096179948
0.07251721300839037
0.27666070114209756
0.07967038702688942
0.24908711182332216
-0.4537660512623257
0.24604251217733297
-0.43484297046224585
-0.10359380592403185
-0.05948729297862707
0.17238530230789553
0.3053660388226191
0.20564432804069474
-0.20777450770509967
0.16642096404737824
0.172994466210397
0.2911063276403965
-0.3538480989747562
-0.2316371978314017
0.3509582756592235
-0.11771873601183337
-0.43780965043497455
-0.05710055164110458
-0.19558921198948803
0.050889431819893506
0.18730417272433822
-0.10851048416604057
-0.4140979048218352
-0.5154951404850219
-0.2205361624638597
-0.03311231512385165
-0.45521484019857533
0.05956980537572317
0.4550353993050208
-0.24144649031158658
-0.10316310267377778
-0.2748576079722013
-0.15652757938585443
0.28201518539725207
-0.02646878938196232
0.21365210333613543
-0.27523166567441804
-0.3790974827409858
0.15645667106761268
0.32729442561886973
-0.42581941869514617
0.03482214448073824
0.18655229238463755
0.45680128995345953
0.3169844867964313
-0.08186075518099872
0.10235334267528995
0.3762572840156563
0.1543051637463001
0.3179021619674613
0.016844173698671694
0.11460110497190418
-0.2337332785967827
0.2021679478296693
-0.201804078653578
0.46104521077221094
-0.3793300431590848
0.28290001928658076
0.25282634563235107
-0.4974864712850059
-0.31334304644970473
0.49359729394872054
0.35843775488296353
-0.04543271283699761
0.1194505242624479
0.4699622567903514
0.5149210848740375
0.47254599350298815
-0.16979717965315444
0.4402082069738258
0.09569929047076006
0.09216776058457778
0.03863595098311091
0.4522888589860186
0.1644794557263929
-0.1476949104984976
0.32361468703542995
-0.04436519575545737
-0.28149734553808997
0.03331339038712475
-0.15275602727908766
-0.08137050108459203
-0.09791946574960693
0.2695651620495907
-0.070074830951254
-0.16242599749280545
-0.3767758482880665
0.2041598343301544
-0.1366310126675839
-0.10264902230259572
-0.11188554378197126
0.3268076529435521
0.024280699305743496
-0.23338266028288857
-0.48197699669549093
-0.252538490290754
0.025856832394564874
0.20783040508508502
0.09236714719013953
-0.32478203998968974
0.3612945398011764
0.12738934564925825
0.32371256501882406
0.4218951565058755
0.2888494609605811
-0.5131844167057026
-0.2153034814821423
0.48453643282137565
0.43214202202960894
-0.2029019473756959
-0.22410542548759022
0.28443256399380984
-0.029508402742769183
-0.14346392846009737
-0.1980805927411536
0.469654267624811
0.33416836768640273
0.30861420574486453
-0.09460570915532193
0.34200410031999884
0.5143507068597473
-0.13101333048319144
-0.03943121723694844
0.06702011905626057
0.39889661365225515
0.2958596874735232
0.35263654497563557
0.23176315592408495
0.46709299000964943
-0.3422538846229297
-0.42562938235265235
0.28125491248872175
-0.13604562660354577
-0.15533851242451005
0.04047782094521592
0.05897876980235554
-0.3704082956657595
0.3966927484191452
0.21933739712437192
0.3190661231777038
0.2960222246441317
-0.14371739910175843
-0.024957358592028665
-0.19721524893320755
0.14435012683852416
-0.1920137298191514
0.4067858599941502
-0.21444577775075424
0.4584848270468929
0.3020119129712761
0.20372587926840197
0.37246264831241027
-0.35999478359588893
-0.4922148319305435
0.0032630751695204288
-0.0840662723702582
0.047770672025785874
-0.4423975282770342
-0.04915637665927831
0.3134326802422483
-0.3543395193837806
-0.035565366630785716
0.33364649190055623
-0.49891928531601765
-0.023383025053511464
-0.05234466253598218
0.1952569834829575
-0.48370740969368936
-0.3187761962715213
0.5042400165635038
-0.16217640505421468
-0.1420118598044785
0.01607215344671712
0.4529640799132776
-0.18696430033960762
-0.102233090249106
0.1399210434125308
0.2925880374518215
-0.2653596335993228
0.2583944472308227
-0.22321381080855407
-0.16540810356403463
-0.1700457292645261
-0.39783682756108407
-0.07659605944026673
-0.035413539999267704
-0.34297629065928814
0.03543489173683568
0.21679926997690085
0.2020997887999173
-0.026964715160281285
-0.23962317623051457
-0.03368654470361073
0.355404433839375
0.04695927603716607
0.3281498559027437
-0.062118931800487234
-0.07030540604084551
0.004490035981466973
-0.28546655086404615
0.2507956630440688
-0.14991464204436225
-0.3892545999196574
-0.405603192145711
-0.07429000750267464
-0.4658086619047486
-0.02768814374089443
-0.02876246403432229
-0.04051271533609252
0.09639840643894139
-0.26134009074761244
-0.2769250655318781
-0.26055135239865684
-0.3741153834211412
-0.21612419770356087
0.5010472358572112
0.261104472223232
-0.46354867776959946
0.056971611804315474
-0.35043568154675653
0.3876965508110026
0.4152898520677222
0.44332075882359506
0.4450866185991181
0.1695909852764962
0.03167823904230102
0.459061947430122
0.4705839596416407
-0.09420059018770345
-0.01418045349207682
-0.32188021242874787
-0.07194940723442368
-0.06669265133696108
-0.17300244267072223
0.11873096920475922
-0.12616836370075532
-0.45304141523592023
0.19276003890006826
0.4022634816265977
0.24779878779083997
0.4440571931853269
-0.3019576736051408
0.10688167255805099
-0.2890006269860333
0.4717793193169616
-0.22421217285054793
0.3128073371484371
-0.43917092996874685
0.27324895395531773
0.43254538269330717
-0.0028186385403865494
-0.1710609925085177
0.4580968322584845
-0.36477325458171944
0.37867355026831856
-0.11329432004345957
0.15950499972755575
-0.12370693202875668
0.500132533902879
-0.218758946987679
0.1991561262142605
0.3769101811296839
0.39153666552122496
-0.2217746735467493
0.27074397772554865
0.4973300192830959
-0.16769094177829572
0.4269223363096391
0.4279763768994453
-0.2720035630144735
-0.2588621866514152
-0.5419209364500532
0.3200227484020877
-0.25049714689108277
0.18226872850036974
-0.3511519064480992
-0.3400666370550748
-0.3403266867052744
0.07939913296850096
-0.09058047921234237
0.40115571443709935
0.38191651963059836
-0.052177283718623894
0.11584381202669414
0.17978962356516995
-0.2610310035630846
0.2735231072677206
-0.4187157380279451
-0.5085279470071866
0.47030466145205635
0.06393530054607696
-0.26327658369968765
0.1391961319511219
0.2970856612063684
0.05284600782258404
0.4153351825516293
-0.5157533745461959
0.40991168872740685
-0.015549478896044147
0.4752654248715212
-0.21652856280164495
-0.0840112035247884
-0.2888698310132396
-0.3090569594984369
0.3847275108855685
0.3718087590712006
0.3357928258671842
0.16640247199822258
-0.12779910913459777
-0.08106504038187268
0.4340653145167711
0.2581168243418878
-0.016743775643734023
0.42796342977725615
-0.10555297996312424
-0.2474809447362737
-0.01165295405390933
-0.3060605943315636
0.2657897006101037
0.4613901696287824
0.06428591632014781
0.11439217789250504
0.44708696593264613
-0.16516113855749356
-0.12084037928523472
-0.10203442448538087
-0.4382762646285461
0.023112228099709593
-0.44567742581942893
-0.24556860739378694
0.430367423167725
-0.5639669864516844
-0.040549824307740345
-0.43023818919291423
-0.0025479091999706317
0.2664063627305893
0.21697190461713753
0.1519358381557802
0.4425002089804825
-0.2912396129300268
-0.1273942743971387
-0.0723384340837041
0.22009246609816488
-0.3715765168233664
-0.23323723359137347
-0.16409956683535107
-0.22946020620914448
0.34543931524991484
-0.3264514015054107
0.19500571830107127
0.3840673366130429
0.08266276292872418
0.025259420700941743
0.0899004648812764
-0.26467961933764045
-0.041949719412060896
-0.41416697358123783
0.10103090693503808
0.3121934339801772
-0.08539648150439168
-0.2056188778990723
0.21004635993306175
-0.3231153589952434
0.40293806833096146
0.44246384112440995
0.2197130944742453
-0.2970035343204088
0.27513119212119963
-0.4144310351368364
-0.2624613166359333
-0.17809606026129665
-0.3730927729886572
0.44979376442609076
0.4857817912994494
0.05080498677333551
0.3772388297219413
0.1826164952660165
-0.17728292605224427
-0.13257888171811516
0.14474083429295437
0.3833563369827596
0.26673080975495794
0.49576595853053873
0.13826153165104882
0.03169999645537114
0.08478182383253267
-0.20049270440190756
-0.43593278304150707
-0.5201287757383897
0.3662769716323897
0.5160699633668397
0.23346854338327455
-0.10898275181951503
0.1651643456156032
0.21531041601471468
0.17587023819624917
0.20319631444725808
0.19490334645059126
-0.03833847571749271
0.36246035016705874
-0.35396942679367627
0.24585381343305243
0.012440962752504623
0.17692086858081169
0.23080759159469047
0.2490148678006735
0.45838920381175835
0.336508200449995
0.35015932741046196
-0.3533312987797808
0.4475338925762153
-0.33475063451693865
0.3273206189105492
0.07068583929104014
-0.03025312002781465
0.4444063826486272
-0.109176318246795
-0.023476089836589165
-0.21079082977777955
0.1604556511215706
-0.32509712703532695
0.19664099022916998
0.2561980215266145
-0.44051238649183355
-0.42530879523831466
-0.07478527952150313
0.48579349376077635
-0.3602530627066158
-0.27167645287566466
-0.3111448258813024
-0.5091145611403769
-0.2386213996557748
-0.1468882609185376
0.023857058838851766
0.002035160436125999
0.04930980803918622
-0.5139308127714552
-0.2875430261534811
0.4606583686655946
-0.11695977450596387
-0.33539804295086667
-0.48214607715620167
-0.020873524585131083
0.4608212334959335
-0.1065209405389727
-0.30022077050970664
0.18904247291565177
-0.21176070197734836
0.3733287308074933
-0.1349074252812665
0.015403819480030804
0.056295005622676086
-0.10768794347017047
0.35473144785060756
0.40569347500857283
-0.348584094049859
0.2584077223060799
-0.3019790351306409
0.30076080251491694
-0.10171861888503793
0.08630252813867623
0.5783772232872003
-0.2701486804492535
-0.08593319257147702
0.2943943028946232
-0.007702966623047662
-0.10167457190963468
-0.03086054819146515
-0.060190709079117194
0.37690037302850377
-0.015728172704962382
0.17430396424440397
-0.018221669758661647
-0.14832492732226787
-0.29795707335524513
-0.4160777409706806
0.4662260229945108
-0.44235847768226344
0.31868595027867475
0.16816627058533778
-0.1562401031769419
0.13251634575018476
-0.18699694263051136
0.3663245007708305
0.15840362455060944
-0.3373007886517267
-0.0990434632906997
-0.10341976767035718
-0.09334984199794484
-0.4236681329506434
-0.03514655721825228
0.26129932972894965
-0.5190674720658928
0.3724086513725811
0.015431789021042008
0.3662637720180947
0.3592349225169684
0.1361013609722746
-0.15648198707643096
-0.23171092016725806
0.358325675672898
-0.5601027402640901
-0.2928810650273236
-0.24134222639392622
0.16339863891126133
-0.04067355746329466
-0.03496027243877491
0.4695717801439291
-0.3159622375101623
0.17435874932468098
0.2637503769735971
-0.35607830089709813
-0.34512664763409917
-0.3553988737561793
0.42707417356035815
0.2550412959985832
0.3585463641698146
-0.05759059476476867
0.38415652801067496
0.29813211147599217
-0.2675283016310321
-0.2201349718440125
-0.1525192514735218
0.008914777758664411
0.4713471070600282
0.2793276101261191
0.1179494632479792
-0.14788524426345917
-0.14316323672045406
0.1105141754113551
0.4402002282710323
0.11789359143930443
-0.2339835205024193
0.050075508333126156
-0.19597639002243536
-0.42065248328221033
0.22785891046332318
-0.1839875516723828
-0.32423900017311913
-0.3190090594482392
0.2775083389347962
0.1689858227683383
0.4728379584687149
-0.06650131591630709
0.11899227343657896
-0.3466618329725182
-0.03512677257339717
-0.22221403508226076
0.41383913562377017
0.0759468415809514
-0.3050179448957954
-0.25879536545888343
0.3223097597464962
0.13674683381221353
0.3372641962365807
0.02203132747376582
-0.08999295282150209
-0.25081868502118526
0.3647185956446047
-0.5051690565722324
0.21376076954912826
-0.05278374398778853
0.46070002013435096
0.3170911976653116
0.1568220696193002
-0.1134920558047669
0.44601983795431027
0.21346418926644273
0.28734531349803927
0.3709207891124719
0.24780063775005284
-0.44318777490893013
-0.30933045136613035
0.06674116420219471
-0.5383230311084499
0.5039050878950202
0.07955782941263549
0.4005434731728578
0.12573467011770892
-0.047822173384326025
0.27117506901478583
0.4758073536473586
0.2069576208797906
-0.3001029126840076
0.17083033366435638
-0.05137939517863372
-0.37230622177006434
-0.3067766701940384
0.2889799998137864
0.40535456657946983
-0.2490410264969273
-0.2300814503223556
0.07148701024699602
0.1840118974277134
-0.2184408593204738
0.26407540849064365
-0.22799406434092087
0.3937380932493023
0.43871250883289575
-0.44655434268019883
0.41449479857995214
0.275110517105323
-0.466004435207482
-0.10076107793447968
-0.35158086437726627
0.4368848999267282
-0.13237351216340093
-0.40220667558232454
0.04260669729439238
0.20621485137284704
-0.35947882264041925
-0.3938447576039666
-0.5017720512617009
0.5251078352520288
0.08627180021064342
0.07960360958463049
0.03360163173496372
-0.31504713416957064
0.06086042484462433
0.3443231987208695
0.11941526245371592
0.1978954707662244
-0.02952128210577
-0.2699614513967576
-0.17370634507296878
-0.3254219267030542
0.38689037129190834
0.14481432494425134
0.3535327385751545
0.11007977458944132
0.31631679949053865
0.003551155392807731
-0.29130023155183293
0.0637972879458848
-0.2784686598233489
-0.4166405550831261
-0.13587475049812717
-0.2430361575817234
-0.4464421701814968
0.35943610880868576
0.24371997720124156
0.4027300704976766
0.04347215847034154
-0.1209631960204424
0.27069685749446093
-0.34212429670512085
-0.4362230661785292
0.3430508395543346
0.3771582833475686
0.19346320183118376
0.31796718972208754
0.1951240289416336
0.27597389728492144
-0.36120045189969385
0.29052366703348304
-0.3373580659336972
0.28582587842892393
-0.0846830490550785
0.41308913477953535
-0.03361568804205682
-0.35582751571337334
0.3387387046800144
0.14493163664307682
0.07994748797839084
-0.05166669926179118
-0.41399697695688786
0.19464963317422276
0.13882305192355568
-0.18132601102513715
0.5063975707377483
0.15398597563313188
-0.08987909778456048
-0.22532989158765965
0.3593331481750285
0.2275261713351318
-0.423126471939222
0.26874441663366394
0.0453662260489028
-0.038305449882427615
-0.4317142298274756
-0.050134671401148724
0.35425070864730346
-0.11986956839644052
0.4015836272004462
0.203018429823882
0.10815110043120948
-0.10250432073033923
0.4797376996960338
0.09018872536928765
0.12274628822048154
-0.4017320965695973
0.4808283910903012
-0.251439393741733
0.2177927702165123
0.3271138305874847
0.4370160718273365
0.11557290331794452
0.31652245449899635
-0.45476960965538377
-0.09568272017200104
-0.42014339844775084
-0.44610187510026833
0.2648054755080395
0.463160187229545
0.18537764041308355
0.0025771310996473176
0.26030715365512624
-0.3627985110817542
-0.40475632520699334
0.10944275439038327
-0.41769374114778746
-0.47692281722619406
0.28921031419928056
-0.2077752097509275
0.36056010846676
-0.36609669011915336
0.2738416403740714
-0.29658425953191647
-0.06793162030621798
-0.3901004830481991
-0.4191135490602003
-0.4805047560412558
0.32286953585647965
-0.41301814509246676
-0.3194621920563584
-0.147820734757407
0.4833280265456678
-0.3893922551400152
0.04627265825120266
0.4053215131260452
0.2615909074779568
0.2206872471245223
-0.24495072444032545
0.033319597312230796
0.5591417888237907
0.5021439605226579
-0.014128627104676278
-0.49857002376153503
0.10011408872153821
0.07206902085258755
0.37256741102877444
-0.4285697844671984
-0.264248199500089
0.3388518482178168
-0.3150989840912149
0.041472379904748516
0.1715299332629463
0.4647325477841766
0.21152974765587274
-0.1164228814631682
0.46331032093857255
0.12314103618111916
0.30018056441858715
0.035123945278479014
-0.21595794920935724
-0.33132285622866026
