-0.3055
0.046
0.2135
-0.2485
-0.2825
-0.24
0.3005
-0.4255
0.396
-0.137
0.296
-0.498
0.3845
0.275
0.426
-0.448
0.051
0.3605
0.1215
0.448
0.2055
0.487
0.085
0.4045
0.1995
-0.327
0.4805
-0.062
-0.0895
-0.1505
-0.0045
0.293
-0.176
0.0355
0.224
-0.0915
0.151
-0.4865
0.486
0.411
-0.1035
-0.1545
-0.4055
-0.0795
-0.0855
0.4405
0.273
-0.2485
0.315
0.0305
0.3405
0.222
0.447
0.304
-0.1235
0.3575
0.2175
0.4475
-0.298
-0.2485
0.405
0.083
-0.4785
0.3185
-0.1055
-0.265
-0.0565
0.051
-0.3015
-0.0175
0.3145
0.206
-0.483
0.193
0.0745
0.188
0.4725
0.39
0.061
-0.184
-0.2105
0.0995
-0.159
-0.0465
0.279
0.1815
-0.11
0.4265
0.0445
0.4185
-0.2445
-0.21
-0.0025
-0.433
-0.256
-0.3005
0.1245
-0.4605
-0.0965
-0.0505
-0.426
-0.4735
-0.0665
-0.251
0.0545
0.1365
-0.0245
0.141
0.4645
-0.006
-0.3425
0.1
0.0785
0.2475
0.484
0.4465
-0.103
0.1705
0.384
0.086
0.301
0.2175
-0.013
-0.494
0.07
0.154
0.4845
-0.2205
-0.4945
-0.404
-0.313
0.028
-0.133
-0.447
-0.306
0.4905
-0.255
-0.214
-0.2955
0.0415
0.336
-0.1785
0.009
-0.0585
-0.1985
-0.4455
0.0675
0.4925
0.004
-0.433
0.1875
-0.372
0.1645
-0.4915
-0.487
-0.0215
0.3295
0.428
-0.138
0.367
-0.207
-0.4615
-0.3235
0.0095
0.211
0.116
0.4
0.241
0.1235
-0.162
-0.1525
-0.0565
-0.3045
0.4695
0.022
0.322
-0.2125
-0.453
0.0465
0.0965
0.1375
-0.2895
0.294
-0.2335
-0.4715
0.147
-0.388
0.213
0.1685
-0.45
0.453
0.3095
0.082
-0.0865
-0.066
0.3695
-0.2785
-0.076
-0.487
-0.4705
-0.051
0.2515
-0.177
-0.2305
-0.3535
-0.1165
0.0465
0.202
-0.1215
0.0605
-0.4965
0.426
-0.192
0.006
-0.3195
-0.268
-0.093
0.0555
0.414
0.1845
-0.0555
-0.081
0.1695
-0.0165
-0.051
-0.3495
-0.03
0.0225
0.463
0.4775
-0.062
0.013
0.1965
0.2335
0.121
-0.315
0.3395
-0.4155
0.456
0.3725
0.0485
-0.3865
0.425
-0.194
-0.4245
0.421
-0.1305
0.2275
0.1755
-0.348
0.2525
-0.012
0.011
0.204
0.4655
-0.326
0.4645
0.276
0.4465
0.114
0.137
-0.1425
0.4845
-0.33
0.284
0.483
0.4435
0.1375
-0.192
-0.357
0.1955
-0.2955
-0.21
-0.2055
-0.4885
-0.3405
-0.124
-0.2125
0.457
-0.342
0.017
0.494
-0.124
-0.4005
0.4445
-0.1935
-0.4675
0.138
-0.2165
0.133
-0.3885
0.251
-0.021
-0.4655
0.076
-0.493
0.4035
-0.2445
0.2435
-0.0065
-0.359
0.3965
-0.4885
0.096
-0.021
0.0465
-0.5
-0.358
-0.441
-0.035
0.0965
-0.4695
-0.0085
0.3695
0.188
0.0695
-0.383
-0.2185
0.269
-0.334
0.4185
0.213
0.2015
-0.044
0.13
0.1475
0.464
0.0835
-0.204
-0.475
-0.329
-0.1755
-0.0135
0.3745
-0.4775
-0.067
0.253
0.238
-0.4105
-0.108
-0.0955
0.0605
0.446
0.174
0.144
0.284
-0.2445
-0.049
-0.2975
-0.0605
-0.4085
0.306
-0.1855
0.348
-0.2725
-0.242
-0.4455
0.104
0.024
-0.059
0.2445
-0.488
0.339
0.315
-0.373
0.4505
0.3455
-0.0765
0.254
-0.1345
-0.303
0.0975
0
0.1615
-0.0405
0.4775
-0.4245
-0.2945
-0.1925
0.1465
0.12
0.3155
-0.026
0.276
-0.398
-0.466
0.352
0.4045
-0.2285
-0.244
0.2315
0.2285
-0.398
0.31
0.344
0.017
-0.4645
0.469
-0.118
0.0715
-0.418
-0.235
0.174
0.405
0.028
-0.298
-0.4925
-0.089
-0.009
0.3725
0.1025
-0.294
0.117
-0.3165
0.079
0.112
0.1635
0.061
0.338
0.1125
0.1555
-0.26
-0.3585
-0.1445
-0.025
0.04
-0.48
-0.004
0.2635
0.368
0.367
-0.179
0.353
0.445
0.269
-0.435
0.2885
0.2385
0.2515
-0.0055
0.1895
0.491
-0.1205
-0.1645
0.001
0.0895
-0.1985
-0.1585
-0.264
-0.068
0.186
0.0525
-0.075
0.4005
-0.433
0.456
0.2555
-0.163
-0.4625
-0.3315
-0.131
0.3945
-0.201
0.396
0.0505
0.032
0.246
0.45
0.4875
0.454
0.4365
0.015
0.3605
-0.48
0.3035
-0.1395
0.318
-0.0425
0.005
-0.462
0.0025
0.372
0.2575
0.0955
-0.4355
0.3805
0.408
0.09
-0.3975
-0.082
0.306
0.1215
0.374
-0.0815
0.043
-0.468
-0.325
0.003
-0.11
-0.1575
-0.215
0.204
0.1145
0.445
0.252
-0.3455
-0.011
-0.1535
-0.1355
-0.2835
-0.091
0.283
-0.459
-0.456
-0.089
0.4605
-0.0445
0.228
0.0395
-0.3255
0.271
-0.4745
0.361
0.0505
0.191
0.0395
0.286
0.138
-0.307
0.4995
0.299
0.29
0.493
-0.174
-0.0165
-0.077
-0.4645
-0.295
-0.0325
-0.327
-0.35
0.1945
-0.2855
0.1135
-0.321
0.2015
-0.2415
-0.0285
0.1775
0.0515
-0.372
0.3175
-0.043
-0.189
-0.457
0.479
-0.312
0.41
-0.436
0.389
-0.4835
0.2185
-0.471
-0.05
0.281
-0.344
-0.2195
-0.2385
-0.1615
0.3595
-0.4295
-0.4015
-0.413
-0.4635
-0.183
-0.0825
-0.049
0.437
0.1105
-0.0185
-0.486
0.3665
-0.2405
-0.081
-0.3745
0.197
-0.367
-0.032
0.409
-0.4635
0.422
0.1945
-0.37
0.375
0.2885
0.331
-0.3545
0.003
0.2835
0.4555
0.273
0.045
-0.342
0.124
-0.2475
0.058
-0.211
0.3765
-0.441
0.2725
-0.2215
0.35
0.278
-0.1325
0.383
0.3105
-0.2605
-0.3375
0.2465
-0.123
-0.3955
0.244
0.092
-0.044
-0.4575
0.3105
0.3355
0.4125
-0.4435
0.3685
-0.275
0.357
-0.057
0.455
0.157
-0.4795
0.11
0.261
-0.24
-0.314
0.1315
-0.1335
0.0405
0.212
-0.1455
-0.4795
-0.198
0.467
-0.383
-0.4515
-0.133
-0.196
-0.0265
-0.0705
0.1265
-0.442
-0.125
-0.2815
-0.412
-0.323
0.203
0.0475
-0.1235
0.003
-0.1935
0.2325
-0.0345
0.108
-0.4855
-0.406
-0.384
-0.2625
0.4765
0.3305
-0.4485
-0.439
-0.19
0.2505
-0.428
0.431
-0.3835
-0.4025
-0.43
-0.0205
-0.182
0.068
-0.111
-0.086
-0.4885
-0.27
-0.4775
0.0985
-0.0945
0.4945
-0.4315
-0.2845
0.4075
-0.355
-0.1435
0.189
0.2765
0.435
0.358
0.0165
-0.2905
0.4835
-0.3655
-0.071
-0.062
-0.3815
0.0175
0.2495
-0.4385
0.1695
0.153
0.124
-0.411
-0.237
0.4955
-0.018
0.157
0.189
-0.333
-0.341
-0.4755
0.32
-0.193
-0.312
0.1105
-0.167
0.197
-0.198
-0.0585
0.374
-0.3245
0.003
-0.4285
0.248
-0.139
-0.3835
-0.1355
0.28
-0.0905
-0.3715
0.1915
-0.1665
-0.4425
0.2695
-0.233
-0.1925
-0.0425
-0.3615
0.4325
0.4735
0.445
0.0135
0.4535
-0.135
-0.2765
0.1445
0.041
0.158
-0.1855
-0.108
-0.011
0.1105
0.215
-0.3865
-0.1425
0.062
-0.4105
0.0335
-0.0615
-0.4745
0.0725
0.254
-0.0085
-0.045
-0.0025
-0.3595
0.4135
-0.1425
0.3835
-0.06
-0.31
-0.474
0.3185
-0.4905
0.067
0.352
0.3925
0.439
0.029
0.3465
0.048
-0.26
-0.2885
-0.3765
0.163
-0.49
0.4315
-0.394
0.024
0.092
-0.2855
0.38
0.0875
0.0655
0.087
0.258
0.2935
0.288
-0.094
0.4425
-0.113
0.186
0.275
0.401
0.1095
0.3925
-0.3175
0.241
0.2355
0.491
0.2015
-0.0535
-0.3745
0.2065
0.1625
0.19
-0.0045
-0.1565
0.312
0.3535
-0.0755
-0.3025
-0.222
0.4635
0.4265
0.4765
-0.176
-0.196
0.339
0.1865
0.2835
-0.2605
0.413
0.214
0.3725
0.01
0.264
-0.2595
0.002
-0.2145
-0.069
-0.457
-0.114
-0.4565
-0.214
-0.203
0.074
0.037
0.281
0.0005
0.034
0.2185
0.4465
0.406
-0.144
-0.085
0.052
0.44
-0.1935
0.3125
-0.481
0.2135
0.146
0.497
0.1145
-0.3785
0.3745
-0.196
0.307
-0.4115
-0.338
-0.067
0.406
0.1535
-0.278
0.0515
-0.2205
-0.1335
0.092
-0.2425
-0.1065
-0.008
-0.1655
0.345
0.3435
-0.0535
-0.4685
-0.3845
0.175
0.367
0.001
-0.2895
-0.3565
-0.1135
0.414
-0.392
-0.1115
0.4805
0.41
-0.4535
-0.271
0.035
-0.441
-0.4095
-0.114
-0.353
0.3335
0.201
-0.1685
0.385
0.068
-0.1715
-0.377
-0.3445
0.027
0.36
-0.01
0.225
0.299
-0.48
-0.1225
0.3295
-0.0525
-0.2035
0.231
0.446
0.3205
-0.1755
-0.164
0.2515
0.234
-0.106
0.411
0.2995
-0.3445
-0.209
-0.167
-0.098
-0.369
-0.0045
-0.172
-0.2095
-0.287
0.269
-0.449
-0.3415
0.271
0.2095
-0.346
-0.1885
-0.2425
-0.3685
0.3295
-0.1655
0.4215
0.3165
-0.2275
-0.063
0.184
-0.3835
-0.45
-0.431
-0.2515
0.1805
0.386
0.3025
-0.2215
-0.415
0.158
0.3245
0.101
0.346
-0.442
-0.3295
0.242
0.3585
-0.276
-0.372
0.426
0.203
-0.276
-0.34
-0.093
-0.231
0.3055
-0.128
0.0195
-0.044
-0.077
0.1155
-0.3475
-0.0405
0.2165
-0.232
0.2865
-0.184
0.1675
0.4035
-0.0995
-0.2165
0.015
-0.164
0.074
0.325
-0.342
0.094
0.1325
0.31
-0.462
-0.4345
-0.019
0.3035
0.2775
0.103
-0.145
0.108
-0.4725
-0.332
-0.1655
-0.1295
0.0785
-0.3805
-0.3315
0.4915
0.433
0.18
0.4205
-0.2005
0.349
0.1565
0.4005
-0.128
-0.466
-0.3445
0.0655
-0.4935
0.0605
-0.1315
-0.3765
0.4505
-0.128
0.3315
0.443
0.4915
0.1515
0.25
0.254
-0.342
0.433
-0.205
-0.3595
-0.318
0.115
0.2055
0.154
0.467
-0.2125
-0.365
0.354
-0.473
0.0385
0.047
0.4735
-0.4275
0.2185
-0.211
0.412
0.384
0.195
-0.322
0.211
-0.4635
0.1745
0.21
0.1285
-0.3555
-0.491
-0.21
0.4725
0.227
-0.1615
-0.465
-0.29
0.178
0.2885
0.098
0.232
0.487
0.1825
-0.0125
0.2975
-0.3345
-0.0085
0.1885
-0.3325
0.182
-0.032
-0.3805
0.463
0.2855
-0.084
0.269
-0.412
-0.2305
-0.433
0.4955
-0.22
-0.079
0.0525
0.417
0.23
0.172
-0.2015
0.127
-0.287
0.175
-0.4745
-0.069
0.103
0.0785
-0.4905
-0.0865
0.297
0.2205
0.4625
-0.4265
-0.217
-0.0845
-0.498
0.0195
-0.1665
-0.2425
0.4115
0.231
-0.3515
0.459
-0.4555
-0.194
0.4565
-0.252
-0.137
0.4595
0.343
0.3605
-0.186
0.369
0.078
0.44
0.035
-0.396
0.38
-0.3405
0.475
-0.117
-0.227
-0.006
0.3435
0.3275
0.2105
0.3605
-0.201
0.1505
-0.377
-0.0795
-0.432
-0.0705
-0.181
0.04
0.389
-0.407
0.471
-0.3565
0.329
-0.408
-0.369
0.155
0.3095
-0.496
-0.3645
0.31
-0.341
0.2075
0.0045
0.055
-0.2795
0.436
-0.205
0.236
-0.421
-0.4855
0.2845
-0.4895
-0.1885
0.01
0.229
-0.28
0.444
0.1175
0.3955
0.057
0.056
-0.438
-0.0875
0.182
-0.084
0.442
0.145
-0.412
-0.1925
0.19
0.1435
0.3615
0.36
0.2695
0.2355
-0.1055
-0.4955
-0.3085
0.268
-0.3585
0.454
0.0875
-0.3445
0.4615
-0.328
-0.147
0.35
-0.3145
0.0765
-0.151
-0.11
0.3645
0.0415
0.1625
0.053
-0.214
-0.156
0.395
-0.0955
-0.0345
0.286
-0.0625
0.416
0.121
0.0745
-0.354
-0.277
-0.0785
-0.208
0.417
-0.0935
0.499
-0.259
-0.0425
0.428
0.348
-0.41
0.451
-0.0865
-0.0695
0.1865
0.0635
-0.041
0.4215
0.484
0.4675
-0.2055
0.4705
-0.1635
-0.2975
0.076
0.057
0.3255
-0.28
-0.404
0.034
0.0225
-0.1595
0.2615
0.11
-0.1075
-0.2035
-0.104
0.0795
-0.2535
0.178
-0.1935
0.4905
0.361
0.4845
-0.33
0.1735
-0.1425
0.301
-0.359
0.051
0.432
-0.257
0.308
-0.083
0.255
-0.028
-0.058
-0.086
-0.199
-0.426
0.1855
-0.2065
0.1705
-0.301
-0.282
-0.2675
0.102
0.0325
-0.156
0.368
0.0305
0.47
-0.2905
0.4735
-0.1085
-0.255
0.4535
-0.3215
-0.231
-0.4935
-0.215
-0.387
0.078
-0.2175
-0.3345
-0.057
-0.295
0.396
0.287
0.0565
-0.1715
-0.2405
0.155
0.3195
-0.0925
-0.244
-0.16
-0.333
0.261
0.2785
0.3595
0.394
-0.121
-0.2555
-0.111
0.2465
-0.176
0.055
0.079
-0.057
-0.308
-0.2105
-0.0355
-0.149
-0.3155
-0.011
-0.307
-0.0435
0.259
0.279
0.411
-0.4955
0.009
0.0435
-0.4925
0.041
-0.264
-0.091
0.3525
-0.33
-0.2575
-0.3525
0.1315
-0.033
-0.125
-0.0285
0.326
0.2645
0.002
0.499
-0.136
0.2165
-0.082
0.015
-0.183
0.2275
-0.16
0.22
0.25
0.165
-0.2965
0.2595
-0.041
0.325
0.3005
0.0545
0.425
-0.1235
-0.1385
-0.022
0.4695
0.296
-0.457
0.127
0.248
0.1295
-0.3065
0.1915
0.465
-0.405
0.2375
0.135
-0.3505
-0.4245
0.358
-0.0045
0.4245
-0.1885
0.0975
0.1
0.1915
-0.2765
0.4305
0.4435
0.222
0.3975
0.437
0.037
0.389
0.136
-0.481
-0.214
0.453
0.221
0.221
0.0825
0.183
-0.393
-0.3895
0.261
-0.208
0.374
0.207
0.3395
0.0885
-0.267
-0.3525
-0.349
0.3785
-0.208
-0.4685
0.086
-0.0935
0.1035
-0.2555
0.276
0.031
-0.0635
-0.329
-0.2875
-0.2575
-0.144
-0.0255
0.372
0.139
-0.24
-0.171
-0.126
0.4445
0.033
0.467
-0.0055
0.01
-0.215
0.1795
-0.1265
-0.293
0.062
0.086
0.1475
-0.176
0.3315
-0.0825
0.0285
-0.253
-0.12
-0.2565
0.136
-0.2665
-0.175
0.397
0.103
0.3305
-0.4265
-0.4085
0.2205
0.49
-0.4395
0.1965
0.437
-0.4085
0.3885
-0.11
-0.3835
0.2875
-0.164
0.221
-0.2225
-0.118
0.3535
-0.279
-0.281
0.454
0.233
-0.1445
0.484
0.4945
-0.0285
-0.1125
0.3735
-0.273
-0.207
-0.023
-0.058
0.184
0.294
0.0285
-0.4585
-0.1705
-0.4655
0.1075
-0.433
0.436
0.053
-0.2555
-0.098
-0.4735
-0.148
-0.284
-0.3575
-0.094
-0.346
-0.1475
-0.2805
0.2475
-0.1775
-0.239
-0.1065
-0.4095
-0.461
0.1025
-0.331
-0.422
0.0265
-0.295
-0.4975
0.06
0.296
-0.234
0.437
-0.3195
0.3835
-0.32
-0.432
-0.452
0.0005
-0.1895
-0.424
0.1175
0.072
-0.405
-0.168
0.367
0.2575
-0.1025
0.1975
-0.26
-0.4605
-0.3145
0.0425
-0.0625
0.276
-0.1635
0.4385
-0.426
-0.466
0.4305
0.175
-0.279
-0.02
0.393
-0.399
0.271
0.197
0.0565
-0.124
-0.108
0.023
-0.422
0.411
0.265
0.1195
0.0265
-0.249
-0.202
-0.1805
-0.1515
0.225
0.3995
0.046
0.4475
0.0825
0.01
0.1025
-0.172
0.337
0.2865
0.2105
0.1445
0.2785
0.309
0.332
0.271
0.3825
0.1315
0.3335
-0.406
0.1265
-0.466
-0.192
-0.4555
0.4755
0.18
-0.271
-0.254
-0.428
0.4315
0.492
0.167
-0.4005
0.417
0.468
-0.1995
-0.405
-0.2535
-0.1445
-0.3665
0.369
0.2105
-0.0455
-0.322
0.313
-0.2805
-0.388
0.3905
-0.4485
0.1715
0.0305
0.1295
-0.1265
-0.199
-0.0575
-0.131
-0.409
-0.107
-0.066
-0.2175
0.3855
0.37
-0.436
0.1305
0.115
-0.228
-0.291
0.265
-0.404
0.4615
0.1135
-0.3895
0.3895
0.172
0.2985
0.2005
-0.46
-0.4405
-0.2015
-0.1265
0.491
0.357
0.0725
0.231
0.364
0.1755
0.3785
-0.235
-0.163
-0.085
0.153
0.1035
-0.197
0.1085
-0.4795
0.3925
-0.4715
-0.3415
-0.4195
-0.45
0.286
-0.08
-0.327
-0.307
0.416
-0.031
0.3385
0.098
0.3875
-0.048
-0.248
-0.333
0.375
-0.456
-0.014
-0.2065
-0.1925
-0.242
0.1105
0.189
0.459
-0.4775
0.227
0.4325
0.2905
0.2835
0.424
0.177
0.394
-0.0625
-0.2205
0.0405
-0.2695
0.1185
-0.4925
0.152
-0.4265
-0.391
0.2475
-0.3165
0.187
0.434
-0.4715
-0.375
-0.298
-0.2975
0.2395
0.178
-0.08
-0.5
0.3065
0.114
0.1805
0.164
0.049
-0.2275
0.405
0.1385
-0.4705
0.065
0.3115
0.0095
-0.3605
0.303
-0.2745
-0.007
0.125
0.099
0.1655
0.461
-0.0085
-0.23
-0.206
0.2265
-0.151
0.0815
0.2425
-0.4485
-0.431
-0.1005
-0.1235
-0.383
-0.2385
0.062
0.107
0.1295
0.1505
0.124
0.335
-0.2245
0.366
-0.3495
0.08
0.3475
0.329
0.437
-0.26
-0.319
0.366
-0.3405
-0.377
0.1375
-0.059
0.159
-0.4735
-0.3305
0.0055
-0.1565
-0.119
-0.0705
-0.01
-0.07
0.1105
-0.262
-0.017
0.338
0.3345
0.1035
0.2585
-0.2725
-0.174
-0.0295
0.0685
-0.425
-0.1405
-0.104
-0.1285
-0.41
-0.162
-0.357
0.4405
0.2795
-0.289
-0.17
-0.225
-0.1645
-0.4785
0.1685
0.352
-0.059
0.289
0.4
-0.274
-0.226
-0.086
-0.2025
0.366
-0.097
0.466
-0.1035
-0.4685
0.1545
-0.442
-0.408
-0.2865
-0.3245
0.298
-0.4155
0.235
0.347
-0.138
0.1735
-0.325
0.3535
-0.359
-0.32
-0.02
-0.3415
0.0235
-0.483
0.216
-0.449
0.0655
-0.4635
-0.1625
-0.4085
-0.098
-0.0665
0.391
-0.173
-0.0015
-0.241
0.0325
-0.1895
0.1855
0.337
-0.2105
0.3125
-0.246
-0.4295
-0.1065
-0.4755
-0.063
-0.2655
0.0165
0.3375
-0.2985
-0.2415
-0.3415
-0.296
-0.2485
-0.096
-0.2505
0.34
0.118
0.3975
0.054
-0.1455
-0.3315
-0.3085
0.426
-0.1245
0.124
0.4335
-0.128
-0.1195
0.334
-0.009
0.364
0.1195
0.4315
0.336
-0.3375
0.0235
-0.2825
-0.0135
-0.474
0.463
0.0905
-0.379
0.068
0.085
0.47
0.2545
-0.101
0.343
0.2105
-0.098
0.1725
-0.226
0.175
0.2415
0.181
-0.098
0.1565
-0.0685
0.4355
-0.0655
-0.078
-0.3105
-0.263
-0.031
0.128
-0.0425
-0.231
0.075
0.2875
0.0325
0.373
0.165
-0.0315
0.1945
-0.212
-0.0015
0.018
0.0315
-0.382
0.216
-0.2035
-0.028
-0.3705
-0.0295
0.3815
0.0835
0.042
-0.3905
0.007
0.4615
-0.008
-0.3275
0.178
0.1235
0.448
-0.022
0.0975
0.2245
0.45
0.396
-0.209
-0.2795
0.1375
-0.437
0.303
0.149
0.2875
0.248
0.0395
0.066
-0.1425
0.1165
-0.0965
-0.4675
-0.42
-0.322
0.3375
-0.044
0.057
0.1355
0.133
0.236
0.2405
0.141
-0.13
0.4935
-0.146
0.2485
0.0655
-0.2875
0.096
-0.2735
0.139
0.2365
0.4445
0.066
-0.142
0.322
0.039
0.3045
0.404
-0.0105
-0.3115
-0.372
0.3765
0.034
-0.1795
0.0465
0.107
0.303
-0.1865
0.0305
-0.104
0.147
0.0865
0.3015
0.397
0.09
-0.3795
0.1705
-0.2915
0.451
0.4835
-0.4165
-0.383
-0.4545
0.3585
0.173
-0.3925
0.3795
-0.407
-0.2905
-0.433
-0.2465
0.2855
-0.4765
-0.489
0.1895
0.4665
0.0545
-0.2065
-0.4485
-0.1315
0.1415
0.407
0.0875
0.131
-0.2665
0.2785
0.0265
-0.0785
0.073
0.3915
0.4005
0.3215
-0.203
0.171
0.2045
-0.384
-0.3445
-0.128
0.1175
-0.0575
0.424
-0.4495
0.2465
-0.0605
0.09
-0.1985
0.3595
-0.201
-0.1905
0.351
0.009
0.161
-0.12
-0.3075
0.439
0.2765
-0.094
0.4915
-0.087
0.414
0.2945
-0.37
-0.0655
-0.057
-0.2665
0.3925
0.118
0.283
-0.3055
-0.085
0.1775
-0.089
0.2225
0.258
0.316
0.2745
-0.262
0.114
0.4145
0.1015
-0.0195
0.3485
-0.153
0.357
0.171
-0.4945
-0.4295
-0.3595
0.405
-0.163
-0.0675
-0.2315
0.342
-0.2885
-0.457
0.418
-0.325
-0.458
-0.4385
-0.095
-0.22
0.41
-0.323
-0.114
0.4965
0.168
-0.192
-0.2345
-0.432
-0.1825
0.316
0.383
-0.4325
0.255
0.228
0.2475
-0.2215
-0.0675
0.287
-0.3205
0.302
-0.132
-0.442
-0.2175
0.1395
0.2125
-0.3415
-0.1545
0.3145
0.334
-0.412
0.234
0.2885
0.081
-0.3335
0.0685
0.2845
-0.0735
0.3985
0.469
0.14
-0.083
-0.201
0.058
-0.133
0.4
-0.2395
0.3005
-0.4295
0.045
0.359
0.4675
0.274
0.024
-0.4785
-0.479
0.2005
0.1795
-0.3685
0.1985
-0.1255
0.0765
0.353
-0.185
0.066
0.3825
0.0805
0.182
-0.211
0.1285
0.0615
0.071
-0.4345
-0.155
-0.303
0.034
-0.2565
0.176
0.4505
-0.1725
0.192
-0.0215
0.1595
0.0435
0.492
0.2695
-0.271
0.426
-0.268
0.425
0.122
0.4245
0.2235
-0.0465
0.3485
-0.0405
-0.234
-0.153
-0.126
0.4015
0.424
0.4005
-0.0355
-0.1215
0.07
-0.4665
0.2955
0.4255
-0.2485
-0.0945
0.3185
0.195
-0.4155
0.333
-0.3665
0.372
-0.067
-0.0215
-0.2505
0.014
0.069
0.3685
-0.346
-0.0795
-0.2365
0.4315
-0.091
0.307
0.2545
-0.319
-0.4415
0.0325
0.167
0.1635
-0.4825
0.094
0.1085
0.1555
0.4285
-0.4695
0.3955
0.3515
-0.3805
0.0065
0.0295
0.374
0.27
-0.1195
0.4555
0.087
0.4205
-0.2445
-0.1895
0.1505
0.1515
0.269
-0.165
-0.3175
-0.0275
0.1325
-0.085
-0.2465
0.346
0.0365
0.38
-0.125
-0.0335
-0.381
-0.215
-0.4955
-0.0905
-0.109
0.36
0.0025
-0.362
0.2635
-0.102
0.0925
0.06
0.4825
-0.248
-0.235
-0.2785
-0.2215
0.1075
-0.0735
0.1965
0.2585
0.4075
0.2065
-0.0625
-0.425
-0.46
-0.1005
0.1015
0.121
0.2045
-0.014
0.301
0.4645
-0.3955
-0.0805
-0.052
0.33
-0.261
0.1435
-0.255
-0.0965
-0.1055
0
0.0395
-0.423
-0.3935
0.3335
0.145
-0.0445
0.342
-0.1775
0.172
0.3905
0.3825
0.0755
-0.3915
0.391
0.2275
0.1095
-0.0465
-0.4385
-0.2055
-0.319
-0.187
0.1705
0.456
-0.105
0.227
0.061
-0.445
0.266
-0.1255
0.0375
-0.383
-0.1295
0.398
0.071
-0.16
0.2405
-0.1845
0.157
-0.352
-0.0415
-0.0605
0.1205
-0.1845
-0.438
-0.085
-0.173
-0.1775
0.1625
-0.3765
-0.092
0.001
-0.226
-0.307
0.051
0.2345
0.403
-0.405
0.132
-0.2165
0.3075
0.4045
-0.3465
0.344
0.1655
0.27
0.4925
-0.0715
-0.1505
-0.1705
-0.1725
-0.2045
0.097
-0.205
-0.32
0.469
-0.209
0.1085
0.068
0.4245
0.339
0.082
-0.074
-0.4895
-0.3515
-0.4735
-0.473
0.2945
-0.1635
-0.2385
0.301
-0.188
-0.269
-0.381
-0.3515
-0.178
0.279
-0.392
-0.3305
-0.1545
0.216
-0.2305
-0.399
0.2555
-0.355
0.197
0.3065
-0.0555
-0.4235
-0.3705
-0.3695
0.429
-0.268
0.3135
-0.188
-0.167
-0.202
-0.093
0.227
0.411
0.2485
-0.2445
0.369
0.176
-0.26
0.397
-0.1505
-0.406
-0.186
0.275
-0.2845
0.0125
-0.446
0.1505
-0.121
-0.0725
0.1125
0.008
-0.184
0.1755
-0.477
-0.172
-0.3505
-0.236
0.2595
0.078
-0.4185
-0.139
0.1895
0.0645
0.1415
-0.342
-0.3065
0.266
-0.305
-0.2205
-0.2715
-0.1595
-0.456
0.3455
0.287
0.4095
-0.247
-0.3275
-0.159
0.168
0.442
0.499
-0.1615
-0.3685
-0.3005
0.3305
-0.0985
-0.0185
0.083
0.3955
-0.0255
0.1545
-0.493
0.1255
-0.1315
0.136
-0.034
0.4315
-0.4845
-0.2455
0.325
0.1325
-0.152
0.4195
0.0485
0.1925
0.242
0.311
-0.2575
0.3405
0.401
-0.342
0.321
-0.1925
0.0045
-0.4615
0.1335
-0.086
0.3975
0.48
0.391
-0.25
0.412
-0.259
-0.215
-0.183
0.276
0.2705
-0.1535
0.426
-0.33
-0.099
0.43
0.401
0.218
0.154
0.3045
-0.0405
0.0425
0.243
-0.317
0.265
-0.0305
-0.4545
0.258
-0.0415
-0.459
0.2795
-0.336
0.4265
0.054
-0.4325
-0.4115
-0.1845
0.0795
0.217
-0.394
0.0285
0.1295
-0.4405
-0.1075
-0.063
0.364
-0.1305
0.1555
0.3575
-0.4625
-0.441
-0.2865
0.065
-0.1035
-0.11
-0.409
-0.3085
-0.4375
-0.159
0.2865
0.007
0.4535
-0.101
0.0825
-0.3725
-0.141
0.1305
-0.4855
0.023
0.222
-0.1095
0.4825
0.1975
-0.0805
0.291
0.3425
-0.029
-0.409
-0.1385
-0.007
0.0705
0.0005
0.166
0.399
-0.105
0.4105
-0.4065
-0.416
-0.1455
0.079
0.394
0.413
-0.479
-0.037
0.2175
-0.253
-0.3755
-0.4995
-0.45
0.4485
-0.0815
0.124
-0.3205
0.263
0.339
-0.018
-0.0935
-0.161
0.44
-0.2845
-0.3585
0.247
-0.161
-0.263
-0.283
0.1915
0.2675
-0.349
-0.416
-0.0865
-0.1355
0.348
-0.2685
-0.0225
-0.281
0.1695
0.339
-0.455
-0.387
0.414
0.29
-0.4165
-0.342
-0.262
0.363
0.133
-0.086
-0.0765
-0.1855
0.1095
-0.3155
-0.385
0.2455
-0.3245
-0.4315
0.3965
-0.2225
0.269
-0.401
0.4095
0.135
0.2845
0.45
-0.251
0.3415
-0.185
-0.4765
-0.3605
0.2525
-0.251
0.1185
0.2495
-0.214
0.4555
-0.425
0.385
-0.2505
-0.3745
0.0925
-0.1595
0.15
-0.4115
0.0515
0.431
0.409
0.3935
-0.223
-0.497
-0.3365
0.4135
-0.48
0.063
0.137
0.2525
-0.3595
-0.394
-0.4315
-0.041
-0.407
0.282
-0.4875
0.4745
-0.432
0.4825
0.3115
0.462
0.0035
0.0905
-0.3135
0.022
-0.2615
-0.429
0.3495
-0.3105
0.0385
-0.454
0.328
0.0455
-0.491
-0.4305
0.192
0.3585
-0.195
-0.4315
-0.0295
0.3865
-0.015
0.2005
0.364
0.1185
-0.4395
0.0845
-0.2655
0.369
0.0275
-0.3725
0.4245
-0.0505
0.434
0.3115
-0.0755
-0.225
-0.4505
0.3605
0.292
0.4745
-0.0165
-0.2445
0.134
0.145
-0.0955
-0.2135
-0.074
-0.118
-0.4965
0.002
0.228
-0.0755
0.0735
-0.473
0.3265
-0.1755
-0.417
-0.2655
0.102
0.1135
-0.05
-0.451
0.1375
0.403
0.009
0.318
-0.078
0.114
-0.3975
0.163
-0.422
-0.445
-0.492
0.084
0.3535
-0.0345
-0.4035
-0.4445
0.037
0.058
0.195
0.3825
0.3405
0.133
0.462
0.33
0.4155
-0.3245
-0.2655
0.3595
0.429
-0.475
0.0365
-0.127
-0.111
-0.0315
0.144
-0.027
-0.1465
-0.494
0.251
-0.167
0.437
0.1355
-0.09
-0.0735
-0.046
-0.0525
0.4005
-0.0375
-0.397
-0.13
0.241
-0.111
0.296
0.043
0.317
-0.391
0.0525
-0.282
0.18
-0.0215
0.1
0.202
0.2435
-0.03
-0.014
-0.245
0.124
-0.068
0.026
0.498
0.0595
0.228
-0.085
0.149
-0.1135
0.074
0.368
-0.222
0.467
0.3475
-0.1565
0.3445
0.366
0.004
-0.3085
0.454
-0.4555
0.144
0.4795
-0.121
-0.4355
0.1995
-0.262
0.361
0.0595
0.348
-0.065
-0.2515
0.015
0.141
-0.49
-0.2335
-0.3025
-0.1135
0.342
0.2085
-0.2655
0.1285
0.3965
0.2615
-0.3655
0.3835
-0.384
0.318
-0.1895
-0.065
0.153
0.2515
-0.208
0.326
-0.1485
-0.156
0.14
-0.0835
-0.112
-0.0085
-0.3715
-0.313
-0.008
0.1295
0.041
-0.0575
0.019
-0.23
-0.2035
0.279
-0.1215
-0.417
0.2615
0.1775
0.374
-0.041
-0.375
-0.243
-0.2395
0.386
-0.18
-0.354
-0.197
-0.433
0.4865
0.018
0.2295
0.426
0.4325
-0.034
0.2665
0.0555
0.068
-0.2845
-0.4045
-0.187
0.276
0.3335
-0.466
-0.157
-0.406
-0.1475
-0.05
-0.1225
-0.425
-0.0415
-0.204
0.441
0.2385
-0.003
-0.364
-0.2165
0.1615
-0.361
-0.202
0.4265
-0.2235
0.219
-0.267
-0.303
0.342
0.134
0.1795
0.2625
-0.022
-0.435
-0.03
0.102
-0.1385
0.158
0.4905
0.3045
0.171
0.179
0.1835
-0.4955
-0.4245
-0.176
-0.2175
0.236
0.373
-0.4025
-0.402
-0.321
-0.1145
0.3505
0.069
-0.217
-0.152
-0.4755
0.1525
0.0385
0.11
-0.228
0.375
-0.2085
-0.301
0.2055
-0.0175
0.013
0.058
-0.4595
0.2775
-0.244
-0.4535
0.2985
0.356
-0.323
0.173
0.2905
0.3355
0.351
-0.3915
-0.3995
0.059
0.4275
-0.311
-0.347
-0.1485
0.251
0.169
0.2655
0.016
0.4665
0.2965
0.119
-0.407
0.249
-0.2985
-0.089
0.194
-0.046
-0.4975
-0.481
0.138
-0.2985
-0.3175
-0.046
-0.1765
-0.1115
0.2875
0.4905
-0.4875
0.385
-0.2115
-0.255
-0.089
-0.0185
-0.2705
-0.2115
0.292
0.1275
-0.182
-0.1225
-0.271
-0.0565
0.1295
0.456
-0.291
0.2465
0.213
0.352
-0.204
0.302
0.4335
0.362
0.455
-0.339
-0.4605
0.4485
-0.2615
-0.429
-0.344
-0.0235
-0.0105
0.4815
-0.184
-0.3985
-0.0425
-0.116
0.182
0.0425
-0.0215
0.164
-0.035
0.44
0.3145
0.3765
0.242
0.3905
-0.2765
0.018
0.307
0.3845
0.434
0.1415
0.246
-0.134
-0.007
-0.337
0.198
0.3605
-0.1835
0.0405
-0.065
-0.344
0.001
-0.4055
-0.5
-0.166
-0.438
-0.2695
-0.456
-0.1655
0.037
-0.1545
-0.4745
-0.4035
0.3285
-0.223
-0.444
0.2475
0.113
0.2005
0.344
0.1435
0.1365
0.0105
0.3185
0.32
0.407
-0.1825
0.157
-0.2265
-0.1735
0.4925
0.101
0.4525
0.492
0.4955
0.2465
-0.065
-0.462
0.047
-0.2295
0.1025
-0.4305
0.2265
-0.409
0.1165
-0.0115
0.095
-0.326
-0.478
0.2025
0.183
-0.395
0.397
-0.46
-0.306
0.183
0.215
0.4
-0.383
-0.156
0.257
-0.286
-0.288
-0.3215
-0.0815
-0.427
0.1985
-0.191
0.203
-0.0165
0.111
-0.2855
0.162
-0.084
0.4515
0.0415
-0.41
0.231
-0.484
0.447
0.4445
0.4105
-0.278
-0.3145
-0.0835
-0.139
-0.274
-0.4765
-0.4305
-0.473
0.4125
-0.3215
-0.322
-0.361
-0.286
-0.301
-0.1315
0.082
-0.0735
0.4425
0.483
-0.2995
-0.1185
0.2375
-0.0995
-0.026
-0.3185
0.4455
-0.2975
0.4675
0.394
0.1105
0.447
-0.4975
-0.0235
-0.3865
-0.2375
0.2095
0.4295
-0.4105
0.078
-0.016
0.3945
0.252
0.44
0.1735
0.1255
-0.08
-0.3435
-0.3325
0.0295
0.1765
-0.1655
-0.3375
0.457
0.202
0.0115
0.2445
-0.103
0.3915
0.052
0.291
-0.2355
-0.024
-0.2655
0.4605
-0.0325
0.242
0.139
0.032
0.165
-0.019
0.1315
0.068
-0.4245
0.3595
-0.4555
0.261
0.074
0.2945
-0.25
-0.4835
0.267
-0.039
0.271
-0.1785
-0.027
0.143
0.2515
0.467
0.4385
0.342
0.2355
-0.2345
0.344
0.2425
-0.262
-0.101
0.451
-0.2805
0.3375
0.33
-0.0845
-0.3715
0.1225
0.0675
0.1655
-0.1905
0.4275
0.163
0.446
-0.2
-0.2275
0.224
0.0515
-0.311
0.27
-0.257
-0.157
-0.265
0.0785
0.044
-0.0765
0.251
-0.3015
0.2425
-0.1045
0.218
-0.0155
0.1845
0.368
-0.292
-0.395
0.082
0.262
-0.498
-0.1155
0.0395
-0.2925
-0.0935
-0.5
-0.4335
-0.21
0.1665
-0.1535
0.0825
0.247
0.4525
-0.0475
0.277
0.41
0.3115
0
0.474
-0.2295
0.2615
0.161
0.0265
-0.4955
-0.4245
-0.0825
-0.314
0.176
-0.0465
-0.2055
-0.186
-0.388
0.4525
-0.187
-0.2335
-0.463
-0.11
0.006
-0.275
-0.491
0.496
-0.3105
-0.436
-0.311
0.051
-0.317
0.226
0.0515
0.121
0.445
0.4905
-0.312
-0.0575
0.0275
0.1455
-0.0955
0.445
-0.0925
0.1935
-0.3385
0.1695
-0.43
-0.159
0.2905
0.335
0.4685
0.4015
0.0595
0.372
0.3375
0.392
0.488
-0.1445
-0.4535
0.322
-0.285
-0.1245
-0.221
-0.1975
-0.464
-0.1805
-0.0475
0.1195
0.478
-0.3265
0.0155
-0.026
-0.1805
-0.392
0.347
0.189
-0.2765
-0.267
0.227
0.4105
0.4195
0.1095
0.0335
0.1
-0.3475
0.4675
-0.1805
0.4225
-0.3815
0.232
0.4605
0.3715
0.0575
0.329
-0.434
-0.37
-0.1295
0.3985
-0.4035
-0.4
0.0865
-0.3575
0.09
0.3095
0.493
0.4375
0.4015
-0.409
0.167
0.275
0.336
0.279
0.16
-0.2365
-0.434
0.0865
0.224
-0.008
-0.2125
0.2385
0.4075
-0.4085
0.2515
0.405
0.2945
-0.416
-0.1825
0.3045
-0.0085
-0.029
-0.2195
0.323
0.06
-0.485
-0.4965
0.035
0.119
-0.3925
0.396
0.105
0.035
-0.3175
-0.062
0.4815
-0.2315
0.362
0.0935
0.0735
0.0805
-0.4735
-0.2045
-0.0175
-0.0245
-0.261
-0.4295
0.1915
0.48
-0.0675
-0.2635
0.255
-0.303
0.365
-0.3825
-0.099
0.3045
0.2695
0.3125
0.404
0.0605
-0.1
-0.272
0.2435
0.18
-0.177
-0.19
-0.3355
-0.293
0.3235
-0.1005
0.435
0.3175
-0.324
0.056
0.1005
0.123
0.197
0.061
0.0125
-0.0885
0.0305
0
0.46
-0.1885
-0.2465
-0.3615
0.449
0.4485
-0.007
-0.1645
0.4
0.159
0.0215
-0.4975
0.2065
0.4945
-0.2005
-0.4225
-0.0385
-0.499
0.276
0.3535
0.064
-0.2925
0.0655
-0.053
0.2725
-0.0085
-0.2545
-0.297
-0.182
-0.012
0.3265
0.3
0.4385
-0.209
-0.184
0.122
0.2935
0.414
0.1525
-0.1475
-0.082
0.0785
-0.399
0.0565
0.37
-0.0205
0.2565
-0.479
-0.036
0.113
0.317
-0.3235
0.3245
-0.33
0.4755
-0.276
0.08
-0.254
0.361
-0.1045
0.015
0.4665
-0.1875
0.148
0.227
-0.113
-0.2215
-0.067
0.1895
0.1725
-0.3395
-0.387
0.3605
0.033
0.1665
-0.2725
0.2095
-0.4595
0.1495
0.158
0.2795
0.148
0.425
-0.32
-0.1925
0.396
0.1115
0.0545
-0.179
-0.03
-0.4585
-0.181
0.2865
0.2425
-0.3815
-0.106
-0.264
-0.1975
-0.307
0.0935
0.161
0.218
0.2985
0.4265
-0.469
-0.457
0.0595
-0.1075
0.211
-0.218
0.3265
0.485
-0.415
-0.2375
-0.444
0.418
-0.2335
0.0915
0.085
0.131
0.388
-0.0845
0.2665
0.128
0.1895
-0.0725
0.075
-0.1365
-0.089
0.0185
0.09
0.491
0.37
0.368
0.08
-0.3215
-0.4235
0.2175
-0.1685
0.2015
-0.008
-0.1465
-0.0105
0.0395
0.23
-0.176
-0.2915
-0.2715
0.216
-0.1765
-0.1275
-0.178
-0.4865
-0.0025
-0.4385
-0.409
-0.338
-0.258
-0.3
0.0675
-0.154
0.361
0.256
-0.363
-0.095
0.257
0.0155
-0.205
0.2855
0.167
0.2495
0.077
0.0415
-0.0935
-0.222
-0.2375
0.262
0.2185
-0.3475
-0.197
-0.114
-0.058
0.371
0.121
-0.0465
0.4285
0.1455
-0.358
0.088
0.2315
-0.437
0.1275
0.2865
-0.477
0.02
-0.4345
0.438
-0.3265
-0.403
0.3595
-0.417
-0.2255
0.326
-0.0565
-0.257
-0.2155
-0.2285
-0.096
-0.1375
-0.1755
-0.332
0.4595
-0.344
-0.347
0.059
0.352
-0.464
-0.3085
0.4095
-0.354
-0.281
-0.091
-0.4435
-0.024
0.2175
-0.326
0.2165
-0.3835
0.258
0.275
-0.136
0.402
0.391
-0.4375
0.4615
-0.392
-0.357
0.052
0.4225
-0.431
0.254
-0.0365
-0.265
0.4625
-0.1805
0.2995
0.011
-0.474
0.468
-0.0025
0.3755
0.332
0.4115
0.14
0.1205
0.4785
-0.0045
0.0245
0.039
0.2225
0.2395
0.146
0.1395
0.031
0.431
-0.2665
-0.45
-0.052
-0.1955
-0.343
0.314
0.2105
0.1305
0.012
0.0095
-0.4025
0.06
-0.0855
0.202
0.0125
0.1705
0.24
0.038
-0.491
0.2295
0.2415
0.2775
-0.15
-0.0515
0.4475
-0.4235
0.117
0.0245
0.3955
0.4315
0.007
0.32
-0.3325
-0.486
0.469
0.3605
-0.3385
-0.111
0.372
0.0085
-0.0045
0.016
0.039
-0.1555
-0.294
-0.435
0.4085
0.399
0.3925
0.42
-0.142
0.183
-0.0695
-0.217
0.4515
0.49
-0.237
0.2535
-0.4125
-0.4705
0.2965
0.3095
0.2405
-0.3665
-0.346
-0.0855
-0.032
-0.356
0.3255
0.4675
0.07
0.3505
0.001
-0.056
-0.168
-0.232
0.3375
-0.167
0.139
0.1485
-0.3725
0.034
0.1995
0.28
0.132
0.087
0.2905
0.4135
0.104
0.171
0.436
0.342
-0.0935
0.373
-0.2905
0.43
0.1285
0.2205
0.3475
0.216
0.2975
-0.144
-0.0855
-0.39
0.116
-0.2195
-0.0965
0.022
-0.3525
-0.1885
-0.0685
0.3275
0.2625
0.3885
0.487
0.368
-0.167
-0.446
0.2215
-0.425
-0.1185
0.1025
-0.4155
0.024
0.4475
0.3155
0.4745
-0.428
-0.2255
0.1335
0.471
-0.099
-0.0905
0.256
-0.3505
-0.4795
0.1015
-0.195
-0.1785
-0.3585
0.0245
0.171
0.324
-0.3005
0.271
0.1275
0.1715
-0.289
0.19
0.0295
0.48
-0.462
0.248
-0.26
-0.3585
0.057
0.488
-0.18
-0.1575
0.1155
0.252
0.096
0.3675
-0.02
-0.4705
0.2635
-0.0275
-0.243
0.212
0.104
-0.499
-0.336
0.085
0.1425
0.3275
0.122
-0.3
-0.3575
-0.26
0.3765
0.482
-0.3075
-0.272
0.2565
-0.197
0.074
0.282
0.047
-0.0315
-0.191
-0.33
0.148
-0.061
-0.3515
-0.216
0.057
0.051
0.1515
0.4005
-0.2465
0.349
-0.0625
-0.4115
-0.41
-0.3885
-0.434
0.197
0.297
-0.352
-0.41
-0.4505
-0.2725
0.436
0.402
0.4765
0.0725
0.1285
-0.013
-0.3805
0.351
-0.456
0.1195
0.4415
0.222
-0.1705
-0.3465
-0.0545
-0.0145
-0.3245
0.0915
0.3455
-0.49
-0.0255
-0.276
-0.2615
-0.0055
0.131
0.191
-0.138
-0.284
0.241
0.176
0.29
0.194
0.047
0.4265
-0.008
0.225
-0.366
-0.0005
-0.142
-0.009
0.326
-0.381
0.303
-0.4865
-0.214
-0.0885
-0.3955
-0.1955
-0.1885
0.0905
0.152
-0.0275
-0.02
-0.4015
-0.2605
-0.4835
-0.134
0.049
0.106
0.127
0.252
-0.0955
0.097
0.284
-0.064
-0.2665
-0.02
0.3565
-0.1015
0.469
0.1755
0.373
0.278
-0.3765
0.237
-0.331
-0.056
-0.447
0.2445
-0.2775
0.2205
0.258
0.3515
0.364
0.1405
-0.254
-0.4315
-0.4505
0.311
-0.461
0.017
0.122
0.281
-0.3445
0.3035
0.0955
-0.006
-0.2495
0.1745
-0.3005
0.242
-0.4375
-0.352
-0.217
0.0835
-0.26
-0.4405
0.2705
-0.4045
0.244
-0.0395
0.3025
0.08
0.4175
-0.262
0.2675
-0.0475
0.199
-0.07
-0.2985
0.2535
0.06
-0.3285
0.0685
0.095
0.462
0.1725
-0.31
-0.1525
0.4205
-0.0065
0.34
0.3405
0.2975
-0.0975
-0.348
-0.0565
-0.4975
-0.176
0.188
0.49
-0.1515
-0.2465
0.337
0.378
-0.364
-0.4185
0.043
0.002
-0.4715
0.2755
-0.228
-0.233
0.444
0.0255
-0.4785
0.388
-0.2375
-0.1235
-0.0595
-0.298
-0.195
0.3095
-0.3155
-0.4705
-0.2485
-0.4505
0.189
-0.3725
-0.316
0.3965
0.4865
-0.2665
-0.3655
0.2385
-0.4955
-0.215
0.14
-0.155
-0.4915
0.427
-0.025
0.044
0.262
-0.161
0.246
-0.4705
0.3935
-0.2205
0.3425
-0.198
-0.2625
-0.115
0.0005
0.356
-0.378
0.1255
0.395
-0.026
0.4545
-0.245
0.0905
0.0155
-0.4085
0.197
-0.292
0.181
-0.145
-0.2665
-0.2025
-0.2985
-0.498
0.4645
0.41
0.2805
-0.092
-0.209
-0.372
-0.251
0.304
-0.428
-0.0915
0.3475
-0.3905
0.44
-0.1635
0.1985
0.1535
0.339
-0.2485
-0.245
-0.236
0.422
-0.1285
0.1895
-0.2285
-0.347
0.2395
-0.137
0.08
-0.077
0.477
-0.2235
0.0705
0.2915
-0.133
-0.2355
0.3065
0.2505
0.0855
0.0645
0.2815
-0.2535
0.253
-0.43
-0.313
-0.2045
-0.1
0.0745
0.026
0.4955
0.291
0.001
0.202
-0.25
-0.2445
0.1315
-0.3165
0.3545
0.2925
0.101
0.1795
-0.1265
-0.2265
0.3305
0.2525
-0.1215
0.1955
0.23
-0.1235
0.326
0.423
-0.4375
0.2405
0.461
-0.064
-0.4135
0.3495
0.2645
-0.3675
0.1335
-0.1455
0.299
0.469
-0.341
0.3785
0.2615
0.266
0.3975
-0.194
-0.1755
-0.3905
0.34
-0.4175
-0.067
0.1255
-0.1015
0.4485
0.102
0.4495
-0.385
-0.196
-0.228
-0.3465
0.195
0.4715
-0.191
0.485
0.1605
0.49
-0.362
0.272
0.4465
0.4425
0.0135
-0.464
0.4265
-0.3345
0.4445
-0.1135
-0.213
-0.2565
0.4725
-0.2545
-0.1555
0.2055
-0.1255
-0.278
0.467
-0.059
-0.433
0.2155
-0.3985
-0.443
0.125
-0.1995
0.436
0.1135
0.1565
0.211
0.457
0.027
-0.3
-0.3325
0.488
0.1815
-0.439
0.123
0.4485
-0.271
-0.1945
-0.025
-0.1865
-0.1595013960890946
-0.036229933907172954
-0.04772326382327605
0.326837051563058
0.4087968474805529
0.12800154325395197
0.13564701705515497
-0.40496615621988674
-0.017085840077823062
-0.03339871271818641
-0.3755088521155612
0.06299999469090656
0.1259944753989069
0.47375505852568545
0.25900757775185806
0.235603121964283
0.028936750091144575
0.2140851533847383
0.23649469956840719
-0.033476926377055356
0.03749224516216625
0.09704022470871862
-0.2534670842151457
0.42581426610097345
0.26448020867951055
0.3977650686841828
0.14885787694361433
-0.05145320253477651
0.17205790944995886
0.01298405338308948
0.48243506474280207
0.17751466625502513
0.1864057100756562
0.10580486148608892
0.08794542184573634
0.19299926438819093
0.24956905078849484
0.3780989406020889
-0.31685938317909057
0.23275292861573899
-0.07920304882926985
-0.40006166497542844
-0.3815599550023524
0.3165738723940689
0.405533831814097
0.14298003753567376
-0.06949423969474076
-0.338110816397919
0.43150765951282505
0.30972252682359647
0.22561954944324467
0.09867620182334969
0.12354914162395779
0.045970460551248975
0.16130432267233452
-0.36348253541857173
0.005604993021150349
0.3059570051676131
0.013000030931143797
-0.4779409090916391
-0.3320013960890946
0.27127006609282706
0.28227673617672394
-0.25066294843694203
-0.4647031525194471
0.40750154325395194
0.262147017055155
-0.10546615621988671
0.009414159922176939
-0.19789871271818643
0.04349114788443884
0.10249999469090655
-0.4025055246010931
-0.4912449414743145
0.35800757775185804
-0.35489687803571696
0.24393675009114457
0.07108515338473831
0.005494699568407191
0.11352307362294466
-0.23900775483783374
-0.1349597752912814
0.18003291578485428
-0.44368573389902655
0.36898020867951054
0.3982650686841828
-0.3831421230563857
0.18404679746522348
-0.4204420905500411
0.1599840533830895
-0.08906493525719791
-0.3899853337449749
0.3309057100756562
-0.31419513851391107
-0.16105457815426366
-0.3815007356118091
0.4125690507884948
-0.3444010593979111
0.3456406168209094
-0.32474707138426107
-0.49520304882926985
-0.020561664975428405
-0.3625599550023524
0.04757387239406893
0.206533831814097
-0.24901996246432623
-0.06499423969474077
-0.269610816397919
0.283007659512825
0.43722252682359647
0.11611954944324465
-0.22332379817665032
0.2695491416239578
-0.27852953944875103
0.05730432267233452
0.10051746458142827
-0.49739500697884964
-0.4925429948323869
-0.4499999690688562
-0.2874409090916391
0.053498603910905385
-0.44672993390717297
0.43277673617672396
-0.05366294843694202
-0.3437031525194471
0.405501543253952
-0.25235298294484504
0.4665338437801133
-0.3265858400778231
-0.33789871271818644
-0.3190088521155612
-0.07200000530909344
0.0974944753989069
0.16175505852568547
0.16250757775185806
0.19410312196428303
0.4409367500911446
0.4925851533847383
0.4334946995684072
-0.06897692637705535
0.3594922451621662
-0.2304597752912814
0.21353291578485428
0.17731426610097345
0.06098020867951054
-0.3282349313158172
-0.12964212305638567
0.4175467974652235
0.19055790944995885
0.057484053383089484
0.3279350647428021
-0.3119853337449749
-0.20709428992434378
-0.3336951385139111
0.019445421845736343
0.4974992643881909
-0.12793094921150516
0.3890989406020889
0.43214061682090943
-0.16524707138426104
0.4087969511707301
0.28593833502457155
-0.20705995500235239
0.023573872394068933
-0.282966168185903
-0.019019962464326235
-0.2524942396947408
-0.443610816397919
-0.4734923404871749
-0.3537774731764035
-0.27038045055675536
0.08867620182334968
-0.15745085837604222
0.08447046055124897
0.060304322672334515
-0.18698253541857174
-0.22139500697884965
0.4214570051676131
-0.4444999690688562
0.11355909090836086
-0.27500139608909463
0.17527006609282703
-0.495223263823276
0.274337051563058
0.33629684748055294
-0.39349845674604805
0.49214701705515496
0.4450338437801133
0.05191415992217694
0.015101287281813588
-0.08500885211556117
-0.4740000053090934
0.3954944753989069
-0.44574494147431454
0.3940075777518581
-0.445896878035717
0.06743675009114458
-0.14191484661526169
0.4589946995684072
-0.30297692637705537
0.33999224516216625
0.2140402247087186
0.2195329157848543
0.42231426610097345
0.22448020867951055
-0.23173493131581718
-0.35614212305638565
0.2280467974652235
0.2595579094499589
-0.46051594661691053
-0.18406493525719791
-0.28198533374497486
0.11740571007565619
-0.4686951385139111
-0.18105457815426365
0.06749926438819094
-0.16993094921150517
-0.37490105939791113
0.46264061682090946
0.2837529286157389
0.32979695117073016
0.3169383350245716
-0.4880599550023524
0.015073872394068936
0.13503383181409703
0.14798003753567376
0.08050576030525923
0.419389183602081
-0.03849234048717495
0.3882225268235965
-0.06438045055675536
0.18117620182334968
-0.2539508583760422
-0.16452953944875104
0.2448043226723345
-0.25248253541857174
0.44860499302115037
0.1944570051676131
-0.4934999690688562
0.35955909090836086
0.3394997492139245
0.4913735543857669
-0.1582705601831497
-0.00871304322631389
0.4073132165810079
0.2513353621928653
0.34819231400794587
0.10547879284000669
0.38594306878149465
-0.16832948768502953
-0.010331552941602717
0.01254687169726417
-0.4012598397716449
-0.4754810508174685
-0.4584602680552802
-0.05305551427760562
-0.18434881041884288
-0.4669205697748706
-0.14283685259264087
0.17835021550225255
0.11196113016431943
-0.4716354515969654
0.2933973027808092
-0.23750321380627157
-0.15248689836230772
0.12850348728387567
-0.11593281677835998
0.32179898881489205
0.048446608238131024
-0.030995541416910452
-0.07532199065445469
0.009989335020395186
0.020468752373183977
0.3997682959512527
-0.00977391002051452
0.29496714224073906
0.2776456946126222
0.019510885336522663
-0.07788420382630089
-0.3977947397449059
0.12143982099522332
-0.08293535684770607
0.12385431428250726
0.081979392065234
0.058256732844052035
-0.2945045078496576
0.41202812195806693
-0.19231492861784502
0.1437303647799135
0.10664890476042636
0.17712595788932592
-0.07503732341923804
0.095030345349623
0.18120584927078687
0.430924658984244
0.4629973629945229
0.3790832553827895
0.026172953196102473
0.3569730711720892
-0.31094831650345456
0.03649974921392451
-0.4001264456142331
0.1602294398168503
-0.4382130432263139
-0.3311867834189921
0.05783536219286529
-0.3813076859920541
-0.3685212071599933
-0.01005693121850537
-0.15832948768502952
0.15066844705839727
0.3840468716972642
0.23024016022835514
-0.2889810508174685
0.37103973194471984
0.49194448572239435
-0.18934881041884288
0.4125794302251294
-0.3238368525926409
0.26385021550225257
-0.29253886983568056
-0.19413545159696546
-0.3356026972191908
-0.21100321380627157
0.19101310163769228
0.23000348728387568
-0.44793281677836
-0.32620101118510797
0.46344660823813105
0.3275044585830896
-0.05132199065445468
0.2229893350203952
-0.407031247626816
-0.12273170404874732
0.47722608997948546
-0.02703285775926092
0.28914569461262213
-0.36848911466347734
-0.4443842038263009
0.020205260255094087
0.2984398209952233
0.11706464315229394
0.06785431428250727
-0.251020607934766
-0.09024326715594796
0.4484954921503424
-0.09097187804193303
0.18718507138215498
-0.23826963522008648
-0.08485109523957363
0.23612595788932592
-0.14003732341923805
0.13903034534962302
0.053205849270786865
-0.21657534101575598
0.34699736299452283
0.16758325538278948
-0.4103270468038975
-0.12452692882791078
-0.34744831650345454
-0.40050025078607554
-0.41412644561423306
0.10622943981685032
-0.2777130432263139
-0.08568678341899205
-0.2511646378071347
-0.3008076859920541
0.0424787928400067
-0.3425569312185054
0.39217051231497047
-0.4223315529416027
-0.3829531283027358
-0.2852598397716449
-0.1409810508174685
0.30303973194471984
-0.27505551427760566
-0.12284881041884287
0.04707943022512942
0.12816314740735912
0.14035021550225255
-0.025038869835680575
0.19386454840303455
-0.37260269721919076
0.08599678619372841
0.4120131016376923
0.3855034872838757
0.31756718322164
-0.24470101118510798
-0.47755339176186895
-0.36999554141691043
0.4841780093455453
-0.1890106649796048
-0.23853124762681602
-0.37173170404874734
0.19272608997948548
0.08196714224073909
0.30714569461262214
-0.43998911466347734
0.1886157961736991
0.14220526025509408
-0.47256017900477665
0.13356464315229394
-0.40564568571749277
0.17247939206523402
-0.460243267155948
0.4299954921503424
0.43352812195806695
0.08268507138215499
-0.3922696352200865
0.27814890476042636
0.4421259578893259
0.401462676580762
0.053530345349623004
-0.03079415072921313
-0.233075341015756
0.14349736299452287
-0.39591674461721055
0.4041729531961025
0.21097307117208922
0.48805168349654543
-0.335
-0.27
0.2555
-0.313
-0.1285
-0.3345
-0.4115
0.0825
-0.115
0.362
-0.032
-0.236
0.4945
-0.226
-0.317
-0.22
-0.4905
-0.0165
-0.4135
-0.478
0.334
-0.2165
0.0905
0.0305
-0.4975
-0.371
0.1305
-0.141
-0.2775
-0.0935
0.4535
-0.2275
0.4345
-0.07
0.184
-0.4775
-0.4665
-0.041
-0.055
-0.2385
-0.079
0.4485
-0.482
-0.0285
0.1175
-0.44
-0.4805
-0.3545
-0.3385
0.368
0.458
-0.4605
-0.0065
-0.14
-0.442
-0.3815
-0.1175
-0.1225
0.0445
-0.281
-0.3845
0.1985
-0.0725
-0.1085
-0.317
0.3355
0.2365
-0.095
-0.4895
0.354
-0.286
0.3355
0.0485
-0.2235
0.488
0.398
0.0635
-0.1235
-0.404
0.2895
-0.0685
0.37
0.199
0.0955
0.444
0.349
-0.2745
0.151
-0.1665
-0.274
0.102
-0.4575
0.43
0.1775
-0.3655
-0.2765
0.0255
-0.3025
-0.4395
0.153
0.0935
-0.344
-0.438
0.006
-0.241
0.235
0.2215
-0.0785
-0.46
0.4665
-0.201
0.293
0.2025
-0.2945
0.169
0.2185
0.181
-0.2525
-0.063
-0.042
0.4915
0.329
0.403
0.214
-0.001
0.003
-0.183
0.3125
0.42
-0.2955
0.024
0.324
0.3505
0.455
-0.48
0.1545
0.3
0.4465
0.082
0.1535
0.428
0.0625
0.122
-0.0105
0.1235
0.442
0.47
0.143
0.4235
0.3895
0.0955
0.0345
-0.4005
-0.0155
0.2635
0.466
-0.199
-0.168
-0.124
-0.4725
-0.4375
0.025
-0.09
-0.207
0.081
0.4365
0.2195
-0.4775
0.1525
-0.467
0.4785
-0.071
-0.1745
-0.0455
0.1345
-0.4775
0.011
-0.375
0.3195
-0.198
0.372
0.239
0.423
-0.3145
-0.2015
0.38
0.0565
-0.102
-0.4965
-0.497
-0.1115
0.4395
0.4335
0.484
0.191
-0.042
-0.0615
0.1065
0.0905
-0.3465
0.491
0.3995
-0.147
0.173
-0.2045
-0.0735
-0.402
0.0435
0.4595
-0.007
-0.386
0.266
0.091
0.419
-0.3825
0.128
0.2185
0.4705
0.334
-0.2625
0.1115
0.3485
0.2625
-0.074
0.459
0.423
0.4325
-0.4955
-0.431
0.1005
0.489
-0.3755
0.2475
0.343
0.1485
0.2325
0.189
-0.3035
-0.169
0.356
-0.306
-0.484
0.0585
0.1
-0.0455
0.1585
-0.3345
0.304
0.0405
-0.26
0.4725
0.081
-0.2205
0.472
0.017
-0.4505
0.0075
0.0405
-0.232
-0.4705
-0.0625
0.157
-0.388
0.239
0.277
0.0095
-0.256
0.159
0.3275
0.101
0.3235
0.03
-0.3805
-0.1155
0.4895
0.473
-0.006
0.4985
-0.25
0.09
-0.419
-0.425
0.3125
-0.333
0.488
-0.053
-0.222
0.361
0.482
0.3295
0.0875
0.2365
0.4745
0.217
0.224
-0.0265
0.35
0.053
0.294
-0.2055
0.066
-0.2565
0.1455
-0.3005
-0.357
-0.136
-0.011
0.226
-0.146
-0.1995
-0.4805
0.3595
0.354
0.405
-0.1985
-0.24
-0.236
0.044
-0.463
-0.028
0.036
-0.468
0.3095
0.4515
-0.347
-0.262
-0.1655
-0.4315
-0.1505
-0.2185
0.297
0.2765
-0.421
0.4825
0.3745
0.022
0.4025
0.073
-0.119
0.15
0.3935
-0.026
0.1885
0.16
-0.189
-0.374
0.3795
0.466
-0.2635
0.2595
-0.395
-0.486
-0.3245
-0.05
-0.1515
-0.281
0.4845
0.4165
0.05
0.4535
0.2125
0.166
0.054
0.026
0.1895
-0.118
0.183
0.2965
-0.14
-0.277
0.109
-0.1315
0.034
-0.4875
-0.3585
0.3485
0.493
0.252
0.4405
-0.147
-0.0315
0.3475
-0.3325
0.4625
-0.016
-0.194
0.4875
0.177
-0.09
-0.236
-0.137
-0.0415
0.488
-0.4395
-0.3175
-0.0005
0.4395
-0.215
-0.113
-0.4025
0.3855
-0.125
0.0605
-0.024
-0.1245
-0.245
-0.3675
0.1005
0.0515
-0.19
0.253
0.366
0.4595
0.315
-0.0165
-0.4145
-0.078
0.4585
0.494
-0.267
0.058
-0.4005
0.45
-0.202
0.498
-0.2455
-0.4465
0.1155
0.143
0.262
-0.2025
-0.369
-0.428
0.2385
-0.1895
0.478
0.0525
-0.03
0.479
0.2585
-0.457
-0.497
0.0175
0.301
-0.489
0.499
-0.1085
-0.1295
0.072
0.167
0.473
0.137
0.3825
0.0475
-0.2165
0.062
-0.2815
0.09
0.4925
0.4875
0.1935
0.334
0.124
0.477
0.348
-0.468
0.0255
0.0545
-0.1785
0.073
-0.1715
-0.1985
-0.444
0.1575
0.35
0.4015
0.384
0.464
-0.1515
0.1615
-0.408
-0.1015
-0.249
-0.3235
0.2495
-0.1995
-0.0025
-0.0805
-0.24
0.3115
0.3285
-0.3485
0.195
0.368
-0.3525
-0.3945
-0.087
0.413
0.2055
-0.1355
0.1985
-0.2685
0.2055
0.3545
0.355
0.37
-0.2565
0.4615
-0.2465
-0.4795
-0.169
0.2605
-0.1385
-0.1005
0.4235
0.203
-0.4145
-0.362
-0.311
0.378
-0.154
0.4
0.156
0.477
0.3445
0.0835
-0.166
0.052
-0.344
-0.0185
-0.352
-0.2635
-0.1055
0.2105
0.21
0.0955
0.147
-0.4835
-0.4485
0.201
-0.0915
-0.016
0.4185
0.271
-0.426
-0.335
-0.3265
-0.2585
0.291
-0.205
0.3215
-0.0825
-0.138
0.0385
0.294
0.3595
0.4295
0.3905
-0.057
-0.3295
0.258
-0.1505
-0.041
0.1225
0.166
-0.146
0.071
0.172
-0.263
0.468
0.127
0.35
-0.383
-0.494
-0.3825
0.054
0.3115
-0.241
-0.461
-0.147
0.4685
-0.349
0.1265
-0.2795
-0.4955
-0.022
0.1095
-0.034
-0.01
0.3635
-0.066
0.4345
-0.0855
-0.2065
0.124
-0.0795
-0.3855
0.0815
-0.117
0.0605
-0.4165
-0.4205
0.483
-0.372
0.0695
-0.264
-0.488
-0.1555
-0.34
0.31
-0.241
-0.345
-0.1105
0.0865
0.409
0.2245
0.4515
0.424
0.497
-0.262
-0.208
0.332
-0.087
-0.05
-0.0235
0.398
-0.158
0.4985
-0.344
0.119
0.206
-0.19
0.43
-0.2905
0.233
-0.2155
-0.1385
0.0895
0.4735
-0.4485
-0.26
-0.0115
-0.193
0.4965
0.297
0.357
0.194
0.255
-0.3515
0.4585
-0.041
0.176
-0.3305
-0.137
0.091
0.484
0.1275
0.4375
0.023
-0.3045
0.157
-0.1345
0.087
-0.4605
-0.1135
-0.07
-0.285
0.089
-0.1595
0.33
-0.4665
0.093
-0.195
-0.453
-0.176
0.2795
0.3835
-0.319
0.4495
-0.3585
-0.25
-0.2005
-0.254
0.1995
-0.3575
-0.126
-0.2545
-0.0065
-0.0155
-0.108
-0.0435
-0.2145
-0.463
0.4935
0.449
-0.3825
-0.356
0.3805
-0.465
-0.1525
-0.3585
-0.4625
0.271
-0.4845
-0.0985
-0.325
-0.2065
-0.0215
0.0595
-0.4965
-0.4895
0.367
0.0165
0.164
-0.133
-0.083
0.4085
-0.416
-0.257
-0.1415
0.362
0.1635
0.0135
-0.325
0.2755
-0.2275
0.2875
0.1695
0.091
0.394
-0.144
-0.3685
-0.13
0.329
-0.2055
0.226
-0.3645
-0.0535
0.3695
-0.3495
0.375
-0.05
-0.395
0.2685
0.2255
-0.026
-0.47
0.248
-0.4485
-0.1795
0.1535
0.1425
0.366
0.2325
-0.181
0.0455
-0.204
0.064
0.181
-0.083
0.25
-0.052
0.1475
-0.2
-0.342
0.295
-0.2805
-0.083
-0.228
-0.25
0.4135
0.1355
-0.163
0.4245
-0.1405
0.451
0.157
-0.338
-0.295
0.3065
0.271
0.326
0.0025
0.122
0.4625
0.1725
0.262
-0.415
0.3595
-0.023
0.4655
0.157
-0.433
0.453
-0.199
0.264
0.2045
0.456
0.0015
0.443
0.1955
-0.3185
-0.4465
0.2195
0.2885
0.125
-0.298
0.1085
0.161
-0.235
-0.297
-0.4515
-0.237
0.1085
-0.2825
0.1975
0.472
-0.201
-0.0395
0.0415
0.411
0.0595
-0.4775
-0.2945
0.3525
0.074
0.143
-0.471
0.355
0.1325
-0.2165
-0.4755
0.283
-0.4645
-0.429
-0.0225
0.45
0.285
-0.0875
-0.145
0.4265
0.1225
-0.3745
-0.0295
-0.138
0.237
-0.2515
-0.116
0.44
0.389
-0.407
0.0775
0.427
0.4395
-0.0995
0.453
0.3845
0.035
0.0855
-0.0125
-0.261
-0.436
0.3275
-0.4245
-0.043
-0.3165
-0.003
-0.345
-0.475
0.203
-0.304
-0.381
0.2
-0.06
-0.278
0.42
0.3915
0.355
-0.302
-0.4135
-0.49
-0.3175
0.238
0.484
0.099
-0.129
-0.4765
-0.0275
-0.394
-0.271
0.352
-0.036
0.1695
-0.2345
-0.2755
-0.436
-0.426
0.2335
-0.329
0.384
0.2965
-0.0445
0.165
0.328
0.2815
0.4735
0.143
0.3565
0.041
0.4285
0.0655
0.12
0.4705
0.0745
0.2145
-0.0695
0.016
-0.1495
-0.299
0.0325
0.31
-0.349
-0.399
-0.259
-0.4765
0.3695
-0.434
-0.219
0.1385
0.0705
0.018
-0.099
0.0455
-0.0475
-0.1005
-0.1415
-0.2195
-0.0185
-0.326
-0.15
0.37
-0.0855
0.4265
0.155
0.3035
-0.4845
0.1385
0.4395
-0.4365
0.09
-0.26
-0.3375
-0.003
-0.158
-0.1665
0.36
0.2125
-0.1215
0.0445
-0.467
-0.495
0.385
-0.4235
-0.053
0.191
0.381
-0.191
-0.27
-0.3505
-0.2585
-0.408
-0.314
0.4365
0.011
-0.1425
0.368
0.1975
-0.4665
-0.446
0.3255
0.466
0.185
-0.4725
-0.38
0.2855
0.3785
0.003
0.038
-0.389
-0.467
-0.283
0.4785
-0.302
0.3295
-0.4115
-0.1215
0.359
0.181
0.4025
-0.137
0.269
0.3065
-0.4995
0.243
-0.2465
-0.166
-0.318
0.4145
0.042
0.293
0.083
-0.407
0.4025
0.18
-0.0455
-0.235
0.4745
-0.0565
-0.0535
-0.174
-0.497
-0.342
-0.245
-0.1695
0.29
-0.0035
-0.1235
0.2555
-0.075
0.177
-0.334
-0.352
-0.056
-0.348
-0.3285
-0.4565
-0.059
0.3905
-0.3065
0.081
0.0315
0.381
0.433
0.4335
-0.3795
0.324
0.1665
-0.099
0.222
0.009
0.3675
-0.2795
0.2115
-0.481
0.1125
-0.1285
0.1565
0.3585
0.497
-0.425
-0.145
0.229
0.079
-0.388
-0.0215
0.2705
-0.2945
0.0495
0.423
0.3375
0.1555
-0.108
0.3595
-0.0935
-0.1925
-0.481
0.0105
0.4825
0.2475
-0.1635
0.22
0.3705
0.2525
-0.3345
0.332
0.0145
0.17
0.426
0.357
0.2545
0.0265
0.0115
-0.1755
-0.1915
0.0165
-0.412
0.2035
0.1195
-0.0965
0.205
0.33
-0.264
0.4865
-0.001
-0.057
-0.26
-0.331
-0.3685
-0.434
0.4835
-0.177
0.068
-0.024
0.419
0.0975
-0.017
-0.339
0.4225
0.2335
-0.3475
-0.463
-0.168
0.314
-0.126
0.319
-0.216
-0.495
0.439
-0.048
-0.4555
0.165
-0.073
0.4045
0.3255
-0.404
-0.2345
0.4045
0.27
0.306
0.3745
-0.226
-0.32
0.3555
-0.136
-0.257
0.0775
-0.0615
0.4315
-0.3595
-0.0695
-0.355
0.3585
0.0605
-0.408
-0.0945
0.1885
0.057
-0.0085
0.4965
0.45
-0.06
0.0935
-0.338
0.3625
0.4545
0.2745
0.1945
-0.1335
0.0995
0.479
0.3465
-0.073
-0.4035
-0.045
-0.459
0.092
0.416
0.2
0.0555
0.255
0.287
-0.0215
0.3105
-0.002
-0.109
0.1115
0.0885
0.0015
0.077
-0.106
0.058
-0.05
0.378
0.2115
0.2545
0.0905
0.148
-0.0955
-0.145
0.1175
-0.462
0.0335
0.2555
-0.359
0.2555
0.076
0.1425
-0.2545
0.1705
-0.3675
0.2265
0.102
-0.113
0.0555
-0.276
-0.228
-0.4005
-0.2655
0.2095
0.3095
-0.18
0.1285
-0.002
-0.132
0.01
-0.4545
0.432
0.0135
0.1045
-0.3345
-0.296
-0.288
0.0455
-0.47
0.1745
-0.013
0.0765
-0.4455
-0.1235
0.1005
0.256
0.2065
-0.2055
0.0855
0.209
0.277
-0.319
-0.1365
0.42
0.275
-0.0435
0.425
-0.3885
-0.474
-0.0565
0.167
0.246
-0.4025
0.2575
-0.1625
0.4495
0.26
-0.302
0.093
0.3075
0.049
-0.1375
-0.4765
0.4445
0.0215
-0.331
0.1375
-0.0265
-0.43
-0.164
0.3355
0.3865
-0.108
0.2195
-0.0975
-0.0415
-0.2635
-0.38
-0.166
-0.2545
-0.4065
-0.3855
0.13
-0.0085
-0.2985
-0.136
0.4965
0.364
-0.056
-0.286
0.1195
0.4725
-0.4255
0.1945
-0.168
0.2655
0.042
0.333
0.3565
0.3595
0.4355
-0.269
0.2745
-0.3545
0.0335
-0.356
-0.499
0.349
0.3145
0.1635
0.214
-0.3915
-0.187
-0.0275
-0.0345
-0.1475
-0.319
-0.0365
0.169
-0.4275
0.4625
-0.2375
-0.0125
-0.4765
0.481
-0.415
0.0075
0.059
-0.142
-0.2385
-0.004
-0.374
-0.2315
-0.4915
-0.252
0.497
-0.4965
0.2025
0.188
0.138
-0.381
0
-0.0685
-0.0475
0.2155
0.0265
-0.4925
0.181
0.0395
0.485
-0.2585
0.4395
0.116
0.0165
0.0095
0.174
-0.4315
0.312
0.171
0.4575
0.441
0.2635
0.0595
0.0345
-0.274
0.2105
-0.169
0.315
0.459
-0.332
-0.213
0.211
-0.2455
0.012
-0.2595
-0.12689019995327816
0.034091819055860305
0.45044356035735855
-0.443804353665363
-0.36077596453120436
0.21758231305665648
0.29299547967250494
-0.10849989442901296
-0.0926738767876653
0.18389124817962163
0.3526490124269928
0.08950006524374134
0.37777814179776426
-0.48048878814492396
0.06300406303165713
-0.17799742918886616
-0.443752507060789
-0.400062403307397
-0.07386886157579978
0.377296653148699
-0.3660402444894392
0.4855366177106831
0.15218626580512395
-0.23023811266954422
0.2916003981155493
-0.4153734908474243
0.2927128066850191
-0.06122815889557798
0.17489051539377767
-0.05649738154619232
-0.2395004396530664
0.2674965813438731
-0.3463458133277361
0.16608627852708663
0.3635075186622256
0.1739328510778572
-0.1949675473597021
0.41109298941049677
-0.3171249439982017
0.4119876921096776
-0.19285129596093
0.2219975629527104
-0.3375657015307332
-0.11851753176127963
0.10840837657220567
-0.09099712696137652
-0.08732369250552939
-0.20644411776503874
0.3050387192995038
-0.4828109017988174
-0.060003505162066935
-0.062443997000360386
0.36593012892510424
0.17453911253381565
0.3619997566285784
0.1845000105586332
-0.4720907308542035
0.28203381346287537
-0.22350000474100157
-0.18800220967489223
-0.40350139608909463
0.34127006609282706
0.009776736176723949
-0.44416294843694204
-0.03720315251944708
0.35150154325395194
-0.07585298294484502
-0.4509661562198867
-0.4020858400778231
0.36110128728181357
-0.20900885211556114
-0.4825000053090934
-0.3940055246010931
0.04325505852568547
-0.3544924222481419
-0.334396878035717
0.2764367500911446
-0.05941484661526168
-0.2260053004315928
-0.3904769263770554
0.16399224516216626
0.19954022470871863
-0.2519670842151457
0.32081426610097347
0.43548020867951054
0.4737650686841828
-0.47264212305638564
0.2325467974652235
0.28505790944995885
-0.3910159466169105
-0.16406493525719792
-0.06648533374497487
-0.11459428992434381
0.4808048614860889
-0.24905457815426366
0.01949926438819093
-0.13643094921150517
0.04709894060208886
-0.24385938317909053
0.39275292861573896
0.20429695117073016
-0.2455616649754284
-0.3150599550023524
-0.4324261276059311
-0.379466168185903
-0.037019962464326234
0.3050057603052592
-0.15511081639791896
-0.18299234048717494
-0.14977747317640352
-0.49938045055675534
-0.023323798176650316
0.0680491416239578
0.341470460551249
0.30530432267233454
-0.34348253541857177
0.015104993021150348
-0.3410429948323869
-0.3649999690688562
0.3840590909083609
-0.12701548849654185
0.32397506226115824
-0.2511760451301333
0.3888345859196775
0.2213018275023395
0.28919980575049087
0.36489669613086595
-0.17235464179886875
0.11091870267611965
-0.23694608331808772
-0.3507759743574631
-0.40348465042521664
-0.49985051375966355
0.244404158758506
0.2111359513871192
0.05797138434296604
0.2484109244413955
0.1574924676563012
0.01871393990933092
0.020819057206219623
-0.29758443015246916
0.05978292498973685
0.2833407116135968
-0.14756152733787833
-0.24508124627378666
0.014267491375526152
-0.07730160454132276
0.3927436382170338
0.32978415691568486
0.33099491280470816
-0.2182211909766792
0.10960133139826696
0.3110659187309781
-0.23406960879418326
-0.3903632252141265
0.06258392167518097
-0.058079159817945945
0.30068786920703877
0.4857703558960332
-0.15274895649713452
-0.3897210207017632
0.20210066782373776
0.19669270637712113
0.4310071521331792
-0.3363856638808999
-0.1916888764679309
-0.015165613702736289
-0.36855627912401506
-0.12373300561181953
0.05759268445964685
-0.1834490452707083
0.15555356130166226
-0.16585804064330031
0.42349298008451963
-0.34683268078192975
0.13903411221952855
0.27373972658186735
-0.1327914013542438
-0.12173357496582911
-0.3864424559441337
-0.006515601614146246
-0.23078481105956247
-0.3633807465273615
-0.4965690756987394
-0.4952796194078761
0.19319433545835846
-0.18310888500989542
0.36064281727653374
0.4995419669467083
-0.3997785791276708
0.005282716318299698
0.22551725776312823
-0.12807632089368465
0.07541458237450918
-0.015625800979063954
-0.3670647525169632
0.0852350299048022
0.14158518448096144
0.23454884437585688
-0.24408857565571243
0.13241953238474258
-0.09571214720838657
0.48930464827911424
-0.4530816813216628
-0.27476478009747524
-0.16097059119657278
-0.33843013762416996
0.49204235730370005
0.1648328293705764
0.09399531328134726
-0.08571903380578802
0.33560238584989704
0.36893002712310335
-0.28905275812515463
0.36422434524502373
0.36171998123739696
0.2633030984009361
-0.3504264386541879
0.48215097288928394
0.23676751523511602
0.18674186124673134
0.07458737583360674
0.38967922405765637
-0.07165095457001322
0.370647550539575
0.03315532197828532
0.29314632418654607
0.018455009471438032
-0.010228294856261148
0.42093882340499295
-0.07680958388646049
0.09827570804845205
-0.2765301882942582
-0.432241515493702
-0.47591383279784993
0.21856590403530338
0.0873314360037619
0.34801860896610126
-0.36972869853320867
-0.12054738128016525
-0.02150649031401223
-0.09348429562984197
-0.15643026206383112
-0.3304710008854437
0.4742861696916102
-0.2943227207846025
-0.19004872204846157
0.4441336363263035
-0.009339515700030035
0.35980796653688984
-0.30339247954759513
-0.4609825557914603
-0.2960557649476382
-0.07981992275375618
0.2593735010420284
-0.4532230997848245
-0.45836929422648487
-0.0901796297714098
0.4070549662611379
-0.07289260457476487
-0.41604389726882113
-0.1234452337623095
0.1995651318203048
-0.23958018887442908
-0.16419796014585222
-0.1037524554176613
0.3700404983489022
-0.003751904483929184
-0.3813465749705455
-0.20050274830426168
-0.05856868006980101
0.24458387551815916
0.07615427655689597
-0.43442835498409077
-0.025186401302009616
0.41380176873354774
0.14678156810523993
0.10255295338654087
0.12889823063567407
-0.12700938553770874
-0.012880015196823521
-0.15318801449915267
-0.47253876140156625
-0.4195151891443242
0.49082725320515364
0.21909954868148654
-0.4750995602511466
-0.2473681972196302
-0.2642514363925633
-0.15904935232133555
0.1912543296979834
0.40776219505103617
-0.25396897615878755
-0.014568491088345492
-0.20277849979540186
-0.010476219362219324
0.07343967701236612
-0.15801911686431985
0.11676937152960727
-0.488738039072282
0.1430148002430309
0.4386242806709824
-0.3335064278901959
0.15237047362517514
-0.11962751757794873
-0.033160401276628046
-0.08061146550258876
0.07140701325279522
0.21239022012353348
0.48072628902562337
-0.500306966306236
-0.3539357960920897
0.024662660626550755
-0.1465303521989292
0.2663432296004298
-0.09852955316815372
0.2938630280047052
0.23457680102040118
0.4562369406078535
0.01957933501411341
0.19896684380074312
-0.07019802793100463
0.06634166611722116
0.315480545980766
-0.025685820396417654
0.1487584867047998
0.00024914569343148876
-0.349713892065214
0.025045170769346745
0.20899703081347307
0.3762167730980398
0.15799050690734548
-0.40726086007828927
0.06701893849847874
0.3545986382449103
0.12895423766166114
-0.42256287506654516
-0.3165270274101768
-0.4677517859022908
0.09383407073007895
-0.10021476000805411
0.495511614426286
-0.08538007062277621
0.15544162646914783
-0.17016373875941015
-0.2859055997785127
-0.2599202281856883
0.32257803785655514
-0.08305352473295176
0.5020614742496525
-0.037665294710270934
-0.42219384268620275
-0.30053760172901195
0.025856488776959306
-0.28131608612771497
-0.1449779613664477
0.10200976585481947
0.1962488977521618
-0.23076661841150725
0.47589821092192486
0.061514800243030895
-0.34987571932901756
-0.4965064278901959
-0.07612952637482487
-0.3776275175779487
0.10333959872337196
-0.3726114655025887
0.43590701325279524
0.4128902201235334
-0.027273710974376593
-0.41480696630623587
0.004564203907910277
0.46316266062655076
0.44546964780107073
0.42884322960042975
-0.3450295531681537
-0.1696369719952947
-0.024423198979598788
-0.1252630593921465
-0.33792066498588663
-0.47153315619925684
-0.42419802793100453
0.4288416661172212
-0.433019454019234
-0.4351858203964176
-0.3642415132952002
0.48024914569343147
0.17378610793478594
-0.2984548292306532
0.352997030813473
-0.3297832269019602
-0.1775094930926545
0.2627391399217107
0.47301893849847876
0.4465986382449103
-0.06104576233833885
-0.49406287506654517
0.4589729725898232
-0.15825178590229083
-0.44366592926992104
-0.14671476000805408
0.390011614426286
0.07161992937722379
-0.09405837353085222
0.08333626124058985
-0.11390559977851274
-0.4499202281856883
0.04457803785655517
-0.12155352473295176
0.3240614742496526
-0.055665294710270936
-0.44869384268620277
0.31696239827098804
-0.3211435112230407
-0.11881608612771492
-0.26147796136644774
0.25150976585481954
0.3127488977521618
-0.17276661841150723
0.14439821092192479
0.20101426378292764
-0.3972464308792965
0.15443640753852947
-0.33138213448649767
-0.40792262354605774
0.1093608689050735
0.46442719111035324
0.3492456718839265
0.31088286387028863
0.1787712778345044
0.004288908138879111
0.30913554312311486
0.10980255416263775
0.04201294576524254
0.1593132218767252
0.19421204747676135
-0.4008963047167306
0.4401401567499189
-0.2092739353089725
-0.3924869324118629
0.27345720270932355
-0.28974505702623515
0.33761438683564515
0.10341804515696146
-0.46768019922289933
-0.04590602511567161
-0.04121110250503486
-0.31214662972606755
-0.4692149069908686
-0.22051496538218246
0.2308993923453994
0.10250060665793176
0.02464354660374395
0.41327936107015384
0.13204137687664413
-0.17302989705102642
-0.4365392735896105
-0.3321028454899309
-0.2334379613095664
-0.005313967801361999
0.37227598879240476
-0.4686938077991171
-0.333700437366258
0.08844917457343751
-0.024973185897803347
0.39108600986662756
0.28729731558019195
-0.05378773987977408
0.3244391386913442
-0.45790653842639734
0.24240655514434392
-0.4314573679932489
-0.1820345447840353
-0.42378797312881206
0.357706368465427
0.23452573019431516
0.06158785287109491
0.19242956569529798
-0.11876951426573004
0.16770565028854284
0.3165142637829276
0.18675356912070348
-0.026563592461470522
-0.37788213448649766
0.3560773764539422
-0.12613913109492653
-0.18157280888964686
-0.21575432811607345
0.2198828638702887
0.01177127783450442
-0.16121109186112087
-0.39336445687688515
-0.08969744583736225
0.4845129457652425
-0.1601867781232748
-0.007787952523238641
-0.48489630471673056
-0.4848598432500811
-0.07727393530897252
-0.41748693241186285
0.23195720270932352
-0.3247450570262352
-0.00938561316435493
-0.1315819548430386
-0.3871801992228993
-0.4959060251156716
0.31978889749496514
0.23085337027393243
-0.4087149069908686
0.4239850346178175
-0.3246006076546007
0.15650060665793178
-0.18185645339625603
-0.25822063892984615
-0.019958623123355862
-0.26502989705102653
0.2144607264103895
-0.4551028454899309
-0.4224379613095664
-0.436313967801362
-0.37072401120759524
0.0038061922008828875
0.427299562633742
-0.44705082542656244
-0.28347318589780335
-0.15241399013337248
-0.344202684419808
0.17021226012022592
0.02593913869134426
-0.06390653842639733
0.3819065551443439
-0.15245736799324897
-0.43553454478403525
-0.011287973128812063
-0.41579363153457294
0.2540257301943151
-0.15591214712890508
0.475929565695298
-0.49626951426573
-0.24979434971145717
-0.04000075990103226
-0.35012362949502024
-0.05278720395619389
0.21168393640352715
0.1522246459433006
-0.47394385498917097
0.46819929732473403
0.12893086723754538
-0.047614350619347
0.07610881626758448
0.45454837777743723
-0.0739938968338021
0.36394322668032025
0.4432321918774226
0.36820757294199824
0.2533550883814742
-0.32672426117779324
-0.025196118623954628
-0.04874224369611582
0.053490500444472816
-0.2571234314064662
-0.48464323330108083
-0.10797299858482766
-0.07478815462975107
0.12265898920425747
-0.2929840752954759
-0.05791609749907322
-0.12030314948246461
-0.3280737373652389
-0.4139814397022285
-0.2637535179025457
-0.09653006877842782
0.3572122959446489
-0.15275213431429038
-0.2494296116964324
0.36408596470162435
-0.12188269449203319
0.1559473572296177
0.15256492411373423
0.30099679830922876
0.4620948329478041
0.0354516170097479
-0.494792525708231
-0.10987911626600964
0.09225963586915327
0.2744893266424667
-0.32806087173660553
-0.14510706895251893
-0.4530120239323974
0.235868813281942
-0.3864168417167327
0.09961193765513122
-0.25556454487028474
-0.016474871215775223
0.4595154026731984
0.158461034116985
-0.48331150178361926
-0.06689024701371206
-0.18146907129639375
-0.07106430462922349
-0.3935005091149568
0.3670028161192128
-0.17201664377304424
0.15539697962984103
0.25441142936229266
-0.13177921718203625
-0.14249301668321188
-0.3650479256024613
-0.4820574194008416
0.016938303952613996
0.22237993071903994
0.24095923146893372
-0.0107969335480348
-0.3742867573051089
0.15766784099727843
-0.2730893973409202
-0.06237545075895032
-0.37977554884908404
-0.4809053911034749
-0.2798597150577798
-0.18658456157078562
0.4414922182958846
0.4806296986343631
-0.1707849408234795
0.48814588756656513
0.3535124374206484
-0.4104832807207133
0.2953978617026433
0.08097965439663007
-0.07248589828531804
-0.02143152724809094
-0.308019403798823
0.200243543571465
-0.013520430265543044
-0.11415570167591789
0.28561882246088527
-0.4845283891046553
-0.23806352810690495
0.22744912794003513
-0.06620846194586535
-0.31884498804741923
-0.08961302614254602
0.07735316000926172
0.4386414916687564
-0.2824970969748987
0.4759938344921243
0.18241100630532747
-0.40729214033467387
0.42125761128768907
0.0752199085215156
-0.24604279960605857
-0.2023507389256307
-0.46309489021990774
-0.0656807204865621
0.13609074368895435
0.020963671122462123
0.4696052428335913
-0.38156320020981455
-0.09594214246848298
-0.02361598812576892
0.2369994908850432
0.4410028161192128
-0.15501664377304422
0.13339697962984104
-0.13258857063770735
-0.3177792171820363
0.2680069833167881
0.3759520743975387
-0.09605741940084164
-0.149561696047386
0.46587993071903994
-0.4630407685310663
-0.1282969335480348
-0.45928675730510893
0.2536678409972784
0.1384106026590798
0.2246245492410497
0.06622445115091596
0.2710946088965251
-0.41235971505777974
-0.13508456157078563
-0.3845077817041154
0.08962969863436311
0.1802150591765205
-0.41235411243343484
-0.3974875625793516
0.35851671927928674
0.4153978617026433
0.1589796543966301
-0.4874858982853181
-0.332431527248091
-0.377519403798823
0.238243543571465
0.19697956973445696
-0.4191557016759178
0.4916188224608853
0.08047161089534469
0.30843647189309503
0.48744912794003514
0.07879153805413465
-0.06784498804741924
-0.212613026142546
0.06035316000926172
0.3386414916687564
-0.15399709697489875
-0.29100616550787567
-0.28308899369467244
0.2572078596653261
0.2472576112876891
-0.4862800914784844
0.3144572003939414
0.02464926107436926
0.2719051097800923
-0.2946807204865621
-0.22090925631104566
0.2764636711224621
-0.08139475716640879
-0.02506320020981453
-0.346942142468483
-0.31761598812576897
0.059000484489884784
0.2311680497948289
-0.1286162142354736
-0.2679594098265041
-0.3387132735293362
0.25165865474778354
0.35651805287949645
-0.30455086775156887
0.42638809528490024
0.0634931515401047
0.3105055844447599
-0.19398431985714987
-0.197328383907928
0.02768472909024982
-0.37087848235122517
-0.14950227715642772
0.14643896161576986
0.4336812603562251
-0.29571351236283483
0.17101620623145444
0.41699881003951633
0.31636141371502896
-0.09395661748429766
-0.3917797731197445
-0.40199558415316716
0.10274187583490135
0.41945480110392147
0.3438983574097049
-0.3066358506627912
-0.21898780387731187
0.25804650195224677
-0.019520607691986755
0.408486954402943
0.33288150792217935
-0.18893932508754938
0.165171155121468
-0.5001689750434124
0.3136351790104507
0.4801158306601325
-0.23523202420984715
0.22150333563950586
-0.29011424410478187
0.3844749869788834
-0.2559433943584464
0.1110125097331148
-0.16400623163356925
-0.43315424679761455
-0.16100770750552315
-0.4327727067746844
-0.22963782924926066
0.3980394360568526
-0.4612434986650332
0.056568413670682924
-0.11231809332065396
0.044623851144665376
-0.29802549530688066
0.2825597356608295
0.02507885668339821
0.2802653894239538
-0.29711935543715956
-0.3925
0.34
-0.0095
0.126
-0.4495
-0.361
0.455
-0.101
-0.2825
-0.3455
0.3555
0.2635
-0.0505
0.473
0.2295
-0.3255
-0.1185
-0.1515
0.445
-0.2105
-0.0835
0.048
-0.3945
0.3725
-0.185
-0.0395
0.0005
0.0645
-0.3815
0.3435
0.417
-0.473
0.062
0.036
0.4635
-0.0555
-0.3005
0.1465
-0.209
0.248
-0.154
-0.2225
0.313
0.275
-0.4605
0.065
0.0675
-0.3125
0.2185
0.086
0.441
0.087
0.386
-0.497
0.3015
-0.0875
0.372
0.1705
-0.105
-0.1515
-0.287
0.2075
-0.041
-0.0505
-0.3985
0.302
-0.24
0.1485
0.458
0.2375
0.347
0.024
-0.436
-0.006
0.1435
-0.005
0.1595
-0.2095
0.443
-0.352
-0.0205
0.455
-0.496
-0.318
0.3835
-0.425
-0.4015
0.3165
-0.1455
-0.435
0.403
-0.082
0.255
0.4485
0.356
0.104
0.026
-0.0975
-0.035
0.3895
0.1705
-0.246
0.2895
-0.3945
0.1275
-0.046
-0.232
0.282
-0.3635
-0.1325
0.447
-0.4775
-0.2835
-0.49
-0.105
-0.333
0.215
0.337
0.1255
-0.3225
-0.387
-0.4165
0.288
0.3315
-0.0465
0.4165
0.4075
0.075
0.343
-0.314
-0.113
0.202
0.226
-0.405
0.0905
-0.1675
0.2845
0.1715
0.3775
-0.1325
0.1575
-0.303
-0.0925
0.0965
0.406
-0.041
0.0435
0.423
-0.3065
-0.315
-0.386
-0.0095
-0.1735
-0.221
0.2035
-0.2725
0.286
0.0925
0.403
0.337
-0.235
0.2345
0.2555
-0.198
0.365
-0.239
-0.055
0.3245
-0.4415
0.4705
-0.2595
0.0295
-0.217
0.094
0.2845
0.2885
-0.201
-0.1035
0.081
-0.437
-0.2995
-0.157
-0.073
-0.209
-0.345
-0.328
0.0555
-0.262
-0.118
0.1235
0.1865
-0.4245
0.2245
-0.44
-0.3935
0.41
-0.2035
-0.175
-0.2555
0.4535
-0.252
0.442
0.162
-0.2045
0.085
-0.375
0.1155
-0.1795
0.453
0.1755
-0.425
-0.3215
-0.331
-0.1925
0.4375
0.194
0.4835
-0.1715
-0.3995
-0.1175
-0.438
-0.052
-0.423
-0.2455
-0.2525
-0.3935
0.1495
-0.1295
0.1455
0.2985
-0.2205
-0.4445
0.117
-0.136
-0.4725
-0.4485
-0.1365
-0.43
0.0205
-0.078
0.1405
-0.3795
0.2155
0.03
0.429
0.1555
-0.156
-0.4605
0.332
-0.121
-0.2155
-0.242
0.2975
-0.2655
0.4005
-0.208
0.412
0.051
0.349
0.457
-0.396
-0.242
-0.2745
0.3215
0.3045
-0.3865
0.0765
0.0275
-0.4775
-0.266
-0.215
0.418
-0.1975
-0.2365
0.2455
0.353
-0.0465
-0.2755
-0.2625
-0.0235
-0.4225
-0.105
0.26
-0.0335
-0.036
-0.056
0.0095
0.378
0.022
0.3475
-0.3305
0.0515
0.3355
-0.2795
-0.4615
-0.3875
-0.009
0.132
0.015
0.3545
-0.15
-0.109
0.4765
-0.3855
-0.026
0.242
0.183
0.4825
0.024
-0.134
-0.093
0.3415
-0.3485
-0.026
0.465
-0.416
0.0365
0.024
0.4335
-0.1655
0.3505
0.0675
0.443
0.1225
-0.3375
0.125
0.3035
0.293
0.4115
0.2845
-0.2235
0.2635
0.075
-0.47
-0.43
-0.064
0.2105
0.064
0.3985
0.407
-0.3675
0.2295
-0.4845
0.1245
-0.172
0.484
0.142
-0.042
-0.065
0.062
-0.093
0.272
-0.32
0.112
0.0335
-0.305
0.345
-0.3885
-0.266
0.0755
-0.448
0.248
0.262
-0.1785
0.004
-0.148
-0.471
0.3955
-0.415
-0.4545
-0.2625
-0.3165
-0.1795
-0.1315
-0.029
0.371
0.441
-0.265
0.2935
-0.0265
0.016
0.46
-0.2605
0.375
0.3155
-0.272
0.3345
-0.3195
-0.4255
0.4505
-0.0455
0.362
-0.167
0.263
0.0925
0.438
-0.29
0.119
-0.3835
0.1785
-0.177
0.395
-0.4705
0.3295
-0.174
-0.2625
0.209
0.1505
-0.216
-0.129
-0.4055
0.175
-0.0675
-0.257
0.206
-0.385
-0.237
-0.305
-0.11
-0.073
0.437
0.3885
-0.204
0.1775
0.356
-0.0305
-0.4625
-0.3
0.285
0.0995
-0.2525
-0.228
-0.091
-0.3685
0.2785
0.479
0.4825
0.491
0.128
0.182
0.1585
-0.433
-0.0365
0.084
-0.1585
-0.3145
0.305
0.3595
-0.2195
-0.4235
-0.148
0.4015
-0.169
-0.257
-0.2825
0.248
-0.0645
0.3675
0.0175
0.385
0.2175
-0.1475
0.175
0.1305
0.0445
-0.2155
0.274
0.31
-0.131
-0.339
-0.0805
-0.211
0.1875
0.189
0.492
-0.2385
-0.368
0.106
-0.256
0.069
-0.2445
0.0155
0.2375
0.352
-0.0065
-0.332
-0.3525
0.1295
0.471
-0.2165
-0.3785
0.449
-0.4965
0.2445
-0.0005
0.104
-0.467
0.2485
0.218
-0.428
0.257
-0.32
0.4455
0.16
-0.296
0.2505
0.3695
0.499
0.3445
-0.352
0.42
-0.3545
-0.274
0.1965
-0.4065
-0.0045
-0.1555
0.3285
0.3735
-0.1035
-0.2815
-0.053
-0.3205
-0.273
0.393
0.262
0.084
0.2265
0.0135
0.0365
0.3625
0.439
-0.3405
0.2415
0.3485
-0.363
-0.1345
0.113
0.081
0.041
0.0945
0.16
-0.014
-0.301
-0.1145
-0.106
-0.119
-0.2695
-0.199
0.382
-0.1295
-0.4155
-0.4085
-0.2965
0.105
-0.4695
0.471
0.455
-0.3465
-0.268
0.0825
0.215
0.117
-0.0455
0.1865
0.198
0.0255
-0.402
-0.3125
0.242
0.0905
0.3825
-0.493
0.4125
-0.409
-0.198
0.3365
0.486
-0.3745
-0.001
-0.489
0.008
0.174
0.358
-0.391
0.1415
0.1125
0.28
-0.288
-0.4395
-0.1755
-0.3505
-0.2465
0.4575
0.1485
0.1695
-0.2925
0.2
0.321
-0.157
-0.3305
-0.324
-0.4765
-0.034
-0.1265
0.4615
0.205
0.262
0.461
-0.376
0.122
-0.466
0.076
-0.0975
0.3245
-0.24
-0.4235
0.473
-0.291
0.0245
0.489
0.4985
-0.341
0.22
-0.2345
-0.4065
-0.2295
0.0115
0.475
-0.1355
0.388
-0.103
-0.1025
-0.4935
-0.241
0.205
-0.0605
0.0155
0.187
0.07
-0.0585
0.131
-0.457
0.267
0.11
0.1615
-0.379
0.1895
-0.0295
0.2915
-0.304
-0.235
0.4225
0.218
0.014
0.4355
-0.005
0.1765
0.3505
-0.4225
0.263
-0.16
-0.454
-0.268
0.011
-0.4605
0.481
0.46
-0.028
-0.051
-0.106
-0.099
-0.0495
0.3795
-0.0585
0.329
0.036
-0.365
-0.017
0.0495
0.0165
-0.466
-0.248
-0.406
-0.2355
0.243
0.1275
0.2385
0.072
-0.0605
-0.259
-0.379
-0.431
-0.305
0.1
0.443
0.4175
-0.2805
0.2305
0.3525
-0.216
0.3375
0.32
-0.2035
-0.172
-0.4265
0.468
-0.421
0.4905
-0.492
-0.4545
-0.018
0.1255
0.256
-0.4665
0.4915
0.284
0.2835
0.4655
-0.4535
0.103
-0.408
0.026
-0.061
-0.4765
0.4125
0.193
0.089
0.138
0.483
0.1905
0.043
-0.3315
-0.097
0.2135
-0.259
-0.097
-0.3555
-0.172
-0.34
0.354
-0.343
0.138
0.258
-0.2715
-0.3945
-0.3935
-0.0865
-0.1445
-0.452
0.187
0.2425
0.1165
0.1415
0.047
-0.2165
0.1055
-0.2195
0.113
-0.159
0.0365
0.255
-0.369
-0.1675
-0.0415
-0.1095
-0.4805
-0.104
0.1245
-0.302
0.429
-0.123
-0.3985
-0.4025
-0.2955
-0.315
0.3465
0.0725
-0.199
0.356
0.4935
-0.421
-0.3845
-0.4675
-0.2655
-0.364
0.18
0.2245
-0.475
-0.3195
-0.3095
-0.027
-0.016
0.4235
-0.355
0.48
-0.1625
0.4595
0.003
-0.2685
0.318
0.4835
-0.314
0.488
0.284
-0.34
0.2055
-0.087
-0.287
0.2505
0.0615
-0.411
0.397
-0.3155
-0.25
0.378
-0.2745
0.466
0.322
0.443
-0.2105
0.487
0.226
0.005
-0.4455
0.1315
-0.276
0.207
-0.282
0.1955
0.455
0.067
0.3425
0.379
0.07
-0.001
0.101
0.0205
0.475
0.2775
0.491
-0.3925
-0.098
0.254
-0.149
0.1615
-0.2565
-0.452
0.2545
0.427
-0.2095
0.41
-0.276
0.4005
0.158
0.3645
0.3415
-0.335
0.346
-0.092
-0.2485
0.0195
-0.4895
0.4475
0.221
-0.348
0.402
-0.035
0.355
-0.3935
-0.4835
0.33
-0.4475
-0.0755
0.0035
0.412
-0.3845
0.3605
-0.102
-0.062
-0.3495
0.186
-0.275
0.1155
-0.11
-0.418
-0.4475
0.3975
-0.4495
0.347
-0.1205
-0.3075
0.2325
0.209
0.2715
-0.425
-0.029
-0.1865
0.183
0.1075
0.102
-0.4595
-0.3675
0.3265
-0.108
0.02
0.1625
-0.341
-0.26
0.439
0.2085
0.0075
0.0265
0.141
0.2135
0.0245
0.152
-0.225
0.1595
-0.0915
0.205
0.153
0.469
-0.0545
0.0045
-0.3035
0.1995
0.2025
0.1095
-0.3855
0.0835
-0.44
0.448
0.172
-0.358
-0.266
-0.379
0.237
0.191
0.012
0.0345
-0.122
-0.1315
0.485
-0.0885
0.389
-0.4465
-0.433
0.4065
0.2865
0.194
0.494
-0.0175
-0.4495
-0.206
0.1805
0.001
-0.045
0.407
-0.222
-0.294
-0.3095
-0.3505
0.2625
0.373
0.357
-0.089
0.345
-0.275
-0.342
-0.128
-0.1505
-0.3055
-0.3275
-0.063
-0.318
0.219
0.1095
0.046
-0.064
0.016
-0.462
0.4035
0.146
-0.4355
-0.071
-0.063
0.3295
-0.042
0.385
0.0175
-0.379
0.3915
-0.069
-0.3365
0.216
-0.1055
0.491
0.3785
0.042
0.435
-0.3135
-0.466
-0.134
-0.2165
0.3395
0.279
0.108
-0.1865
0.0395
-0.045
0.465
0.375
-0.3495
0.4055
-0.474
0.062
0.144
-0.444
0.4035
0.13050020627434308
0.11050217829040059
0.31253088342523994
-0.21538843642513245
-0.4924719169264529
-0.39941830615236606
0.3929938865424219
-0.11200189543065141
-0.23373434946705554
-0.2916444468193789
-0.4549660170174312
-0.04550000027731843
0.1936232298332439
0.31005782017119066
0.1090202041287485
-0.19461432866083617
-0.06766024358302512
0.44310342268615655
-0.1392034624105852
0.3280138393980209
0.3579992850074592
-0.4797761622658813
0.3875047189046542
0.040894223489121855
0.49266525737860384
0.44702188632396783
-0.4182952926890822
0.06807483917416547
0.06950586494624375
0.3029999821191904
-0.32366485689915353
0.14012115252102206
-0.4138044102295893
0.4584985407450949
0.48950068176418504
-0.15783219267563173
-0.32424834914922357
-0.04253594742241518
0.18800796860429778
0.2750984266358669
0.3154983009926847
-0.38037449696057923
-0.15019532940018007
0.3005868589001047
-0.3768190990802549
0.2958906651236467
-0.46170523719003603
0.4949581837991696
-0.30798903166524927
-0.42355588931920046
-0.05435801442563705
0.0516287606639813
-0.20603745370469734
-0.11321037533620523
-0.1968145066170314
-0.059970543700571394
-0.0030141816917365234
0.13823188735603426
0.4794992466333269
0.3064779262143652
0.3311100063210649
0.0950939973462609
-0.27052555621740154
-0.06719279009049549
0.4607521185423427
-0.15283599309570955
-0.1065106337850732
-0.3820017898596643
0.3885917737452792
-0.16375319863975726
0.33818299540956165
0.4190000649664229
0.41440137163100815
-0.46843096797373335
0.3915242671604056
0.14438824215029766
0.21308724935618586
-0.2069589806212404
0.249427676013615
0.19931049254671987
0.29045904051801996
-0.06873954455519822
-0.3238090152902219
0.3426561108195777
0.02326565549415317
0.4791483954765435
-0.00308248600406314
0.03534668027858749
0.15139638034002142
-0.038497399427001935
0.41333470344778006
-0.049382266135104824
0.43734977644267453
-0.1649151807278185
-0.3419917995735894
0.3401006584022255
-0.09271589650892563
-0.2569429580119184
0.02088302460609612
-0.1999138812544555
0.23064700503175475
-0.23087693400786885
-0.31876103093091324
-0.45943067286117495
-0.4149107225080492
0.21989353816227017
-0.47552892969556537
-0.45198593396586917
-0.3474503123657454
0.2731332088819821
-0.19836151958770398
-0.4048152363363791
-0.2461073247795931
-0.15017126280238954
0.014185250011547038
0.010029466858061796
0.37889508745406
0.07926570081890966
0.4054992418923254
0.164975716539473
0.07774501334178738
0.1868683436266632
-0.3105290887035084
0.13978018290091831
0.33098646658960557
-0.3877899571829296
0.4362997588227587
0.21065723882051465
-0.34392651201637553
-0.26745701730858024
-0.27587287625329154
0.31399978541100143
0.006809793211469102
0.22679399308789833
-0.43441593186485217
-0.4692105201598053
0.4352241396566718
-0.4180878625742384
0.27855805637352826
-0.2093701002038823
-0.07807774241419316
-0.3771826528599051
0.08046667686096882
-0.16662343846535635
-0.4697373783108127
-0.45682218713517664
-0.19182294970401642
-0.18393722260721462
-0.36728570026178425
0.2775755805031767
-0.139916226530034
0.01686828857486623
-0.1616412987093401
0.07304537818447471
0.05689429637147681
-0.2463960406421015
0.2667843239214057
-0.3127337911496927
-0.4224412143424594
-0.4663904604057671
0.2808476235153076
-0.310902593453019
-0.3929634455786364
-0.003728806268060978
0.19108939162760763
0.2756767786753666
0.34307142026134646
-0.28873994555456134
0.08632969232567173
0.3356707448500935
-0.33307893980297104
0.3223191515484311
0.04247645549939472
-0.3249948655894812
-0.44887673688764806
0.28340324269828376
-0.321556615778984
0.15895910438402253
0.3344936814894158
-0.18708085949506414
-0.31876390632471535
0.3160263714763087
0.03805474394984784
0.2398004315023061
-0.324468916971152
0.11739152296213008
0.3095320256636512
0.44745597991222597
0.10765888149281118
0.31846169308087563
-0.017625356440145568
-0.04497914324245992
0.2818518467418291
-0.13419327684977855
-0.45729020294651607
0.11973410770044014
-0.25894541776606217
0.31888601334348887
-0.2399549643994335
0.12070912620704508
-0.06846600386437446
-0.15853552266861443
0.3826629546553565
-0.3932810371200634
0.09065483008549904
0.053962134399922146
-0.24823416401743806
-0.05451904131739452
0.03299466077177234
-0.26892896151133666
0.4189476679515319
0.32640195979902437
0.09808573155716789
0.3992946872423379
0.3723309911563852
0.12482603435904871
0.3125120606111397
-0.18574586748531535
0.1268935702125955
-0.47494874944076104
-0.06240608347993485
-0.2756370512453239
-0.2610030461941741
0.33861630646009716
-0.37902500507005793
-0.05546006971555929
0.014304379599149519
-0.21717601691317537
0.42904955770223674
0.0931786608964001
0.4017678567933965
0.24838601948067776
0.4984108333750966
-0.1373162527241423
0.2028198194304987
0.06348600791293117
0.492304223716444
-0.07018240475875748
0.2290664593328677
0.12063137323344934
0.32014225625687903
0.17724716281800784
-0.1917852060558073
0.44331066028260424
0.30678273944987905
0.21215324843424477
0.29656769654596016
0.060901118725482956
-0.37452234558456193
0.4555317827899886
0.14325348543902972
-0.4289775511093119
0.32383011385128163
0.22030642229774944
-0.2216198637230961
0.18015665319090282
-0.07135678398863943
0.47467937370519425
0.21820650317128837
0.032102312715807886
-0.08741110094019408
-0.30553635513708427
0.31834475388608785
-0.23159365764471054
0.08337088540949639
0.03058368014918641
0.34342231372179854
0.025251081823148898
-0.11371935087795727
0.3365647427594616
-0.34399469533795607
-0.30558750822093683
0.4563092679548314
-0.15172731814579093
0.013189924001397235
-0.1922901408075453
-0.05062903745340805
0.20638911074494887
-0.2806055153462347
-0.18332853548134573
0.3184903446674817
0.4079882661561681
0.4434132384547446
-0.29203440541033193
0.16859980520706247
0.25366215941485765
0.3723282084532791
-0.31722040877029434
0.12549199615172696
0.16981743461010793
0.40682112385576935
0.1387407940557569
0.4452952020767167
0.17964290701761942
-0.06284885612703855
-0.3224812962812202
0.32265673636069775
-0.011676135516584873
-0.25893864586482473
-0.16995962513748036
0.33399792678249024
0.06979476833392655
-0.12512371066818057
-0.3246724001737246
-0.40490720337661773
-0.01132473035145399
0.3059978951256166
0.2694054013038188
0.2086604244595317
0.19312288638816985
0.257604439589731
-0.13256558881013425
0.1790101897596537
0.05042446220891009
-0.33210610270915286
-0.36416679118198536
0.15847838773803835
-0.2432312125499275
-0.32477685133454226
-0.2517958871216197
0.3431230428724225
-0.3803411991734359
-0.3041171938742387
-0.02617369784422133
0.2118872704019392
-0.07685901965009197
0.16296728296552038
-0.13686798460246857
0.028531717544146365
0.044229536759051086
0.2690567665913849
0.4701573950216528
0.3803864907193265
0.4037193573788702
-0.4644964148521417
0.4641865571502295
-0.4901648485811393
0.4738887905346843
0.42196859859537833
-0.11312484810260465
0.21702450327514164
0.4756104570779888
0.16057860248406178
-0.29220381188501876
-0.1625465203520144
0.12391835384972845
-0.3536961309889263
-0.19790886615983644
0.15490526973392982
-0.12262578524838126
0.20050184747396813
-0.2555950167169738
-0.3334518812782172
-0.33690730965465
-0.00435902185798305
0.3040389518267199
0.10954253508436274
0.08478496131202672
0.41510816311958965
0.11798647617586117
0.21982970715234632
0.3015962340240664
0.3566878512596922
-0.27061243211277003
0.23001214099782677
-0.22889138125733752
-0.4032019157758572
-0.11798256204453449
0.1850903623356821
-0.25986025246930794
0.3740070955727113
0.1958848616679566
-0.39424557329452314
-0.0186808901830971
-0.2658652709307654
-0.1922880667518273
-0.23557933547666485
-0.2595211969893726
-0.216091804795359
0.21006892738307173
-0.37086220516415347
0.32960784027420087
-0.11307248861358653
-0.09180362298929566
0.07678867665045139
0.3379086446575877
0.28444370916664136
-0.48645793453861225
0.10437857154446283
0.07082559971053229
-0.06165251171861
0.08715229633301613
0.31955354681670306
0.27063846372545497
0.3061953486546803
0.2362340828929166
0.18703034550428904
-0.006169806701837723
0.2490623629784294
0.015704537479724823
0.12026924480399566
0.4548005578409444
-0.0715479153884128
0.47939811451674286
-0.18985049054218295
-0.29376560962894843
0.1804010065717473
-0.48998158871541936
-0.28497819575648875
-0.07909861999115211
0.3272546729719806
-0.4325575916023598
-0.28646886407447486
0.2486553130754555
0.4738623316346496
-0.28165520213145
0.4707129822305711
-0.10922577530148846
-0.31704138359720163
0.47625680856044256
0.19570226653544578
0.3274325196959555
0.042394505509461555
-0.4940562966625425
-0.38615178848869075
-0.28364895581655364
-0.3134343843858702
-0.22701129896599068
-0.4201421775379579
0.25528546009654457
-0.08437054818742142
-0.21148006972797886
-0.17731288298005052
-0.4062774889305642
0.2991148335750457
-0.4251068931353898
-0.37122701751271975
0.23469206204875515
0.23033365697859035
0.24987776116277569
0.4765605938493901
-0.022229337339097956
0.1698590645375141
0.27287360556546914
0.44180642363438477
-0.08908817198566803
-0.32701728424430726
0.23448972673148966
-0.4779367421354513
0.1853124084367679
-0.04845527243512166
-0.07073957938841799
-0.46322579980354056
0.42888768426921503
0.33509420973087156
0.18979668075361505
0.04720559027937947
-0.47380822124764027
-0.48870587481289646
0.40778777496371366
0.08845016018329994
-0.12125174878803037
-0.40794225619478564
0.49480582138984347
-0.20120355877884022
0.32667426759207724
0.043671938291716075
-0.2861220725142961
-0.4881269790710678
-0.40554384735728877
-0.2125120184141784
-0.10921925502976716
0.3713100693194926
-0.0976008321945258
-0.23808029791727195
-0.08217824990933259
0.24995962432192176
-0.0619108266745833
-0.4491228127755347
-0.11202710997140031
0.015693582143770545
-0.23917429763376905
-0.33315665085514057
0.22915707950657474
0.2336781778503681
-0.06412886348779387
0.3172258116857088
-0.3272391902998261
0.05985808170800386
-0.04741244572889662
0.0931354183988536
-0.24639562161933973
-0.17799928559913367
0.26990833651134716
0.4681982965030448
-0.3999660041156412
-0.2147616738813247
0.06907165207899467
0.16950260045708035
0.470664927718183
-0.3929501482748193
0.4091743176910559
0.4534511053171363
-0.4075014255769207
-0.3939894464396789
0.13028635410685324
-0.45268263185060215
0.1455213305673996
-0.01654772291854058
0.2638619145164422
-0.13866925761378082
-0.3617119286882292
-0.479402038976158
0.2260289271782365
0.178865713544172
-0.14546122277286003
-0.37927021704070996
-0.17615830405819774
-0.012308645902524812
0.10177973284598786
-0.13693526643594697
0.4754121166823064
-0.4547910181150911
-0.14908247123615886
-0.08366369564232909
-0.09784625241214127
-0.10988062279005784
0.09512011559260525
0.15786336281263336
-0.32968858791384914
-0.24826095092933265
0.08200822513294247
-0.028968343018762194
-0.22483608885380627
-0.48504567402055127
0.2697897982573662
-0.32455728718145477
-0.1358237847259564
-0.35611826484723147
0.09917638903981411
-0.14625508403753418
-0.2617300084469627
-0.0008657728845493169
0.26918116553474286
0.013221053942487224
0.46431492135808167
0.40656233747582493
-0.4317606512181823
0.012275977342477255
0.05768143166062506
0.06517214781721424
0.47115455269200224
0.1900242113646414
-0.11333515637685004
0.059680382410963635
0.14297533322435718
0.06862508517397467
0.14741949868108195
0.33317045873576334
0.36612762961926704
0.35857203797300957
-0.1609620853893351
0.09376124133367741
0.186422740848128
-0.12642556295428678
0.4032223919174741
-0.2883151301246256
-0.40465111679354376
0.10980836468344475
-0.07623263323825058
-0.026083956049749227
0.25217689939353216
0.427722285366532
-0.3450792816369503
0.008675458204791105
0.03311680526321816
-0.35771867552519937
0.15839457481231958
0.43094235146330273
-0.044664114956808436
0.3326443710752158
-0.4100869235167882
0.39762279941710305
-0.3180612774342575
0.4810236574480646
-0.17604441562374537
0.1964122874966143
-0.003108227431993209
-0.17895113369237758
0.1142806901192548
0.43505362086078736
-0.40949921336551154
0.49037614700618404
0.32443019251770533
-0.1063458251155121
0.08293841777205532
0.226593142167248
0.35670679733897226
-0.194978230659342
-0.24239110162802768
0.042251027336898
0.41467056655969925
-0.40713369015130907
-0.24172094087218865
-0.3788597019485765
0.18012303971187177
0.2938849445526996
-0.07657573395587912
-0.325876408304499
0.051951661687927496
-0.07065876775159113
-0.20192166315621216
0.2522139372105239
-0.23006900899930208
0.3729272617365334
0.24546276673052303
0.24643887817165136
-0.10494743930694368
-0.03419686295775811
-0.05785804442113982
0.44701408587983965
0.1503491838197451
-0.31650591146172724
-0.30858114998862185
-0.23305437250853514
0.3492153857489917
0.141236736022048
-0.12006040274630314
0.40114433911383296
0.302049418738724
-0.17111632434099255
0.46998234978728465
0.09258474652840844
0.33711602949439945
-0.0023649315441812086
-0.2691847689694853
0.09365465146041528
0.15889226223606367
0.19153185755200655
-0.4786520384639248
-0.101994794337033
0.20721812560638808
-0.3237042951014923
0.27258910671309844
0.2646826027213171
0.2680281754088881
-0.2485058970051888
-0.2066965552419894
0.3616754472496863
0.2774952870712894
-0.15879278895640192
0.22902718100082858
0.47955735662895066
-0.27845884653781594
-0.1475187025758651
-0.17702533364050113
-0.3806033387437777
0.2762779395838042
0.12806503247969409
-0.45690790256861535
0.14575212190517542
0.4093898175584189
0.2724150089478289
-0.11378242349806872
-0.07085464464872326
-0.37963221821237125
-0.38544472318763334
0.29827906179744973
0.12818922483337053
-0.010168334068103775
0.11708967556014815
-0.1514074248289462
0.24513654130171694
-0.1679301920030391
-0.3199519831259935
0.4682360702111795
0.3252897403798711
0.15288862951146087
-0.008025739937940353
0.4146748365653824
-0.09962431732432056
-0.13460843538743641
-0.0024995456485175033
-0.4115364597161928
0.1946990765732918
-0.31363080575759816
-0.05280335026897842
-0.20264574010541606
-0.052569586226900895
-0.05645192433034952
-0.20027103990699896
0.3690052821274362
-0.01456830422764915
-0.25809368111108577
0.49075301214311007
-0.09233950338263248
-0.26611122348671606
-0.35947145196201685
-0.4575867832471905
-0.10492133454172006
0.08826905682164171
-0.33544292014176985
-0.41590018022524633
0.4386968686179947
0.0510594668464876
0.49753525066239074
-0.22564150393882412
0.24283664547589745
0.3611987839593889
0.4282145658970286
0.3151242011204246
-0.32719056618733144
0.3386543403196531
0.20510697526584876
-0.3041671771474609
0.09147710950403648
0.10261975216014575
0.1439478791945249
0.09801599602725099
0.23078370345894475
0.4427613065210255
-0.2906899091586587
-0.2896582626770508
0.07238722250069908
0.14118291294995627
0.4678936479345499
0.4546959571445666
0.45300862469629577
-0.10782520961220711
0.3286644718707517
-0.13928209005747225
-0.008041237678832915
0.3985729866665016
-0.2252846663703104
-0.48807793109878506
0.2747849509450441
-0.0895833205015474
0.25475224814297176
-0.46564873761637715
0.3002704598813617
-0.10657245488035819
0.20552279371581497
0.1305980717185963
-0.4955986622877693
-0.37874241074773335
0.46198241299103615
0.04448019241432385
-0.21580448113878972
-0.42502306133376944
-0.06349283725575877
0.31290024552576023
-0.32939536745811493
-0.3551908115514573
-0.4434408771824224
0.1841960079356551
-0.2920085110261337
0.2609048189791673
0.47348422184428396
-0.2857922279056087
0.1471884543614094
-0.19657164679957317
0.22218553271527505
0.3121811507850234
0.3706310874197546
-0.14501191018143447
-0.37128494604171663
0.3725453579476708
-0.3567900817980369
-0.0653589573075171
-0.32184936811997117
-0.3563985689094068
-0.06502705006135236
-0.1616240257952712
-0.17984695218921457
0.32292611970865515
-0.11503553311719376
0.18654473616069236
-0.32188247884092214
-0.39545875321776364
0.49750169631374674
-0.32211047638165113
0.2758115775312325
-0.44013979967274985
-0.02748571129460149
-0.3969592781669298
-0.3015354514819305
-0.3478369931380934
0.4655110207038458
0.09016772147499759
-0.4131757445965354
0.21032569812274152
0.4989588149093556
0.3200775998507324
-0.06078493351834105
0.3879676141780552
0.34969653316069355
0.005937194731161454
-0.3683453413909286
-0.4294135046208618
-0.1607866987608165
-0.43107358937743195
0.20152294901198853
0.3195607009584459
0.13382952744795965
-0.10375820564341605
-0.466512671723269
-0.033659976066325495
0.1546729433206764
-0.2605174063851777
0.12200710634212929
0.4813305861673729
0.37688887719066344
-0.10774504749229723
-0.3739106954519112
-0.32695127692385445
-0.30406576571812954
0.07440624892337692
0.18558651209841973
-0.3028900429307094
0.19162213435392847
-0.2728428540399466
-0.44379292432374323
-0.028821029140076424
-0.35736859512915536
0.1104919023685779
0.07994283227964873
0.4428111958288782
0.4762092208037524
0.45112054206995783
0.495192630859288
0.1085249152724115
0.2674050865235902
0.03837670772665469
0.1745384962665833
-0.03523948472897573
-0.28303537020105324
-0.010508448403329727
0.12720640527116767
0.4445480666343831
-0.4925053393285522
-0.4239995155101152
0.4541680497948289
0.4423837857645264
-0.1604594098265041
0.1237867264706638
0.17415865474778353
0.29151805287949645
-0.3825508677515689
0.21188809528490027
-0.2520068484598953
-0.13199441555524008
0.40201568014285016
-0.07482838390792798
0.2751847290902498
-0.23887848235122516
-0.3705022771564277
0.46393896161576986
0.2956812603562251
0.32178648763716516
-0.12548379376854557
-0.14900118996048367
0.03436141371502894
0.43954338251570235
0.4097202268802555
-0.21899558415316714
-0.12925812416509863
-0.24504519889607848
-0.475101642590295
0.2303641493372088
0.2595121961226881
0.24854650195224678
0.14297939230801324
-0.44101304559705695
-0.29611849207782065
0.30006067491245064
-0.08682884487853201
0.22833102495658766
-0.1668648209895493
-0.13538416933986747
-0.4187320242098471
0.4965033356395059
-0.17711424410478185
-0.32552501302111664
0.4135566056415536
-0.1294874902668852
0.40399376836643075
0.04384575320238542
-0.10950770750552315
-0.4367727067746844
0.2733621707507394
0.3345394360568526
0.2557565013349668
0.27206841367068296
0.13418190667934607
-0.16887614885533464
-0.3410254953068807
0.0810597356608295
0.1775788566833982
-0.31623461057604624
-0.3786193554371596
-0.33199951551011525
-0.1108319502051711
0.2493837857645264
0.28304059017349587
-0.1852132735293362
-0.17534134525221645
-0.01798194712050353
0.2849491322484311
0.2803880952849003
-0.28900684845989527
0.1735055844447599
0.16551568014285015
-0.125328383907928
-0.24831527090975017
0.32912151764877484
-0.12700227715642773
0.16143896161576987
-0.028318739643774907
0.29728648763716514
-0.3804837937685456
-0.4105011899604836
-0.46163858628497106
0.22104338251570232
0.2022202268802555
-0.49549558415316713
0.42324187583490136
0.3979548011039215
0.14939835740970497
-0.004135850662791214
-0.20248780387731188
-0.13995349804775323
-0.17402060769198674
0.38848695440294306
0.37088150792217933
-0.32793932508754936
-0.484828844878532
0.3418310249565877
0.2356351790104507
0.12211583066013255
0.03326797579015285
0.0005033356395058591
0.19738575589521815
-0.11002501302111663
-0.37644339435844637
-0.23998749026688518
-0.22350623163356925
0.26884575320238546
0.08849229249447685
-0.3777727067746844
-0.48063782924926063
-0.013960563943147432
0.0347565013349668
-0.45343158632931707
0.420181906679346
-0.026876148855334625
0.14647450469311932
-0.03844026433917051
-0.17092114331660177
0.06476538942395377
0.46738064456284045
-0.0485
-0.436
0.146
0.2355
-0.0365
-0.3935
-0.3815
0.075
0.1275
0.1145
0.199
-0.2895
-0.456
0.0935
-0.0045
-0.481
-0.343
-0.0975
-0.44
-0.278
0.009
0.0625
0.4315
0.19
0.033
0.0625
-0.395
0.491
0.107
-0.4085
0.085
0.478
-0.467
-0.0825
0.1495
-0.258
-0.19
0.215
-0.4315
-0.371
0.3535
-0.458
0.2435
0.174
0.09
-0.2825
0.135
0.1005
-0.0365
0.3195
0.237
0.1925
-0.3465
-0.138
0.384
0.1135
0.3055
-0.272
-0.0725
-0.192
0.1385
-0.3285
0.124
0.295
0.337
0.4355
-0.487
0.4195
-0.1055
-0.0315
0.471
0.204
0.4745
-0.41
-0.1455
-0.2105
0.0435
-0.3975
-0.123
0.2545
0.165
-0.4555
-0.3215
-0.31
-0.1945
-0.392
0.484
-0.33
0.473
-0.2055
-0.0065
0.053
-0.41
0.2435
0.4835
0.312
0.316
-0.3915
-0.2545
-0.26
-0.2415
0.193
-0.128
-0.4405
0.439
0.302
-0.4265
-0.4515
0.1905
-0.243
0.3085
0.078
-0.2595
-0.102
0.142
-0.2575
-0.053
0.294
0.165
0.047
0.194
0.4215
0.361
-0.1065
0.378
-0.329
0.492
0.3335
-0.309
0.405
0.3175
0.283
0.079
0.3235
0.3195
-0.4005
-0.3895
0.2095
0.4485
0.0645
0.0345
-0.237
0.285
0.136
0.01
0.425
0.0055
-0.263
0.2675
-0.0275
-0.158
-0.43
-0.4955
-0.2855
-0.203
0.113
-0.4455
-0.021
0.3765
0.0335
0.4925
-0.346
0.4505
-0.375
0.372
0.0745
0.283
0.328
-0.437
0.297
-0.4145
-0.06
-0.4875
0.2905
-0.4635
0.4315
-0.4205
-0.175
0.011
0.25
-0.0225
0.472
0.293
-0.101
-0.0275
-0.2885
0.31
-0.2345
-0.317
0.275
-0.219
0.3495
0.087
0.1765
0.4735
-0.2315
0.3945
-0.3225
-0.0715
-0.3815
0.051
0.2125
0.065
-0.0135
-0.118
-0.274
0.16
-0.318
-0.292
-0.0155
-0.2345
-0.379
-0.434
0.2715
0.334
0.013
-0.3215
0.3725
0.47
0.0445
0.308
-0.1935
-0.006
-0.1125
-0.1025
-0.337
0.12
0.234
-0.22
0.4755
0.0965
-0.4285
-0.3235
0.38
-0.3185
-0.3745
0.01
-0.1605
-0.1015
-0.126
0.284
-0.4825
0.3115
0.0005
0.034
0.211
-0.304
-0.032
-0.277
0.0615
-0.288
-0.4545
0.063
0.0865
0.2595
-0.3555
-0.475
-0.2095
0.2425
-0.1845
-0.433
0.363
0.059
0.4265
-0.094
0.115
-0.122
0.0855
0.0955
-0.16
-0.418
-0.22
0.0545
0.465
-0.15
0.0155
-0.025
0.012
-0.465
-0.4445
0.03
0.295
-0.4695
-0.432
-0.4495
0.2225
0.372
0.126
0.191
-0.2905
-0.096
0.2525
0.449
-0.1775
-0.1995
-0.0155
0.3765
0.1125
0.215
-0.171
0.3955
0.0095
-0.3145
-0.499
-0.1035
-0.1485
-0.4255
0.436
-0.034
0.4705
-0.1395
0.3395
0.1705
0.4495
-0.314
0.269
0.334
0.312
-0.405
0.456
-0.181
-0.1395
-0.333
0.172
-0.4815
-0.077
0.4345
0.304
0.209
0.0735
0.181
-0.317
-0.236
-0.3555
0.4485
-0.184
0.0655
-0.2945
0.2755
0.266
-0.1135
-0.1585
0.1215
0.198
0.018
0.4385
0.389
-0.113
-0.1325
0.4125
0.2245
-0.147
-0.477
-0.359
-0.3565
0.205
0.082
0.294
0.042
0.31
-0.3725
-0.0025
-0.0795
-0.461
-0.1135
0.15
0.3595
0.4955
-0.2465
-0.2595
-0.432
-0.406
-0.4035
0.084
0.3375
0.4025
-0.143
0.3455
0.4105
0.3735
0.3665
0.2125
-0.4335
-0.3595
0.401
-0.2785
-0.1435
-0.0615
-0.254
-0.114
0.381
0.1085
-0.26
0.136
-0.4165
-0.0985
0.3895
0.074
-0.246
-0.3095
0.275
-0.4885
0.4355
0.0465
0.334
0.1955
-0.1665
-0.4095
0.319
0.2805
-0.068
0.447
-0.454
-0.14
0.4495
0.0095
0.153
0.415
-0.059
-0.195
-0.394
0.09
-0.4095
-0.2355
-0.373
0.0305
0.475
0.0955
0.124
0.1965
-0.0955
0.1345
0.162
-0.497
-0.3875
-0.1245
0.342
0.468
0.1665
0.2745
0.0145
-0.113
-0.185
0.2905
0.143
0.156
0.0655
0.2675
-0.4505
-0.447
-0.442
0.4065
-0.226
0.1795
-0.2795
0.1445
0.2625
0.3815
-0.3025
-0.34
-0.4695
0.303
-0.4305
-0.1125
0.064
-0.04
-0.362
0.409
0.4865
0.0995
-0.4865
-0.338
-0.016
0.166
-0.2885
-0.439
0.2625
0.472
-0.3265
-0.2235
0.377
-0.351
0.1925
-0.1275
0.3025
-0.1415
-0.127
0.207
-0.4005
0.134
0.159
-0.176
-0.0175
0.3565
-0.068
-0.377
-0.238
0.0645
0.4915
-0.2375
-0.4695
-0.409
-0.301
0.1215
0.131
-0.4035
-0.2415
0.098
-0.3685
-0.245
0.0955
-0.1535
0.172
-0.04
0.051
0.413
-0.265
0.18
-0.272
0.423
0.44
-0.2
0.3815
0.392
0.3885
0.4715
-0.4475
-0.3445
-0.029
-0.2895
-0.484
0.4345
-0.4615
-0.186
0.018
0.223
-0.421
-0.1995
-0.4765
-0.156
0.1575
0.159
0.494
0.153
-0.139
0.4865
0.3625
-0.125
0.427
0.11
-0.4355
0.353
-0.4895
0.102
-0.3915
0.3255
-0.4945
0.3905
0.314
-0.1355
-0.42
-0.303
-0.248
0.2825
0.2925
0.3315
-0.3215
-0.499
-0.1065
-0.2795
-0.261
0.0745
-0.019
0.4755
0.227
-0.055
0.112
-0.309
0.1845
0.123
-0.414
-0.3855
-0.3495
0.4825
0.0995
-0.4155
0.255
-0.4475
0.2195
0.085
-0.006
0.3595
-0.3165
0.425
0.2935
0.059
0.3485
-0.1265
0.271
-0.254
0.1195
-0.037
-0.1155
0.2415
0.4455
-0.3
-0.457
-0.03
0.17
0.3035
-0.312
0.2645
-0.15
-0.3315
-0.248
0.358
0.4725
-0.288
0.4055
-0.375
0.319
0.1135
0.101
-0.3145
-0.246
-0.019
-0.271
-0.317
0.191
0.0385
0.097
0.053
0.392
-0.412
0.3845
-0.3315
0.081
-0.4045
0.2705
0.3395
-0.0275
0.0735
-0.168
-0.45
-0.1885
0.34
0.126
-0.1395
-0.085
-0.327
0.268
-0.1895
-0.296
-0.177
-0.4835
-0.101
0.3855
0.0985
0.412
0.03
0.37
-0.016
-0.496
-0.493
-0.0835
-0.1635
0.3525
-0.1755
0.4305
0.476
0.0435
0.0545
0.314
0.35
0.3955
-0.0745
-0.279
0.2345
-0.035
0.306
-0.49
-0.408
-0.061
0.135
0.141
-0.333
-0.4395
-0.2275
-0.401
0.0445
-0.2505
0.3935
0.086
-0.319
-0.159
0.083
-0.306
-0.249
-0.1255
0.2275
-0.0595
0.216
0.437
0.449
-0.1085
0.484
0.265
0.022
0.465
-0.3805
-0.247
-0.316
0.4905
0.0185
-0.2695
0.0015
0.008
0.303
-0.4155
0.3385
-0.268
-0.0805
-0.072
0.1135
-0.401
-0.4115
-0.075
-0.1345
0.2025
0.1
0.279
-0.407
-0.2405
-0.1775
-0.0295
-0.48
0.118
-0.3905
-0.211
-0.4
0.358
-0.2955
0.2155
0.386
-0.208
0.4495
0.4975
0.408
-0.0775
0.248
-0.1165
0.354
0.413
-0.1295
0.267
-0.4075
-0.1295
0.3725
0.0755
0.102
-0.0465
0.3485
0.074
0.1695
-0.117
0.36
-0.356
0.163
0.03
0.419
-0.025
-0.0565
0.0775
0.486
0.0285
-0.4325
-0.48
0.1065
-0.288
0.436
-0.235
-0.0025
-0.361
-0.1365
0.49
0.1455
-0.3745
0.0815
-0.385
-0.3175
-0.2245
0.0725
0.4815
0.27
0.2065
0.011
0.0175
0.4135
-0.232
0.3725
-0.495
-0.0235
0.242
-0.037
0.2505
0.353
-0.285
0.021
-0.4095
0.2065
0.142
-0.4355
-0.07
-0.3905
-0.087
-0.3245
-0.3515
-0.3
-0.09
0.139
-0.2345
-0.1435
0.135
0.4755
0.1915
0.0165
-0.1835
0.105
-0.202
0.372
-0.1045
-0.4955
0.15
-0.1805
0.2265
-0.332
0.483
0.4565
-0.3125
0.026
0.45300020627434306
0.4990021782904006
-0.41196911657476004
-0.11588843642513245
-0.3594719169264529
-0.30241830615236603
-0.005006113457578142
0.1244981045693486
0.29826565053294446
0.10035555318062112
-0.22596601701743121
-0.22900000027731846
0.23912322983324388
0.03805782017119067
-0.1684797958712515
-0.13711432866083617
-0.39666024358302515
0.15410342268615657
0.42929653758941483
-0.14398616060197908
0.012499285007459223
0.36672383773411865
0.3955047189046542
-0.006605776510878146
0.15266525737860387
0.45102188632396784
-0.40679529268908227
-0.30792516082583454
0.13900586494624376
0.1304999821191904
-0.4406648568991535
-0.13087884747897793
-0.26030441022958933
-0.37300145925490513
0.29100068176418503
-0.38033219267563173
-0.04874834914922355
-0.07003594742241517
0.09400796860429779
0.07609842663586687
0.33149830099268474
0.30712550303942077
0.10230467059981992
0.2455868589001047
0.3011809009197451
0.05589066512364669
0.24279476280996395
-0.3060418162008304
0.07101096833475073
-0.15255588931920044
0.18264198557436295
-0.47287123933601866
-0.4180374537046973
-0.1442103753362052
0.36468549338296863
-0.047470543700571396
-0.20351418169173652
-0.28976811264396574
-0.06950075336667311
-0.04202207378563479
-0.04649979372565693
-0.07949782170959942
0.04103088342523992
0.17961156357486754
-0.11697191692645295
-0.24691830615236604
0.10699388654242185
-0.1255018954306514
-0.38823434946705554
0.0533555531806211
0.2020339829825688
0.30949999972268155
-0.42587677016675607
-0.22394217982880935
-0.4274797958712515
0.36238567133916383
0.29233975641697485
-0.07839657731384343
-0.4527034624105852
-0.3034861606019791
0.3049992850074592
-0.08077616226588136
-0.3114952810953458
-0.16710577651087816
0.27066525737860386
-0.3954781136760322
0.10120470731091777
0.2800748391741655
0.2660058649462438
-0.4820000178808096
-0.09566485689915351
-0.27787884747897795
-0.27330441022958935
0.30699854074509486
-0.041499318235814965
-0.39983219267563175
-0.44174834914922356
-0.19253594742241517
-0.06049203139570221
-0.07540157336413313
0.03449830099268474
-0.34187449696057925
-0.038195329400180084
-0.3284131410998953
-0.10781909908025492
0.05589066512364669
0.23529476280996398
0.3594581837991696
-0.10798903166524926
0.3584441106807995
-0.18085801442563704
0.4411287606639813
0.17496254629530267
-0.2172103753362052
-0.14531450661703138
0.047529456299428605
0.10548581830826347
0.4707318873560342
-0.03250075336667311
-0.051522073785634795
-0.4473630948131036
0.3518933756914549
0.46948070354397226
-0.03473764732856143
0.2898878428739914
0.13366238751251278
0.43873454064779366
-0.20992889615237276
0.48613954033041645
-0.05872763766860459
0.4876883420493877
-0.41999999221537515
-0.407142244104778
0.4644358588624783
-0.486475669274459
0.24495501256072702
0.41109458782569347
0.4010027354282848
0.43227296064793114
-0.23897230207261647
-0.4000155814457422
-0.43671046376929507
0.10019215722033806
-0.16654258494566943
-0.12475117481162465
0.4376519770084845
0.49012946607912067
-0.38715460193588175
0.2156200823923519
0.42994748691706364
0.32033650584287454
0.15461780364660999
0.09835043878052821
-0.3274077779941933
-0.3505584436821863
-0.39280375367956205
-0.0736855289634683
0.02670759115800244
0.0723101691099806
0.22693744079462758
-0.476338939729416
-0.3744551113708924
0.3626017415305626
