-0.425
-0.254
0.1615
-0.463
0.102
0.4485
0.3145
0.0175
0.2805
-0.439
0.1845
-0.3955
-0.4905
0.0705
0.4705
0.2145
0.0155
-0.3595
-0.039
-0.2795
0.308
0.0215
-0.237
-0.1115
-0.4875
0.485
0.277
0.1785
-0.2165
0.4045
-0.407
-0.438
-0.207
0.276
-0.274
-0.145
0.1125
-0.141
0.2185
0.257
-0.4685
0.382
-0.186
-0.042
-0.3345
-0.2715
-0.062
0.3785
-0.346
0.169
0.4385
0.205
0.0205
0.17
-0.358
0.1075
-0.2475
0.023
-0.257
0.169
-0.2325
-0.261
-0.4595
0.492
-0.22
0.1025
-0.1365
-0.231
0.2445
0.0115
0.0135
-0.2985
-0.081
-0.227
0.2985
0.141
0.0365
-0.023
-0.2425
-0.481
-0.125
-0.0895
-0.309
-0.282
0.144
-0.2535
-0.4915
-0.4775
0.3725
-0.2295
-0.289
0.2935
0.418
-0.0235
-0.4675
-0.105
0.443
0.296
0.3175
-0.3745
0.2765
0.406
0.114
0.2935
0.43
-0.0545
-0.1375
0.1255
-0.119
-0.1145
0.441
-0.094
-0.289
0.0095
-0.4645
0.027
0.0605
0.0755
0.3975
0.1705
-0.127
-0.066
0.2265
-0.4785
-0.1715
-0.0635
-0.3035
-0.191
0.399
-0.023
-0.3395
-0.162
0.331
0.2715
0.4305
-0.146
-0.065
-0.236
0.191
-0.382
-0.1255
0.1815
-0.1205
-0.1955
-0.466
-0.2815
-0.2465
-0.136
-0.41
0.3235
-0.456
0.3005
-0.2025
-0.208
0.3295
0.31
-0.402
-0.418
-0.1975
-0.058
-0.104
-0.2985
0.0105
0.1845
-0.3125
-0.315
0.3955
-0.3815
0.25
0.1015
0.0535
-0.4355
0.3635
-0.1435
0.106
0.188
0.151
0.409
0.0175
-0.186
0.4085
0.3975
-0.092
0.046
0.2735
0.0285
-0.3805
-0.0845
-0.1125
-0.454
0.119
-0.2025
-0.0395
-0.0895
-0.2015
-0.169
0.403
0.406
-0.1695
0.174
0.1345
-0.4765
0.169
0.2115
-0.159
-0.384
0.24
0.3285
0.0295
0.243
-0.064
-0.1875
0.211
0.443
0.1675
0.005
0.488
-0.06
-0.043
0.134
-0.4655
-0.1175
-0.486
-0.4785
0.0425
-0.2
0.126
0.2495
-0.146
0.421
0.0005
0.144
0.4205
0.2365
-0.3815
0.366
-0.0585
-0.0295
0.4565
0.308
-0.008
0.1745
0.3535
-0.397
-0.3235
-0.3495
0.3105
0.0465
-0.1355
0.1145
-0.1495
-0.061
0.1005
-0.459
-0.273
-0.1525
-0.122
0.3025
-0.058
-0.233
0.026
-0.007
0.4025
-0.2215
-0.2565
0.3845
0.4035
-0.2075
-0.298
-0.215
-0.0845
-0.4695
0.291
-0.1265
-0.473
0.1295
0.0445
0.2725
-0.3585
-0.245
-0.0185
-0.052
0.4525
0.2525
-0.3835
-0.2755
0.0405
0.2125
-0.4825
-0.2545
0.0485
0.026
0.053
-0.2455
0.272
-0.0785
-0.1925
-0.1185
-0.054
0.459
0.339
-0.395
0.0785
0.1735
0.39
-0.461
0.4905
-0.111
-0.229
-0.078
0.4255
0.319
0.03
0.092
-0.022
0.429
0.345
-0.3045
0.269
-0.038
-0.48
0.3805
0.4775
0.076
0.2655
0.189
-0.42
-0.19
-0.238
0.492
-0.4035
0.437
0.1785
-0.485
0.311
-0.303
-0.076
-0.2305
0.0345
-0.2105
-0.215
0.073
0.116
-0.295
0.061
-0.0485
-0.0155
0.171
-0.2635
0.083
0.476
-0.4295
-0.2135
-0.4905
0.404
0.257
-0.245
0.1255
0.3225
0.0995
-0.0955
0.282
-0.189
0.321
0.4655
0.488
-0.4615
0.0865
0.0715
0.198
-0.1165
0.24
0.2605
0.2155
0.1605
0.435
0.0655
0.0265
0.038
-0.02
-0.4195
0.309
0.3345
-0.249
-0.4595
0.3705
0.162
0.1935
-0.026
-0.1525
-0.2515
0.3805
-0.4975
0.3585
-0.256
0.4725
-0.3645
-0.4275
-0.4065
0.381
-0.4215
-0.1645
0.4905
0.385
0.132
0.3885
-0.2815
0.456
0.412
-0.362
-0.449
0.39
0.12
0.4225
-0.038
0.043
-0.284
-0.4935
0.3855
0.127
-0.0865
0.1305
0.162
-0.488
0.435
-0.019
0.205
0.1505
0.3695
0.2535
0.3355
0.3325
0.123
0.229
-0.1875
0.1095
-0.125
0.0535
-0.179
-0.057
0.0395
0.4305
0.2485
0.2445
0.255
-0.1165
0.06
0.133
0.0875
0.256
0.176
-0.09
0.48
0.156
0.441
-0.222
0.3635
0.3325
0.458
0.018
-0.397
0.3785
-0.464
-0.093
-0.1875
0.0635
-0.1445
0.1345
-0.057
-0.193
-0.461
0.4585
0.322
0.035
0.3335
0.4935
-0.1335
0.068
0.1215
0.342
-0.413
-0.275
0.3195
0.1885
0.3505
-0.173
-0.4105
0.472
-0.2845
0.3655
-0.1755
0.4765
-0.186
-0.4195
0.3535
-0.051
0.3835
-0.45
0.3375
0.1645
-0.1445
0.317
-0.1295
0.0465
0.415
-0.4795
-0.47
0.3945
0.1195
-0.2655
0.4165
0.1695
0.0485
-0.4015
-0.4785
0.132
-0.184
0.4155
0.274
0.1905
-0.4225
-0.074
0.172
0.227
0.3955
0.208
-0.3765
0.199
0.404
-0.2915
-0.4035
-0.4185
-0.21
0.3815
-0.372
0.031
0.3625
-0.248
0.047
0.29
0.4455
-0.4065
0.4885
0.411
0.04
-0.133
0.356
-0.166
-0.2745
0.357
-0.235
0.237
-0.461
-0.179
-0.3085
0.4625
-0.3175
-0.212
0.0755
-0.277
-0.4455
0.134
0.244
-0.042
-0.1085
0.133
-0.173
0.117
-0.3685
-0.1685
0.4865
-0.2905
-0.3225
0.4845
-0.4655
-0.1495
0.4915
-0.293
-0.19
0.3935
-0.474
0.1295
-0.068
-0.0765
0.3935
-0.3185
-0.1225
0.419
0.4605
-0.4715
0.447
-0.2635
0.2275
-0.152
-0.039
0.0045
-0.44
-0.051
-0.1915
-0.1685
-0.4445
0.039
0.3485
0.4905
0.2205
-0.1165
-0.2415
0.4085
0.461
-0.1155
0.3925
0.2945
-0.301
0.159
0.3445
-0.148
0.004
-0.4535
0.204
0.0745
-0.281
-0.298
0.2585
0.061
-0.4815
-0.3945
0.267
-0.4575
-0.421
0.424
0.2535
-0.3975
-0.017
-0.376
0.078
-0.3585
0.306
0.062
0.131
0.471
-0.4665
-0.4265
0.2525
-0.0795
0.4355
-0.1535
0.0945
-0.468
0.4215
-0.4885
-0.306
0.487
0.3685
-0.3655
0.206
-0.4895
-0.064
-0.1525
0.1575
-0.3575
0.193
-0.2265
-0.2555
-0.4785
-0.2995
-0.216
-0.1465
0.1465
0.014
0.447
0.247
0.3195
-0.1555
0.0155
-0.023
-0.318
-0.374
0.113
-0.3235
0.417
0.2175
0.2025
0.0005
0.4165
-0.2155
0.28
-0.167
-0.3095
-0.029
-0.2345
0.286
-0.0375
-0.118
-0.1255
-0.4005
0.234
0.1555
-0.3985
0.085
-0.0605
-0.044
-0.4605
0.2615
-0.18
0.266
0.304
0.109
0.318
-0.316
-0.325
-0.4995
0.0935
0.3605
-0.279
0.1075
-0.0775
0.245
0.4805
0.431
-0.4925
-0.1205
-0.446
0.2445
-0.4725
-0.131
0.4675
-0.4755
-0.469
0.392
0.109
0.23
0.483
-0.4595
-0.0995
-0.073
0.476
-0.0135
-0.0805
-0.204
-0.271
-0.439
0.2525
-0.0145
0.079
0.178
0.3055
0.1045
-0.058
0.4575
0.4545
0.171
-0.001
0.1105
-0.317
-0.185
0.0035
0.3135
0.1035
-0.162
0.0115
0.238
-0.293
0.3055
0.066
-0.18
0.458
-0.424
-0.363
-0.134
0.257
0.368
0.2275
-0.1845
0.201
0.134
-0.357
0.443
0.296
-0.014
0.388
-0.0765
-0.0435
0.052
0.069
-0.4055
0.328
-0.438
0.2245
-0.209
-0.1165
0.474
0.226
-0.33
-0.376
-0.496
-0.376
0.083
0.4125
-0.2135
0.3445
-0.2825
0.2005
0.303
-0.4915
0.357
-0.5
0.4565
0.1465
-0.4055
0.235
-0.046
-0.2325
0.403
-0.1045
-0.3115
0.495
0.458
0.14
0.0755
0.2775
0.409
-0.35
0.013
0.3035
-0.2225
0.0975
0.171
-0.396
-0.404
0.2405
-0.4035
-0.0785
-0.2275
0.102
-0.11
-0.153
-0.308
0.432
-0.1915
-0.1575
0.243
-0.3055
0.4145
0.0815
-0.2895
0.498
0.042
-0.4185
0.2935
-0.448
0.084
-0.1075
-0.0785
0.158
-0.2325
0.044
-0.137
0.4565
-0.114
-0.2565
-0.484
-0.09
-0.4765
-0.138
0.464
0.163
-0.0155
0.12
-0.167
-0.186
0.134
0.1525
0.385
-0.119
-0.303
-0.203
0.1385
-0.061
-0.163
-0.289
0.123
-0.4955
-0.417
-0.434
0.455
0.2345
0.193
-0.2155
0.131
0.182
-0.1495
-0.36
0.1705
0.329
0.028
-0.2275
-0.3815
-0.0145
0.471
0.3545
-0.24
-0.1085
0.165
-0.0155
-0.4615
0.3095
0.2335
-0.5
0.489
-0.176
-0.0095
0.255
0.4415
0.205
-0.4025
-0.458
0.1475
-0.166
-0.258
-0.0615
-0.3375
-0.341
0.215
0.3415
0.182
-0.026
0.0385
-0.3225
0.0085
-0.4095
-0.44
0.0205
0.08
-0.202
-0.218
-0.0465
0.183
-0.0865
-0.338
0.348
-0.4275
-0.131
0.326
0.311
-0.2655
-0.185
0.0585
-0.2565
-0.2595
0.0605
0.3585
0.2985
0.461
-0.3065
0.1565
0.358
-0.101
-0.43
0.136
-0.441
-0.078
0.3205
-0.341
-0.397
0.485
-0.07
-0.1835
-0.1
0.3175
-0.031
-0.498
0.272
0.3275
-0.392
0.0805
-0.24
-0.204
-0.473
0.353
0.396
-0.2575
0.47
-0.2025
-0.2535
-0.1985
-0.191
-0.261
-0.4415
-0.433
0.487
-0.245
-0.0265
0.277
-0.203
-0.3495
0.3325
0.434
-0.0155
0.27
0.3425
-0.1475
-0.087
0.025
-0.054
0.119
0.378
-0.105
0.135
-0.1315
-0.1725
0.4895
-0.42
0.157
0.1065
0.3755
0.2435
-0.417
-0.3595
-0.267
0.287
0.2285
0.2975
-0.36
0.1835
0.24
0.3435
0.166
-0.279
-0.2825
0.2375
0.308
-0.456
0.0545
0.0625
0.265
-0.2215
0.219
0.14
0.165
-0.1065
0.4235
-0.43
-0.0925
-0.136
0.3165
-0.1305
-0.048
-0.2425
-0.0605
0.2825
0.1195
-0.2915
0.0975
0.4775
0.328
0.401
-0.0065
0.0035
0.1195
-0.066
-0.2335
-0.458
-0.206
0.365
-0.008
-0.4935
-0.3255
-0.0725
-0.425
0.444
0.2495
0.4485
-0.471
-0.404
-0.2015
0.4405
-0.257
-0.458
0.0225
-0.061
0.496
-0.0245
0.454
-0.217
0.219
0.07
0.199
-0.137
-0.4575
-0.3985
-0.0145
-0.306
0.4375
-0.356
-0.042
-0.447
0.454
0.054
-0.138
0.285
-0.476
-0.446
-0.1505
-0.101
-0.291
-0.0915
0.4765
-0.394
-0.3205
-0.0815
-0.41
-0.471
0.203
0.454
0.283
-0.449
0.4035
0.4005
0.069
0.277
0.4715
0.247
-0.38
-0.474
0.4625
-0.4075
-0.2685
0.2395
0.309
-0.5
0.2815
0.376
-0.2275
-0.1885
-0.395
-0.368
-0.036
-0.181
0.4125
-0.0205
-0.4515
0.054
0.3235
-0.3575
-0.071
0.057
0.0445
0.1295
-0.0295
0.446
0.411
0.312
0.3995
0.2375
-0.292
-0.3345
-0.263
-0.306
0.155
-0.096
0.097
-0.1825
-0.059
-0.093
0.411
-0.2415
-0.1335
-0.1745
0.0165
-0.229
-0.067
0.4325
0.0065
-0.1805
0.4955
0.025
-0.4815
-0.1675
0.4955
-0.0455
0.4385
0.03
0.433
0.3295
0.3825
0.371
0.0915
0.4995
0.4325
-0.4375
-0.074
-0.0035
0.1725
0.1745
0.484
-0.4545
-0.0945
-0.4295
0.2385
0.2955
-0.2725
0.0635
0.402
0.002
0.0815
-0.332
0.011
0.2445
0.1375
0.1585
0.0685
0.0625
0.306
0.2055
-0.2875
-0.1605
0.095
0.26
-0.329
0.3225
0.382
-0.07
-0.467
0.0195
0.035
0.055
-0.3225
-0.448
-0.137
0.4335
-0.1755
-0.345
0.1295
0.1965
-0.4765
-0.44
-0.084
0.1045
0.2425
0.3215
0.1145
-0.315
-0.075
0.021
-0.4475
-0.2915
0.2785
0.085
-0.052
-0.363
-0.291
-0.358
0.484
0.1665
0.097
0.263
-0.276
-0.279
0.142
-0.4995
-0.1305
0.0645
0.354
-0.151
-0.1615
0.1145
0.298
-0.059
0.123
0.2645
0.0225
0.342
-0.1765
-0.002
-0.3525
-0.447
0.075
0.325
-0.188
0.084
0.058
-0.0235
0.064
-0.3025
0.0635
0.306
0.154
-0.336
-0.2125
0.274
-0.2285
-0.4835
-0.385
-0.0425
-0.222
0.1225
-0.3435
-0.1855
-0.26
0.143
-0.2
0.1415
-0.4955
0.468
0.1995
-0.3465
0.3825
0.4865
-0.0935
-0.28
-0.1855
-0.327
0.2375
-0.4805
-0.132
-0.1225
-0.052
0.245
-0.2175
0.3905
0.2935
0.3265
0.3735
0.323
-0.4025
-0.3855
-0.488
0.4075
-0.4255
-0.103
-0.4985
-0.4675
-0.062
0.4625
0.084
0.067
0.41
-0.075
0.3485
0.0905
-0.285
-0.017
-0.069
-0.0095
-0.4525
0.3695
0.286
-0.4645
0.1445
0.493
0.35
-0.3805
0.064
0.2365
-0.4185
0.109
0.192
-0.2205
-0.389
-0.4775
0.4265
0.433
-0.2095
-0.4175
0.1655
0.0815
0.0575
-0.1375
-0.4295
0.0115
0.21
0.123
0.352
-0.2165
0.1415
0.4535
0.451
0.205
-0.2185
0.089
-0.1335
0.3875
-0.394
0.3745
0.3485
0.4635
0.103
0.0355
0.09
-0.406
-0.0385
-0.161
-0.242
-0.456
0.1595
-0.2975
-0.0055
-0.064
-0.301
-0.4155
-0.1915
-0.373
-0.4025
0.243
0.0165
0.396
0.1485
-0.1135
-0.2585
-0.145
0.2435
-0.1495
0.0295
0.1885
-0.018
-0.4275
0.499
-0.26
-0.342
0.415
0.2345
0.093
0.0815
-0.051
-0.157
0.329
0.4905
0.4965
-0.198
0.3445
0.4785
0.437
-0.1955
-0.0085
-0.3035
0.2135
-0.2505
-0.0645
-0.393
-0.0705
-0.139
-0.4985
0.2505
-0.3205
-0.422
0.3385
0.251
0.3755
-0.4685
0.1875
0.375
0.0335
0.2135
0.2365
0.2005
-0.238
0.0015
0.25
-0.2115
0.046
-0.448
-0.4445
-0.21
-0.328
0.1975
0.104
0.187
0.174
-0.2115
-0.402
0.245
0.2405
0.1095
-0.2845
0.375
0.4845
0.4855
-0.02
0.329
0.0875
-0.2145
-0.2135
0.411
-0.348
-0.486
-0.0785
-0.366
0.142
-0.0285
0.4995
-0.0725
-0.3185
0.021
0.1515
0.395
-0.4345
-0.2465
-0.167
-0.163
0.433
-0.1665
0.489
-0.1665
0.167
0.401
0.356
-0.378
0.191
0.0665
0.0865
-0.3555
-0.2485
0.104
0.0665
-0.3825
0.305
0.087
0.163
0.104
-0.441
0.483
-0.439
-0.1055
0.1125
0.3455
-0.4855
-0.4325
0.146
0.317
0.1745
0.305
-0.289
-0.349
0.4625
0.3805
-0.4365
-0.109
0.4905
0.181
0.4665
-0.0405
-0.4695
0.094
-0.4425
0.224
0.359
-0.188
-0.1495
0.308
-0.0445
0.26
0.2235
0.076
0.305
-0.3025
0.2075
0.19
0.4325
-0.2045
-0.1095
-0.167
-0.3895
-0.1505
-0.345
0.3765
0.009
0.1635
-0.362
0.1275
0.3545
-0.285
-0.4815
-0.4115
0.4575
-0.3625
0.0675
0.4865
-0.119
-0.267
0.3025
0.42
0.264
-0.36
0.4895
0.3175
-0.47
-0.2675
-0.488
0.254
-0.232
-0.07
0.3005
0.255
-0.3125
0.3175
-0.429
-0.002
0.3725
-0.1235
0.025
0.1675
0.325
-0.4455
0.333
0.349
0.1045
0.3
-0.494
-0.3185
-0.391
0.333
0.053
-0.2005
-0.2945
-0.383
0.058
0.1155
0.3675
-0.162
0.336
-0.085
0.1415
-0.342
-0.1215
0.378
-0.2655
-0.1155
-0.08
-0.1895
-0.453
0.036
0.1195
-0.377
0.4375
0.425
-0.134
-0.1985
-0.0355
0.3445
-0.13
-0.234
0.2615
0.4295
0.215
0.228
-0.442
-0.227
-0.0535
-0.0575
0.218
-0.1425
-0.382
-0.249
-0.301
0.3905
-0.312
-0.2545
-0.4635
0.326
0.012
-0.4585
-0.228
-0.297
0.3035
-0.258
-0.327
-0.168
-0.425
-0.492
-0.3615
0.228
0.1215
0.2205
0.105
0.171
0.472
0.139
0.327
-0.256
-0.094
0.1785
-0.004
-0.4995
-0.464
0.3165
0.3865
-0.496
0.406
0.1845
0.413
0.384
-0.4325
-0.077
-0.24
0.2055
-0.418
0.259
0.097
0.195
-0.094
-0.266
-0.356
-0.2605
-0.4945
0.006
0.0555
0.234
-0.3145
0.032
-0.1635
0.3435
-0.376
-0.4375
0.4585
0.136
-0.142
0.107
-0.3365
-0.129
0.263
0.3045
-0.1145
0.2915
-0.4855
0.2065
-0.4705
-0.462
0.0595
0.3855
-0.301
0.4255
0.449
-0.1255
0.077
0.381
0.4825
0.0665
0.464
-0.3645
-0.1335
-0.265
0.3315
-0.4955
-0.218
-0.02
0.2525
-0.1535
-0.4745
0.23
0.107
0.3035
-0.4395
-0.487
-0.3365
-0.3805
-0.1585
-0.1635
-0.2495
-0.4995
0.0555
0.0525
-0.309
-0.375
-0.0265
0.445
0.058
0.3355
-0.344
0.3185
-0.376
0.3405
0.307
0.108
0.2545
-0.0325
-0.0575
-0.307
-0.3155
0.0415
-0.3715
0.2555
-0.4705
-0.482
0.255
-0.486
0.4675
-0.3665
0.2775
0.2095
0.128
-0.18
0.399
-0.4385
-0.107
-0.0845
0.393
-0.2035
0.0325
0.0485
0.036
-0.256
-0.127
0.215
-0.316
-0.2125
0.1795
0.0925
-0.3325
-0.0625
-0.08
-0.189
-0.4275
0.405
-0.3765
-0.215
0.4335
0.2855
0.225
-0.199
0.461
-0.2635
0.0335
0.3565
0.1915
0.1535
-0.3865
-0.3005
-0.185
-0.315
0.497
0.244
-0.4545
-0.254
-0.1895
-0.3085
-0.0035
0.163
0.4215
-0.211
-0.1315
-0.192
-0.0955
0.325
0.2085
-0.181
0.001
-0.274
0.243
0.234
-0.4915
-0.057
0.2525
-0.0215
0.045
-0.0415
-0.234
0.1445
-0.1965
-0.495
-0.4895
0.318
0.0375
0.1685
-0.4865
0.0025
0.2475
0.473
0.1115
0.159
-0.347
0.405
-0.306
0.4195
-0.0795
0.414
0.1055
0.1475
-0.35
0.0495
0.4175
-0.4635
-0.1765
-0.413
0.3045
0.012
0.3195
-0.0085
0.3655
-0.131
0.1455
0.2325
0.352
0.008
0.2175
0.0165
-0.13
0.0085
-0.382
0.1755
-0.3785
-0.23
0.1905
0.2895
-0.1385
-0.0435
0.3445
-0.2275
-0.1355
-0.1815
0.439
-0.175
-0.349
0.0275
0.07
-0.103
0.25
-0.08
-0.4
0.0865
0.322
-0.0445
-0.145
-0.058
-0.437
0.001
0.226
0.343
0.2615
0.3805
0.2145
-0.041
-0.0125
0.2605
-0.0035
0.1015
0.071
-0.4885
0.201
-0.1065
-0.422
-0.161
0.4865
-0.0295
-0.043
0.2385
0.02
0.474
-0.0385
-0.455
-0.142
-0.1635
0.367
-0.009
0.326
-0.092
-0.2675
-0.306
0.4345
-0.3865
0.2285
0.228
0.1785
0.0505
0.008
-0.2475
-0.281
-0.4245
-0.229
-0.322
-0.303
-0.401
-0.286
0.3275
-0.1115
-0.2435
0.368
-0.3175
-0.027
-0.3075
0.0755
-0.2415
0.077
-0.42
-0.1425
0.0975
0.013
-0.193
-0.405
0.325
-0.261
0.144
-0.149
-0.4855
-0.1925
0.205
0.3595
0.4105
-0.1115
0.235
-0.2975
-0.162
0.4815
-0.375
0.086
-0.2865
0.3535
-0.298
-0.008
-0.244
0.184
0.4985
0.1435
-0.3975
0.4765
-0.1795
0.255
0.439
0.0845
0.0725
0.475
-0.425
-0.0355
0.2705
-0.4315
0.298
-0.4905
-0.171
0.4175
0.4025
-0.1275
0.041
-0.0535
-0.1735
-0.401
-0.1815
0.4735
-0.0515
0.013
0.411
-0.478
0.425
-0.1755
0.014
0.455
0.461
0.249
-0.074
0.4495
0.138
-0.2905
0.277
0.099
0.264
-0.465
0.4025
-0.39
0.3245
-0.3175
0.22
0.335
-0.0785
-0.194
-0.215
-0.4395
-0.218
-0.4305
0.268
0.0175
0.45
0.157
0.389
0.401
-0.1745
0.402
-0.0545
-0.3975
-0.3155
0.0225
0.205
-0.379
0.205
0.0425
-0.286
0.2535
0.3595
0.132
-0.07
0.195
0.4715
0.395
-0.4585
0.4715
0.4975
-0.042
0.3675
0.2615
-0.4515
-0.4135
-0.277
-0.014
-0.3445
0.185
-0.4425
-0.2135
0.2935
0.0745
-0.356
0.284
0.4965
-0.094
0.301
-0.174
0.2515
0.056
-0.063
0.341
-0.2305
0.027
0.4285
0.4575
-0.215
0.3735
0
-0.4235
-0.0495
-0.4105
-0.4765
0.0865
0.057
-0.3335
-0.3575
0.0505
-0.1465
0.319
-0.3785
-0.2675
0.013
-0.0265
-0.0415
0.109
-0.4135
0.026
-0.472
-0.0615
0.1145
0.248
-0.473
-0.1565
0.277
0.3845
0.4355
-0.256
0.2695
-0.3285
0.1115
-0.262
0.1415
0.1705
-0.2545
-0.1775
0.261
-0.255
0.187
-0.133
-0.2785
-0.272
-0.053
0.247
0.0705
0.44
-0.474
-0.1455
-0.0435
-0.3165
0.1605
0.403
-0.064
0.1965
0.14
0.308
0.356
0.025
0.1355
0.0965
0.469
-0.248
-0.376
0.4895
0.139
-0.4415
0.072
-0.4125
0.0165
0.276
0.1425
-0.0375
-0.477
-0.312
0.42
-0.475
-0.0595
0.3945
0.173
-0.334
-0.306
0.3245
0.1185
-0.3245
-0.037
-0.395
-0.4745
-0.4265
0.4815
-0.098
0.03
-0.3445
-0.4195
0.3945
-0.4835
0.413
-0.4735
0.3325
-0.285
-0.496
0.145
-0.133
-0.0285
-0.1025
0.1665
0.4735
-0.153
0.235
-0.197
-0.1615
-0.256
-0.1395
-0.0035
-0.2975
0.3505
0.1215
0.46
-0.039
0.191
-0.499
-0.1965
0.097
-0.4335
0.0305
0.318
-0.295
0.085
-0.1635
0.343
0.1365
0.286
-0.1205
-0.094
0.289
-0.4975
0.2705
-0.0245
-0.23
-0.39
-0.0395
-0.1865
-0.303
0.026
-0.217
0.332
-0.1485
-0.468
0.312
-0.146
0.0855
-0.4325
0.3735
-0.0365
-0.255
-0.4315
-0.137
0.07290554292067147
0.01789344447222796
0.2778924096063642
0.024219947494879872
0.42260580825022553
0.1300000374872347
0.3488897309425226
0.44342453345190014
0.16925596076814708
-0.07430851590839961
0.4133603564710378
-0.4198909864852553
0.11527850017080322
0.4335253572048949
-0.42449998350819934
0.22449697232230312
-0.34796903047591193
0.1387870437672529
0.005920443675598769
-0.28807486401404275
-0.4668582660843386
-0.47300847707232024
-0.15650124595925427
0.4534998200308
0.13116246390394815
0.3095000059432144
0.4316056985991171
-0.2933735436005045
-0.0737098794473134
0.45615129788032444
-0.2248444394908214
-0.060916392278508216
-0.22699476269698485
-0.16748220161950142
0.11592539685016308
0.017501691536801235
0.3377573710444312
-0.2969110920855183
0.46597620742937695
-0.20400368794422866
0.038515232800902625
-0.06874805381899667
-0.15399876096832277
0.4545080697468052
0.02456089089119071
0.09847576564550074
0.25462148218050407
0.2822488637691171
0.27371675293064274
0.26738680102172924
0.3387908152922147
-0.3604980630732263
-0.206999941039943
-0.010414776163116856
-0.3351596070973053
0.2209812390868819
0.1323261301791915
-0.27350005743413713
-0.414972239043999
-0.21100036525276084
0.19540554292067147
-0.13310655552777204
-0.2991075903936358
-0.3242800525051202
0.013605808250225537
0.38150003748723466
-0.48761026905747734
-0.4510754665480999
-0.12524403923185287
0.003691484091600422
0.40786035647103785
0.054109013514744744
-0.060221499829196785
-0.06347464279510508
0.26400001649180066
0.13949697232230313
-0.25496903047591196
-0.3997129562327473
0.06042044367559877
0.0029251359859572665
-0.21035826608433855
0.27249152292767975
0.44899875404074563
0.11199982003079995
-0.4068375360960519
0.3205000059432144
0.25360569859911714
0.4901264563994955
-0.000709879447313422
0.4866512978803244
-0.17684443949082138
-0.4644163922785083
-0.07749476269698483
-0.4534822016195015
0.411925396850163
0.38200169153680125
0.0862573710444312
-0.1929110920855184
0.4694762074293769
-0.23700368794422863
0.37701523280090277
-0.19624805381899663
0.0020012390316771727
-0.10499193025319478
-0.2599391091088093
-0.049524234354499284
0.30612148218050406
-0.3347511362308829
0.014716752930642766
-0.3881131989782708
-0.08070918470778533
0.4440019369267737
-0.144499941039943
-0.1304147761631169
-0.061159607097305266
0.023481239086881836
0.11382613017919148
0.4294999425658629
0.437527760956001
-0.19900036525276085
-0.073
-0.317
-0.2355
-0.1445
0.3305
-0.073
0.442
0.094
-0.021
0.352
0.033
0.497
0.0865
0.4035
0.2655
0.2385
-0.303
-0.261
-0.467
0.152
0.016
0.297
-0.318
-0.292
0.1455
0.077
0.271
-0.1195
0.0525
0.3335
0.2505
-0.4815
0.4485
-0.4515
-0.11
-0.3305
-0.435
-0.197
-0.4265
-0.486
0.2595
0.257
0.2645
0.422
0.0445
0.2245
0.072
-0.0635
0.366
0.088
0.01
-0.027
0.427
0.077
-0.0205
0.1255
-0.2275
0.149
-0.444
0.4935
0.21535218509845858
0.4638821103282198
0.17330460021167193
-0.34004430005610314
-0.09535753455290252
0.0002594868088513461
-0.12126814492746421
0.02465945473275592
0.21614045505847335
-0.3993189522464038
-0.35250825522251633
-0.47815061885982224
-0.1218820290994473
0.4691713577883099
-0.2775051463725804
-0.20202131162012216
0.2687072222226221
0.2316887986780643
-0.12729119366356653
-0.25543229253286864
0.056511136718858754
-0.010322095240195915
-0.0395054994474633
0.3732788748501023
-0.0656922857712591
-0.4169839525739682
-0.06336331287635262
0.12630033399386775
-0.3293289964504523
0.47145326048396297
-0.4333575525066935
0.19213334586002376
0.11881703340803657
-0.28687135095677135
0.12397110510477831
-0.40817725964182194
0.09507225801729358
0.32790590597436836
-0.32301462397831093
0.40168739487361704
-0.4463152063322155
-0.1260451235816627
-0.32260659423625093
-0.23035089586629856
0.19215703187503563
-0.4990399833836927
0.008520795012643084
-0.37648562001821656
-0.3364091790291733
-0.04643594884185531
-0.3254292385229354
-0.25516185944768066
0.30185515486172926
0.3098749587899441
0.4302585291688285
-0.09228640740015323
-0.4296364748192551
0.276276542055779
-0.28941665958449686
-0.3805097312082464
0.46691805828955785
0.3068555928921652
-0.11065803630741276
0.4629715148684829
-0.2177669650232812
-0.021789024349010883
-0.4902234263490026
0.0522994220441347
-0.4423720340443991
-0.028212737295096577
-0.2610465451719975
0.3862551490926634
-0.03735196626687858
0.4129033634158612
0.3364837958659102
0.32037403814792653
-0.3254894595749837
0.0057795921663980135
-0.45893008137473984
-0.31008790201119785
-0.252709811076482
-0.3528379849554405
0.20793822882792004
0.2334117677362664
-0.07452834795328328
-0.12799512257457066
-0.07838038140744406
0.25914950765463773
0.4382639157196055
-0.07450680935389502
0.014282002660029507
-0.29038539073360015
-0.4617459423907483
-0.2963706594640976
-0.4155286807883497
-0.3808247129858608
0.19657187125585956
-0.34954347569799904
-0.35789973367190947
0.1506501644951599
-0.4732124761759251
-0.48554541020110453
-0.3889811615123959
0.028623511752444968
-0.23068097813914812
0.13214461651588072
0.30378330679539683
0.43528210906192843
0.3623753137771089
0.1337894919847045
-0.21725179011070517
0.42332858773186216
-0.030376073724041105
0.14788762723230375
-0.27989720603621615
0.09716582330922481
-0.2116800681530197
-0.4226793339026521
-0.30188167070935235
-0.47779779914867815
0.42935218509845857
0.3473821103282198
0.4433046002116722
-0.08954430005610325
0.31514246544709756
-0.09924051319114861
0.019231855072535803
-0.373340545267244
-0.06085954494152672
0.09518104775359627
-0.07850825522251638
0.1258493811401778
0.08611797090055269
-0.2698286422116902
0.1184948536274196
-0.09402131162012206
0.11670722222262211
0.22318879867806432
0.45870880633643346
-0.40643229253286867
-0.009988863281141227
0.2471779047598041
0.3209945005525366
0.20477887485010238
0.2308077142287409
0.1390160474260317
0.3276366871236474
0.42980033399386763
-0.4938289964504523
-0.39954673951603703
-0.2988575525066935
0.039633345860023705
-0.1471829665919633
0.16962864904322872
0.1754711051047784
-0.07917725964182185
0.41757225801729336
0.14240590597436847
0.12598537602168908
-0.35481260512638296
-0.3123152063322155
-0.4745451235816629
0.08189340576374891
-0.14385089586629854
-0.21184296812496436
0.1764600166163072
0.17952079501264306
0.40551437998178347
-0.10540917902917328
0.06406405115814466
-0.40142923852293544
-0.09016185944768068
-0.40764484513827076
0.109374958789944
-0.2667414708311715
0.3347135925998468
0.06986352518074486
-0.33122345794422103
-0.2159166595844968
-0.04050973120824634
-0.38348324281388046
0.17702739841236065
-0.092700520227007
-0.2501173361188287
0.29714222541860014
0.4032594075918187
-0.4963647821409318
-0.139952294246984
-0.3531960301920901
0.3003747439348608
0.25699982593405446
0.4619897203250964
-0.4280406781598051
0.1767058697264717
0.37599930240154905
0.18953181405582273
-0.3355531281799408
-0.10662387958194607
-0.4680001101889117
0.3161652654502962
-0.08374686566129166
-0.3214089989317273
-0.034711135340624734
-0.2905779124029153
-0.29549305509062085
0.49121535173956343
0.3346916907601169
-0.19200820102267527
-0.07547848686891838
-0.16919268837438564
-0.14226792600716098
-0.4290652364263759
0.2801484732823645
-0.45450335672401965
-0.028522368979475552
-0.4529766708612562
-0.2344115396707486
-0.3499011272357296
0.3789839257821539
-0.07187486946925097
0.4916403957694083
0.42499024546118236
0.4814834106065238
0.17230943922960892
-0.2618509512634974
-0.44087541190727103
-0.2706042510976465
-0.18556590027072958
0.13875571418127572
-0.47000154203194905
0.2145992844132196
-0.11199998575766047
-0.4704932028018461
0.4134951239897038
-0.2757769988988676
0.27041299156910836
-0.30833994292585926
0.23051246651439658
0.18276342374265622
-0.2779984655527742
-0.263
0.0615
-0.294
-0.3505
0.0925
-0.2095
0.4475
-0.1495
0.09
-0.0725
0.2985
0.4715
0.14
-0.241
0.32
-0.0075
0.2305
-0.302
0.4025
0.3745
-0.482
-0.1665
0.194
0.041
0.488
-0.216
0.1345
-0.4645
0.3725
-0.347
0.1975
-0.4595
-0.299
-0.085
0.07
-0.3925
-0.1705
0.3955
-0.267
-0.4065
0.4295
-0.191
0.4125
-0.461
-0.2915
0.3905
-0.1585
0.2655
0.172
-0.247
-0.4905
-0.34
-0.472
0.3745
0.194
0.3445
0.3045
-0.277
-0.19
0.0845
0.4595
0.371
0.399
-0.436
0.115
0.122
0.4985
0.2625
0.27
-0.102
-0.375
-0.026
0.2255
0.1525
-0.2315
0.2495
0.049
0.132
-0.2355
0.3025
0.3845
0.085
-0.317
-0.4025
0.036
0.1075
0.071
0.4305
-0.454
-0.018
0.214
-0.055
-0.232
0.4765
0.3015
-0.033
0.237
0.2825
-0.2205
-0.3815
-0.2875
0.0045
0.2595
0.123
0.04
0.0325
-0.2165
-0.308
-0.4845
0.101
-0.073
-0.01
0.3865
0.4895
0.134
0.051
-0.1285
-0.093
-0.4085
-0.013
-0.0055
0.1075
0.1
-0.053
0.38
0.46
-0.3295
0.1105
-0.0705
-0.394
-0.3935
-0.361
0.4725
0.4355
-0.4135
0.297
-0.1865
-0.0185
-0.094
0.493
-0.2355
-0.128
-0.496
0.1205
0.1065
-0.0415
0.2435
0.128
-0.0665
-0.461
0.064
-0.4105
0.3315
-0.46
0.3045
-0.076
0.382
0.457
-0.2935
0.0415
0.0815
-0.4125
-0.066
0.355
0.072
0.1055
0.102
-0.016
0.1135
0.3045
-0.1605
0.099
0.222
0.453
-0.275
0.135
-0.399
0.3555
-0.3915
0.114
-0.202
0.3645
-0.324
0.356
-0.1785
-0.256
0.338
-0.0105
-0.2825
-0.1225
0.0595
-0.071
-0.211
0.322
-0.304
-0.35
-0.1015
0.251
-0.324
-0.3865
0.096
0.1765
0.0905
-0.483
0.233
-0.119
0.1585
0.326
0.4
0.3415
-0.4265
0.2095
-0.18
-0.496
0.143
0.4965
-0.2415
0.494
0.1545
-0.35
0.035
-0.0885
0.401
-0.179
0.027
0.3275
-0.0215
0.4935
-0.0235
0.3625
0.3325
-0.0175
-0.4515
0.387
0.05
-0.2665
-0.2535
0.251
-0.205
-0.4525
-0.206
0.233
0.063
0.2765
0.1445
-0.1695
-0.3255
0.241
-0.354
0.193
-0.1675
0.3815
-0.295
0.004
0.4675
-0.205
0.005
-0.0765
-0.129
-0.2745
-0.396
-0.127
-0.0125
0.126
-0.0835
0.2805
0.3175
0.4755
0.1975
0.3365
-0.4885
-0.25
0.211
0.269
-0.241
-0.2625
-0.486
-0.1805
-0.239
0.377
0.1595
0.2415
-0.2285
-0.164
0.4365
-0.1815
0.1815
0.136
-0.316
0.184
0.122
-0.2935
0.15
0.1535
-0.2825
-0.173
0.1365
0.135
0.1385
0.007
0.3175
-0.222
0.1035
0.378
0.0315
0.1105
-0.087
0.3635
0.3745
0.32
-0.104
-0.291
0.244
0.088
0.0945
-0.437
0.1305
-0.2285
0.2645
0.4205
-0.419
-0.316
-0.3545
-0.035
-0.085
-0.386
0.122
0.0195
0.467
0.0825
0.1605
-0.456
-0.299
0.21
-0.4185
0.3875
0.2865
0.1305
0.2275
-0.4105
-0.352
0.4235
0.3155
0.492
0.017
-0.3125
-0.423
0.4395
0.2695
-0.2695
0.4075
0.122
0.241
0.258
0.0075
-0.041
-0.044
0.4405
0.2465
-0.077
-0.069
-0.4965
0.084
-0.3695
0.334
-0.2235
0.3235
-0.3845
-0.1575
-0.3195
-0.0665
-0.309
-0.1175
0.301
0.258
0.2395
-0.0135
-0.231
0.347
0.015
0.415
0.3895
0.3465
0.0535
0.103
-0.3485
0.425
0.0485
-0.0055
0.2035
0.0665
-0.0205
0.3255
-0.1835
-0.001
0.404
0.4535
-0.2975
0.4895
0.4455
0.3985
0.188
0.1105
0.3435
0.1085
-0.305
0.2305
0.219
-0.094
0.3985
-0.362
-0.1925
0.29
0.095
0.2105
0.215
-0.364
-0.2875
-0.157
-0.146
0.0265
0.4725
-0.173
0.3735
-0.3725
-0.074
0.28
-0.0305
0.0615
0.153
-0.4695
-0.4395
-0.1625
-0.224
-0.462
-0.367
-0.064
-0.2315
-0.384
-0.1985
0.377
-0.2915
0.2615
-0.1925
-0.492
0.2715
-0.1315
0.2385
-0.25
0.108
0.232
-0.3135
-0.3205
-0.413
-0.1525
0.3075
0.3825
0.049
0.434
-0.3635
0.052
-0.357
0.167
-0.2845
0.0225
-0.4125
-0.2385
0.014
-0.32
-0.2015
0.0505
0.045
0.292
-0.4745
-0.164
0.2635
-0.217
0.124
-0.0365
-0.4135
-0.143
-0.3095
-0.431
-0.329
-0.446
0.3835
0.447
-0.225
0.451
0.4515
-0.242
0.386
0.2235
-0.0405
0.062
0.4175
0.429
0.152
-0.368
0.159
-0.1025
0.3715
0.283
0.0595
-0.3225
-0.275
-0.124
-0.3835
-0.188
-0.0355
0.048
-0.429
-0.101
0.0825
0.315
-0.369
-0.115
0.287
0.067
0.264
0.443
0.1565
0.271
0.2345
0.3905
-0.2905
-0.3435
-0.4855
0.0785
0.258
-0.2405
-0.214
-0.075
0.319
0.1575
0.0515
-0.075
-0.3395
0.0095
-0.2875
-0.49647209327140196
-0.02798946779541552
-0.264759946212955
-0.4312454157204943
-0.49573169135124523
-0.024994481215804498
-0.0715005222286258
-0.19670025012069486
-0.23850464813027722
-0.268504871238116
0.480587396398352
-0.39683639608969196
0.11026166653083493
0.3396058363122724
0.06295316005965387
0.3830867179470453
-0.4338612832132806
-0.29363836928152176
0.050650768497541625
0.05553205995032632
-0.21596701269369098
0.005683493576101378
-0.4794363600977383
0.4269048991327386
-0.33643373747289573
-0.0003463708117437755
-0.19195287758808113
-0.09806079592314498
0.24757716750916584
-0.056546591080387794
-0.47944762931351215
-0.2731146454850072
-0.14996276625748492
0.4489985078899369
0.3854978668073343
-0.45640630339327787
-0.4546473168862867
-0.4576199625501644
0.380331799886696
-0.392631282965929
-0.4295923823464766
-0.44834083234556055
0.2400004520784856
0.04911370225542773
-0.13220082467898026
0.3085095026434578
-0.19622192441814876
0.024541259676851605
-0.43388757818554374
0.18487707683618662
-0.04503424243974407
0.059699856026210585
-0.1687517989955849
0.3788194638590166
-0.14749774338047958
0.021610267571221038
0.3306451271740137
0.0355073333800772
-0.05149262852416821
-0.07376286647012704
-0.07247209327140193
-0.18848946779541553
-0.034759946212954876
0.12475458427950556
0.09926830864875479
-0.28149448121580434
-0.2125005222286258
-0.4337002501206948
0.2654953518697229
-0.2155048712381158
0.40458739639835206
-0.20833639608969182
-0.06573833346916508
-0.07539416368772758
-0.05804683994034615
0.30508671794704534
-0.053861283213280715
0.4183616307184782
0.2816507684975416
-0.1374679400496737
0.34253298730630893
-0.4613165064238986
0.41156363990226164
0.0034048991327386203
-0.12343373747289584
0.06615362918825622
-0.40195287758808107
0.36943920407685515
-0.2839228324908342
0.10495340891961225
0.4905523706864878
-0.01211464548500725
0.06303723374251512
0.18249850788993688
0.07199786680733428
-0.21690630339327788
-0.49314731688628666
0.24388003744983563
0.449831799886696
0.349368717034071
-0.2020923823464766
0.17815916765443943
-0.33899954792151443
0.4321137022554276
-0.19170082467898025
-0.16849049735654226
-0.14172192441814874
0.018041259676851606
0.26061242181445626
0.2863770768361865
-0.48153424243974396
-0.35830014397378934
0.47424820100441506
-0.07968053614098342
-0.1699977433804796
0.39761026757122114
0.07364512717401364
0.33250733338007726
-0.27749262852416823
0.28673713352987296
-0.12497209327140192
-0.2554894677954156
-0.46325994621295497
0.2997545842795057
0.3197683086487548
0.2095055187841956
-0.28700052222862577
-0.20020025012069487
-0.17500464813027722
-0.01900487123811585
-0.020912603601648008
-0.25983639608969195
-0.2807383334691652
-0.4218941636877276
-0.12004683994034614
-0.06541328205295457
-0.4528612832132806
0.4278616307184782
0.026150768497541617
-0.4814679400496737
-0.08996701269369099
-0.2953165064238986
0.030563639902261592
0.1919048991327386
-0.1949337374728959
-0.010346370811743777
-0.45095287758808106
0.47943920407685514
-0.10842283249083418
0.1364534089196122
-0.09244762931351212
0.11388535451499272
0.4690372337425151
-0.13900149211006313
0.42949786680733426
-0.10540630339327785
0.03985268311371333
0.15788003744983564
-0.11816820011330409
-0.229631282965929
0.1619076176535234
0.42265916765443945
-0.2014995479215144
0.14211370225542774
-0.46170082467898027
0.3960095026434578
0.47427807558185126
0.39604125967685155
0.25611242181445626
-0.16062292316381338
0.368965757560256
0.17569985602621063
0.1837482010044151
0.2528194638590166
-0.4954977433804796
-0.14638973242877895
-0.48885487282598633
-0.32399266661992276
-0.4539926285241682
0.42273713352987297
-0.496
-0.324
0.056
-0.3025
-0.498
0.32
0.113
0.137
-0.342
-0.184
0.0285
0.0735
0.176
-0.4865
-0.189
-0.4265
-0.08
-0.2555
0.252
0.4815
0.3375
0.135
-0.2585
0.4285
0.137
-0.418
-0.12
-0.35
-0.0305
0.398
-0.4325
-0.3065
0.17
0.209
-0.3195
-0.465
-0.106
-0.0605
-0.4475
-0.4965
-0.0755
-0.1395
0.257
-0.0875
0.0365
-0.036
-0.1975
0.27
-0.174
-0.4175
-0.0775
0.3195
0.232
-0.306
-0.1545
0.3265
-0.459
-0.0205
-0.398
0.089
-0.4605
-0.35
-0.295
0.3
0.056
0.1385
-0.223
-0.37
-0.261
-0.223
0.0065
-0.012
-0.1835
-0.0325
-0.408
-0.014
0.386
0.1205
-0.3655
0.4705
0.46
-0.044
0.393
-0.0975
0.4815
-0.4205
-0.452
0.1215
0.166
0.483
0.468
-0.0545
-0.3205
-0.2105
-0.065
-0.093
-0.0075
-0.075
0.0985
0.356
0.3825
0.1335
0.3535
-0.472
-0.148
0.317
0.3355
0.0545
0.1895
-0.0895
-0.4705
0.18
0.371
0.138
0.2795
-0.4585
-0.2065
0.343
0.3315
0.2345
0.316
0.26
0.3625
0.3195
0.3525
-0.408
-0.271
-0.474
0.077
-0.3245
0.3165
0.2185
-0.483
0.095
-0.218
-0.126
0.3425
0.1055
-0.2675
-0.442
0.491
0.3895
-0.216
0.422
-0.089
0.056
-0.117
0.0215
0.2405
-0.425
0.0185
0.117
-0.079
0.4565
-0.3465
-0.289
-0.409
0.37
0.3275
0.4845
0.151
-0.4615
-0.2015
0.1105
0.4965
-0.389
0.458
-0.1155
0.0235
-0.092
0.2435
-0.2685
0.099
0.185
0.174
0.4195
0.312
0.3255
0.3765
0.2395
0.141500087004393
0.18118061818385145
0.19530290012589863
0.14050092175161585
-0.21735905864760033
0.4765024141253122
-0.4795176082808777
0.1293406418584338
0.060886167234950765
0.33114414109183393
-0.41581369059195805
0.4781097947729015
0.009555772128106233
0.19104267729728253
0.2630342104428989
0.32470432074683453
-0.3260000325639829
0.02258809725270043
-0.34499907923717815
0.08774442410128347
-0.16350005561053782
0.07760288090276031
0.02423882607343205
0.34549986764938884
0.23700008619137794
-0.2505390386802189
0.47671931258882727
0.18643883406770012
-0.431901461317044
-0.05640487579297167
-0.3015395395863875
-0.0895672263898077
-0.2725524693216493
0.2875255446386274
0.4640299133343978
-0.32199889413592503
-0.3445509984959465
0.40050148863177554
-0.34659209259943935
0.004471038036003737
0.14950001967552093
-0.1458002313720925
0.35650104130842064
0.30850001336343186
0.3645043083571855
-0.4365207013853483
0.15021970683322158
0.19089707714944468
0.42687804298741516
-0.18665470315430593
-0.4746251743741642
-0.0533890690821442
0.4145000482840427
0.0644972842127417
0.07827814530449245
-0.2732166450517835
-0.23781882804807117
-0.004001956322819025
0.4765117766405424
0.311500565315371
-0.30699991299560686
0.25118061818385146
-0.3756970998741013
0.21750092175161584
0.16964094135239965
0.06500241412531231
-0.15251760828087765
0.007340641858433809
-0.09861383276504923
0.3606441410918339
-0.14031369059195814
-0.08289020522709865
0.33605577212810617
-0.0469573227027175
0.20253421044289888
-0.4062956792531655
-0.3735000325639829
0.03608809725270042
-0.2679990792371782
-0.4767555758987167
-0.2415000556105378
-0.3358971190972397
0.18823882607343204
-0.40600013235061116
-0.309999913808622
0.33946096131978115
0.3162193125888273
0.0949388340677001
-0.481901461317044
0.21859512420702834
-0.4840395395863875
-0.46106722638980785
-0.22705246932164924
-0.11897445536137267
0.09752991333439771
-0.08799889413592511
-0.032550998495946594
-0.4659985113682245
-0.3315920925994394
0.3974710380360038
-0.3684999803244791
-0.0033002313720924643
-0.10649895869157934
0.4060000133634319
0.4520043083571855
0.08047929861465176
0.0667197068332216
-0.1421029228505553
0.3798780429874152
-0.20065470315430595
0.18037482562583576
-0.2023890690821442
0.4195000482840427
-0.1040027157872583
-0.22972185469550763
-0.4287166450517835
0.45118117195192886
-0.12400195632281902
0.07701177664054236
0.05200056531537116
-0.3825
-0.495
0.3375
0.0305
0.382
0.2195
0.3205
0.2005
0.056
0.4495
-0.0115
-0.4465
0.1525
0.3855
-0.002
0.0875
-0.3475
0.2805
0.023
-0.2215
0.4355
0.0925
0.1945
0.3425
-0.469
-0.018
-0.46
0.445
-0.233
0.0295
0.0015
0.25
0.1485
-0.2035
0.4665
0.037
0.2245
0.4025
0.0655
0.2855
-0.113
0.348
-0.4845
-0.3865
0.277
0.378
0.3145
0.177
0.3325
-0.0785
0.0785
0.435
-0.0955
-0.134
-0.0645
-0.42
0.1305
-0.141
-0.26
-0.389
-0.174
0.303
-0.113
-0.275
0.345
-0.119
-0.216
0.386
-0.469
-0.3055
-0.314
0.114
0.123
-0.076
-0.326
0.2055
0.4255
0.224
0.282
0.069
-0.0465
-0.031
0.2875
-0.347
0.223
-0.039
-0.375
-0.385
0.207
-0.429
0.0525
-0.3245
0.1385
0.0855
-0.427
-0.394
-0.024
-0.3475
-0.3455
-0.3285
0.1845
0.1975
0.483
0.293
0.0795
-0.3885
0.138
-0.0385
0.4345
0.218
-0.274
0.455
0.02
0.077
0.3605
-0.3525
0.028
0.167
0.3115
-0.198
-0.3275
0.243
0.281
-0.0505
0.015
0.44
-0.335
0.1425
0.3085
-0.3415
-0.173
-0.381
-0.2475
0.256
-0.3455
-0.3225
0.427
0.081
0.453
0.1745
-0.0965
0.042
-0.1745
-0.1715
0.0435
-0.051
0.181
0.3385
-0.1895
0.194
-0.2595
-0.2065
0.1965
0.106
-0.148
0.134
0.267
-0.3945
-0.066
0.3565
0.18
-0.2875
-0.2845
-0.125
0.09
-0.394
-0.449
-0.2545
0.009
-0.266
0.166
0.385
0.1285
0.139
0.254
0.4065
0.493
-0.057
0.3815
-0.206
-0.3145
-0.0885
-0.1945
0.254
-0.3255
0.2535
-0.389
-0.359
-0.3465
0.012
-0.343
-0.0075
0.224
0.1825
0.1975
-0.2105
0.44
-0.078
0.042
-0.3735
0.3005
0.082
0.453
0.1035
0.3025
0.148
0.2605
0.0295
0.206
-0.0295
0.3765
0.204
0.3885
-0.325
-0.085
0.215
-0.0165
0.1625
-0.4125
0.09
0.0065
0.3975
0.355
-0.3865
-0.498
-0.014
-0.3505
0.144
0.0435
0.2065
0.38
-0.1
0.464
0.298
0.353
0.409
-0.082
-0.329
-0.093
-0.1685
-0.1625
0.094
0.174
0.3825
0.24
-0.128
-0.0895
0.3845
0.4015
-0.482
0.4935
0.078
-0.313
0.1945
0.2735
-0.273
-0.096
-0.0685
0.0485
-0.268
0.329
0.1435
0.083
-0.0865
-0.34
-0.477
-0.2185
0.09
-0.3775
0.125
-0.3875
-0.45
0.2265
0.1355
0.1315
-0.2175
0.3585
-0.0835
0.3245
0.163
0.059
0.4045
0.0275
0.3365
-0.144
0.302
0.3495
0.2185
-0.2645
-0.0145
-0.0195
0.198
-0.0915
-0.4195
0.0905
-0.291
-0.3755
-0.035
-0.084
0.4395
0.331
-0.318
0.463
0.076
-0.32
0.271
0.397
-0.016
0.0675
0.0755
-0.0985
-0.2175
0.1995
0.4265
-0.103
-0.147
-0.234
-0.4445
0.1125
-0.027
0.395
-0.2265
0.366
0.421
-0.1865
-0.0355
-0.0045
0.1125
-0.131
0.148
0.2565
0.123
-0.375
-0.0545
0.0725
0.4815
0.377
-0.0705
-0.061
0.4715
0.321
0.0805
-0.3125
0.3805
-0.2705
0.1745
0.388
-0.3385
0.1395
-0.341
0.4285
-0.0905
0.078
-0.1885
-0.2195
0.06
-0.139
-0.408
-0.448
-0.2085
0.274
0.2945
-0.24
0.38
0.2135
-0.3855
-0.0905
-0.017
0.2055
-0.1565
0.3635
0.332
-0.41
0.0765
0.203
0.345
0.324
0.135
-0.332
-0.4705
0.354
-0.0385
-0.242
0.2115
-0.049
-0.425
-0.279
-0.1415
-0.2125
0.2945
0.2395
-0.314
0.4735
-0.16
0.06
-0.4335
-0.2215
-0.0735
0.4895
-0.0625
-0.0055
-0.29
-0.3535
-0.104
0.1935
-0.1005
-0.4845
-0.225
-0.0175
-0.007
0.1645
0.3015
0.08
-0.431
-0.2845
0.1435
-0.0125
0.0745
0.348
-0.464
-0.17492856156680575
0.3268028643524658
-0.4685256756661399
0.15743979149994525
0.3300948116422867
0.06069211124838691
-0.3399859729877771
-0.209479551632124
-0.37184115966526654
0.3760401479532241
0.4749288900138918
0.3254913700860457
-0.11649829188858357
-0.3308392122525278
-0.011019031988422471
-0.44439141423391604
-0.3380462802033514
-0.2627945853411814
0.1974295040003349
-0.22913713771137817
0.35329348128019206
-0.3336268248948267
0.27919725160713954
0.32210076584013153
-0.31686923605432654
-0.09444295164294479
0.4402176805123211
0.03678931719822563
-0.3381535047820758
-0.4936781801044396
-0.06963386613384746
-0.2434169892273406
0.025559427910854412
-0.1410529314431311
0.13489584413866088
-0.053902149070931646
-0.16582925947964752
0.3913729670459707
-0.4502821538868769
-0.032729641358563114
0.29897702104453155
0.3893528747019499
-0.3538919524787137
0.33899928845842386
-0.0903345627595443
0.4406570856435779
-0.1942278016947811
-0.3314839106612031
0.11289072184926122
-0.4879640176062329
0.023916904539252066
-0.19650057830152864
0.07191400061711888
-0.255010460091505
-0.46479297289536975
0.07060103678726827
-0.14298688673750012
-0.2653254112312203
-0.15185358457972883
-0.2747360115279209
-0.4084716933630243
-0.014197038785060151
-0.04285914254443128
0.10935491445512509
-0.2669111463303338
0.4407018834530616
0.24098079412921103
0.31976193967347916
-0.03296966272032673
-0.14389398420284122
-0.45007550582647576
-0.1792295060442496
0.0878300801815232
-0.24435649662423073
-0.3835208271490019
0.33195353706165454
0.22780294010349916
0.27885200532025106
0.479434726962017
0.3410111285142443
0.09725998977662767
0.27487392611864364
-0.43368587083695165
-0.3079757088057269
0.1608295532297489
0.043044283722267394
-0.2797932196019681
0.01474560983385813
-0.48016868279750885
0.3108290712007751
-0.12230464195752162
-0.3574168103325974
0.48066255999142554
-0.23195850862640865
-0.46839988613962463
-0.41308204925618924
0.4067964510333936
0.01689194888540902
0.2501941386634381
-0.3337214828319044
0.07600526889616266
0.4728597217085118
-0.3763860791802645
0.31845002715268483
-0.1869434590180802
0.053657122319226334
-0.40638050187233354
-0.25548661453607074
0.2954354155196275
0.1975137932418437
0.24942192822733353
-0.4555906562816722
0.05991441018892131
-0.5005134856056684
0.3012035438963387
-0.09639859035371795
-0.3616260028436993
-0.30932541152550225
0.3540597422037481
0.42031799311553825
-0.2683628792584639
-0.3021628021937071
0.27852443050536163
-0.47952522314756685
0.07205671257603757
0.2383902765230646
-0.15876659125172327
0.2609841474314359
0.12522734433231028
0.07318941791180121
-0.3587973748509722
0.07476225465788869
-0.13443950356765638
-0.3142547799483538
0.016980064275029304
0.41529171180979146
0.06235860919452829
-0.06428731666684387
0.16799639661045174
0.24411092418202834
0.42328670922166867
-0.11103974031726645
-0.06290503062713716
0.11060858301400041
-0.028400427516771454
0.09696654587170193
-0.05633104314012281
0.38438756278947483
0.3347171830897747
-0.027364441709354356
0.025966791513991404
-0.01192524939057054
0.35394698770160726
0.3370701977772752
0.05861950003751242
-0.40466891516087655
-0.24635892616526048
-0.2329459892448515
-0.47260449133977656
-0.1570537078765102
-0.3934179442079054
0.13796568592368091
-0.37070380486622545
0.3152213084064543
-0.17358124018340734
-0.4314369168749552
-0.38120776606185486
-0.26556195652310266
-0.20231509883468682
-0.21721210405903962
0.38103885893503997
0.22295068570953785
-0.21492072756234246
-0.26846029143602135
-0.16652808815910128
0.161159799145791
0.27289548833085764
-0.4296828944549389
0.4473282977011287
0.21114829088582587
-0.10220866743681847
-0.2779678006427984
-0.36902629081955196
0.0267296210995097
-0.42011196884667995
-0.29718690875641035
-0.12145015729112045
0.34512391858005015
-0.45456942426612906
-0.2769789012312133
-0.20826639674329855
-0.08225169795971309
-0.4165313898887683
-0.2434998766109595
-0.06470248289408523
-0.15515030845475564
-0.4435992472403925
-0.10246285899496867
-0.21481888241121075
-0.09167077594482824
0.1726712513442499
0.1951107040985312
-0.026005969776900343
0.36778882866967244
0.33000990466688446
-0.12300966778349846
0.42184182043155594
0.5042627577029793
0.5097226846153422
0.1184789231729721
0.12185946387684053
-0.1653295051839629
0.02879927812053781
0.2332325005862263
0.356954311704732
0.1296684866895625
-0.1084620378839818
-0.10838655208008768
-0.17461721660542098
0.3963558154851128
-0.06929102300075146
-0.09464764407140085
-0.4546459391706502
-0.00982151895322261
-0.5042560101559039
0.21184624080845446
-0.5056351830074826
-0.477039862003587
-0.3457439351562072
-0.19219132361576138
0.047865405103185474
-0.3131193528490465
0.2375168682214731
-0.3915319350029772
-0.2378991635942807
-0.15324593063541622
0.36957015571258645
0.2689302489691774
-0.08998894861243778
0.058245461294031124
-0.3940738358903621
-0.30595706127518263
0.4444603098360367
-0.13712483542416226
0.2507112484348721
0.18422253280285547
-0.010783720442833392
0.3746597223495972
0.11100463361583375
-0.23916787112979648
-0.1689914657794892
-0.16360880163197583
0.20605073136417082
0.23035383688861732
-0.19864472397604116
0.018970327471951952
-0.06238655839993971
-0.07201076212639494
-0.13450081635917174
0.510175404388178
-0.018315847442384507
0.45683731845021225
-0.2970621134909247
-0.245333135130038
-0.4236490084862343
0.2634245668594704
0.08837555827615487
-0.32052001536233876
-0.4487655711438131
-0.17535548072361626
0.35717630954294094
-0.46269149881002797
-0.2535925327429608
-0.4782928803185496
0.4121843232881144
-0.45816026295811063
-0.3481568390954819
-0.07229598241823357
-0.24053002538417126
-0.11683644593067163
0.2437056451324255
0.47053986747034926
0.3008403169229671
-0.5217224511959494
-0.19650897957292254
-0.4447057059365393
-0.44830626241178345
-0.2953664351065099
-0.2373762430909684
-0.0430709151049886
0.43246605297287377
-0.3265403604749821
-0.5804669888260408
-0.324016703423692
0.13381759400074925
-0.31557053039511396
0.0770921836105983
0.36406592132212107
0.057847290571319716
-0.4650202575275413
0.008569106531583522
-0.21301826399033186
-0.2664376424262607
0.47480608273714153
-0.254580728585758
0.10837530515830497
0.2807013812772408
0.4030836418568264
0.27791378362163494
0.3320658971467923
-0.2731345788227338
-0.17146153733735475
-0.1989804558544699
0.32646121864435784
0.3093410639219111
-0.10929802917874008
0.45789790101334676
-0.286460757814037
-0.12201778734348688
-0.412818452269789
0.1759869525798237
-0.3279609515060984
0.40636674589474653
-0.41807548232096264
-0.18970261957932058
0.21083258204851216
-0.3152379111325615
-0.17765046906705462
-0.016712877475512002
-0.06248684572872414
-0.20506337398381086
0.0019373572601768215
-0.40353390018369684
-0.05128401516190302
-0.017284010006721046
-0.08356360031640545
-0.06782422423974135
0.20570556107520332
-0.46973831545302547
-0.2263090017986836
-0.18978094086304279
-0.4431274678571136
0.08933745241223658
0.232585306406602
0.343616742741339
0.16773377045868829
0.18589971734031746
-0.1592618708681179
0.18190808216006205
0.4118772874186158
-0.2477890421622392
-0.2326414524818844
0.020880476690936362
-0.3852142802768865
-0.44152874614973414
-0.10201363847074396
0.1633283651209889
-0.42693447765369374
0.2591000451410861
0.19329258171725244
-0.43222829072013796
0.29705421293869333
-0.020604836413496568
0.3542996588046368
-0.16683215762059972
0.19582411049245538
0.147126264023894
0.07126611458945839
-0.25349990555164775
0.10144349865754929
-0.47858031853764704
0.22140427593985262
-0.2930505187544267
-0.26592844303604735
0.08972068708235913
0.04669675035122231
0.47730334657389467
-0.22681284194479598
-0.14926509933980434
0.34033658460508603
-0.040742468946949204
0.45629213918251077
-0.355107097901476
-0.23485954341519458
0.48888777820960055
0.4443933165704281
-0.4374088597853445
-0.2127605630183733
0.16976370748075295
-0.053144533678372
-0.029018925471674714
0.411354951513731
-0.036854377565063906
-0.17194662253276732
0.4901406401474094
-0.2225091415972844
0.30985280375750174
-0.1080280013213892
0.2457390785409218
0.3469842587135828
-0.07702546452826244
0.42084322629955667
-0.30959055817618936
-0.35419675462072553
0.48249616900029557
-0.15439919522103734
0.2915931478320647
0.23222300608820448
-0.06511739640898881
0.5030088178315912
-0.2918451208156071
0.2911626320454346
-0.4384963010416967
0.13797136632582463
-0.06672043835479768
-0.49091711391713594
-0.3804638740433192
-0.3874269156438779
0.46812492436000297
0.38059514248973436
-0.4570227481371121
0.3887126900257891
0.20690580520823743
-0.13093609367794373
-0.3398979660975537
-0.18270502562338972
-0.35923389493841246
-0.18191623259041645
0.3767931204710137
0.02770350428762884
0.04652218999835554
0.2680506215156175
0.2689598168803179
-0.31873031161375376
-0.05861107971345861
0.39009732328465296
-0.1420344324326231
0.21506775923249644
0.17516930201794972
-0.07923244660334154
-0.447302716153955
-0.27143432729590405
-0.21637858124487855
-0.06076113114555272
-0.35913317506600306
-0.140799921971246
0.24663024068624856
0.5435148193047673
0.4190691350471128
0.38329073136987135
0.12148774893180776
-0.18712177796246093
0.07674454248763972
0.0710857351731932
0.3016089483397772
0.09679826736588956
-0.3322332014577469
0.41461006617960994
0.19843064264275645
0.22568982274584135
-0.007645928461334769
-0.18338123032001777
0.42025208787978496
0.4350326180029705
-0.22592131038957147
-0.27154418165990446
-0.05713463019366399
-0.4276853368161081
-0.46179714028077684
-0.2460003555707227
-0.05372098386920717
0.023902608719602127
-0.40175491816756725
-0.44894732179145863
-0.38130244225154675
0.13300190228268577
0.4121727479333408
0.09781708810716933
0.16953066064877315
-0.2663969526240061
0.1700055660365457
-0.14044451946053138
0.14941697029988085
-0.4634574896642995
-0.25049749752701495
0.15482831838586106
0.4169093684053685
-0.048478146612713914
-0.19659599066677272
0.0002801521170575779
-0.21905896358373142
-0.3732469593901456
0.22661920621602502
0.462524687881739
-0.058089090854984586
-0.42626329366788157
-0.17742831193881844
-0.3611174269736653
0.25782238491556797
0.08308536996716939
0.3845962208484403
0.5038668657484389
0.2314015743523937
-0.08853635935457624
-0.18462278836792803
0.16349942989100388
0.1010431899538191
0.12852762307375495
0.3057577529481606
0.2580948434338014
0.28413204119745666
0.5020198487492009
0.2799141727776963
0.48742771653481126
-0.3903875159579007
0.17144260210591541
0.04101925137308687
-0.49782924484419483
0.4384644126404116
0.4121857083798953
-0.3037103702916003
0.13735386473441083
-0.2580320987546653
0.09247079125327548
0.24710017686966554
0.4070810003740596
0.36174532898793477
-0.06257125442880605
-0.16553558239060895
0.005736590634251423
-0.25100469291817407
0.16828683725521157
0.3760019176052147
-0.1715825021022431
0.22034550091162375
-0.5072801912536786
0.2356723231901665
0.10207083381258289
-0.08632142776505401
-0.24263487285509816
-0.33353274101006203
0.3506617666785333
0.01325745283828946
0.4678472647653224
0.3412785434215643
-0.08728147606746971
0.40157684029010254
-0.42231896199615854
-0.03141679856181408
-0.3142953337926627
0.0410933327222311
-0.24407089687044561
-0.20536800165631244
0.50751745018016
0.32891438980459947
0.3936606959687174
0.4694787048871292
-0.12945308479148485
-0.10770879581400371
0.4255251422246277
-0.1827685667017443
0.5060883873182452
-0.4633693005413262
-0.07388504733610492
-0.07778625838152385
-0.4655793290174293
-0.29553953989496706
-0.343192300124301
0.20925141851092438
0.2637697200765244
0.024679315612061384
-0.10256767678270473
-0.29791818109200124
-0.07430968294241096
0.2838484202476353
-0.42659799030427875
-0.03593802883730236
-0.15616792095124254
-0.4528217009034316
-0.41376626077246736
0.43522744378762873
0.10444870492914578
-0.10976339827018383
-0.4305983054709415
0.19167546052482878
0.43410084168980545
-0.09506087808422431
-0.2361424502363998
0.41203909631590596
0.057148781064044855
0.4724990526663934
0.33806702436218855
-0.034567639752709066
-0.04500642516650492
-0.4177633049182306
-0.20840852475293006
0.06192991778999273
0.07015739982774737
0.23354475153390242
-0.4431050279298345
-0.014774134963511532
-0.036551092193770555
0.4403845957104881
-0.05923934463642005
0.4475106823336418
0.287890057202349
-0.15662612540178142
-0.4409770327189746
-0.5191536546925715
0.32607876192005697
0.0006183233132701221
-0.40307042702323775
0.14916061255422108
0.36127560773011974
-0.3281304644685475
-0.4522695458739548
0.4098110654819109
-0.3168096129540409
-0.49346920101870256
0.3807225962280414
-0.10910397304361802
-0.14489089744094136
0.21098269763445027
0.12889749676047518
0.5225615042204395
-0.3471681280084971
-0.13909326277162698
-0.42242541061594235
-0.0745103159111111
0.27684266124893414
0.26514497246766594
0.06953794295072585
-0.007711230236429646
-0.12580822974216377
0.38492692178303667
-0.05446958976527791
-0.11368119531880991
-0.06374824290369169
0.16052728579314546
-0.34051246732880774
-0.03604881842268474
-0.44639124803176083
0.22765052731048807
0.05390971851227529
0.3630813081654402
-0.13227984896907016
0.0812965248464595
0.1558067959567743
-0.20762314346153343
0.42966350179588286
-0.02971407950227273
-0.06899166116649272
-0.3712917030210646
-0.28442958078534414
-0.376630601717107
0.13475353422834452
0.3532502609182603
0.4424060222876306
0.4750392678725642
0.0731000997847877
-0.1313261041262655
0.1498768865444402
-0.4097235227490798
0.016150095799868886
0.4175782528577252
0.15147921322208935
-0.03441245022325053
0.1498094746048287
-0.07169183607322233
0.4163199177849654
-0.328571651520295
0.054263036429137865
-0.1261433536839636
-0.08385150081920238
0.42365077360099523
-0.003416902713154376
-0.17088550517154755
0.2789339853800776
0.06746821300204112
-0.33257152677372476
0.2760037259122228
0.22461604090304038
-0.11384187042005577
-0.11026290043558817
0.22513077398013476
-0.23394602765763822
0.34563063646757247
0.2851825964401615
-0.23012087109150878
-0.33438851468809844
0.14990315383733196
0.2157054861584045
0.22846581977049418
-0.08632089543666448
-0.41775890725303433
0.4400808460328456
-0.33736995262573255
-0.27629197723130317
-0.3836333398522248
0.22809626320366302
0.07633779324041903
0.06526950426000001
0.062023350309884075
0.25400964071126697
-0.4626393996613495
0.4285704585999178
0.2201851973008839
0.09499498049252203
0.1769417447842243
-0.05010725372792239
0.1554523205769201
0.2235018013820208
0.462061647769537
0.28263028344353686
0.19226018694349575
-0.03672368920967865
0.34292109191626624
-0.31434457771055624
-0.4111067700097226
-0.1731718520277829
0.04864963585742982
0.25395408196386277
-0.18899540480571872
-0.021539686999448762
-0.17517786071640123
-0.06927965072629452
-0.12168186449012999
0.030728415348205838
-0.1125561123005836
-0.2025515187536666
0.4117819792253606
0.010621976572219735
0.14179385939834568
-0.4239967831093189
-0.17727982517571575
0.3044383472908032
-0.44883720358509765
0.4837403539975149
-0.48463917972231785
0.2755299389101238
-0.09832272503271901
-0.04022284969881445
-0.1703127372138432
0.16531482277434198
-0.32441073007562676
-0.19455044589107934
0.06949977578872107
-0.3133252396243138
0.08714694789734773
0.2512345231370836
-0.22599785121565172
-0.2856310248547078
0.268340342719291
0.28298288157611007
0.18526863986651215
-0.3168670639689491
-0.04695869447667791
-0.20799901230126847
-0.4271214070771794
0.1809990923494854
0.4452115004209212
0.04537795867139941
-0.1603172932355959
0.38520667953742177
-0.25185440503044926
-0.11482172309682523
0.02938809456337901
-0.2712882842256399
0.3143581458180255
-0.1844276065779763
-0.10363044720057193
-0.021782388955735046
-0.14472670901954493
0.2822674132386854
-0.21981647165115964
0.2689174333746254
0.1247571179099231
-0.15840787531838366
-0.2098329902766592
-0.31700236646296287
0.04447237102545207
-0.4851328395089963
0.18019621919892426
0.0250009048482243
-0.1706935549425235
-0.1225201335121883
0.3020687020208091
0.2308580827387524
0.3548383556330447
0.06539729718262045
-0.09969864154041494
0.44668749626188664
0.33572258853317166
-0.3950510756010359
-0.37674725235037687
-0.06565231539553043
0.4891535384096567
-0.0904312897970259
0.13660263124287358
-0.12006307955539194
-0.3883142973506914
-0.4789605274398595
-0.31319866578857963
0.15009527183605142
0.40873202890591576
-0.22086864366538855
0.3159507909420451
0.12767458569393092
-0.3922248941909704
0.19466982838926256
-0.347656430682543
-0.08754224448332841
-0.29684188501647557
-0.10751765521065018
-0.3447276357455002
0.2898848001534961
-0.016384249118736646
0.20447921476257017
0.33042953004086584
0.3922399509217388
0.18686418756899328
0.35490382428390116
-0.320800022361323
0.01575966500248985
0.05363051361753922
0.17717557335964895
0.38889472417608967
0.491158516809464
-0.2490430454860674
-0.02244022066708575
-0.25383640622332004
0.1928913693053458
-0.2986787887426054
0.4175947207285552
0.10967113592990775
0.49389627440057
0.41712917811713696
-0.09069731403332504
-0.21764071815298894
0.4886332741535145
-0.477033829345694
-0.49915393932132546
0.14311826090446272
0.026365705688013136
0.5157105849371993
0.4186360743693857
-0.09301566226126799
0.09996248364130955
-0.4417061281110205
0.1903890247024982
-0.26081488961338906
0.3145184940559073
0.1934769937679621
-0.19614850232125772
0.17970594673550716
-0.4188127506060593
0.19964527969529222
0.08699124541291366
-0.0007706563257691856
-0.02728144967955529
0.458587710044424
-0.1443395806110942
0.40376530132825705
-0.46302657675346093
0.1251118395342592
0.20272752483419956
0.3091693497604259
0.27996976577616994
0.18486066142791863
-0.238307185925676
0.3473717414519944
-0.01594126567396918
0.22933734750651041
0.33172682973229756
-0.0925551555405451
-0.25541012980992506
0.04170307383532471
0.3125371262050758
-0.04051851925062793
0.007074651580801896
-0.07887339254729304
-0.19917598904512157
0.2738959725582339
0.3046018235870925
0.09671524443426685
-0.39193498951058836
0.188276365916834
-0.320498935181483
0.270645478361358
0.4298681829637062
-0.031283450868028514
-0.4984141189711521
0.4711681028175535
-0.001163287233685497
-0.17619222901662365
0.4118942587205575
-0.25550026716744106
0.22043744712273866
-0.33011961968472103
0.0011151081921833787
-0.4781399496319601
-0.09472367008224031
0.20311837165944252
0.4758655781898939
-0.1976545406033523
-0.3167639127940033
0.03619925377625915
0.2532763828615245
-0.06897123282889937
-0.015052963229246666
-0.06780167982901315
-0.17157510444134133
-0.37552320630078373
0.21485208088480595
-0.32433656785841525
-0.48780860727936803
-0.4192624242618812
0.4195783305758981
-0.021270116868937133
-0.28386103448754046
-0.4625253089581415
0.1265017094512283
0.12676529483944282
-0.10831300494979375
0.017386470621161096
-0.14859694695987616
0.3683085767740135
0.1689695114919868
0.0058173653960733014
0.35340444489575235
-0.3028329837181592
0.12262587845396511
0.2752693307748136
0.016656982950459188
-0.15949691762799362
-0.09477032173908688
-0.4137950596531175
0.14429057323914332
0.17601358660147018
-0.12291608200246926
0.0071317744805261245
-0.28853864711258465
-0.40950601059665337
0.21636928179483067
0.22161014545973304
0.45507560188350077
-0.19229985502671912
-0.0008335550761445393
-0.1293545233892576
-0.4732596976280695
-0.24278028437413102
-0.12940445306087547
0.2994152168638888
-0.15670759756121033
-0.1243598676549703
-0.18956582015357168
0.21655992910902064
-0.4193316725995823
-0.10668227549610294
-0.4045408307675651
0.26590376262661475
-0.26850528466659207
0.13810865719098814
0.06576496028921218
0.18319249258068368
0.06770154858752672
-0.33928249660549703
-0.22846616804884393
-0.2570666636720119
0.35537868630165453
0.46079044018885507
0.27418489265541496
0.43676945304023124
0.3239528127026696
-0.3134896089527939
0.4136723302239723
0.0023623043423632336
-0.47824931070518295
0.18314483915655946
-0.39384127012059533
-0.3773722199670547
0.15950762232661647
0.27877313809503707
-0.13616404004596366
-0.37629252131254504
0.06500313712518577
0.351570540353712
-0.3922199359101317
0.3743676200583999
0.41127544423595136
-0.42044928622884004
-0.31910081840864846
-0.09090845776814828
-0.2663646549616067
-0.4020009313121689
0.43232493364916547
-0.061068546631414464
-0.14935246272877872
-0.08950108624333192
0.3236260164259002
0.3854252431965395
0.10716661079881185
-0.21187873470249974
-0.35665450188416725
-0.23690516644508658
-0.506654245264718
-0.23223509479489632
0.04949459166351544
0.10878370054943086
-0.33829395805987217
0.09967694109135204
-0.3909995923576291
0.07528153887214563
0.10161681574168298
0.3153076292405518
-0.46634275496172906
-0.39810485134006823
-0.12260530290063058
0.20161198906726222
-0.28447496351832
-0.3024239952922774
0.28312564817310193
0.37038112063296913
0.14098214248349383
-0.4203340511770004
-0.16926743259799182
0.49968986929587533
0.4688224859581896
0.34241851595965267
0.4301726602686512
0.4009292648847466
-0.16916720789932235
0.14582992334517866
-0.33552115213068656
0.3514638185367288
0.18165631050265665
0.09093440623090414
0.5022027940975012
0.03810128741132996
0.3902657804128288
0.15994299859920738
0.12237922751925767
0.11536294535469349
0.37997487781427103
-0.043382162929432554
-0.0048085910863168305
0.4089823778511424
-0.3521995613481987
0.1676559448000538
-0.005855682331106406
-0.4706526312930896
0.4342198328571754
0.032915467451332885
0.17588480670167334
-0.4655031789815924
0.09951522355415399
-0.35242805183629583
0.30524670236510176
0.06844354412218386
0.12058610823590364
-0.4466484371843306
0.08815259304687507
-0.33437685530469685
-0.11806329233947328
0.43524732379666914
-0.3426721663205959
-0.17723413081551367
-0.4725869302734635
-0.48420266022018243
0.03906832285811678
-0.22382454452077427
0.10970824276575407
-0.48549649691484154
-0.4595154891010908
-0.4611427065230515
0.48504120000574036
-0.25303654968574685
-0.39086662479775464
-0.11350331075247304
0.25068631360101284
-0.20392399529227767
-0.4223743518268981
0.21488112063296955
-0.08001785751650614
0.3856659488229996
0.44073256740200834
0.5086898692958755
-0.4706775140418104
-0.07008148404034749
-0.4538273397313488
-0.46457073511525343
0.18583279210067766
0.4188299233451786
0.4719788478693135
0.15096381853672872
-0.04684368949734331
-0.22356559376909577
0.2402027940975013
0.23010128741133004
-0.14523421958717128
0.40144299859920735
-0.010120772480742255
0.018862945354693465
-0.267525122185729
-0.15138216292943263
-0.255808591086317
-0.4640176221488576
-0.5026995613481989
-0.4273440551999461
-0.07135568233110635
0.2353473687069107
-0.3267801671428246
0.28091546745133295
0.32888480670167336
-0.3940031789815924
-0.25948477644584594
0.3725719481637042
-0.4422532976348982
0.323443544122184
0.18358610823590368
-0.2671484371843306
0.4446525930468752
0.11912314469530311
-0.4180632923394735
-0.3377526762033309
-0.22267216632059608
-0.2797341308155135
0.008913069726536294
0.17329733977981768
-0.41643167714188356
0.3971754554792258
0.1987082427657542
-0.41499649691484153
-0.19051548910109076
-0.0076427065230516185
-0.0764587999942598
0.1444634503142531
-0.175366624797755
-0.22950331075247307
-0.22581368639898738
-0.40094080767626733
-0.3093250546663127
-0.24916814990806518
-0.01099510934606041
0.32891322935158956
0.00393534880471262
0.2785883485414688
0.3086715550710797
0.2157165675771662
-0.201380990459214
-0.21649381669755832
0.3234738928084774
0.3196625956828902
-0.03101722838284023
0.28195357393638426
0.21353531118645877
-0.49206721274695725
-0.40499043623457637
0.16717189250992534
0.10079301752149084
-0.24206967259239565
-0.3897930623678526
0.01757064301585163
-0.31108009732718084
0.45733124204039166
-0.30661829659356005
-0.15146007299670644
0.33438568828646603
-0.3580881826527716
0.13742231365641483
-0.0696736469360329
-0.323355434130822
-0.43661393420822714
-0.16371340638403478
0.41563146266657186
0.1972729991867292
-0.03184099899321116
0.45400549707391463
-0.3995582084637805
0.3646668003693773
0.3001729743739268
0.20360377471170224
-0.1453287718780765
-0.3017800861843358
-0.35118017625653924
0.11766905765625768
0.13147998209082587
-0.311636725516245
-0.38183366352977055
0.22359645890683022
0.17795334109147132
0.363965808546411
0.020997281851775455
0.15433875811265618
0.08987666163957962
0.3756169342030485
0.44855596989584245
0.5062929991009166
0.38506252646937583
-0.12502303192369577
-0.20710180749351037
0.2838590050125038
0.45107751130793905
-0.25116575282509185
0.28951049627371717
-0.49990007097129624
0.3466820262827688
0.1845922657012447
0.4296632272060952
0.27313054813633847
0.16669631684294542
-0.37581517411535653
0.45435379713763846
0.23897527504207705
0.163424128144368
-0.3583137671802364
0.14571116487423683
-0.47745841362955027
0.0770924004563688
-0.1147956443544831
0.18793180437671958
-0.07796520702125814
0.26688934746985987
-0.045510622082319714
0.43160030712196595
0.0487413197864087
-0.13096096288105216
-0.26326599705147014
-0.4081095481521471
-0.11172529866926798
-0.1421485819721869
-0.37260239269087675
-0.3151470634772538
-0.13304561557407016
0.12393733659421642
-0.026400525410345863
-0.34219914720491745
0.00491679213716049
-0.29073395121029366
-0.06493275443001702
0.20744120346873793
-0.2879528175113949
0.30759331994630745
-0.08290173313586591
-0.1480614133163524
-0.27413591101956997
-0.10885512983079465
-0.10552321414915636
-0.21844620439783022
-0.17773262199186227
0.33710896304456944
0.2638613420352356
0.30706909210566313
-0.45669921589689494
0.0076150441381742685
-0.4167069805927347
-0.06145366906341803
-0.18280351525199492
0.07534941377425393
0.11669937297063215
0.4833702857778916
-0.4701515271920806
0.1938374575208941
-0.13092033710459744
-0.1922578123750376
0.33359441024450814
-0.24431745148860556
0.11979251582193973
-0.19583212466362787
-0.31436458062554556
-0.26189107955540664
-0.0694787780256645
0.3980921306068036
-0.4521305612701952
-0.17502903191528582
-0.19890048512728142
-0.13592755191248246
0.4351799556519715
-0.2770583680411729
0.21917229569519048
-0.4061011829295895
-0.1651487005973596
0.028825707567598214
-0.47691552121505826
-0.1999659554051384
0.15958769059815245
0.22449191470702898
0.04379479887167474
-0.2516867156613129
-0.3856787075888802
0.3612990473413253
-0.12298774720586972
0.13281570278023086
0.3834558765359927
-0.47656053021311773
0.3875057779829319
0.13644816968136905
-0.1649632453126752
0.07993424890301055
-0.45130147146408806
0.2565335858152146
-0.05761198516583449
-0.45340713213217815
0.3514845646087063
0.3671394113626279
-0.3096454136630277
-0.09263320541264589
-0.387064473826008
0.4394413737877136
-0.09710969882804883
-0.2923567945156866
0.28666148600902497
-0.143679108898752
0.10798132024408859
-0.15388721248134613
-0.49231724816395583
0.013401203762568367
-0.42181084863207197
0.4583420422984223
0.41296223944075927
-0.34549991299560684
0.20168061818385147
-0.23669709987410137
-0.41249907824838417
0.28914094135239976
-0.4844975858746878
-0.24701760828087765
-0.2411593581415662
-0.17811383276504925
-0.0008558589081659533
0.3016863094080419
0.4281097947729015
0.05905577212810625
0.18854267729728252
-0.18996578955710114
0.3842043207468345
0.23549996743601706
-0.22941190274729958
-0.20349907923717805
-0.23675557589871654
-0.1820000556105378
-0.2203971190972397
-0.4107611739265679
-0.30450013235061113
0.279500086191378
0.22696096131978094
0.07471931258882726
-0.4655611659322998
-0.384401461317044
-0.11240487579297168
0.24796046041361258
0.3934327736101922
0.10794753067835076
0.3070255446386274
-0.22647008666560237
-0.10649889413592512
-0.16705099849594657
0.3620014886317755
0.0584079074005606
0.09497103803600374
0.17400001967552092
-0.2248002313720925
0.2740010413084207
0.30100001336343185
-0.4019956916428145
0.05747929861465177
0.31871970683322154
0.39339707714944483
-0.05112195701258482
-0.13865470315430595
-0.3296251743741642
0.2761109309178559
0.015000048284042816
0.42249728421274163
0.20377814530449237
-0.05771664505178357
-0.03681882804807116
-0.05100195632281902
-0.3994882233594576
-0.270499434684629
-0.41499991299560685
-0.04881938181614852
0.48830290012589866
0.4385009217516158
0.2701409413523998
-0.18749758587468765
0.4389823917191223
0.4533406418584337
-0.20361383276504924
0.12014414109183404
0.23418630940804186
-0.003390205227098636
0.10505577212810623
0.33254267729728254
0.44353421044289887
-0.3982956792531655
-0.3940000325639829
0.2055880972527004
-0.13499907923717808
-0.23575557589871654
-0.3175000556105381
0.4171028809027603
0.35323882607343204
0.11749986764938883
-0.419999913808622
-0.013039038680219073
-0.15978068741117268
-0.13056116593229988
0.16359853868295607
0.4215951242070283
0.28846046041361245
0.2649327736101922
0.08444753067835077
-0.2729744553613726
0.0350299133343977
0.338001105864075
-0.20455099849594655
-0.3949985113682245
0.059407907400560594
-0.3585289619639962
-0.46199998032447914
-0.04380023137209248
-0.034498958691579325
-0.33849998663656816
-0.3974956916428145
0.2529792986146517
0.3572197068332215
0.042397077149444726
0.40787804298741515
-0.40315470315430596
0.34587482562583577
-0.48588906908214413
0.033500048284042815
0.0714972842127417
-0.10322185469550754
0.39178335494821653
-0.1658188280480712
-0.08100195632281902
-0.15798822335945764
0.26950056531537103
-0.2744999129956069
0.35218061818385143
-0.2021970998741014
0.11000092175161581
0.3651409413523998
-0.2724975858746878
-0.13451760828087767
0.3623406418584337
0.36888616723495077
-0.10335585890816595
0.20818630940804184
-0.030390205227098635
0.18955577212810623
-0.11945732270271751
-0.26046578955710115
-0.03379567925316541
-0.3635000325639829
0.3720880972527004
-0.15449907923717807
0.3897444241012833
-0.2445000556105378
0.1196028809027603
-0.09626117392656794
-0.05900013235061116
0.498000086191378
0.4854609613197811
0.05971931258882725
-0.28656116593229974
0.17759853868295605
-0.016404875792971663
0.06496046041361256
0.07393277361019229
-0.03655246932164925
-0.36197445536137257
0.3205299133343978
-0.39549889413592504
-0.16755099849594657
0.13050148863177555
-0.07509209259943941
0.11797103803600373
0.24700001967552093
-0.41880023137209244
0.49700104130842065
-0.38999998663656815
-0.4459956916428145
0.1379792986146518
-0.4662802931667785
-0.3946029228505552
-0.4721219570125848
0.12534529684569407
-0.2726251743741642
0.08811093091785582
-0.004999951715957184
-0.030002715787258324
-0.4387218546955076
-0.2702166450517835
0.40068117195192887
-0.21250195632281896
0.23951177664054235
0.009500565315371162
-0.3429999129956069
0.20218061818385147
-0.21719709987410138
0.23450092175161583
0.14564094135239966
0.3210024141253122
-0.14801760828087765
0.3583406418584337
0.10188616723495078
0.2926441410918339
-0.00731369059195812
-0.3138902052270985
-0.29344422787189384
0.14754267729728252
-0.19696578955710115
0.0742043207468346
-0.3475000325639829
-0.15091190274729957
0.030500920762821907
-0.004755575898716534
-0.26900005561053814
0.16960288090276032
-0.11576117392656794
0.40799986764938884
-0.309999913808622
-0.30053903868021886
-0.3902806874111727
0.39943883406770025
-0.328401461317044
0.14059512420702835
0.14296046041361257
0.02843277361019229
-0.14855246932164923
0.39202554463862743
0.17602991333439763
0.48100110586407496
-0.4920509984959465
-0.48399851136822447
0.39540790740056064
-0.22502896196399627
0.01100001967552093
-0.1303002313720925
-0.23649895869157936
0.24800001336343172
-0.4394956916428145
-0.1530207013853482
-0.36328029316677846
-0.2041029228505553
-0.09562195701258479
0.0418452968456941
0.4483748256258358
0.2466109309178558
0.09500004828404282
0.18099728421274167
0.08827814530449245
-0.3082166450517835
-0.18881882804807118
-0.26450195632281903
0.13951177664054237
0.26900056531537103
-0.105
0.263
0.0715
-0.109
-0.342
-0.1845
-0.5
0.25
-0.1315
-0.0255
-0.0225
0.4845
0.019
-0.191
-0.054
0.319
-0.2325
0.013
0.436
-0.311
0.2585
-0.3125
-0.3865
0.385
0.0265
0.3255
-0.0165
-0.1035
-0.05
0.3215
-0.217
0.275
0.435
0.4
0.2855
-0.429
-0.435
0.38
0.266
0.178
-0.2185
0.149
-0.2195
-0.408
-0.0025
0.346
-0.089
-0.1815
-0.294
0.241
0.2595
-0.013
-0.014
-0.317
0.045
0.3265
0.1955
0.123
0.0345
-0.3825
-0.2065
0.458
-0.433
-0.0665
0.206
0.1435
0.3585
-0.0885
0.0075
-0.3415
-0.37
-0.202
-0.3
-0.4545
0.3905
0.3645
0.1655
-0.2835
-0.4465
-0.462
-0.008
0.245
-0.173
-0.253
0.089
0.1935
0.368
0.0485
-0.184
0.253
-0.102
0.476
-0.008
0.3815
-0.079
-0.356
-0.2475
-0.292
-0.073
-0.2755
-0.184
0.258
-0.0455
0.0335
0.295
-0.342
0.019
-0.292
-0.4315
0.3615
0.484
0.4965
-0.4925
-0.411
-0.403
-0.2405
-0.0115
-0.225
0.1465
-0.326
-0.4825
-0.486
-0.4715
-0.0485
0.109
-0.2475
-0.3055
0.4085
-0.3585
0.3585
0.111
-0.4395
-0.113
0.1635
-0.129
-0.364
-0.463
0.356
-0.3645
0.1325
0.484
0.1905
0.374
-0.347
0.4315
-0.218
-0.412
0.154
0.2555
0.395
0.164
0.345
-0.005
-0.4045
0.016
0.406
0.3555
0.055
-0.3965
0.0095
0.08
0.2875
0.185
-0.045
-0.225
-0.1005
-0.326
-0.163
-0.031
-0.217
-0.4915
0.3455
-0.4975
0.4685
0.212
0.3865
-0.021
-0.4245
0.235
-0.0355
-0.1095
0.337
0.0575
0.077
-0.209
0.128
-0.1085
0.1435
-0.4085
-0.0325
-0.006
-0.1445
-0.3875
0.482
-0.0445
0.0545
-0.4315
-0.4365
-0.1045
0.0045
-0.171
0.2795
0.1565
-0.2765
-0.365
0.1975
0.0045
-0.3475
0.1905
-0.0395
0.2035
0.292
-0.277
0.3595
0.309
0.06
-0.168
-0.402
0.3855
0.121
0.2175
-0.0505
0.062
-0.0685
0.0425
0.3295
-0.329
0.36
0.4685
0.424
0.4295
0.1245
-0.2075
-0.2335
0.2865
-0.386
-0.341
-0.0515
-0.301
0.3985
0.498
-0.4475
-0.408
0.4935
-0.4425
0.1795
0.4035
0.2175
0.1995
-0.07
-0.2425
0.412
-0.411
-0.0855
-0.3005
-0.1865
0.2585
-0.171
0.0815
-0.137
-0.3445
0.1975
0.2845
-0.1085
0.0245
-0.206
0.055
0.0985
-0.493
0.1215
-0.301
0.2995
-0.4725
-0.4025
-0.474
-0.2485
0.1985
-0.144
-0.1735
0.1385
-0.1165
0.029
-0.335
0.1145
0.4975
-0.2875
0.3715
0.4055
-0.4425
-0.181
-0.2355
-0.2915
0.261
0.297
0.045
0.49
-0.223
0.1235
-0.01
-0.3665
0.2670434962110314
0.2073393719716932
-0.3884331446437542
0.37647385795991584
0.022929282990726055
-0.1298896801072793
0.030376635494699385
-0.3705052117070446
-0.08514519643214914
-0.33937085077998097
0.12327665846230317
0.22300229223712742
-0.4739667488661794
0.012664027654492899
0.4678435537505767
0.035933373196833804
-0.3138813658183833
0.09881450787972584
-0.48998888600980484
0.4768704002776095
-0.4015995988974982
0.4332394593641721
-0.23480934794480457
0.02894693884637214
-0.06528328419630358
-0.27796354329242756
0.06798776412585983
-0.07944703181665165
0.3619813573764612
0.2576532941671927
0.4060541074674577
-0.1409311586773927
-0.4899402119555532
-0.270954833337313
0.41253346353885995
0.2565252984026496
0.005298362449011471
-0.08390093111707417
0.26502005818373864
0.2618574909289228
0.3475858810712526
0.32852900975161065
-0.25092950008033116
0.19459412060281034
0.31947616731457634
0.04572508225363473
-0.25498705498585184
-0.42552205736087734
-0.021439028662185115
0.005498110447566179
0.38425213020933374
0.0046435874194496
0.4102516876921584
-0.0690986611837117
0.263594707567788
0.44658396672303036
-0.4425429448510177
0.21558828573985186
-0.3703839642959823
0.04170980774062523
-0.38040440504678674
0.3533003344518908
-0.4779297650754351
-0.2793295527839
-0.2027243686131374
0.036649294500604716
0.2260553778197833
-0.3814572641158166
-0.17407353846369195
-0.466960106138429
-0.007128835880127848
0.2344029660794572
-0.45627108531523214
-0.1613296969410015
0.002327893072627441
-0.33698770340746964
0.1490268142565402
-0.23878121280462783
-0.11358837668585253
0.12679545519769214
0.23449797955800752
-0.11375617360087371
-0.46220678749812133
-0.4844521412572255
-0.45363988649911396
0.33462552004285184
-0.08940934126253612
-0.2525503155048021
0.3610121987536256
-0.45516205915743757
-0.39961157527535834
-0.1462239505256098
0.23292291112694502
0.25082612775655405
-0.35934326818913476
-0.03706417778640105
-0.25136436386488753
0.15117007881929231
0.16806061588120969
-0.197182648322206
0.08279313669701573
0.067654901858498
-0.3311244043202437
-0.4609073496854575
0.4871672750211062
0.47657706409230965
0.3416028872743268
0.46909510435967516
-0.08256088493708291
-0.4250653549672277
0.09544820475271683
-0.4509428126700182
-0.11666719402514407
0.13201961180734795
-0.07748005258262268
-0.051883900162524324
-0.03713491571334138
-0.13973820916131388
-0.19576327637194382
0.04680509766388282
0.13175122758476088
0.24501881562197458
0.4266267326803557
-0.26676033846162367
-0.2755888965485197
-0.25768588476989096
-0.31472252595186667
-0.23635075410835915
-0.4142934071917672
0.010911906818477516
-0.18560508449561403
0.15486873698225262
0.009748543256200492
-0.22764852011473197
0.13482756367147114
-0.2948753823282291
0.11955209377170566
0.13377386659782764
-0.35958288169447383
-0.098624630185267
0.4295706222772836
0.17139531338766062
0.09556427981822248
-0.05487820593964127
-0.22574198176727842
0.17641857446236303
0.1145727989611394
0.4779816650652886
0.3551739225601927
-0.4830136412579795
-0.029238201920115624
0.48953683042739465
0.03993265626848712
-0.4858462016179174
-0.14586828753815348
-0.14345838733459182
0.34533030461001396
-0.28470260444685636
0.04372794820044381
0.09822926672698809
-0.14612934405254718
-0.43418419804348296
-0.3509888767399403
-0.23340482220919415
0.45921718313919796
0.30893012004546755
-0.30620190125902513
-0.4125378366868111
0.455980023927828
-0.35739354155652553
-0.045060099362370286
0.4159812113862583
-0.23459354042730185
-0.4372781411100418
0.4587318088499297
-0.11739280382549079
-0.4018642415259362
0.21456866230128907
0.4685622480235052
0.13792627284196862
0.3828209277619577
0.1186129673847465
0.4145379613578884
-0.3481950299884729
0.3418527964110981
0.4812582982418053
0.3356482619835571
-0.4742227512986605
0.4608736923125052
0.14934935011126627
-0.3312790269781423
-0.45339745080478194
0.40469728969955227
0.1582496813212289
-0.1420059991240111
0.3858693278631686
-0.14890084539959364
-0.19638571555737755
-0.23961457746335854
-0.24639685163967007
-0.08765054623359726
-0.07518075645767998
0.10561631814200755
-0.01754230048513599
-0.24342440315148642
-0.48238203600919355
-0.10145851243052605
-0.4261704929842937
-0.17839086424509654
-0.2599341531906671
0.24095586884993012
0.06901666457086825
0.3989465360468167
0.35293615801841105
0.4192182066557686
-0.4454969015334897
0.4583769645904455
-0.07805999441209849
0.2761430189741823
-0.15915575764205336
0.11635781422930426
-0.33818333882511586
0.2077932312852012
-0.13346718075925496
0.09684816422553534
0.46956499299580734
0.0873012173140353
0.4750189576130936
-0.2072194310619993
-0.07146176007405963
-0.29636404365922825
-0.3091736633596452
0.3649822479270709
-0.26453360322523806
0.5175825703284623
0.42726427688406676
-0.39659579230667313
0.12281879893121721
-0.015070315314888432
-0.19929414875594706
0.17468942477341856
0.17286855605915658
0.35636090367534373
-0.22332424481952678
0.0293770012298614
0.01459096090439382
-0.02306394506934062
-0.1479031307211599
-0.2022756085916163
-0.04896940818296912
-0.09265325521274086
0.28444416581192034
0.04849696104510806
-0.30321165308680714
-0.39067333103845503
-0.463071356193722
-0.48147332471608084
0.45313514425080964
-0.10294190175454668
0.4530501496642079
0.11605782143937084
-0.39423451664232406
-0.1571363988838777
-0.29170425375959763
0.14082064796369545
0.41111907940653786
0.1418343556245217
0.41843040064448644
0.0794280254095859
-0.3845189135309628
-0.22078707610594214
0.2366524994904096
-0.39096397138363326
-0.07084844875332406
-0.3242740449840938
-0.09272217056779258
-0.11347595952835053
0.4474932152899249
0.009695265066710876
-0.2575696931474372
0.10962522114899396
-0.41578752147481385
-0.3221244079225604
-0.040067680001878526
-0.1294478331307794
-0.32885292525669557
0.2701521713984383
-0.4902072662645182
-0.4025523454419188
0.2175137304128493
-0.3188929201243559
-0.027816088898120143
-0.11000347675757755
-0.43161859751810683
0.053478950008230865
-0.2687142070888001
0.2873233518066064
0.28137429549996995
0.4634069968158959
0.06870561517462884
-0.4557425757088254
-0.25451417507207746
-0.017927273293309027
-0.12004272930058496
-0.3054740487647489
0.3737598542375879
-0.5131415594029981
0.37393822270837646
0.30962678338289357
-0.4287873107186633
0.4456824498009677
0.34602283908289694
-0.3275279876863372
0.38739477567619496
0.07817935962134681
0.32704248772496286
0.37489775224040983
-0.4129266389755521
-0.32740425516981886
-0.10295322751092546
0.31696332654769394
-0.07950337463285637
0.4060047835104432
0.41188411905909655
-0.019638099487347647
0.14068746519060882
0.28459587147366705
-0.45159086352579686
-0.38422268333621384
-0.25798291147053876
-0.255098696916085
-0.4009556844174142
0.24360800576198471
-0.06481925718413235
-0.02021498312585278
-0.06249193584587898
-0.45521236448756697
-0.38470119572107697
-0.5091269608312085
0.0033411924509759083
-0.11596546900231124
-0.4857380368756579
0.024307467557451435
0.19498310404058797
0.2384419474578299
-0.1381964352944817
0.3645533564591864
-0.25418663312142037
-0.044383878861384875
-0.21474766854520605
0.2998988530640737
-0.16948721729498223
0.43293611835171236
-0.28186995775626306
0.09008266624096156
0.2936663313727752
-0.19414301794810807
0.42588989027429264
-0.25519875452644464
-0.47141319467935827
0.16310818336225938
0.08151111745876284
0.2623951124248168
0.3126121338094217
-0.23162926708325488
-0.3210818840859945
0.3301935940521796
0.015331359141425251
-0.4156856176842533
0.3931209659137665
-0.1760417766101868
0.20296811542137513
0.42208619105368356
-0.3991372456433073
0.2059051099710312
-0.34292681054924734
-0.023891700250515693
0.13947295831959536
-0.3549420651608781
-0.2503447510088434
-0.0645174024239036
0.1536747036625525
-0.07583561705756293
-0.05527755927795703
-0.0717628198154118
0.016890268122596787
-0.12195968688098836
-0.1461338118995344
-0.2911390461946445
0.34753922216911437
0.455224431999526
0.07809159174707112
0.017679676883192903
0.4169230186938544
-0.37170213980110944
0.11295661313264023
0.3723315309219869
0.2451789492324172
-0.3191887143673286
0.30156766097658244
-0.5154846168608747
-0.19232795281339407
-0.3737722470427867
0.42200751074372594
-0.1387481513902528
-0.4032174464902784
-0.25534375168195445
0.22703614819699697
0.3224358449035622
0.2655630455611863
-0.41378170196081987
-0.5334638739673592
0.23404358425103075
0.29787341145603413
-0.19551924539078594
0.03885852529481287
-0.16645729293815553
-0.011298337976112812
-0.2089054661118048
-0.48942252805412706
0.39257191293534144
0.21074453106320215
0.2739517431730466
0.3660075380356046
0.34540750363392697
-0.042571240732997714
0.11516574720303027
-0.13311187470212318
-0.492103785429334
0.13641859555280142
-0.4403060719150226
0.40472386112135844
0.3364515525103627
0.11348318121549669
-0.31079585762216483
0.38297873936318794
0.33895823498107464
0.07152502500749379
-0.41657476066059734
0.4573518561341365
-0.39437132446193385
0.24647215952948237
0.05706079010030802
0.05763606095388861
0.09639644029653281
0.5063875033886234
-0.19789569026616166
-0.36974007384738644
-0.1020454864581295
0.3944885266440744
0.3274604002449668
-0.20124674321598401
0.02366457252397683
0.28391204400377956
0.16978740241973772
-0.4271618665007112
0.17133517209599916
0.06409662298404369
-0.23015999288870354
0.15945194076695063
-0.3355577113348221
0.3960466581582489
0.42890878503599317
0.1987333754644342
0.2873037997384112
0.009320002551177627
-0.28191694987206867
-0.23777161504042374
0.17594291100808274
-0.30611878561168004
-0.11890846086264788
-0.13335538466070546
0.4378994647981111
-0.33816566544300575
0.5391050525248411
0.46095542878157536
0.38444684346868474
0.32708848488745096
-0.3918081117856574
0.28885343936564356
-0.10388748094063888
0.053038170739911544
-0.2948290675835044
-0.20355049179255527
-0.26204371148253847
-0.03762567776965066
-0.35073017533000334
-0.17407200759088004
0.006926618183787487
0.3128116954887961
-0.38940438113616016
0.12678938905151427
0.3453861037398034
-0.29073311507375593
0.47640405268285574
0.31944146821894853
-0.09355234435455409
-0.153691708619855
-0.14814432830113694
0.3120459263818596
-0.2953095077486292
0.14676967059989335
0.3283140641766795
0.08380192656966276
0.4589674080468491
-0.1798630296265899
0.014094176057806898
0.17843340742180488
-0.11002578917450542
0.1978059006226164
0.23111591010054514
0.41422503337711
-0.27756362062421364
-0.46542924238493893
0.29829203615899075
-0.25796721314814736
-0.29561065861436414
-0.11833949548874635
-0.19256997949560117
0.4375559687617975
0.009806569987416976
-0.3827145607221063
-0.11747666841842246
-0.08452484300372752
0.08160895172982943
-0.09662282141483934
0.344252601169829
0.14918478740255875
0.445883933972738
0.15126570994925512
-0.1380110169714979
-0.033970211138826374
-0.19750501482968294
-0.3471586277408698
0.5637479343286333
-0.435039273322971
0.07388685382166461
-0.1990492173377401
-0.3499611577582611
-0.010044933475434564
-0.014678846402066303
-0.3100716292632805
0.13817064359942896
-0.3750872090549932
0.04183836662055186
-0.03923747808496229
-0.5091148883357602
-0.026961845889900873
-0.5051560366096263
-0.2840766056160089
-0.15459109369673127
-0.250171876422833
0.30724773797703864
0.032274733853718436
-0.38864107659906066
0.32319719174954514
0.20178387521392763
-0.12038021017320669
-0.0835931226230655
0.22744474787645708
0.006667774607677277
0.05908215181180419
0.002266601763087258
-0.16296149005255728
0.047009602939055206
-0.32625329200158626
-0.12838596523955925
0.34089986651354776
0.426740973832147
0.180947142894524
0.3496739354886818
-0.2441329185718115
0.19677041401816675
0.14830508443763687
-0.27468773672962116
-0.07192062337379668
0.24711379337366746
-0.3566972266280671
-0.2596687536765192
0.18362336524260267
-0.060313248515131944
-0.3066312721092553
0.4350529871443889
0.32817116436335125
0.10247002455978313
0.27773708577935774
0.3735352400427214
-0.19204142330588808
0.06846563683345072
-0.3663606770661178
0.04744798615332437
0.39367581768489185
0.3059257913508923
-0.2888176079201682
0.1903236202640616
-0.06092019447006351
-0.5102782102008845
0.33826399579073
0.06135724622392755
-0.009731047812705234
0.4920082821474078
0.1373128015038685
-0.4982504142276577
-0.16232440766699002
-0.31954920513796226
0.013153736582124409
0.31699103893754316
0.13910520602987117
0.12349226714874152
-0.061379846253551376
-0.29997515672182756
0.06857186383580519
0.2837458551764594
0.27919370707159874
-0.5059277322173112
0.08198230286573006
-0.1592588836816161
0.16291165358670553
-0.3086329768670832
-0.1671783550805066
-0.1022980016741633
-0.01678837775783693
-0.5004696694114655
0.23778034037728335
-0.3772977187647913
0.06592817703140634
-0.25169209904834633
0.1832090624213318
-0.19380492477780206
0.19800171687297524
0.3757927693076421
0.271267360736129
-0.11079736735683635
-0.5122474060676299
0.13131442083914904
0.16855691199378278
0.2604658905089587
-0.23257594555032549
0.1390143650230579
0.35825514435714195
0.17335376820120457
0.3453980407509149
-0.22457208919020794
0.34004422063221496
-0.008216588155561269
0.023417348323552512
-0.027100391128372592
-0.1730641144785847
-0.35603906184010486
0.08566859156202423
-0.12634522253224087
0.15505240371730053
-0.382014366630009
0.27168028091034246
0.07227176886808753
-0.37617137151271723
0.4830977662141964
-0.5618002203850475
0.20628376575804064
-0.27761548600095065
0.07965966586331732
-0.30913273634768684
0.13576157026427663
-0.2942608282816608
-0.45138085830282726
-0.48899664880705
0.29767379974315195
0.22862157640593925
0.279599682789872
0.41463096731426224
0.00908569003761565
-0.14997449368330312
0.482435202105686
-0.024378333035423052
0.34009420315790184
0.40465437274696153
-0.39120540347439414
0.09212614778742993
0.26810727250652927
0.42766299388379636
0.21275959981964554
0.16480579216935756
-0.2971008748111606
-0.23846378101880683
0.2328693364244469
0.4410422281882969
0.050600462691949545
-0.18157319245861558
-0.08373016239028767
-0.4953528007312185
0.29850681647612975
0.2712814111904161
0.03429931996753239
-0.32264154787009963
-0.32746857918587396
0.35421764395416055
-0.4401125707632838
0.11804036243389858
-0.13262258860121023
0.45772358630462007
0.22332264642658528
0.4403320348941756
-0.12908999476908034
-0.36018416677777443
-0.15792866344578366
0.11619857667503689
0.4620313777371129
-0.0684080170045043
0.458916165275781
-0.09703076725203355
0.5720372575255145
-0.04848442773077397
-0.4870325798765702
0.0519797725864681
-0.14426837414410112
0.4569708786548248
-0.3949336816970484
0.15675516672969325
-0.4475589571061066
0.2775023659648099
0.0629090084908206
0.4033651895581328
-0.31546027255017023
-0.1181694614157779
-0.24180173281054937
0.4464739476716608
-0.1234855046452333
0.1923966389118943
-0.5269357615231979
0.2870429163702261
-0.48702770808336265
0.31779706748407055
-0.12331714424105371
-0.30952634753478936
0.473015206687521
-0.326118416190586
-0.37578044925570875
0.027862400699381368
0.28163877826156997
0.2994123509109631
0.4038215436649074
0.27339478120803773
-0.4243934689619075
0.28397580386979976
0.4199756490715085
-0.4073237936798114
0.34031871599287655
0.16206565307230505
-0.11344701884383242
0.4806801733456431
-0.35035652277270274
0.37093244137985654
-0.1008105971741588
-0.2852540004626908
-0.21696502343795895
-0.45679890592384825
-0.163065365576325
0.22983097526544136
-0.41698399871623126
0.21099777855432655
0.2922172094459938
0.12984485186396408
0.3228734551881356
-0.3844206975865123
0.14502166843989991
-0.10174230398454545
-0.23126143809803434
-0.28724946730209416
-0.02849987825078322
0.05476205039934327
0.3161218010662565
0.30658347528489505
0.2196879136468826
0.17322258178894437
-0.16919900420447723
-0.24243192017829965
-0.2670333310768832
-0.016411910758284593
-0.17335473766472806
0.11908812418108124
-0.03397828230164501
0.06541485005971943
-0.40083460982733854
0.2225629334260169
-0.33193253513550697
0.21589624909845678
-0.03954454168868644
0.15911742759601338
0.061180179328195965
-0.3944723322194814
-0.38811295965378956
0.4509958179935865
0.3483888297824993
0.3369433540547252
-0.3491154124382654
-0.43060776848864474
-0.31562950195488965
-0.1593884780037595
0.371374145047562
-0.3774974473842083
0.3173583007937823
0.2611269141424227
0.14527141487056777
9.769327249852872E-05
0.37170246887282504
0.42976129793758655
0.06503582611926242
0.42893858095321424
-0.021498892966360688
-0.11967188922948777
-0.060695704102247235
0.513979314507346
0.46089305091460925
-0.1488407005972435
0.3184744923492502
-0.034148233503730044
-0.2329444639232633
-0.5735293282519838
0.29876582773863436
0.21428601451640383
0.035153152011744064
0.41846676589359094
0.5069985089734095
0.2958489326929005
0.4737741548464771
0.4611297340907546
-0.4381214697208339
-0.3919280310056837
0.20514899980068801
-0.14437048103290975
0.2941072738355847
-0.4403438579274211
-0.16988301270321296
-0.1113967809965615
0.021292400685971286
-0.1717674115683055
0.5038874208966014
-0.005136586238908908
0.49125652407274506
0.4236907856679147
-0.31065018549334666
0.39899293735917
-0.09637032447199173
-0.49590633565420955
0.1222458770046121
-0.15575353958954888
-0.32726911374270773
0.4156134525697831
-0.07208389616395568
0.34248210513866023
-0.03176266655985846
0.44742699297438193
0.13607911139777204
-0.17456747828962751
-0.280268392861264
0.02912505224403618
-0.11822524090397643
0.2657857971652348
-0.02110271296183457
0.26728088535958094
0.4250923319259485
-0.3257181760896783
0.09098325315912377
-0.023557259951817844
0.4205037723884645
0.16052711721178653
0.369649476701258
0.40891813796496135
-0.4208314971495404
-0.05915244596115958
0.4443855706533678
0.018741014515232052
0.4029776360950044
0.3507305260649247
0.006547661069307181
0.31049797604600954
0.18903078437042853
0.41196739998288645
-0.4667036451887674
-0.4485890714110556
-0.5033752413336683
-0.518932572243142
0.26165120472456865
-0.15539871839342767
-0.060699426589102136
0.2723624360500459
-0.3611243117524629
-0.3678124590140778
0.38299396325487645
-0.08051324861892432
0.3475641134602915
0.38257153578676284
-0.6176195881381444
0.5644159392121546
0.40716095376663003
0.409592755615021
0.03389908754283844
-0.12461127712726615
-0.42130875931874673
0.0005785529599444447
-0.16158384803049686
0.3355307871036126
0.050131512022373606
0.2744511171929839
-0.0036817828988155617
-0.3028485531104819
0.44387875439485314
-0.06404238638607104
-0.26519631329696586
-0.13026601496440032
0.4810219224775984
-0.35619731713551833
0.3406736323316479
-0.3778777341711118
-0.15174348529104825
-0.4556851385759871
0.11921975922185234
-0.2580077399374999
0.25084685667800505
0.27697064977868674
-0.2991606286594278
-0.2631373596765509
-0.43594488716202634
0.07427679699033836
0.1531761535586104
-0.2434006754238549
0.06282918343682634
-0.33066376631142524
0.13967968590534283
-0.30044343460970774
0.2989557345314275
0.1760433587797082
0.18400404395694306
0.4034345356799645
-0.03163627559728504
-0.22325975337308526
0.22070224422947887
-0.30542015703011177
0.2702088326037658
-0.3726241986065438
-0.4159215858078291
-0.33384996962176017
-0.15045496836474545
-0.02821392698405948
-0.2247084362779849
-0.1120896637387889
-0.36230204680805544
0.4722808413418576
0.17120983934063438
0.13373805760529245
-0.2590344733462971
0.31722614728107895
-0.02662414985915939
0.5579358260321068
0.18690722167855214
0.2259372004412344
0.05285569035028448
-0.3008229539696561
0.3192033736643269
0.4744289908702618
0.4863244724467689
0.2841651563639852
-0.07538925146311615
-0.03570407505369368
-0.10835160070831429
0.04639047059453282
-0.15418492693508062
-0.41290568811941636
-0.22628065687788187
-0.16057747452162677
0.2887948755924107
0.3849213672006679
0.059900931123823276
0.35061233184856994
-0.20688590281841165
-0.4508718836803683
-0.2851260435509857
0.2907553874116341
-0.07693791299979619
0.42190974203546905
0.002529101740424567
-0.06183457419202914
-0.19430959250550534
-0.4705668001778735
0.3370061421029271
-0.2729146183237398
0.19889587333062755
-0.11825246699212424
0.4507789057792279
0.45210180636647607
-0.1492445922258683
0.4300472883366766
-0.3363860308070281
-0.39995106045325257
-0.026096580752048477
0.3447540798584598
-0.4095836132879369
-0.18308611038823092
-0.31662211209895874
-0.1309777522915604
0.34972832195149217
-0.20247471166715889
0.32907286765068555
0.43176130252787787
0.21504394401014956
0.08344871751916369
-0.08458117740591896
-0.19345077624131501
-0.3715530758353066
-0.20727693658200777
0.18494806036041286
0.4680170130633462
-0.12606050589993
-0.2736360675026652
-0.0018356636851345857
0.4093280413497087
-0.47027979591549296
0.4957073305221738
-0.07062189982185997
0.2678300101183209
-0.24269159109299424
0.07470431365589604
0.14846159554623242
0.17046250142510655
0.4649422737738707
0.32015845032457874
0.47426252602500923
-0.03837641787049538
-0.07530113578975864
-0.4336658377433178
-0.11300739864742937
0.12708132027408536
-0.03919747041545208
-0.2216940023378668
0.4041234883445092
0.021744922234358394
-0.03111717410138767
0.13281304882963677
-0.37872105627741287
0.12739966754984436
-0.10027549715382515
0.26074610057038305
-0.47311994516472267
0.22763033324259815
0.1694932025550382
0.3518559691002772
-0.17773997674807004
-0.14083233310762444
-0.4190295586105869
0.23453630460630415
-0.24730427252805223
-0.2302006478037739
0.044399392832123685
-0.5339077819686852
-0.13432190462076157
-0.08732888713328206
-0.07012547568644407
0.18054963672245983
-0.443969264117802
-0.5223957168825878
0.23862752349109856
-0.4338091591966584
0.09534742508813022
0.20894989252444274
0.3046201935999597
0.186843089848466
0.16317415099314578
-0.13703856205402165
-0.00305240184010817
-0.45336347969744845
-0.008732696940285204
-0.32089183955833656
-0.44679223214291647
-0.14003554401168092
0.35662603885326405
0.10328603465267999
-0.2557738673937046
0.45805398518263674
-0.18909757393168067
0.47651493463492595
-0.4283018087002573
0.2968809993044881
-0.1840398215901835
0.46075349065137444
-0.4001858711896213
-0.2031535686728216
-0.1845034447914099
0.48622566663703903
0.06670363902224558
0.1834968809331539
0.09350131192052966
-0.33046785011343355
-0.41012711551148195
-0.14761465395234225
0.19152710036180348
0.10930867242461828
0.08417616998621372
0.37738482483865826
0.39485629242224213
0.07450520113341647
-0.08438215852189518
0.10064939396867523
-0.017582480862660153
0.16456179537652088
-0.34081920842396846
0.22289869428084835
-0.3440140532240445
0.23642193273189088
-0.11036502365903698
0.19375709282000217
0.39737115680139184
-0.16610088103937234
-0.4488113024372212
0.26275562731923385
-0.23187280633569535
-0.4658318073783023
-0.4497180502246175
0.46194533810333116
0.17693615554250605
0.3778161413912415
0.128282838207568
0.40581869828051575
-0.4302233572493741
-0.34095029040345776
-0.3246140259091528
-0.11117509148380551
0.06100705865225481
-0.014231921225795207
-0.39928098022310293
0.45865985150805594
-0.319321262502903
-0.11973735043133019
0.1596359252777362
-0.12103112746152372
-0.16589843124752635
-0.16946133866947777
0.4316271610742502
-0.2095898405773539
0.18600918386096155
0.3151959828772511
-0.09033587388098396
0.27779101938618206
-0.34851792959408273
0.43933081838302324
-0.1758031623963387
-0.41145912277332536
0.482843055386742
0.47980682465355917
0.4960683075529405
-0.20384429565497358
0.4152041135147481
-0.17559374896091484
-0.21611684141036822
-0.04327163894085821
-0.45650140906225806
0.4645984278751319
0.058819481380699534
-0.0829728483554189
0.28267614354180554
0.28167397994720206
-0.21067559984038103
0.1369207478767106
-0.451071967563522
0.21483389058619398
0.21614356603320492
0.4302463670371466
-0.1728895849565916
0.3556155628295612
0.4443210333347968
-0.3671936333082767
0.44749875432676217
0.16049583257455668
-0.057127131124481326
0.0344302329716507
0.3876853119936739
-0.22914978469985792
-0.433238085589069
-0.19430764186160998
-0.09152864300273279
-0.22318152203228825
-0.13614944991232997
0.27367637695975644
-0.28593169313248035
-0.26524129217212156
-0.07751432690596909
0.01921302511779998
-0.23804676797864363
-0.050605959433589864
0.2993547400904279
0.037146342787836524
-0.010384959001337166
0.3420230639099202
-0.39323059754882844
-0.0693940648739484
0.289798103088241
0.3745982189265463
0.46100933389135296
-0.1781478283246149
0.06376206808841343
0.26487045875202075
0.20875593887787222
0.34089413360402104
0.359796907230491
0.11404914595843076
-0.08520567401877373
-0.36123894909935644
0.47447539241389414
0.21510076101102327
-0.0607385032348721
-0.43650692398900826
0.07076311400517149
-0.23418231051436575
0.28819981533762357
0.42037434745289143
0.2624569864577732
-0.032339851809413796
0.11271576664951183
-0.28416306057747825
-0.099609800122676
-0.015135278294432083
0.17795568547276236
-0.03292246499663433
-0.018763197020327728
0.2478997423749719
0.37105564771078425
-0.1728949627057359
-0.020538055258026294
-0.17798985176085294
0.35609254841980864
-0.15115404205558314
0.22214465451097545
-0.383550432240291
-0.43031297612395875
0.24207763481863268
0.31958137861739194
-0.2928674303726102
-0.04681826848004386
0.30032251574559826
0.14291943573962376
-0.41755120259638423
-0.12370116478767025
0.22032458390914597
0.2650958731218761
0.17798771192945786
-0.1772658598988969
-0.18365350750932172
0.4631179871970733
0.11797018083575181
-0.3167545549307905
0.26330792826995214
-0.13227988276888253
-0.11240269980842137
0.2928118575967704
0.42855298450600204
0.3812139016065809
-0.24996687114302296
0.4589585847485492
-0.27151555177879366
-0.08001466977635313
0.2974515111446156
0.3290461902793084
-0.49231695480398135
-0.00896493253130113
0.36758747480624815
-0.07330728816808721
-0.132016959288677
-0.22523878312476409
-0.4020230481857804
-0.07111082454712293
0.36668033116906373
0.49306839137635344
0.3971039126615874
-0.19080142664624705
-0.07640979527055303
-0.4930752320888394
-0.22759468920214304
0.2803543610296515
0.14172783530538088
0.07282664430901507
-0.12111625077235705
-0.15138370150982028
-0.4019321615811693
0.3302765008377653
-0.4294170743402884
-0.10256078889453273
-0.22263951018196818
0.037996199061905545
0.08084799065381927
-0.1681204209857653
-0.039323962179442985
0.07313825094097581
0.012126268657072746
0.05235276763357543
0.257577866830757
0.44899530091304163
-0.12259085711284975
-0.3980661384091167
0.15430822773709638
-0.3783260417248762
0.2516173983580148
0.07274284669211344
0.13057672610889895
0.2767626079471321
-0.08938905164097377
0.23346041115417668
-0.013438100495955988
-0.3238634983860956
0.1402554178232687
0.5181118329266735
-0.05153701210176369
-0.22270113084188936
-0.1950566669102177
0.2809609807563729
-0.05606664111047155
-0.4509651331787948
0.004637699068762818
0.229800014271515
-0.12783319620060318
0.49137661648956643
0.010682657444219772
-0.2713332857896438
0.383386607304858
-0.41426154479578087
-0.21388811346339132
-0.08772180752237921
0.36409906801909087
-0.013358351100032277
0.15405485789534398
0.4533545652375842
-0.12022037742277979
0.36318650400257846
0.015413540593460414
0.10260933330876429
-0.2888263791761057
0.26934876073804304
-0.10605547634312486
-0.09106112149468963
0.3819961792174823
-0.4104445063504022
0.05612458738274945
-0.36420541346469854
-0.24428532103474976
0.41557592167466173
0.039963509197082143
0.33154960563448416
0.16822896183376146
0.12323685232915459
0.4308140407882395
-0.36254601818642773
0.30105335853388016
0.19632083832764302
0.4292249425643074
-0.45026374231542765
-0.23043651441688254
0.4169165200285106
0.05797050418845267
0.031774305976246045
0.22875052195208762
-0.31812402167212683
-0.23906768885121363
-0.4325066365129225
0.048672593575899155
0.1706505671761383
0.15206306726727356
0.361720723340536
0.34391177942277046
-0.22847318547537165
-0.4421135062827178
-0.3957419768637889
-0.4990183646851854
0.04491714843325168
-0.1862164593175568
0.40133551157234837
0.3068993657990961
-0.230041739134459
-0.09524020271614728
-0.25142096744248527
-0.10035235182262413
-0.3373968749173075
-0.3094582439518359
0.4294360891297181
0.059450573464856916
-0.20765218265180388
0.3500464573744008
-0.4016003644302462
-0.08940289770550366
0.07534118627455474
0.4534655502417429
0.3315056934099877
0.2469810671757957
-0.2914544836985031
-0.37001643451287075
-0.3217603941221016
-0.3986101580304038
0.10784907002367397
0.47664162816504707
-0.1433902205073624
-0.13471486179079292
0.23647739776710938
-0.19173703045533674
-0.04343365604660073
-0.1033159705843315
-0.24242907069825043
0.052464016940154415
-0.3174983927265343
-0.3659164285567093
0.08846999285352093
-0.007080061248154695
-0.27137063738510697
0.20573851191095338
-0.2361416659581726
0.04517979011752656
-0.03817044953063671
-0.20692976107473263
0.16754579191788097
0.4545062371948031
-0.39097634055913616
-0.04352054670956281
-0.29458776730227587
-0.10113732099457592
0.40052577203066353
0.20549486004198533
0.2356635895103824
-0.014917250556948662
-0.45929879035175514
-0.4296030847752839
0.25859743358537957
-0.0350610446267607
0.2667673173406607
-0.3863240664994422
-0.4843349650275691
-0.054714809093913026
-0.22265178945152675
0.3947131459897289
0.2565072673884573
