0.267
-0.4315
-0.4195
-0.2205
0.3745
-0.076
0.0595
-0.095
0.4
-0.1175
0.052
0.0405
0.3575
0.255
0.3425
-0.285
-0.375
-0.465
0.3205
0.389
0.481
-0.0635
0.116
0.399
-0.4555
-0.241
0.1075
0.316
0.146
0.3095
0.353
0.2385
0.2245
-0.32
-0.102
0.238
0.321
0.215
-0.4505
-0.2005
-0.433
0.0635
0.043
0.1175
0.2415
-0.05
-0.3045
0.2275
0.103
0.2325
-0.3495
-0.428
-0.4915
-0.3
-0.305
-0.3075
0.359
0.426
-0.4075
-0.2285
-0.082
-0.131
-0.146
-0.3885
0.1615
-0.1615
0.1585
0.3755
0.0615
-0.478
0.3085
-0.0935
0.3805
0.239
-0.4375
0.145
-0.1685
-0.0865
0.1155
-0.377
-0.3135
-0.413
-0.161
-0.038
-0.441
-0.432
0.1725
0.358
-0.3215
-0.225
-0.4745
-0.087
-0.0305
0.074
-0.4595
0.001
-0.3485
0.077
0.0235
-0.047
-0.2225
-0.364
-0.461
0.3155
0.415
0.1715
0.4175
-0.3065
0.361
0.078
-0.4145
0.3655
0.023
0.2355
0.059
0.388
0.4655
-0.3815
0.465
-0.0175
-0.352
-0.1825
-0.049
-0.0715
-0.342
-0.4635
0.1945
0.416
0.369
-0.4625
0.3855
-0.252
-0.081
-0.4375
0.2285
-0.354
-0.212
0.111
0.17
0.315
-0.2935
-0.0145
0.029
0.1835
0.0025
-0.1445
-0.121
-0.391
-0.5
0.4155
-0.0555
-0.232
0.14
-0.1985
0.0015
0.184
-0.109
0.3015
-0.2355
-0.091
-0.391
0.092
0.3045
0.2435
-0.3915
-0.495
-0.453
0.365
0.0345
-0.405
-0.2655
-0.3
0.1685
-0.228
-0.05
-0.4845
0.335
0.4455
0.132
-0.217
-0.2285
0.4795
-0.402
0.426
-0.4185
0.3215
0.1245
-0.0855
-0.032
-0.188
-0.4985
-0.01
-0.276
-0.361
-0.3925
-0.0305
0.271
0.03
-0.123
0.38
0.3705
-0.1395
-0.2565
0.116
0.253
-0.3795
0.2605
0.277
-0.476
0.0725
0.386
-0.2535
0.36
0.2135
-0.2165
-0.403
0.4305
-0.483
0.2095
-0.1055
-0.3
0.374
-0.052
-0.0415
0.2205
0.4065
0.0825
-0.1475
-0.435
0.071
0.343
0.4775
0.249
-0.1495
0.081
-0.326
0.019
-0.4805
0.035
0.495
-0.407
0.2355
0.013
0.4345
-0.4245
0.106
0.3005
-0.0625
-0.148
0.38
-0.153
-0.1615
-0.253
-0.3095
-0.215
-0.1355
-0.0735
0.123
-0.363
0.2195
0.046
-0.139
0.452
-0.02
-0.097
0.3595
0.3625
-0.1255
0.4295
-0.2115
0.464
0.38
-0.334
0.195
-0.0555
-0.495
0.2335
-0.133
-0.4115
-0.2195
-0.3995
0.4715
0.2485
0.336
0.204
0.4115
0.4985
-0.3355
0.149
-0.459
0.165
-0.2115
0.4325
0.2745
0.1755
0.262
0.458
0.2325
-0.168
0.331
0.2665
0.3415
0.1605
-0.122
-0.449
-0.133
-0.4565
-0.251
0.345
0.2195
0.4395
-0.378
0.314
0.2
0.3955
0.1055
-0.1975
0.389
0.286
-0.2155
-0.366
-0.116
0.0685
0.4725
0.389
-0.088
-0.4965
-0.353
-0.087
-0.24
-0.4365
-0.2615
0.382
0.4475
-0.0805
-0.44
0.122
0.151
0.308
-0.1225
-0.1095
-0.4545
-0.4365
0.1655
0.257
0.4695
-0.269
0.071
-0.281
-0.1325
-0.3365
0.4445
0.0865
0.3795
0.2795
-0.1635
-0.22
-0.423
-0.4535
0.443
-0.4595
0.4885
-0.476
-0.025
-0.374
-0.058
-0.2615
-0.0255
0.442
-0.0175
-0.093
-0.2945
-0.185
0.2505
0.0325
0.1335
0.16
0.0375
-0.48
0.3125
-0.2865
-0.167
0.3865
0.123
-0.1495
-0.1885
-0.4175
-0.151
0.181
-0.087
-0.2495
0.416
0.4445
0.2865
0.133
0.3955
-0.141
0.4305
0.465
0.2115
0.3165
-0.1995
0.1005
-0.3215
0.46
-0.3345
0.188
0.288
-0.057
-0.423
0.3865
0.1885
-0.482
0.2275
0.463
-0.3425
0.1115
-0.409
-0.416
-0.475
0.094
0.2905
0.3875
-0.45
0.119
-0.291
-0.246
0.0335
-0.2765
-0.371
-0.3655
-0.122
0.1895
-0.1315
0.146
0.15
0.468
0.061
-0.175
0.1355
0.289
-0.069
-0.3405
0.067
0.126
0.2555
-0.327
0.404
-0.467
0.0525
0.291
-0.255
-0.2735
-0.4125
0.091
0.1905
0.1115
0.3605
-0.2625
0.289
0.126
0.4795
0.357
-0.2725
0.081
0.349
-0.025
0.111
0.045
0.0315
-0.202
-0.2815
-0.3195
-0.338
-0.2945
-0.2285
-0.4945
0.1385
-0.248
-0.2845
-0.377
0.287
0.0825
0.3085
0.3985
-0.046
0.071
-0.1305
-0.2875
-0.1335
-0.0725
-0.3285
0.2175
0.2695
0.104
-0.279
-0.4395
0.444
-0.449
-0.3175
-0.452
0.4455
-0.274
-0.227
-0.386
0.473
-0.3145
-0.4405
0.0215
0.372
-0.2355
-0.216
0.0775
-0.247
0.321
0.077
-0.0645
-0.346
0.3145
-0.1685
0.1825
-0.0845
-0.4135
-0.2655
0.074
0.203
0.099
-0.486
0.275
0.1215
0.4565
-0.0535
0.031
-0.151
0.086
-0.274
-0.015
-0.2215
0.468
0.0265
0.1985
-0.174
0.404
0.378
0.3935
-0.2705
-0.29
-0.2165
-0.054
0.1755
-0.2515
0.321
-0.1365
0.1225
0.077
-0.228
-0.3115
0.2365
-0.1405
-0.396
-0.298
0.396
0.003
0.402
-0.026
-0.3225
0.1685
-0.4395
0.2495
-0.432
0.197
-0.091
0.1535
0.243
0.186
0.003
0.281
-0.22
0.219
-0.3935
-0.3315
0.085
0.194
-0.0795
-0.391
-0.034
0.0365
0.085
-0.1565
0.082
-0.2975
0.2615
0.3415
-0.434
0.0865
0.2955
-0.2025
-0.127
0.4125
-0.125
-0.0605
-0.185
0.3415
-0.294
0.0115
0.493
0.3905
0.364
-0.187
0.3345
-0.2265
-0.0525
-0.0475
-0.314
0.348
-0.3095
0.1885
-0.4285
0.175
-0.494
0.4635
0.1795
0.3305
-0.3885
0.2965
-0.2155
0.269
0.327
-0.4875
0.3045
0.3805
0.3155
-0.385
0
-0.144
0.1155
-0.227
0.3485
0.207
0.4255
-0.377
0.09
0.301
0.2655
-0.339
0.338
-0.3745
0.1125
0.245
0.457
0.4325
0.3485
-0.459
-0.3735
-0.2535
0.372
-0.258
0.402
-0.4845
0.2905
-0.2765
-0.0035
-0.3055
-0.281
0.0515
0.41
0.1305
-0.4435
-0.0665
0.007
-0.2655
-0.0965
-0.275
0.388
0.1655
0.415
-0.3445
0.2065
-0.314
-0.2965
0.1015
-0.3005
-0.0455
0.168
0.0175
-0.1935
-0.1235
-0.23
-0.481
0.1405
-0.102
-0.262
0.4835
-0.477
0.3215
-0.265
0.4525
0.4625
-0.435
-0.3555
-0.4675
0.242
-0.435
0.268
0.2365
0.2235
-0.0735
0.017
0.2695
-0.3005
0.4545
-0.417
0.331
0.0765
0.0985
0.322
-0.353
0.199
-0.4065
-0.435
-0.4045
-0.409
-0.0465
0.216
-0.4595
0.3305
-0.115
0.452
-0.1
0.227
-0.0175
-0.4225
-0.0075
0.3055
0.204
-0.2465
-0.132
0.3695
-0.446
0.4635
-0.1905
0.0595
-0.305
-0.152
0.0515
-0.2955
0.182
0.026
-0.0475
-0.0545
-0.45
0.203
0.2555
-0.1635
0.1035
-0.396
-0.2295
0.48
-0.1995
0.379
-0.035
0.063
0
-0.392
0.0195
-0.189
0.0535
-0.237
0.0095
0.0145
-0.4715
0.0835
0.3835
0.274
0.498
-0.4835
-0.0135
0.0115
-0.1515
-0.358
-0.165
0.052
-0.361
-0.3485
-0.091
0.088
-0.3505
-0.431
-0.3195
-0.3395
-0.017
-0.1185
0.455
0.482
0.0695
-0.1195
0.212
0.1595
0.475
0.0335
0.1475
0.246
0.258
-0.173
-0.2285
-0.435
0.478
-0.28
-0.07
-0.2985
0.429
0.1915
-0.2725
0.4445
-0.483
0.113
0.309
0.364
0.269
0.4025
-0.225
0.4425
0.434
0.31
0.498
-0.2205
0.4135
0.09
-0.0095
-0.185
0.0265
-0.051
-0.0375
0.116
0.4705
0.1115
-0.2735
0.4455
-0.3365
-0.021
0.3602704992429106
0.19254341056463983
0.16443347256757943
-0.18109434396115953
0.42256410119162674
0.48869377270726677
0.23568624914403138
0.08206534948847141
0.23749953578285798
-0.0829724979821237
0.1132718690188313
-0.20096503982308125
0.41715556313123436
0.23631053582568187
-0.33752601559989565
-0.3730000683004585
0.2616152292428191
0.378938641504958
0.49399839177765015
-0.44692961106618884
0.3619982511511157
0.20453361948460078
-0.21549332062281523
-0.31865600009030925
0.5211903595122327
0.002499270551912772
0.32852369963404543
0.46550025428486
-0.37649846104348994
0.3215460204581713
-0.21074534491533195
0.22079549312338342
-0.4979971200887764
-0.004993969871636691
-0.07549990372227572
-0.05692307261411432
-0.3945030492982152
0.46098485573250525
-0.24756344248187237
0.021024764155337935
0.45150249162844536
-0.32044190683856977
-0.1320129264839187
-0.09405046357688131
-0.2652866079772857
-0.08510375853057801
-0.2920209939837344
-0.18700888115771683
0.4833143476196412
-0.04919381141517282
0.37049565269462087
-0.07844217401345577
0.4016594840499994
-0.3148928685943886
-0.45612295379853124
-0.4640663833669721
-0.009108903580560136
-0.3054461034116563
0.2309976481262449
-0.02850755294826342
0.4297704992429106
-0.21045658943536016
0.15293347256757941
0.46040565603884037
-0.34093589880837327
0.4916937727072668
-0.05481375085596851
-0.45743465051152876
-0.406000464217142
0.17102750201787645
0.33227186901883116
-0.2719650398230814
0.4361555631312344
-0.14718946417431814
-0.4850260155998956
-0.09300006830045858
0.03611522924281919
0.12393864150495822
-0.06650160822234977
0.3930703889338112
-0.2595017488488843
0.09353361948460084
-0.21799332062281523
-0.16465600009030923
0.49769035951223267
-0.12800072944808724
-0.3049763003659546
0.18200025428486
-0.17649846104348993
-0.4874539795418287
0.27875465508466796
-0.4827045068766167
0.13100287991122378
-0.3129939698716367
0.14850009627772442
-0.09942307261411437
0.2574969507017848
0.4114848557325052
0.3469365575181276
-0.22597523584466195
-0.30749750837155465
-0.3969419068385698
-0.1490129264839187
-0.35955046357688125
-0.04978660797728572
-0.025103758530578037
-0.2180209939837347
0.18199111884228317
-0.46968565238035875
0.4788061885848272
0.050495652694620766
-0.2424421740134557
-0.27634051595000053
0.3031071314056114
0.30037704620146877
-0.23706638336697203
-0.3541089035805601
-0.14994610341165612
-0.29100235187375495
0.12649244705173654
-0.3667295007570894
0.22504341056463983
-0.4490665274324205
0.23440565603884042
-0.21643589880837324
-0.3493062272927332
0.07268624914403149
-0.17143465051152854
-0.38450046421714196
0.3755275020178764
-0.29822813098116885
-0.20896503982308126
0.21315556313123435
0.11931053582568193
-0.19502601559989569
-0.3690000683004585
-0.03638477075718081
0.29043864150495796
0.31849839177765016
-0.24192961106618882
-0.24750174884888432
0.1350336194846008
-0.24349332062281523
0.4093439999096908
0.2856903595122326
0.02949927055191277
-0.015476300365954609
-0.14699974571514
-0.25849846104348995
0.3590460204581713
-0.25324534491533207
0.4437954931233833
-0.3714971200887764
0.4900060301283633
-0.24949990372227557
-0.43942307261411434
0.4434969507017848
0.38348485573250524
0.3794365575181276
-0.12447523584466201
-0.30299750837155465
-0.2699419068385698
0.025987073516081278
0.24994953642311876
-0.1542866079772856
-0.3851037585305781
0.3949790060162656
0.05249111884228321
0.23331434761964137
-0.0096938114151728
0.20699565269462067
0.1480578259865443
-0.3048405159500006
-0.4278928685943886
-0.2981229537985312
-0.35906638336697205
-0.08860890358056013
-0.4859461034116563
-0.259502351873755
-0.23350755294826347
-0.3737295007570894
0.4770434105646397
-0.24606652743242058
-0.029594343961159494
-0.5014358988083735
-0.18180622729273313
0.3666862491440314
-0.37193465051152874
-0.31500046421714195
0.41352750201787636
0.04377186901883128
0.2935349601769186
0.44665556313123433
-0.14818946417431814
-0.17902601559989567
-0.40300006830045854
0.4581152292428191
0.251438641504958
-0.07650160822234978
-0.2764296110661888
0.18899825115111568
-0.1454663805153992
0.3560066793771847
-0.3941560000903092
-0.28830964048776736
0.07749927055191277
0.1795236996340454
0.19550025428486
0.37700153895651006
-0.21695397954182863
0.17825465508466806
0.3332954931233833
-0.28399712008877637
0.33500603012836333
-0.2754999037222759
-0.23442307261411435
-0.21850304929821524
0.0744848557325052
0.04793655751812766
-0.18447523584466194
-0.4669975083715547
-0.32094190683856977
-0.27751292648391884
-0.2035504635768812
0.3547133920227143
-0.10110375853057801
-0.08002099398373463
-0.10050888115771678
-0.04468565238035867
0.0878061885848272
-0.043504347305379235
-0.1549421740134557
0.032159484049999465
-0.28689286859438856
-0.10312295379853108
-0.14456638336697203
-0.027608903580560132
0.22905389658834388
-0.1455023518737551
-0.19450755294826347
-0.2675
-0.411
0.0825
-0.4425
0.0555
-0.266
-0.0105
-0.1515
0.2315
0.2085
-0.423
0.133
0.301
0.2085
-0.284
0.471
-0.0945
0.1875
0.017
-0.298
0.219
-0.231
0.1455
-0.362
-0.2385
-0.0105
-0.1245
-0.1015
0.288
-0.2515
0.333
0.148
0.377
0.37
0.0885
-0.172
-0.377
0.138
-0.279
0.3015
0.014
0.015
-0.1605
-0.4425
-0.0205
-0.001
-0.012
-0.3235
-0.183
-0.2865
0.074
-0.252
0.461
-0.272
-0.375
-0.026
0.449
0.355
0.0025
0.074
-0.078
-0.2155
0.3865
0.1865
0.194
-0.4885
-0.175
-0.0485
-0.2995
-0.395
0.1225
-0.3985
0.42
-0.356
-0.432
0.384
0.019
-0.1145
0.074
-0.0845
-0.1585
-0.028
-0.1645
0.2015
-0.4315
0.3615
-0.3535
-0.3465
-0.456
0.2205
0.22
0.367
-0.2705
0.042
0.331
-0.442
-0.2445
0.0765
0.161
-0.376
-0.3565
-0.479
-0.1105
-0.0255
-0.279
0.012
-0.0545
0.107
0.2265
0.3315
-0.429
0.1725
-0.18
0.0495
0.2195
0.205
-0.112
-0.141
0.215
0.3045
-0.0335
-0.2865
-0.4305
0.3865
0.037
0.2165
0.0235
-0.0165
0.302
0.479
-0.251
0.342
0.46
-0.433
-0.2285
0.0535
0.0725
0.054
-0.1035
-0.267
0.0395
-0.234
0.496
-0.1925
-0.2825
0.292
0.0635
-0.4435
0.489
0.041
-0.352
0.4355
0.0215
-0.2445
-0.001
0.3375
0.315
0.2375
-0.02
0.1715
0.405
-0.2615
0.002
-0.4235
0.1555
-0.414
-0.076
0.473
-0.257
-0.2865
-0.366
-0.3775
-0.1335
-0.143
-0.454
-0.4015
-0.07
-0.0585
0.498
0.152
-0.483
0.3735
-0.292
-0.3235
-0.3105
-0.189
-0.265
0.119
0.262
-0.3375
-0.287
-0.341
-0.411
-0.012
0.0355
0.2615
0.3305
-0.042
-0.368
0.119
0.063
-0.095
0.0255
0.3635
0.4385
0.285
-0.1065
-0.019
0.387
0.0455
0.0245
0.0375
0.3385
0.4225
0.068
-0.4165
-0.4905
-0.465
0.3335
0.484
0.154
-0.095
-0.436
0.1295
0.33
-0.309
-0.455
0.165
0.1415
0.3
0.0425
-0.1925
-0.294
-0.491
0.158
0.351
0.0965
0.379
-0.273
0.351
0.035
0.281
0.201
-0.1295
0.278
-0.0525
0.1605
0.3595
-0.365
-0.309
0.068
-0.387
0.123
0.129
-0.035
0.0055
-0.2085
-0.127
-0.4635
0.4325
0.121
-0.271
-0.144
0.4165
-0.088
-0.3125
-0.417
-0.406
-0.089
-0.269
-0.3615
-0.135
-0.324
0.271
-0.3425
0.4625
-0.1235
0.2265
-0.2465
-0.005
0.475
0.3585
-0.2685
-0.276
-0.4265
0.1485
0.389
0.4055
0.4015
0.362
-0.4035
-0.065
-0.2485
-0.4355
0.252
-0.343
-0.2405
-0.106
0.0765
0.099
-0.132
0.313
0.265
-0.1355
-0.221
0.072
-0.4395
-0.25
-0.021
-0.2255
0.4295
0.295
0.3085
0.2205
0.3035
0.1785
-0.4265
-0.4705
0.081
-0.042
-0.065
-0.162
0.0935
0.24
-0.461
0.273
0.272
-0.2675
0.15
-0.062
0.3535
-0.346
-0.4025
0.0485
-0.3745
0.012
-0.114
0.2695
0.2525
-0.1425
0.3895
0.2175
-0.0265
-0.3065
-0.316
-0.369
0.31
0.2635
0.3985
-0.0925
-0.1725
-0.263
0.3825
-0.3535
-0.023
-0.184
-0.2605
0.405
0.3805
0.117
0.4325
-0.159
0.0745
-0.036
0.0745
0.329
-0.0025
-0.3775
0.038
-0.1615
0.013
-0.2205
-0.4685
0.0435
-0.4355
-0.473
-0.207
0.2355
-0.0715
0.186
-0.1155
0.201
-0.248
-0.4785
-0.3975
-0.3775
0.4575
-0.3145
-0.4125
0.319
-0.0195
-0.3515
0.1385
-0.459
0.349
0.1855
-0.3925
0.0465
-0.4315
0.493
0.3065
0.09
0.4375
0.0515
0.1565
0.2905
-0.1525
-0.009
-0.17
0.225
-0.156
0.1655
0.207
-0.1645
0.018
0.3775
-0.0565
0.244
0.327
0.432
-0.2075
0.0315
0.056
0.3995
-0.1305
0.383
0.3145
-0.0355
0.1495
0.4735
-0.253
-0.448
-0.3255
0.1255
0.3415
0.081
-0.2535
0.124
0.387
-0.0535
-0.0075
0.201
-0.2505
0.2865
-0.4365
0.463
0.4115
0.161
0.457
0.276
-0.3495
0.127
-0.056
0.298
-0.277
-0.4755
0.283
0.23
0.376
-0.408
0.353
0.4025
0.377
-0.001
-0.4625
0.093
-0.1875
-0.085
0.061
0.1225
0.4815
-0.1015
-0.497
0.0965
0.1065
0.1795
-0.152
0.0275
0.434
0.152
-0.2595
0.1915
0.111
0.4915
0.142
0.2
0.494
0.2735
-0.149
0.171
0.4355
-0.203
-0.4835
-0.4465
-0.2215
-0.455
-0.321
-0.22
-0.264
0.457
-0.433
-0.1555
0.1245
0.393
-0.1195
0.443
0.44
-0.3515
-0.1735
0.0035
-0.319
-0.488
-0.016
-0.0455
0.197
0.3115
0.039
-0.2075
0.0325
0.318
-0.1755
0.257
-0.4235
-0.3825
-0.387
-0.023
-0.4965
-0.212
-0.077
-0.3865
-0.4655
0.1805
-0.2235
-0.488
-0.0555
0.093
-0.0325
-0.3365
-0.2645
0.1995
-0.4525
0.4165
-0.041
0.046
-0.325
0.1865
0.4215
-0.4345
0.29
-0.1855
-0.103
0.0365
0.079
-0.22
0.4325
0.1845
0.01
-0.269
0.18
0.0785
0.0445
-0.4755
0.478
0.4095
-0.175
-0.217
-0.473
0.1195
-0.342
0.0065
0.4315
-0.379
0.016
0.059
-0.3715
0.2315
0.2855
-0.221
0.368
0.343
-0.3225
-0.1935
-0.029
0.48
-0.0465
-0.2695
0.3335
0.4255
0.1485
-0.089
0.2705
0.36
-0.144
0.2105
0.0795
0.2895
-0.4055
-0.454
-0.0915
-0.25
-0.379
0.2205
-0.4925
-0.156
-0.324
0.101
-0.429
0.3985
-0.1365
0.2195
0.4765
-0.348
-0.45
0.4675
0.4915
-0.3185
-0.0725
-0.1295
-0.0545
0.005
-0.349
-0.02
0.432
-0.2515
-0.0925
-0.326
0.25
-0.125
-0.0375
0.197
0.1785
0.044
-0.2405
-0.164
-0.423
-0.407
0.4615
0.06
-0.3865
0.2675
0.441
0.267
-0.334
-0.129
0.242
0.115
0.143
0.2215
0.0705
0.3065
0.191
0.333
0.435
-0.295
0.0985
0.037
0.3675
0.361
0.106
0.3765
-0.0285
-0.3705
-0.3735
0.4665
-0.2755
-0.3935
-0.052
0.316
0.4835
0.245
-0.1985
0.226
-0.3685
-0.4135
0.29
0.045
0.3115
-0.2005
-0.2025
0.282
-0.1825
0.24
-0.416
0.2505
0.181
-0.099
0.3805
-0.211
0.1505
0.439
-0.4835
0.0235
-0.4265
-0.1645
0.412
0.1385
0.1195
-0.261
0.2545
-0.4445
-0.3175
0.1355
-0.2835
0.3245
0.312
-0.4735
-0.4435
0.105
-0.3345
0.1805
0.3255
-0.2495
-0.2145
0.298
0.263
0.1275
0.128
-0.195
-0.3565
0.446
0.4165
0.214
0.4905
0.0675
0.475
0.3515
0.354
-0.444
-0.2815
0.0335
-0.301
-0.111
0.019
-0.2395
0.2125
0.188
0.248
0.459
0.2165
0.373
0.4085
-0.04
-0.434
0.2925
-0.25
0.07
0.0505
0.1095
0.4445
-0.3705
-0.468
0.0695
-0.106
0.3045
-0.0385
-0.3885
-0.0505
-0.1575
-0.4
-0.1425
-0.2205
-0.0095
-0.2875
0.099
0.1575
0.1365
0.369
0.4885
-0.073
0.3515
0.162
-0.11
0.2365
-0.45
0.4235
-0.2335
-0.0875
0.269
0.0615
0.2655
0.4755
0.365
0.1985
-0.14
-0.426
-0.136
-0.011
-0.1745
-0.3435
0.435
-0.1585
0.2735
0.194
0.304
-0.4
0.083
0.044
0.4235
-0.4995
-0.437
-0.379
-0.472
-0.4515
-0.305
-0.4505
0.1265
-0.1475
-0.3625
0.111
-0.318
0.4735
0.326
0.4255
-0.357
0.449
0.474
-0.425
-0.3365
-0.13
0.1025
0.4465
0.301
0.1615
0.3565
0.4785
0.048
-0.158
0.4605
-0.396
0.173
0.328
-0.021
-0.306
0.1695
0.4945
-0.0705
-0.4515
-0.462
0.076
0.281
-0.4125
-0.279
0.172
0.303
0.339
-0.1925
0.1145
0.2415
0.048
0.384
-0.009
-0.1565
0.0555
0.316
0.4985
-0.0835
-0.012
-0.49
-0.4335
-0.269
0.231
-0.109
0.2845
0.157
-0.349
-0.2905
0.0455
0.401
-0.1015
-0.063
-0.396
0.0095
-0.446
0.2985
-0.2445
0.118
0.2685
0.424
-0.3705
-0.374
-0.426
0.3055
0.2325
0.3535
-0.1895
-0.4945
0.3875
-0.0575
0.466
0.426
-0.0375
0.489
-0.352
-0.2895
-0.4045
-0.23
0.1375
0.434
-0.47
-0.2515
-0.2105
-0.1395
-0.385
-0.4665
-0.0315
0.186
-0.1515
0.091
-0.128
0.313
0.487
0.115
-0.382
0.453
0.007
-0.3365
0.305
0.3625
-0.128
-0.217
-0.0195
0.029
0.0745
0.128
-0.103
-0.488
0.049
0.33
-0.1855
-0.0935
0.329
-0.3155
-0.06
-0.242
0.0515
-0.4295
0.029
0.3335
-0.034
0.0775
-0.1185
-0.0295
-0.025
0.0835
0.4385
0.1385
-0.4885
-0.215
0.2575
0.077
0.209
0.3625
0.3335
0.0955
-0.5
-0.0275
-0.39
0.0765
0.344
0.2095
-0.0995
-0.4075
-0.3365
0.0795
-0.3375
0.0485
0.486
-0.3565
-0.1985
-0.183
0.231
0.2905
0.404
-0.356
-0.1225
-0.075
-0.259
-0.2475
0.3705
-0.295
-0.3725
-0.2835
0.0195
-0.439
0.0445
-0.2255
-0.1775
0.0095
-0.3585
0.1805
0.3035
-0.293
-0.378
0.147
-0.016
0.2325
0.1615
-0.1155
0.4885
-0.4505
0.477
-0.382
0.242
-0.418
0.452
0.497
0.2725
0.226
-0.096
0.235
0.3025
0.4845
0.479
0.1025
-0.273
0.3105
0.028
0.405
0.432
-0.1315
0.342
0.496
0.4735
-0.269
0.19
0.2135
0.393
0.472
-0.4945
0.2065
0.2575
-0.193
0.4565
-0.1815
0.1955
-0.396
-0.288
0.0165
-0.0625
-0.366
-0.299
0.0865
-0.0285
-0.267
0.1595
0.146
-0.287
0.44
-0.38
-0.1685
0.2035
-0.3185
0.4545
0.3545
-0.272
0.316
-0.0565
0.255
-0.451
-0.2015
0.3675
0.2535
-0.351
0.177
-0.097
0.088
0.226
-0.3845
-0.0205
-0.182
0.3115
-0.34
-0.2975
-0.1635
-0.4645
0.452
0.1215
-0.026
0.427
-0.419
0.3275
0.093
-0.4675
-0.091
-0.2445
0.2095
0.0255
-0.0305
0.0965
0.2045
-0.3735
0.294
-0.004
0.234
-0.061
-0.1685
-0.4845
-0.0895
0.411
0.2775
0.273
0.247
-0.4975
-0.238
-0.2225
0.4805
0.4415
0.0975
-0.054
0.105
0.468
0.059
-0.352
-0.187
0.044
0.061
-0.02
-0.2795
0.331
-0.364
-0.1285
0.4275
-0.1675
-0.245
0.494
-0.4415
-0.262
-0.329
-0.0195
-0.0925
0.395
-0.163
0.341
0.1075
0.486
0.093
-0.3005
0.098
-0.371
-0.221
0.4805
-0.209
-0.379
0.1935
0.1555
0.14
-0.253
-0.3655
0.433
0.08
-0.1425
0.333
0.049
-0.299
-0.3515
0.0375
0.4995
0.3165
-0.043
-0.193
0.326
0.1285
0.094
0.1715
-0.302
0.4425
0.357
0.1885
-0.447
0.244
0.213
-0.324
-0.1315
-0.1595
0.1735
-0.0275
-0.4345
0.1185
-0.0905
-0.466
0.1315
-0.458
-0.4185
-0.004
-0.0825
0.0745
0.4775
-0.4715
-0.2875
-0.2055
-0.3225
-0.407
0.086
0.153
0.426
-0.2935
-0.4575
0.1605
0.4385
0.498
-0.13599407369487396
-0.10249994870902213
0.4035003181231836
-0.2950410255696398
-0.48236931092311136
-0.11150043271258056
0.43056067235027834
-0.05999990351217655
-0.4829999999181824
0.001982242171213082
0.33759324704864335
-0.39200203168707404
0.2579331188999137
0.3195750599299623
0.007943640210576986
0.0664542238187252
0.26334941278812996
0.13300155994318488
0.23199998821168585
0.2829848111690353
0.35199465373461647
0.20299995004646415
-0.22499999683226926
-0.17750025642276582
-0.361983314904339
0.3890000477645152
-0.48099757531918175
0.0185028746490436
0.19088948101268047
-0.17602372958412907
-0.2358997932783932
0.44175724423646245
0.12299998554545954
-0.3510003747637642
-0.28051682719429083
0.3544998921499946
-0.40049996981251595
0.28849952130094897
-0.09149842403620365
-0.31748719706594813
-0.41149592723395306
-0.4819568641590308
0.11391510469531313
0.49300552895149147
-0.2310000175091173
0.30599999057795224
0.429048802113048
-0.054883194212827426
-0.08282590032694402
0.22700052773945717
-0.48700007114472404
-0.26262606260130883
-0.013400484108348553
0.3409897890256969
-0.2820001078249141
-0.34216392494352066
0.4735490249158188
0.0054947206886330575
-0.37673557859606044
0.056003876783897996
0.07500592630512594
0.08900005129097786
0.2790003181231836
0.17295897443036018
0.45163068907688864
0.4174995672874192
-0.06093932764972158
-0.4654999035121767
-0.3854999999181824
0.2579822421712131
-0.3789067529513567
-0.04950203168707409
-0.4965668811000863
-0.35042494007003766
-0.059056359789423
-0.33504577618127496
-0.48515058721187004
-0.10949844005681511
-0.39900001178831407
0.00998481116903536
0.052494653734616585
-0.13800004995353587
0.2810000031677309
-0.10500025642276563
-0.406983314904339
0.061000047764515127
0.25450242468081824
0.24900287464904353
-0.38711051898731985
0.25497627041587095
0.34860020672160685
0.23575724423646238
-0.16900001445454044
0.07949962523623565
-0.2545168271942908
-0.11300010785000565
-0.39999996981251595
-0.055000478699051183
-0.19599842403620366
0.21901280293405195
-0.4674959272339531
-0.11245686415903094
-0.3710848953046867
0.28550552895149145
-0.17650001750911729
-0.26800000942204777
-0.380451197886952
-0.3208831942128274
-0.43982590032694396
0.26000052773945714
-0.0425000711447242
0.03687393739869119
0.2980995158916514
0.48798978902569684
0.2994998921750859
0.4613360750564794
-0.04745097508418124
-0.27050527931136703
-0.14273557859606048
-0.4004961232161019
0.126
0.2035
0.4455
-0.2245
-0.0725
-0.053
0.1795
0.0625
-0.0975
-0.009
0.4165
0.172
-0.1
0.4725
-0.397
0.359
-0.0305
-0.353
-0.1575
0.02
-0.3785
0.408
-0.2175
0.043
0.134
-0.398
-0.4525
-0.038
-0.491
0.211
-0.423
-0.4445
-0.1205
-0.5
0.2845
-0.2985
0.2455
-0.425
0.074
-0.004
-0.389
0.227
-0.007
0.441
0.2545
0.148
-0.4355
-0.2485
0.0615
0.4755
-0.3635
0.1485
-0.045
0.1855
0.2705
-0.223
-0.1635
-0.12
0.099
-0.426
-0.35710647425170555
0.12063415556841144
-0.41181367154440196
0.3170481726817163
-0.037948787481539376
-0.4092720012347004
0.352439303604025
0.27505702709707813
0.19682834150462938
-0.022501569900158933
-0.35406945522047467
-0.24112735117841486
0.38287464962466505
0.4853221766249162
-0.16551425407239437
-0.4125437605720795
-0.0877780279605286
0.37228941577041025
-0.5022356321263246
0.1943221713720333
0.4954143278712223
0.40791911483508686
0.2549884823508703
-0.1299585327641652
-0.016072271239730318
0.1665208920413648
-0.3432898771923919
-0.029017731139743385
-0.46425117281090916
0.06548775813209554
0.35422124015507844
-0.43829396140946364
0.06617129818532103
-0.409958929131728
0.06937115324221452
0.413906960399988
-0.02004009569457825
0.13074628415383543
-0.3350717189001075
0.24504050943255296
0.41773206575245164
0.09280191575379526
-0.25299982122672277
0.029710306013932215
-0.49149724371417575
0.09277229562574357
-0.2871400403148072
-0.19875821037652308
-0.07564471541712056
0.3577926907812307
0.31310244241537444
-0.2567357092152251
0.013035700618312003
-0.14481667393107842
0.25124693163672857
0.11908344560381005
0.3354578946477294
0.285642679715276
0.4050538136957033
0.3506264212911341
-0.1065940505745871
0.24563704337869974
0.2791778744196734
-0.1159515290776925
0.15529191250737365
0.28461892707130043
-0.09843771701875784
0.3351833674176429
-0.33081530592728425
0.4716319032516431
-0.37581564649849897
-0.4264919931484168
-0.021541493279412037
0.17145342572753883
0.19705986496969058
-0.15467767144494177
0.060999755355260796
0.19814393000573172
0.11759892634414677
0.39138518698890695
-0.221584992079566
-0.14288595784948513
0.3646511416671508
0.020561191554805656
0.27416114053987
-0.48523760424385215
-0.21208996444806347
0.28401850813298385
0.005302710960648961
0.2036744120631315
-0.37760210092198115
-0.07815397188830303
-0.057740947399630725
0.21545802816869733
0.48726738042211465
0.1419041154983183
-0.11103912652160956
0.32229438676945393
-0.40502073429240254
0.5006559871545907
0.11635845793796133
0.06612664573269694
0.47670888417576307
0.23688923394508016
-0.4015046243789507
0.4181141240516153
0.06871993826757058
-0.18269235352413385
-0.10173518108905405
0.3401488125269915
0.27774455436282425
0.07290554515944793
0.3943310441991603
-0.356440500827842
-0.034010412895132985
0.19607886636431318
0.49861322518425394
-0.46773417279925306
0.11319236261647583
-0.2046847695367574
-0.02335421127632051
-0.32186619425238927
0.3258226838976467
-0.4759514953882691
-0.08867264790596122
0.04751515999971554
-0.38163864451767876
0.22502375893618262
0.02218536629000486
-0.4841422905551199
0.16243110422325974
-0.10083116832457081
-0.22903978198539704
-0.17940227757456553
0.005761430951423319
0.3569605681054635
0.42778344837716953
0.20680653027509668
-0.4939467026337272
-0.4776998852810432
-0.4450643134348393
0.09991848429081966
0.11915157347175531
0.37339689504490037
-0.06810657532619402
0.1585341806804839
0.2651560237507819
0.138521676336125
0.1415766364465593
-0.027049132745295447
0.32227107137588556
0.39051766822670775
0.044180471537542995
0.1739656758425111
-0.3543019259193598
-0.2726014572561854
-0.4355405145770038
0.07024774972085104
-0.29630121726414577
0.10666452251779676
0.4958567787959387
0.0930728881804497
-0.35999943047403604
-0.013343349329770195
-0.2020050003701491
-0.12718088960522164
-0.045481999338374275
-0.18596226564748183
-0.0814474355900224
0.15428718635114821
0.43110772683542825
-0.355647169946704
-0.4493731965975693
0.14255938692206976
0.014210753722118503
-0.3684165535883804
0.16464847998835563
0.21549716475334302
-0.33614205764177363
0.38530618056494637
-0.005746749853690396
0.03200205370642039
0.15051077931824153
0.1284312214120393
-0.3674674685381969
-0.4829233961104895
0.2733903431310464
-0.035701962831322494
-0.3942771036387935
0.42146646295591134
0.15598315414768477
-0.18072332484164033
0.42279358975123665
0.4622960201872844
0.07971611711369499
-0.08098924765432851
-0.245707592706141
-0.1485416581401598
-0.4114493689979183
-0.2160696770411244
0.07577331852726042
-0.3285112244299213
0.3368283509432331
-0.3060518058167594
-0.18753427747250329
0.433706451523929
-0.04941063167229783
0.4910572058258938
-0.27117763163879627
0.01863560422663675
-0.0026320077040894127
-0.14836505643417158
-0.45926654878149653
0.2059285887771596
0.46963306504659313
0.4598936776542327
0.33947837111835183
0.3586630352242345
-0.42124526438480675
-0.12240031036637507
0.13335681007163913
-0.13222933029773046
0.13700272246930978
0.2685320045352903
-0.25000655301753427
0.09570782466766496
-0.19992334938031012
0.35429432074290024
0.3115899871621637
-0.2318564859101717
0.16248248538326185
-0.46194643413517805
0.33111490068831206
-0.18942987927210392
0.1839515597175116
0.10908373028804912
0.24349646922356916
0.4158259940766185
-0.41704365317516817
-0.3960625481344501
-0.024876954782417013
-0.04650012709225937
0.45959511531563096
-0.49779213549659035
-0.4590774264944686
0.43685839188586245
0.4541144912563648
0.4888621786717268
-0.4760352103217259
-0.3522878127419542
-0.42747196823517497
0.38435187182835134
-0.18816220484723706
-0.010291913645234341
-0.17726722979636617
-0.08428903964087617
-0.41193227494184786
0.04448060701784989
-0.42827215823658243
0.061929473941774164
-0.10491601417235717
-0.4524900434018791
0.010482811510216076
-0.1345612070875081
-0.1421328466378238
0.42981044357212334
-0.24978135476113594
-0.0049434187479170015
-0.35533999172951675
-0.05400615298207261
0.4039949953492559
-0.12557517248296424
0.4409859513187053
0.16240261011577703
0.17849525872706443
-0.42758084333660223
-0.15304059261892228
-0.24700720955732425
0.12500033882452535
-0.08176257832648252
-0.4617134291244502
-0.3310954293363145
-0.351143328328607
-0.3960429180272377
-0.06102497686356796
-0.13387215615743162
0.15949422860282647
0.29088526527550784
0.3508693861848358
0.2689965818673252
-0.3752418747262597
-0.2926026071266735
-0.23087665501266008
-0.3348309333146327
0.06740786831111249
-0.4122275597348797
0.39952930681635723
-0.1404096946945422
0.41813005204971654
0.32797740181259305
-0.3116064555395064
0.24804328347238055
0.1155285878832103
-0.22338647945775
0.07298667469715815
-0.21294783540687082
-0.37769925959960376
0.23442752816019824
-0.2630356745388679
0.4577396892759222
0.09079990078365625
0.2563868320052699
-0.27750664171600276
0.13701862218044744
0.41520675460373824
0.3362108920586654
-0.047817045699028816
-0.3235807514771922
-0.44827376645893224
0.41899986287558544
0.5055822369787581
0.3320435760827218
0.4069894908874008
-0.015217207177817332
-0.38194248712559137
-0.16319028587596382
-0.044757655127090526
0.33355683553694326
-0.33533845277300667
0.20803986747609873
0.4832496504339238
-0.32777967935958097
0.4824888312299289
-0.3805913597558597
0.35449535500478846
-0.14800391595071655
-0.1495436419171375
0.35647764617518085
0.36293689634265275
-0.11923781417114457
0.1947890625039954
-0.005537336174884031
0.016343745187474393
0.20740661839588118
0.48068841515914634
-0.02847591468800966
0.35747323461909214
-0.4286236158822088
0.38718373380447707
0.12830277045215246
0.3927537779683612
-0.3595447811401294
0.09328282903733949
0.017776198090978825
0.45528491451258135
0.1562060568981483
0.41742040323579715
-0.4233557981061984
-0.02337229982403858
0.3419698488643296
0.3853935444604936
-0.007956716527619609
0.05352858788321029
0.26461352054225
0.1939866746971582
-0.019447835406870798
0.09430074040039647
0.45742752816019805
-0.07903567453886791
0.20673968927592223
-0.06070009921634377
0.30138683200526994
-0.1290066417160027
-0.11598137781955238
0.12920675460373818
0.3532108920586654
0.031182954300971157
0.054919248522808106
0.40122623354106773
0.004499862875585246
-0.41291776302124145
0.2745435760827218
-0.13501050911259915
0.5147827928221831
0.5200575128744089
0.32480971412403625
-0.24275765512709052
0.34255683553694327
0.18266154722699307
-0.1249601325239013
-0.37875034956607617
0.31622032064041905
0.16248883122992944
-0.15009135975585966
-0.2840046449952115
0.3449960840492834
0.18595635808286248
-0.22202235382481908
0.09893689634265292
0.1347621858288555
0.040789062503995326
0.3664626638251158
-0.36015625481252583
0.11040661839588098
-0.026311584840853657
0.4315240853119902
-0.08502676538090817
-0.02912361588220893
0.4706837338044771
-0.15419722954784748
0.17725377796836084
-0.016044781140129187
0.14178282903733938
-0.42722380190902126
0.18828491451258145
0.28220605689814826
-0.14457959676420293
0.04214420189380163
-0.21137229982403863
-0.11853015113567034
0.007945998924808979
-0.24136487303629436
0.3082968277326301
0.028224298232390307
0.1275278877705282
0.2928257918414094
0.24190810320665712
-0.07492089091762645
-0.39105895457092643
0.05554249236867933
-0.4163922928775729
-0.2521421380240943
-0.2710405015108084
0.12166172155973225
0.1824926180524611
-0.11786497390754222
0.3634328363307987
0.09999187289039561
-0.2845107792415703
-0.42611528390640147
0.4293341090051172
-0.25245662711988776
0.28368775060086376
0.30581373198413203
-0.3120902682002011
-0.1164378262864864
-0.2638775295892852
-0.3965059247077105
-0.027725054030428322
-0.025299695105135012
-0.03903627616707876
-0.49838882682806906
0.15897329143659417
0.005920859186668071
-0.14300727720832412
-0.16850499411486133
0.4204328401471879
0.3935018893959223
0.26293432596306293
-0.2771072953935528
-0.37971077500247363
0.2756987319363616
-0.3582096928333688
0.2936780873234115
-0.4578096615893442
-0.4025058760278933
0.43126567997896953
0.3613751785631743
-0.3395168074060254
0.06338515924639271
-0.21374607076719182
-0.26465221287573504
0.41732450542691457
-0.41982399683087673
-0.11549104706747929
-0.09352876283502186
0.31094726502318637
0.36217904163695663
-0.16492585127753745
0.28842321722301284
0.23544599892480902
-0.3428648730362948
-0.2987031722673699
0.45422429823239036
-0.14047211222947173
-0.3016742081585906
-0.33209189679334294
0.44307910908237347
0.18894104542907364
0.39254249236867933
-0.43789229287757286
0.13785786197590594
-0.17554050151080855
0.08316172155973224
0.42199261805246124
0.39363502609245804
0.040932836330798875
0.46699187289039523
0.1824892207584297
-0.2821152839064015
0.1583341090051171
0.35954337288011223
0.11418775060086386
-0.04918626801586802
0.02140973179979914
-0.03543782628648647
-0.4368775295892851
-0.036005924707710746
-0.18472505403042838
0.3672003048948652
-0.29453627616707906
-0.16938882682806908
0.054473291436594004
0.14142085918666802
0.30899272279167533
0.02199500588513872
0.17343284014718766
-0.38149811060407773
-0.11106567403693698
0.22989270460644723
0.1382892249975264
-0.36080126806363844
0.0017903071666314882
0.5381780873234105
-0.3868096615893442
0.10449412397210674
0.22176567997896918
-0.4891248214368257
-0.20751680740602518
0.08688515924639274
0.14125392923280816
0.13934778712426496
0.33682450542691456
0.48417600316912324
0.4960089529325207
-0.24102876283502156
-0.3045527349768136
0.3536790416369567
-0.44892585127753704
0.10692321722301296
-0.1426064555395064
-0.24845671652761953
-0.4189714121167895
-0.003886479457749917
0.3734866746971582
0.15955216459312918
-0.11619925959960356
-0.4295724718398019
-0.46703567453886785
-0.006260310724077866
0.14329990078365612
-0.1356131679947299
-0.2100066417160027
0.35351862218044766
-0.26579324539626176
-0.39528910794133465
0.022182954300971156
-0.22758075147719192
0.35722623354106775
0.058999862875585236
-0.1269177630212415
-0.21595642391727818
0.4664894908874008
0.06228279282218266
0.3450575128744086
-0.18969028587596382
-0.5412576551270902
-0.48294316446305674
-0.06633845277300685
0.23153986747609875
0.023749650433924026
0.061220320640419205
0.009988831229929305
-0.015591359755859655
0.20399535500478885
-0.48800391595071657
-0.22504364191713752
-0.08452235382481912
0.057436896342652956
-0.2517378141711445
-0.20871093749600458
-0.16603733617488411
-0.47915625481252583
-0.4760933816041189
0.005188415159146324
-0.22097591468800962
0.18197323461909176
0.09037638411779109
-0.4123162661955229
-0.3171972295478476
-0.23824622203163914
0.23045521885987083
0.27428282903733947
0.21677619809097878
-0.4637150854874187
-0.31079394310185177
0.33442040323579714
-0.21985579810619835
-0.3893722998240384
-0.32203015113567046
-0.432876954782417
0.4039998729077405
-0.1684048846843692
-0.23629213549659045
0.25292257350553143
0.41685839188586243
0.16811449125636505
-0.11563782132827317
0.07496478967827408
0.48571218725804577
0.014028031764824953
-0.008648128171648572
-0.09766220484723707
-0.42479191364523433
0.22673277020363386
0.16721096035912383
-0.08243227494184806
0.051980607017849886
-0.33027215823658246
-0.2415705260582258
-0.002416014172357198
-0.28449004340187906
-0.37851718848978394
-0.42856120708750806
0.341867153362176
0.22831044357212343
0.40771864523886414
0.1430565812520829
0.43416000827048323
0.4984938470179276
-0.19800500465074405
-0.22507517248296424
0.17048595131870567
0.12540261011577702
0.14399525872706442
-0.17608084333660218
0.4234594073810778
0.11699279044267569
-0.46499966117547487
-0.04326257832648254
-0.44671342912445017
0.16940457066368564
0.274856671671393
0.2884570819727623
-0.21352497686356797
-0.4373721561574317
0.3364942286028265
0.25338526527550786
-0.42113061381516415
0.4994965818673252
-0.09224187472625982
-0.3611026071266735
0.37112334498734006
-0.3048309333146327
0.16090786831111248
0.28877244026512033
-0.2954706931836428
-0.4874096946945421
0.22913005204971662
0.0794774018125931
0.18112304521758302
-0.45350012709225956
-0.2224048846843692
0.4712078645034096
-0.41557742649446855
-0.08864160811413761
-0.3918855087436352
-0.4006378213282732
-0.38403521032172594
0.04071218725804582
0.27352803176482504
-0.46214812817164863
0.4588377951527629
0.17320808635476556
-0.11026722979636609
0.016710960359123866
0.220567725058152
0.26698060701784987
-0.40527215823658247
0.20492947394177416
0.3350839858276428
-0.052990043401878933
0.47548281151021604
-0.1820612070875081
0.44386715336217597
0.46331044357212336
0.39321864523886413
0.047056581252083
-0.2633399917295168
0.3919938470179276
0.05149499534925591
-0.23907517248296423
-0.21201404868129434
-0.041597389884222964
-0.5000047412729354
-0.14908084333660218
-0.3995405926189222
0.22899279044267576
-0.4849996611754748
0.30773742167351753
-0.29221342912445014
0.31740457066368555
0.15785667167139314
0.1769570819727624
-0.0015249768635679749
-0.2528721561574317
-0.4675057713971735
0.13888526527550782
-0.045630613815164055
0.4574965818673252
0.18775812527374017
-0.21660260712667345
0.48562334498734006
-0.4548309333146327
0.13640786831111246
-0.27072755973487966
-0.45697069318364275
0.4055903053054579
0.41763005204971654
-0.48852259818740695
-0.1715
0.1585
-0.4615
0.284
0.344
-0.383
-0.27
-0.1395
0.4055
0.11
-0.009
0.1135
-0.0315
0.1495
-0.254
0.1525
0.2905
0.0975
0.474
0.1
0.371
-0.106
-0.013
-0.157
0.484
-0.1235
-0.008
0.1215
0.0285
0.422
0.1305
-0.285
-0.484
-0.0915
0.192
-0.074
0.0225
0.379
-0.4805
0.0315
0.06
0.3045
-0.2245
0.2915
-0.244
-0.128
-0.4065
-0.1945
0.4215
0.3585
-0.1375
-0.328
0.3055
-0.112
-0.431
0.3135
-0.476
0.4505
-0.095
0.0625
-0.012074463813544597
0.41806168341184186
0.4891423916003327
-0.33649683695038785
-0.05844383023798152
0.21121808296979422
-0.2980590478382477
0.2869569938858507
0.1329587962558717
0.19701048388786824
0.29407113183454203
-0.06087033801142831
-0.042710841093161894
-0.3504118372071671
-0.3096388198583161
0.450197635920336
0.22199912100885716
-0.08618305463710757
0.05932779648569357
-0.1993890659685631
-0.4638657552900796
0.21400005041007572
-0.3296316715239537
0.18716921279146537
-0.12128484994477212
0.1104061230054782
-0.42044080188525307
-0.32574276404870944
0.4222355248974358
0.4684893038238253
-0.3029781508507306
-0.018999792833578867
0.050532734664777826
0.1747388594042291
-0.14352483824221993
-0.38260142315848344
0.22840751212578184
0.2548458001882406
-0.3890100220843521
0.08842811412614983
0.39568795731741385
-0.3365331224637529
-0.3931889933850776
0.25250677773825114
0.03206352615017329
0.4746806145033538
0.25502332862505794
-0.1139544522664917
-0.047671063697118314
-0.02498554396143464
0.12919566367254223
0.43649531790881146
-0.09550171525754635
0.2879205021518146
0.20422704442975612
0.20594227068252202
0.17932417939343248
0.3818933339470439
0.4431612445736411
0.21516356644073606
-0.05007446381354458
0.244061683411842
-0.3148576083996673
0.48050316304961216
0.29855616976201854
0.5082180829697943
-0.5000590478382475
0.4819569938858507
0.08545879625587172
0.37651048388786845
0.265071131834542
0.2866296619885718
0.07728915890683807
0.3575881627928329
-0.19163881985831607
-0.412802364079664
-0.12600087899114285
0.30831694536289256
0.05782779648569357
0.331610934031437
-0.18986575529007985
-0.08749994958992427
0.42236832847604633
-0.0933307872085346
-0.3772848499447723
-0.28759387699452177
-0.3429408018852531
0.2932572359512906
0.238735524897436
0.005489303823825298
-0.03347815085073071
-0.3824997928335789
-0.13946726533522213
-0.012761140595770907
-0.39402483824222
0.28539857684151654
-0.04609248787421816
0.2923458001882406
0.32148997791564793
0.12242811412614983
-0.29181204268258615
0.1709668775362472
0.1213110066149223
-0.48249322226174884
0.38956352615017353
-0.06731938549664618
-0.4519766713749421
-0.33945445226649185
0.2738289363028818
-0.2714855439614347
0.2806956636725423
-0.20300468209118863
-0.01750171525754636
0.4444205021518146
-0.3472729555702439
0.16444227068252204
-0.2981758206065674
0.024393333947043808
-0.05483875542635902
0.38466356644073607
-0.4090744638135446
-0.38093831658815813
0.03414239160033269
0.3890031630496122
-0.23894383023798155
0.2852180829697941
0.3799409521617523
-0.30804300611414925
-0.1745412037441283
-0.48048951611213153
-0.342928868165458
0.17912966198857175
-0.36521084109316204
-0.38241183720716715
0.2533611801416839
-0.5008023640796642
-0.3505008789911427
-0.47118305463710747
-0.39517220351430654
0.0671109340314369
0.05363424470992022
0.490500050410076
0.018868328476046484
-0.2768307872085347
0.17171515005522783
0.2659061230054783
0.2565591981147469
-0.4097427640487094
-0.23826447510256407
-0.3440106961761747
0.2280218491492693
-0.2794997928335789
0.1670327346647779
0.35373885940422906
0.48897516175778
0.09689857684151666
-0.03809248787421816
0.27234580018824056
0.13948997791564802
-0.21957188587385018
-0.42581204268258616
-0.3385331224637529
0.3583110066149224
0.2830067777382511
0.36106352615017356
0.08168061450335382
-0.3924766713749421
0.34404554773350815
-0.39517106369711824
0.11751445603856533
0.07719566367254223
0.10799531790881146
-0.3160017152575462
-0.4815794978481854
-0.25727295557024393
0.14844227068252203
-0.3096758206065674
-0.27260666605295614
0.3786612445736411
0.4026635664407361
0.4495
-0.1095
-0.3305
-0.384
-0.3335
-0.355
-0.0625
-0.218
0.2505
-0.1805
0.025
0.0445
-0.1275
-0.4175
0.1685
-0.386
-0.36
-0.1725
-0.2295
-0.389
0.1755
0.192
-0.251
-0.227
0.157
0.383
-0.3765
0.2035
-0.1145
0.0835
0.005
-0.3955
0.483
0.381
-0.226
-0.1695
-0.3855
-0.02
0.455
0.074
-0.3215
0.2605
-0.0685
0.222
0.1465
0.384
-0.233
-0.173
-0.419
-0.1005
0.351
0.107
-0.0775
-0.347
-0.4965
-0.4985
-0.4795
0.461
0.0295
-0.2805
-0.024
-0.371
0.0635
-0.4635
-0.2535
0.4345
0.0545
0.1065
0.0295
0.092
-0.0175
0.427
-0.233
-0.122
-0.297
0.087
-0.0165
-0.217
0.4485
-0.137
0.372
-0.3925
-0.0035
-0.043
-0.357
-0.408
-0.266
0.1055
0.1625
0.21
-0.35
0.3165
-0.2395
-0.4275
0.2855
-0.049
0.043
0.49
-0.4125
0.4375
0.307
-0.384
-0.3655
0.4455
-0.068
-0.085
0.4115
-0.349
-0.3115
0.3565
-0.0615
-0.1145
0.1805
-0.189
-0.22
-0.035
0.2845
0.152
-0.1955
-0.4225
0.016
-0.3
-0.255
0.418
-0.45
-0.4525
0.383
0.4605
0.167
-0.1485
0.2385
-0.289
0.25
0.445
-0.3015
0.373
-0.4985
0.36
0.013
-0.214
-0.314
0.4145
0.1125
0.0015
-0.352
0.42
0.4235
-0.03
-0.374
-0.3205
-0.427
-0.121
0.46
0.009
0.259
0.316
-0.1965
0.12
0.3155
-0.006
-0.214
-0.1655
0.3285
0.2705
-0.316
-0.132
0.3775
0.127
-0.31
-0.1655
0.028
-0.0615
0.0085
-0.472
-0.3185
-0.241
-0.119
-0.011
0.384
-0.241
0.4647054241559763
-0.3184785258717527
-0.123497221308725
0.08649858119917044
0.41669038788060897
0.20393031312107174
0.36213839143255777
-0.08492551979729938
-0.2359359433891658
0.1800752749725475
0.4918944010762953
-0.4035475971705544
-0.24499992242110183
0.125006835228633
0.29085626121997044
0.11553763445562751
-0.3129316484998727
-0.40668476279349447
-0.37376448005058316
0.4938261565529639
-0.24257332399762874
0.43791126712444217
-0.27799962497218056
-0.15928025234745502
-0.3950304780438803
-0.4771655375906767
-0.4789630658002196
0.14653754144645412
0.42949651951196527
0.26250883774899086
-0.3614933338748496
-0.37072885759434376
0.044000239533133534
0.2757463271564287
0.3283607082659901
-0.38892256769815403
0.3702548507293425
0.048477754552866695
-0.18883579368335005
-0.013863543976995768
0.24428461724749653
0.1318071568577484
0.21144864586439135
0.006101578025229064
0.46299918271227897
0.4803447515107063
0.04318098463648629
0.1320004445885231
-0.36242282816802307
-0.3915402751520804
-0.37202583614811835
-0.0974312543134607
0.026130602148323853
-0.16002076255860123
-0.42470156050797847
-0.035231525376908934
-0.03578696351168427
0.11329333233723027
-0.07222842536482135
-0.13932532007834164
0.21770542415597618
-0.2619785258717527
-0.2604972213087251
-0.2235014188008296
0.437690387880609
0.08393031312107177
0.17513839143255777
-0.09242551979729938
-0.1499359433891658
0.2790752749725475
-0.2846055989237047
-0.43654759717055436
-0.40699992242110183
-0.40299316477136693
0.08385626121997054
-0.37146236554437245
0.19956835150012717
0.3893152372065055
0.4117355199494168
0.3823261565529639
-0.06757332399762882
-0.37658873287555783
0.21600037502781938
0.4932197476525449
-0.1640304780438803
-0.3016655375906767
0.3955369341997804
0.12953754144645413
-0.2435034804880347
-0.15899116225100915
0.13750666612515042
0.052771142405655974
-0.13049976046686643
-0.3657536728435713
0.3328607082659901
-0.036422567698154065
-0.16424514927065764
0.20247775455286668
0.07416420631665004
-0.46536354397699575
0.0977846172474966
0.2528071568577483
-0.26955135413560855
-0.06639842197477094
-0.49850081728772105
-0.2786552484892937
0.3621809846364863
0.1420004445885231
0.11457717183197673
-0.1975402751520806
0.3519741638518816
-0.05843125431346067
-0.4528693978516763
0.278479237441399
-0.4907015605079785
-0.1282315253769089
0.34721303648831564
-0.45520666766276974
-0.43072842536482125
-0.2628253200783417
-0.2955
-0.204
0.409
-0.117
0.1265
-0.4825
0.478
-0.0095
0.2245
0.184
-0.4195
-0.22
0.321
-0.228
0.271
-0.3115
0.052
0.294
-0.041
-0.379
0.124
-0.1215
-0.3835
-0.0715
-0.19
-0.3675
0.158
-0.4715
-0.177
-0.3
0.141
0.314
0.2035
0.1555
0.1875
-0.187
0.083
0.1265
-0.255
-0.175
0.3825
-0.422
0.382
0.3545
-0.448
0.161
-0.439
-0.211
0.014
-0.425
0.137
0.1285
0.4925
-0.0755
-0.2795
-0.4725
-0.251
0.08
0.1295
-0.023
-0.381
-0.266
0.134
-0.351
-0.3995
-0.031
-0.469
0.3385
-0.2925
-0.4315
0.328
-0.3815
0.091
-0.4065
-0.0955
-0.0185
-0.1745
-0.277
0.2175
-0.3045
0.141
-0.294
-0.1935
-0.1925
0.2945
-0.122
0.4605
-0.078
0.1215
0.239
-0.0045
-0.051
-0.199
-0.336
-0.009
-0.4255
-0.2415
0.4785
-0.0175
0.0515
0.328
0.0545
-0.3345
0.152
0.478
0.285
-0.456
0.042
-0.247
0.0095
-0.2855
-0.343
-0.473
-0.0595
-0.027
-0.2645
0.492
0.1885
0.4205
-0.2895
-0.392
0.2795
0.0895
-0.0965
-0.3425
-0.3115
-0.2475
0.4265
-0.018
-0.0395
-0.221
-0.339
-0.485
-0.3955
-0.4305
-0.2545
-0.256
-0.4865
0.373
0.3085
-0.33
0.494
-0.315
0.2925
0.3315
0.499
-0.1175
0.1905
-0.459
0.1145
-0.3135
-0.066
-0.126
0.4725
0.4145
-0.3335
-0.378
-0.247
-0.319
0.2685
-0.296
0.27
-0.291
-0.334
0.317
-0.421
0.134
-0.374
-0.168
0.457
0.0165
0.0475
-0.2615
-0.141
-0.2425
0.0165
-0.09
-0.2485
0.1365
-0.2105
0.334
-0.342
0.336
0.382
-0.4465
-0.1925
-0.1565
-0.436
0.3175
0.4615
0.3775
-0.3625
0.1945
0.2175
-0.125
0.355
0.01
-0.3285
0.19
0.3465
-0.004
0.271
-0.17
0.2025
-0.4055
-0.3595
0.124
0.43
0.282
-0.417
0.1035
0.341
-0.244
-0.08
-0.271
-0.3375
0.4235
0.275
0.2925
0.31
-0.315
0.187
0.3485
0.3415
-0.224
-0.421
-0.2755
-0.265
0.1415
-0.1905
-0.4925
-0.128
0.235
-0.103
0.417
0.1895
-0.11
-0.0175
-0.174
-0.1475
0.2125
-0.2725
-0.2895
-0.4135
-0.421
-0.3455
0.331
0.2645
-0.081
-0.179
-0.2235
-0.1075
-0.112
-0.242
-0.1115
0.135
0.2135
0.361
-0.4125
0.205
0.0565
-0.1825
0.32
-0.0775
0.003
0.1965
-0.1685
0.223
-0.414
0.174
-0.394
0.3025
-0.0835
0.3275
0.3955
0.3585
-0.4495
-0.2685
0.327
-0.467
0.325
0.184
-0.412
-0.362
0.3675
0.3785
-0.278
-0.2495
0.3005
-0.219
0.217
0.4625
0.1
-0.378
0.4135
-0.144
-0.2495
0.146
-0.46
-0.357
-0.046
-0.1265
0.3475
-0.433
0.3645
-0.244
-0.3885
-0.1115
0.048
-0.1505
-0.1235
0.326
0.3075
0.003
0.484
-0.137
-0.09
-0.3885
-0.193
0.025
0.4325
-0.4185
-0.246
-0.1125
-0.276
0.415
-0.1455
0.1075
-0.1305
-0.477
0.468
0.0335
-0.1335
0.1385
-0.375
0.0195
-0.1905
-0.2925
0.357
-0.3795
0.206
-0.2185
-0.1835
0.0515
0.347
-0.0955
-0.272
-0.206
0.1835
-0.0535
-0.104
-0.436
0.114
0.346
0.235
0.3425
0.3545
-0.3665
0.257
0.364
-0.3085
0.4125
0.051
0.0635
-0.03
-0.337
0.3435
-0.027
0.3935
-0.0465
-0.3375
-0.291
-0.486
-0.418
-0.329
-0.265
-0.143
0.02
0.093
0.3595
0.0465
0.0195
0.1685
0.0815
-0.1895
0.066
-0.2385
-0.0495
0.055
0.4885
-0.3435
0.033
0.0255
0.0615
0.175
-0.4675
-0.232
-0.348
0.413
-0.2715
0.281
-0.152
-0.0775
0.2525
0.132
0.142
0.496
0.452
-0.325
-0.352
0.157
0.099
0.322
0.2735
0.15
0.2415
-0.031
0.4875
-0.1875
-0.4225
-0.4988831860638394
0.061004254408611326
0.14725924411410532
-0.033472634460802966
-0.1741981893041633
0.23180490775038012
0.08708865111073746
-0.09743715030445028
-0.26130865639664413
-0.34518801067257837
0.3931967844709665
0.07267021500809646
-0.23179230603446216
-0.419046294283237
0.4409774038678861
0.2693080403822295
-0.41613650584334133
-0.052851481748716636
-0.40753676162038593
0.04617273450641372
0.0320946376623977
-0.0955842857747346
-0.17783580073186114
-0.1704523573222517
0.04765094589163363
0.4016243335920765
0.42156831031558506
0.2009484843724739
-0.16563183367813664
0.23628327223052664
-0.42349718013927207
0.13717763506469224
0.23909573967382877
-0.3945529810566244
0.14062224810660587
0.34658477730784637
-0.4247217948028604
-0.06851130399780267
-0.07761470664964841
-0.46754577889260734
0.23700225096282765
0.17900489717114437
0.15508804953033578
-0.06323834654285325
-0.32008223113443957
-0.08452990971508376
0.06212999129610669
0.019415096484008083
-0.3100536107863272
-0.296157260685279
-0.42100797558394815
0.32033624542279016
-0.06669731889800265
0.08643348038524998
-0.17550449508229055
0.2297197900241515
0.1298143757861534
-0.27811918279840586
-0.16152040041544966
0.3003411668428665
-0.3988442244698144
0.29050425442954414
0.4978102685568579
0.4531343020548459
-0.06819234700959574
0.3707960761921442
-0.06176756772418541
-0.13036922014724658
0.4977017012503824
0.025223942162750205
-0.12855397953986203
-0.1623409695471925
0.132454051381664
-0.15418849601950232
-0.28091768065469697
0.12667456529647442
0.4505909687228598
-0.05834665208599888
-0.2597131673204016
0.2408577252876665
-0.4679781487823828
-0.003130017144285683
-0.40930696440648845
0.4428102010939253
-0.02803145423115102
-0.09587231466281096
-0.011587023629518316
0.09178347273245888
0.27734240749548666
-0.4590383891532855
0.11398942146843834
-0.3790674889571476
-0.33692254169345043
-0.42506376740724244
0.12035407963670933
-0.42981521022323954
-0.17972201793714285
-0.19051130848272257
0.026033792175452028
-0.47554522361376056
0.31201421244740357
-0.308701318212204
-0.15083444237511273
0.2157199844536576
0.4924039005501835
-0.1330455868849677
0.360629956724838
0.20113723079266863
-0.4545884480508643
-0.20520208486710442
0.005833708926522768
-0.2721708465642328
0.17448464515997716
0.42940153851836166
0.3569093372918452
0.12845883651867054
-0.14439894155728944
0.2654107197309698
0.4752412284313209
-0.07699347944407843
-0.4376692460031877
-0.3250057890275727
-0.1680288291945047
-0.3658125612851106
0.21977866283623834
0.04985800682627572
-0.02867419968250934
0.21548146316935385
-0.23358315624744289
-0.12577938540869418
0.34766522037966796
0.28197826672149023
-0.42821588608591105
-0.056286233352327075
0.2759533175428442
0.001599320079342874
-0.23567630958434882
0.4171716038197098
0.20416451699500457
0.14320268168162842
-0.5039941746063716
-0.38783720783508996
-0.11980591918678626
0.25097198905682777
-0.17195204890780783
-0.3642120618349908
-0.16937612901888263
0.27144241757475
-0.3222479453695789
0.2555694509202283
-0.12228219774543067
-0.366633823643021
-0.21069704058258248
-0.508250232502506
0.07661813210204647
-0.4454781281858982
-0.3370131317729646
-0.02197840657355688
0.038493162596176675
0.2907713252295776
-0.10027240633945589
0.30874738335439506
0.2541809320387487
0.3920921134458208
-0.17801463057706027
0.2873630891802257
0.15841884638961498
0.1247438135781904
-0.30063131651408104
0.3856386234589147
-0.02240014127631151
-0.15457670183099936
0.25267551807797306
0.48457729579040276
0.16687999324238736
-0.058141340050532626
0.1464648587403378
-0.3675829010213633
-0.21488891879201394
0.23712035972944384
0.03974562017434275
-0.08788858191820445
0.3177841733608132
-0.3953230698163596
0.2762327632646103
-0.4041530258765647
-0.17289930231861675
0.11725127398796867
-0.011500349032906053
0.42240871444060957
0.22729685718317785
-0.38967809633653805
0.4820510066780775
0.22535828113288345
-0.41315232760134873
-0.2148874603663131
-0.05552405625179177
-0.48793165106078235
-0.3679452488623761
-0.4307846214643562
0.20077996719244662
0.240907476235902
-0.3372177497326448
0.24170584365576825
-0.48132781716424033
0.378969063446166
0.1748652244078108
-0.3018436845736457
-0.11913762980597706
-0.13514269145862612
0.025215257946903845
-0.2700707251668854
-0.269293817146874
0.34938800725151603
-0.23477028180851733
0.07192992128112946
-0.4087013924012205
-0.20824595490967338
-0.4458161742653903
-0.4236980764090989
-0.3302744757711444
-0.08604208664573137
0.31145417650920637
-0.125602015946154
-0.33562046162832815
0.47768526293957025
-0.43131613316140227
0.28287455389965027
0.10890472436983151
-0.22569661280143394
0.3922961184447688
-0.4028238431488704
-0.040353291241257305
0.26369258203449175
-0.06556204741459315
0.27289906115335105
0.02302258294367977
0.3817766883328152
-0.13733885384420674
-0.45015476401670484
0.14015094710002676
-0.02994065785617176
0.41651685529165994
-0.17207148123974114
-0.3604051108023481
-0.13466309868946436
0.010855081242578524
0.2501885513287713
-0.4683996824688616
0.23267235719321397
-0.42860843236874707
0.13999010868113815
0.3001256996164706
0.3213655974532124
0.28457408480346585
0.4111700972297111
0.49709419325511606
0.016869879447667217
0.5029810762605543
-0.1218473990465565
0.4704251200088722
0.10352314576016725
-0.4773917005110062
-0.13840845298424687
-0.3772811806097884
0.3864854884255416
-0.4699084507968509
-0.44914306065958814
0.3725053000643925
0.08626752156687167
0.06443793381593806
-0.400176095114789
0.20967088398985356
0.03755241215730656
0.22157695763338328
0.26421641518257516
-0.04861028452299108
-0.24810039414172044
-0.41609630802873065
-0.2664861306337009
-0.44141353075970685
0.12488335934824032
-0.21758020317117752
-0.02609292130122755
-0.25017384440900753
0.24287489200855225
-0.13184524255333605
-0.4156773881156446
0.3104436191923572
0.1801425483809066
-0.4608871332062957
-0.11897679147770979
-0.29548182539764667
0.34545284139277105
-0.05295236225702241
0.11288982295248888
-0.097750104507804
-0.18715882380659613
-0.45772993046001065
-0.49086030211249365
0.1443321772473164
-0.4946421071777899
-0.45724606480768615
-0.17261027466341616
-0.3476343762818161
0.361074060962687
0.05029090591898597
0.39874928703315843
0.34909033764045627
-0.37760771665911097
-0.3842859600170968
-0.312192783612002
0.1686876878154631
0.42987288617501523
-0.4007792118473581
0.21626057984001043
0.32684581528666484
0.43488833629857526
0.1397234753604441
0.25143990537261923
-0.08433004839052721
0.09144738285887959
0.321507120821997
-0.12008158643575337
-0.2966175600839403
-0.25235378200256514
-0.07986146808596688
-0.20843762633811538
0.40017935937242977
-0.25376911398566004
0.42841414331705263
-0.2865527827870865
0.052890167377393604
0.12310212912664607
0.3536582487800313
-0.42769830221534644
-0.2123207768163624
0.20109261398633144
0.20775685234765426
0.19074822269543004
-0.0019847239778914443
0.04065058136542424
0.20064038555210245
-0.07705269645947745
0.25098591889069216
0.26870722425559757
0.21698782408208236
-0.17758111269123478
-0.41471412140215735
0.40988100241457237
-0.48342902530713483
-0.4083053235704092
0.4760060574013628
-0.005036055968164646
-0.09981228791702841
-0.11011294039001229
-0.2628879283922112
0.38697784553900727
0.2976548327566797
-0.1029274992243863
-0.41136789734718765
0.0560763269665413
0.4000748098899375
0.40631239191029284
0.0643970305881912
-0.4392886732446314
-0.5398432916381241
0.09160976595075451
0.32812781561689675
0.3094670795358952
0.3756099056006859
-0.513891736794743
-0.4608842867996312
-0.0037850153319704165
0.15118956264916725
0.18608132985585293
0.1345598183842531
-0.10784825849301656
0.13635329176591504
0.11495566519647268
0.02562813133402873
-0.2605612998468029
0.17362386550142853
-0.2043647418379489
0.3538545361092231
-0.11657661879217081
0.45267196025145456
0.1967818832388987
0.28587050179790496
-0.2337906749982662
-0.42535157335828155
0.043476917862239235
0.04054194590769232
-0.025900070020337455
0.0871354570861495
0.42776445510032834
0.010684290209584963
0.38303012543572057
0.040551078287562624
-0.4492527141417907
-0.2982013951472736
0.4026731159432416
-0.10986762018304785
0.4769690567049573
0.07296919752715571
0.1640432497265419
0.22884542352946838
-0.14899142780086713
-0.15860145748950857
-0.4186598444761705
0.3809767266524497
0.4131993555093772
0.12905309506307455
0.03314931479617628
0.16408068271335804
-0.3496014610268115
-0.48400766844440457
-0.12265039632667009
0.11165471190887856
0.03964098863440603
-0.24819005691225493
-0.18191786784774497
-0.31955461635468574
0.036996958388561485
0.027980167043591235
0.10988301301517295
-0.2874239510145674
-0.08661232691384348
0.016445919009471455
0.03163314006879876
-0.0319241356205987
0.46165778156860615
-0.3419581878282694
0.1303490078236187
-0.12948726277842876
0.43221263368519325
0.19992320408302958
-0.16538538578332218
0.301808846614597
-0.17908926413156775
0.08680451765301062
0.38223589450799317
-0.422496298908286
-0.25711740756092794
-0.3710291269728544
-0.09913934738899693
0.06581793142379602
-0.331238485324096
-0.07658309931028738
-0.028291140267595688
0.2797356837540648
0.11271991445345823
-0.2683860310604681
-0.06617657556428062
0.3954568650817986
-0.10466275748985925
-0.23156915657381089
0.1332776929454141
0.04590104855105786
0.25725753386906647
0.26180261936235205
-0.04827204611991511
-0.042944153577526685
-0.07922333667937922
0.16301643162066
-0.38851514732273373
-0.038530040986014424
-0.36120514669971976
0.021954001944977233
0.314112569244295
-0.4889032446307789
0.49160703291079266
-0.4489237847159312
-0.035919453109431204
-0.0994786987841033
0.49255688550127075
0.31510363440526235
-0.0366543475148854
0.3915465871240251
0.21175727560560428
-0.2472401396607438
-0.05318095184674053
-0.18565358085443778
-0.39079120326595707
-0.1438764432212352
0.175190423143417
-0.20908468777548195
0.03825104590122761
0.1927504977176717
-0.2962343429012554
0.012029500204183346
-0.051771271894350546
-0.23750863240327325
0.5576364120930033
0.2683997491348692
0.1705703893121036
-0.23826727042127369
-0.4048866402717172
-0.43332695963183976
-0.2744320297465839
0.47761818436531045
0.31165473721067377
0.3991173067096378
-0.1075678397485252
0.21137534025147756
-0.14725420855165247
-0.2763263992920638
-0.3001973711531384
-0.25400344796192365
0.2613633403596293
0.1178411490667801
-0.2827739972766667
0.2537195303885585
0.08176171424066438
0.021625232216983252
-0.06528607068622184
-0.007181806996088546
-0.09185206940342698
-0.016318832969983318
0.008065278247580653
-0.19917767207065737
0.2390050266841091
0.11125169600214506
-0.046364037531622423
-0.45975335635682446
0.08668187118665541
-0.2879302504904181
-0.3915638360883221
0.1581824313371986
-0.45213690410090995
0.18429873631756605
-0.24844242417412374
-0.02982129271540087
-0.4247522371770627
-0.48296352972998513
0.38456915642319994
-0.07586578921998893
-0.1181200532890222
0.34681578439244354
0.1430127193651274
0.4107454386591359
0.2235363137900081
-0.3931466531198761
0.43171655789752084
0.07511457951203898
0.5590083522794601
-0.020902553377711273
0.061942690135428184
-0.2253623255380115
-0.2479898828152713
0.13552869808106124
-0.14884014471404486
0.22531953926383477
-0.27012571470803864
0.2997053864972362
-0.3781497659172301
0.46565374373382146
-0.4440016448419921
-0.02175598916691145
-0.21755247752384407
0.3347583845695567
-0.364529041986738
-0.056641339884099105
0.48505346604397437
0.062420468835854885
0.1308962436002167
-0.4805996519637298
-0.32474132148798
-0.18582136378806724
0.2654984805762558
0.21410256811766676
-0.33201296456545715
0.3364063439979925
-0.10175436573811995
0.42126728606618685
-0.15120070354159307
-0.07340384586946286
0.2999607964869138
-0.09195133149536025
-0.01062139383272502
-0.47862643070016836
-0.4318361764958485
-0.02372222321588834
-0.06465376693576098
0.21928013813534475
-0.3916792761207578
-0.2905759587002814
0.30951779676883495
0.03842514151762074
0.020373202485080788
0.2185113169864069
0.43591782415904495
0.3017258484929103
0.16228781419678845
0.27812747609331856
-0.03414642602879471
0.447790457476879
0.3051926280656784
0.20548250916168415
-0.47574795952201987
-0.10488844787586782
-0.4591056581415485
0.3445885034175208
0.4315400881766384
-0.01647255843555609
-0.1439380388618582
-0.4790391244734117
-0.5209556048718244
0.275791300706721
-0.2945071787819652
-0.1257922996678324
-0.20781337658754415
0.2570544195702361
-0.37609593331762586
0.4535525812629853
-0.2708313070868622
0.10566887868792664
0.21093876206420967
0.5723667146717734
0.4768880381465504
0.08041849370119138
-0.1370805650361153
0.24327046046563644
0.35877831252114567
0.035421964683219384
0.4406034405742985
0.4903112822993894
0.18362221065127243
0.4386001159410383
-0.3015524091748589
-0.12917750113538284
0.4316841043001707
0.18417425084354883
-0.45550271431908074
0.05823147897571633
-0.31007670240392304
0.469465530405263
0.07572377152455906
-0.1215832384476833
-0.09056041109969007
-0.24490923010856855
-0.3408698951976216
0.02916689523547291
0.2858148217864916
-0.13176329325890287
0.23985137365179562
-0.22891790590899597
0.12924501304311917
-0.28093369942002
-0.032719095589573054
-0.33926791620684554
-0.0005752219880364226
-0.427964368988748
0.2236478327435942
0.36494737893489554
0.206921135955338
0.1336653869454229
-0.1453187056897403
-0.13232379359631347
-0.10678705051458175
-0.2041899761838575
-0.3168420635221235
-0.2098285052642196
0.005326353067908437
0.2970206295300738
-0.3987419093426087
-0.2351169638508615
0.22737625685368673
0.15345659480789547
0.2825387567401648
0.37060145968531616
-0.34141848650763973
-0.02092471488653006
-0.0567113756701927
0.16577623720572984
0.1446304760742633
-0.12733706343013193
-0.444815001943441
-0.07771723324571157
-0.4293428382125032
0.2718234633823005
-0.33577605193148014
0.14113600081738714
0.013330492669275523
0.018259507367145603
0.258087711381969
0.07169167861140047
0.2034910148754883
0.009597933537308128
-0.06967178405058358
-0.1750873184602811
0.39345834521102085
0.31871422503317304
0.041104750087098504
-0.1875808557960523
-0.3862045051155994
0.15657551822795562
-0.32901099097099634
0.29335984696827766
-0.08617292629116026
0.08434766006157743
-0.2924048338211449
0.28503822378054083
-0.3094419931770617
-0.38377178402000983
0.1135241407168482
-0.2177281024283793
-0.4758888318130615
0.04699696591933492
0.4946178616124064
0.019536041717458815
0.12110925624451406
-0.2659179561583781
0.36136072588002593
-0.13651363087440105
-0.04072497642165577
-0.4077519015642077
0.45679058589927174
0.39177420884898806
-0.4167540027010457
-0.3030650938714756
-0.291542542275978
-0.2189926628791857
-0.5049296874606999
-0.4782525201367708
0.20781721836110872
0.012726874264805682
-0.06697844851499465
-0.33621408228793725
-0.18937031950769495
0.4308948184042637
0.11388042848830512
-0.1887943343868433
0.013265646488544773
0.07389708948301586
0.47679364430115695
-0.3407137788923275
-0.2506125127798476
0.4546624450644298
0.2593856510254098
0.0812017021605854
0.4185959482190682
-0.08918317677245666
-0.19545835776763903
-0.21822537443980022
0.20349769136384246
0.2833271600868352
-0.4948630389320957
0.09915366982510325
0.4194252336633241
-0.4532049772804067
0.050177577490170634
-0.05603962080694031
-0.21364932010650728
0.4385332185184059
0.10068827520776187
0.29359050148129695
0.29064574133735027
-0.23467042470124144
-0.01644293915897732
0.3611151157345496
-0.17285330095588075
-0.24445906037109216
-0.25004015320770195
0.42915238057632327
-0.3782263069179123
-0.40420560229957264
-0.06878915631744464
-0.2520399404148439
0.29611550644134804
-0.3590583083579507
0.4415793618035783
-0.11708989838374759
-0.4257973454545157
0.30979651574491807
-0.1403084977454229
-0.3721863325415795
-0.29646095305821624
-0.35156990138304095
-0.4280246616670247
-0.15498377198543428
-0.4571760776038431
0.28633201481336845
-0.3738657738718796
0.02344565441644488
0.39379656316494654
-0.17674610409291228
0.10348253057047929
0.27510068710914615
0.12735608114803396
-0.4173580136150892
0.036807640338529166
0.09166734791910275
0.11690606122122219
-0.25686329052972745
0.1736738164850731
-0.014807419432496194
0.05925311547817358
0.3287485581913198
0.29651775321336965
0.20258980648187558
-0.22482073891820678
0.046087664887284246
-0.36044814285547994
0.45725852643843523
-0.025381826453284042
-0.27521249928013714
0.37103184329203776
-0.34405711600271977
0.3439069364315275
0.07340231186090988
-0.1388250413568943
-0.4461527235710116
-0.47414238263368985
0.31269839516331616
-0.1559199004667936
0.13449242763681524
-0.1737145192251202
-0.167183699172785
-0.33982796847625873
-0.24589394356598657
-0.36638113458441873
0.19954196352189255
-0.06987514982809262
-0.37191316754261083
0.040932012178173986
0.22698381108945115
-0.35828744509638977
0.35733680512661453
0.14038128965668978
0.23793220641401383
-0.4732119175739181
0.49338049308203025
-0.44657503288462935
0.467066345358492
-0.34329908652868213
-0.3503005936434115
-0.4769794511275692
0.36908921186847243
0.002974851676790514
0.2380044828183984
0.4928906851029253
-0.13635541133304474
-0.0395128871214827
0.48386648332898724
-0.40769041020682983
0.01492486167811137
-0.2519380479815408
0.261744677620424
0.003318310320914502
-0.20013283134219162
-0.36951972125651134
0.18232558728561035
-0.174204831000197
0.3897378902581059
-0.01972973717452668
0.009602415818399728
0.2854388792463109
-0.15410340492870805
0.5263946618914372
-0.1472510770273942
0.22543785821149293
-0.19111261117081363
0.22078097617410994
-0.2705226361722172
-0.1343601316825607
0.1003218197072617
-0.013710999949650714
0.17281965749951597
-0.2594739213343
0.39647057373128947
0.0745527537354018
-0.4905549920558421
-0.3365287624504848
-0.4841275786093906
0.43029444952370105
0.1721683066282063
0.02405728613055903
0.40178495345968673
-0.13273250250180804
-0.1671291025345291
0.3682224472506044
-0.1495394055521031
-0.10183342668434833
0.2535244661497264
0.25464691147939544
-0.3253204582913494
-0.15559887199188235
-0.16816988966194799
0.2049223551576487
-0.2989594284566642
-0.09578393494712774
-0.49571304761443397
0.04884931001434762
0.3788435438816746
-0.05852947379721073
0.3998040268948735
0.4275998058308163
0.32825957879860834
0.2818934644063797
-0.40684099236368304
-0.38061262332122825
0.2169945187160905
0.012599537066021084
0.33253609169597037
-0.39609368727151173
-0.36071381566302657
0.4364888621820871
0.42626466788186973
-0.2787689813895424
-0.1409401614375863
0.5156993642935306
0.37678458762621436
-0.4198705146388661
-0.06000252939912868
-0.04625592893026007
-0.16976748404391825
0.04851321471076652
0.3259001261439874
-0.27969950376660996
0.4502653629811711
-0.482530924654295
-0.05515911889452584
-0.4537570188877793
0.15060810031973038
0.4072062083289827
0.19365612433848758
-0.371179451083425
0.34900062519700115
-0.40129528683390014
0.015921765576968703
-0.3681457029333766
-0.4289238236691959
0.47497236166103174
-0.03515718321338584
0.03634969402714955
0.30066831403858674
-0.45646959021029127
0.04709649458003987
0.4738322772927963
-0.4229388180879422
0.24971106932304932
-0.15408908639889926
-0.14783332294581875
-0.21871981213371278
-0.19483609002932314
0.19131328155924496
0.2404468187338639
-0.27190351629745757
0.1987152732531613
-0.18236502819727501
-0.4175471011322973
0.2684025384463435
-0.32363925519038417
-0.47665029690108834
0.336370498217572
-0.40684503325324295
0.09849095865483963
0.45066897041284665
0.2372254141309486
-0.44406936229280297
-0.27799933769125956
0.01303468227577048
-0.28717581019918287
0.2697092216168468
-0.33717849421193624
-0.20411790465112925
-0.2701366485164467
-0.252051211633015
-0.4116901241040946
-0.34127960564877813
-0.32351203976991605
0.32750459800403386
0.17335219398887028
-0.006545021173696362
-0.07863387883828254
-0.3135423812171664
0.11884637221728546
-0.03876338738418435
-0.007706236464544453
-0.2565336625161087
0.07989613381118708
-0.25788172493498596
0.14127637909820434
0.3863964527940869
0.1894837338992189
-0.133726382695994
0.32535379539750764
0.048333459816049945
0.48721986990843424
-0.14232976199438543
-0.4706802047564933
0.05022765617069504
-0.49935209878419407
0.06329324458372566
-0.4493959803661525
-0.28822019608169475
0.32794288459622845
0.09923877702211036
0.21083073052326518
0.0645611769093861
0.23076053378286362
-0.33706294283163907
-0.04759822349346157
0.21327851562142683
-0.025976077026684523
-0.35266165761883495
0.22895931325041116
0.3991023709319181
0.008974856522898875
0.41107107773287876
-0.3685563140519562
0.13727717468365322
-0.01529852168817893
0.4186622429065826
-0.07363176464212393
-0.022966622764095074
0.4432560655256886
-0.3789042495417763
0.1427956830959007
-0.4054680651418895
-0.3029386319083306
0.2957794650374857
-0.46066374476637945
0.33051080807369326
0.13505372284925726
-0.3522156369867451
0.0253349846493164
-0.12592971438780728
-0.313053578580937
-0.2077564220052885
0.40598270423994826
-0.48351031615865675
-0.059708619973515106
-0.3705165499936377
0.2700546522930651
-0.1509778242421541
0.38254080701104864
0.4806872047605653
0.35148506244478017
0.38539419607542647
-0.21892297323905185
0.29760483838824403
0.013590926095164175
-0.4007940513758686
-0.10652820383167795
-0.49478099380668034
0.33657914183931975
0.3029844950479128
0.40198161245591885
0.03662254101327668
-0.07740788410655311
-0.4823537444652426
-0.27956953081262137
-0.01577945866139115
-0.5055532157974865
0.37493091142236673
-0.10753824946880783
0.32208779412713207
-0.2659070605619075
0.3811597060916784
-0.08561187071416762
0.3994178943441976
-0.4164105819641671
-0.17555711414674985
-0.1113664648093581
-0.0565607442644252
-0.29762867583982994
-0.4050807078486391
0.33637846360770507
-0.25977637121927966
-0.07108868946590344
0.2849806176287329
-0.1696197936617824
-0.378539021982258
-0.1270909063730304
0.3417988790910163
-0.5294925748433348
-0.19581463580782704
0.3779727340362486
-0.04259111035947257
-0.29793850481607104
0.3066843497218547
-0.12587160926978902
0.10858823456816173
0.371695330963395
0.06666987175689024
0.3134728059775897
0.5001054959339186
0.3117342341610172
0.3917155462298869
0.4481308324115969
-0.30034811131141964
0.11308329367171921
0.30575067980272846
-0.5261563080660591
-0.11354554930030585
-0.4774398000068012
0.4424593629971478
0.34605558850300594
-0.20668978975221658
-0.17193292983717287
-0.014877973121971741
0.09015213318267229
0.37283879526195546
-0.016338647403801403
0.19850036095445545
-0.3719774394127634
0.11432448677742953
0.3819877654379913
0.10262754566402085
0.185667288376411
-0.10383969578394844
-0.09147214092839856
-0.07377471738845566
-0.3719723724608845
0.39947150404128895
0.16446896008851636
0.2640874553026071
-0.17664448223542492
0.1418731352161288
-0.2920164413778535
0.1960612226728043
-0.23886766393692999
-0.18303213728318188
-0.2639943086519264
-0.10505497286725175
0.1159860588846624
-0.06795009403347524
-0.41261811825962014
-0.40953449649302
0.015513917660770031
0.558857272641393
-0.27478886034715
-0.33794689029337055
-0.24186334663815068
-0.4077304277253409
-0.47508288014879285
0.2135553121424565
0.1969953322236555
-0.2904643111361987
-0.1689391414741792
0.18880908006193475
0.3700311230909487
0.31435105370339
0.2554117725462605
0.142857860089919
0.22711555243590523
0.32107190623946585
0.30014387072481274
-0.08835556406127089
0.2847578124100052
0.22758704202007837
0.4428825599505989
0.1556854241363392
0.24353704327209605
-0.05580480812377472
0.21722984632475953
0.22448152305093738
-0.3594366789748239
0.2514594690718798
-0.3039161457372394
0.029036542236468017
0.019899876132979815
0.4536599835728723
0.14998084141232831
0.41707460888257486
0.25093747484268564
-0.4163317952638239
-0.11793349329699071
0.4331328540884464
-0.1264363496571551
-0.13958587667209899
-0.1008489643163587
0.1858823403224347
0.13292965821608071
0.2132346239701221
0.2127581008709669
-0.2976594980127786
0.38701967218357386
0.48483046840134125
-0.3952407031487097
0.4099774352002556
-0.05896162710907097
0.44419327145754034
-0.3208602809168297
0.146488156719888
-0.34400769617090265
-0.45410422637248476
0.08589984621461672
0.4121443992004225
-0.06459479922632697
-0.2041735022773
-0.49821205028353355
-0.006959746803822066
0.24628591337480785
-0.15831546731217805
0.20908629946160895
-0.31009185088725305
-0.280357860531734
-0.2082239941828252
-0.4905539950314835
0.21303625088369674
-0.34153889986217173
0.1233203835257048
-0.4401596341635368
0.1853115021398951
0.33729490561986875
0.08075518585776863
0.04314384415440871
-0.4688739738593246
-0.31154003227571286
0.015972603376384887
0.24448542979031973
-0.16947051804871907
0.34777245302442666
-0.380599294025634
0.0593741728363018
0.38220278664027285
0.005331584458120823
-0.15995315558379075
-0.21450800550432483
-0.29572547843122826
-0.11610297008877836
0.05124340193247346
-0.3313719563535153
-0.24505479136260208
0.19826030482654636
-0.0834547726048551
-0.31209761540668784
-0.39167966345035965
0.13414301997976963
-0.06960118761852829
-0.2271566286643181
-0.1447103340524138
0.4860005452906911
0.3873617437745388
0.05349663280979691
0.2390812004372676
0.44136076989113543
-0.32964983972629097
-0.49496253124678574
-0.2879249106116631
0.05757705947437845
0.09144606519089857
-0.30809885710731383
0.05792823655085675
0.38965473572124154
-0.4949656967622862
-0.39411713229093354
0.1931029264075534
0.3985462329368397
-0.0024238482413856694
0.34185206839286597
-0.11956652313611746
-0.3769626928144755
0.26139965624558675
0.5008502104498591
-0.029015787676628532
-0.41112404040906086
-0.2566495303692806
0.33238432155667463
-0.17060614071663602
-0.32304206291178394
0.014764213763686276
-0.10087771713333107
0.39537054997814286
-0.10316208826598197
-0.008703610398103046
0.36913336026654076
-0.25344510569386663
0.21233030573571515
-0.46881655553045337
-0.2516027330025129
0.048168301809596935
-0.16842518289590933
0.0019015849655087188
0.46055722747340927
0.03087499015457932
-0.17927934957331612
-0.2960874002937109
-0.4895080559144007
0.06440619309272536
-0.16977218288024382
0.08902825187724552
-0.25827807935899355
-0.39761398947734916
-0.4224969311247445
-0.11869029750229106
0.03491308076948696
0.31079848740037097
-0.2238571871866514
-0.13213392228330603
0.23410451193145282
0.013314504189805978
-0.03739803155082528
0.3789542316487569
0.41665083262155655
-0.1354087774783804
-0.25056734423501453
-0.47383779704370477
0.031570591216967016
-0.3642359172265855
0.06257028173612739
-0.4951174609592748
-0.10277947161066768
0.19790490792579885
-0.12939081201226627
-0.07879463306516825
0.03636841167050087
-0.3375927372649886
-0.29294908497197175
0.03707786701616069
-0.4345684337589486
-0.2127935675658737
-0.04140496349699721
-0.25742452314784575
0.27595687650281603
-0.0036770322502695
-0.3117876068497969
0.09770542415597619
-0.3899785258717527
-0.124497221308725
-0.1725014188008296
-0.33680961211939103
0.11343031312107177
0.21713839143255778
-0.15792551979729938
-0.3284359433891657
0.4255752749725475
0.16889440107629533
0.31145240282944564
-0.36849992242110186
0.075506835228633
0.08635626121997053
0.16853763445562756
-0.4479316484998727
0.2643152372065055
0.21173551994941692
0.40332615655296394
-0.23357332399762873
0.49591126712444217
-0.18899962497218062
-0.18778025234745502
-0.3075304780438803
-0.27216553759067674
-0.4589630658002196
-0.1714624585535459
-0.025503480488034733
-0.11599116225100922
-0.3664933338748496
0.44127114240565624
0.3515002395331336
0.3832463271564287
-0.06563929173400991
-0.295422567698154
0.2562548507293425
0.39047775455286676
0.09066420631665004
-0.32936354397699574
-0.17121538275250348
0.0008071568577483401
-0.012551354135608603
0.033601578025229076
0.41949918271227893
0.38234475151070635
-0.2878190153635137
-0.1279995554114769
-0.3669228281680231
0.003959724847919399
0.26447416385188166
0.1075687456865393
-0.3103693978516763
0.043979237441398845
0.18479843949202152
-0.23523152537690892
0.02721303648831572
0.3232933323372303
-0.12422842536482133
-0.4383253200783417
0.4647054241559763
-0.24147852587175267
-0.10549722130872499
0.1719985811991704
0.497190387880609
0.46643031312107164
-0.1208616085674422
-0.24592551979729937
0.018064056610834225
0.11457527497254759
0.1793944010762953
0.1604524028294459
-0.13499992242110184
0.006006835228633013
0.03785626121997055
-0.15146236554437245
0.4245683515001273
0.4378152372065055
0.2917355199494168
0.08282615655296373
0.45442667600237113
-0.26308873287555784
-0.21999962497218062
0.24971974765254498
0.2154695219561197
0.05683446240932334
-0.3109630658002196
-0.33096245855354606
-0.013503480488034727
-0.4764911622510091
-0.4889933338748496
0.0017711424056559616
0.3120002395331336
-0.0062536728435712875
-0.2796392917340099
-0.27342256769815404
-0.3967451492706575
-0.10102224544713333
-0.24633579368335004
-0.43736354397699573
0.4977846172474965
-0.1376928431422516
-0.04755135413560861
-0.29389842197477084
0.26149918271227895
0.37234475151070634
0.4861809846364863
-0.2884995554114767
-0.06542282816802325
0.1929597248479194
-0.45602583614811837
-0.12693125431346067
-0.0808693978516761
-0.13952076255860124
-0.2792015605079785
-0.2077315253769089
0.31921303648831567
-0.4182066676627697
-0.12222842536482134
0.4886746799216583
0.1997054241559762
-0.3129785258717527
0.09900277869127501
-0.2445014188008296
0.007190387880609072
0.20293031312107174
0.0951383914325578
0.18007448020270062
0.40456405661083433
-0.005924725027452457
-0.20410559892370467
-0.16804759717055412
0.22500007757889817
-0.11499316477136699
0.07835626121997054
-0.02296236554437249
-0.4669316484998727
0.3568152372065055
0.018235519949416926
0.07482615655296372
-0.17907332399762874
0.05491126712444202
-0.1479996249721806
0.129219747652545
0.12496952195611968
-0.0031655375906766603
-0.47096306580021957
-0.24296245855354587
0.049996519511965286
-0.15099116225100914
-0.2549933338748496
-0.11172885759434407
-0.2729997604668664
-0.5002536728435715
-0.4041392917340099
-0.46242256769815404
0.3472548507293425
0.25397775455286675
-0.16533579368335005
0.3216364560230043
0.16228461724749654
0.01030715685774834
-0.011551354135608604
-0.11339842197477094
0.20249918271227896
0.0323447515107064
-0.27331901536351366
0.36050044458852326
0.07457717183197675
0.2579597248479196
0.3444741638518816
-0.4809312543134608
0.18163060214832386
-0.1215207625586012
-0.29120156050797846
0.10726847462309107
0.31721303648831567
0.19929333233723032
-0.31122842536482126
-0.13432532007834166
-0.2632945758440237
-0.12197852587175263
0.130002778691275
-0.30900141880082943
-0.17430961211939097
0.11243031312107177
0.020638391432557798
0.3840744802027006
-0.06393594338916572
0.029075274972547537
0.22639440107629533
0.39095240282944566
0.19800007757889818
0.17950683522863298
0.17685626121997053
0.16153763445562755
-0.3804316484998727
-0.4721847627934945
0.36523551994941683
0.20532615655296366
0.4259266760023711
0.06891126712444201
0.3395003750278195
0.3817197476525449
-0.23953047804388028
-0.2331655375906766
0.1825369341997804
-0.31696245855354604
-0.4375034804880347
0.31800883774899086
-0.1679933338748496
0.16277114240565593
-0.3664997604668664
0.1612463271564287
-0.3571392917340099
-0.33292256769815404
-0.4277451492706575
-0.25402224544713325
0.17116420631664997
0.35013645602300425
-0.020715382752503387
-0.0951928431422517
0.4004486458643915
0.31360157802522914
0.17949918271227894
-0.19515524848929355
0.13418098463648637
0.47250044458852325
-0.3849228281680231
-0.024040275152080605
0.42447416385188164
-0.019431254313460697
-0.35936939785167626
-0.348020762558601
0.06979843949202148
-0.06123152537690893
0.1237130364883157
-0.39770666766276974
0.1562715746351788
0.4976746799216583
0.1835
-0.4965
0.329
0.4105
0.378
-0.2175
0.3355
-0.362
0.2955
-0.2115
0.378
0.1065
0.118
-0.3025
0.4695
-0.45
0.044
0.078
-0.1505
0.004
0.4395
-0.2265
0.0495
0.449
0.0485
0.3895
-0.36
-0.0765
-0.399
0.257
0.379
-0.0715
0.1165
0.1705
-0.447
0.3615
-0.497
0.315
-0.1005
-0.354
-0.0155
0.06
-0.4015
-0.4265
0.145
-0.4665
-0.093
-0.127
0.3505
-0.329
-0.414
0.4765
-0.28
-0.0125
-0.442
-0.4085
-0.2865
0.2855
-0.445
-0.1055
-0.2115
-0.2625
-0.342
-0.06
0.2835
0.0025
0.1945
-0.0135
-0.1065
-0.1215
0.4295
0.366
0.184
-0.454
-0.284
0.025
-0.1405
-0.2425
-0.1925
0.1605
-0.306
0.0845
-0.2865
0.017
0.2485
0.0505
-0.109
-0.1945
-0.2105
-0.295
-0.091
0.4785
0.3915
-0.064
0.131
-0.2735
-0.463
0.036
-0.339
0.1005
-0.2915
0.444
-0.329
0.4945
-0.2105
-0.3145
-0.202
-0.1105
0.078
-0.2365
-0.435
-0.431
0.224
-0.4485
0.364
-0.2935
0.3985
0.2105
-0.368
0.236
-0.0125
-0.0935
-0.33
0.309
-0.123
0.283
0.273
-0.053
-0.0485
0.1025
0.209
0.2355
-0.199
0.3415
-0.1645
-0.186
0.0245
0.115
0.007
0.4675
-0.044
0.22
0.0725
-0.44
0.2645
-0.3775
-0.125
0.48
0.4105
0.324
0.003
-0.3835
-0.3365
-0.033
-0.095
-0.4725
-0.2415
0.4915
0.4655
-0.2215
-0.252
-0.0805
0.4675
-0.307
-0.426
0.0595
-0.0205
-0.1475
-0.137
0.4945
-0.5
0.4965
0.084
0.3945
0.0495
0.13
0.195
-0.067
0.4175
0.1785
0.153
0.077
-0.116
-0.2785
0.3885
0.228
0.092
0.054
-0.072
0.2385
-0.49
-0.261
-0.1805
-0.4755
0.2695
0.199
0.2085
-0.165
0.2585
-0.2765
0.4745
-0.294
0.465
0.047
-0.063
0.1185
-0.2685
-0.214
0.386
-0.052
0.114
0.3745
-0.4085
0.102
-0.318
0.347
-0.1025
0.314
-0.347
0.123
-0.0915
0.3005
-0.192
-0.1385
0.305
0.3985
0.4825
-0.4785
-0.089
-0.016
0.097
0.4785
-0.1905
0.058
-0.4945
0.2415
0.4935
0.298
-0.323
-0.0325
0.0365
-0.44
0.4455
-0.463
-0.1725
0.3305
-0.4505
0.278
-0.323
0.1275
0.318
-0.4705
-0.2415
0.046
0.095
0.148
0.25
-0.492
-0.1715
0.12
0.075
0.087
-0.13
0.095
0.449
0.305
-0.3855
-0.3305
0.2825
0.0385
-0.226
0.0635
-0.292
-0.293
-0.458
-0.2155
0.352
0.017
0.283
-0.164
-0.108
0.2475
0.4315
-0.0015
0.0585
-0.0645
0.174
-0.223
0.3805
0.4605
0.2645
0.264
0.474
-0.445
-0.3485
0.109
0.024
-0.1255
-0.487
0.1645
-0.2881836988836468
0.2459872185178371
0.2020743908505392
-0.306379471011208
-0.45831266865953235
0.4679450104782654
0.2996289070654332
0.08984152771558153
-0.3914951822449611
-0.3425555978193439
0.2528854775664986
-0.4389936137543092
-0.2976672254605321
-0.11680291974998418
0.09320590503789941
-0.4087102605716324
-0.30501285840943265
-0.28520940588235905
-0.25835255716152183
0.3977798550831095
0.43087262272797294
0.31672050141837693
-0.3823394551670331
0.11871432225129123
0.20991398289031177
0.030235918591625485
0.31378317850338006
-0.42995435018490863
0.3194640731191944
0.08587318647315746
-0.14835782970011183
0.33189389478430936
0.08244289106693957
0.45169019335453053
0.345438379908998
-0.22045634010860707
-0.15907911738816152
0.09344823233890465
0.0503648198126777
0.0739377789169712
-0.2869874339519379
-0.17254610427453113
0.2095015212404605
0.33151112553292933
-0.1476013296949871
-0.1785343390837922
-0.35548529308422716
-0.3575596324672631
0.366637690218811
-0.24127355604177167
-0.13650681663538558
0.4159316532325933
0.32576476559452466
-0.30312106186139376
-0.23650160122538413
-0.05601741383791804
-0.22865280195029253
0.4151704787840002
0.1451500830540398
-0.06731756670186359
-0.33440974021823333
0.04255608272682293
0.15465118966508945
-0.20288906641543308
-0.2552391553732956
0.05079781496823413
-0.42009232178146205
-0.45952449111236954
-0.47134415871975116
-0.1347241167222222
-0.2998851424029254
0.19817879800063815
-0.29634911691534677
-0.07609735652590818
-0.38749365883660203
-0.10050562180707974
-0.25673771783896576
0.4555464445207119
0.42885417718362756
0.2713851314325109
0.12142710791383006
-0.267139681448732
-0.3128507647916341
-0.40373126370041107
-0.37154664780543845
-0.36951555381592616
-0.14469697919974367
0.09814662402366806
-0.18526154516356988
0.4283754696387623
0.3727107947557539
0.27959339473797234
-0.19445359458818728
0.3957753327950694
0.30728056037314644
-0.3502613503011493
0.16658156273469507
-0.12802153901931598
0.08836452014595769
0.002863147006187945
0.42313140328601
-0.01744270349906232
0.023978186225140013
0.11071830140161813
0.3054471055518348
-0.35853349372499654
-0.14601468262851872
-0.3004413433295109
-0.30810454900260315
-0.10800013049433693
0.4012726436912433
-0.11454339084454392
-0.24246581362336794
-0.27743030157694204
-0.41105660646445574
-0.31588701640580746
-0.05027784232825604
-0.44093728906638024
-0.2024283001458686
0.17393877237127783
0.1903619913850472
0.2100100209969106
0.32515294469287037
-0.3904121664874669
-0.30346742735360666
-0.35628965509772015
-0.3450131151330201
-0.3541672139535416
-0.20612806748287588
0.04782668225969317
-0.06631036658613532
-0.4188874850717744
0.46939697435472794
0.18333057562532484
-0.020632510865202375
0.327875234633344
0.3591926810322584
0.2209449161042287
0.3940578895233269
0.4384997679185068
0.15497330013099517
-0.17043740358501364
-0.177498056636162
-0.14754477176844896
-0.36231291673579746
-0.21061597578260657
0.14021368075329946
-0.18645257147655964
-0.08537366006795945
-0.479935885604443
-0.0938625064887902
0.18531743058308114
-0.3759717410449505
0.3215345021871015
0.43924040921071805
0.30509525178584057
-0.22348694014603077
-0.3766434902892339
-0.05357784669916124
-0.2233416323982613
0.4160859613780781
0.29474016547869186
0.11103011530414895
-0.213754063643077
-0.32507798793627013
-0.4202622504536493
0.000587459009559882
0.09839248338689319
-0.06036851273778279
0.4280974921355158
-0.2632475737546315
0.07721051454147461
-0.23541975751670116
-0.3126713233298249
0.23533665873540477
0.057692987989326
0.12119284537291433
0.33025006447838035
0.4247048476709948
0.2102856445576739
0.11492376129569742
-0.2119977705043547
0.2858548880671462
-0.04237421327330207
0.28903462363153115
0.035179800874220166
-0.1365868576678588
-0.4661381176828577
-0.43220835840763766
0.22712737983350348
0.08051154643890346
-0.10390578743076903
0.418201612224338
-0.4050428653432618
0.41604283409623877
0.22712945752797134
0.2295190114297425
-0.14381343161951776
-0.4567419205424711
0.41689747626480966
-0.3947480437455445
-0.4620670328747343
-0.003735494290040424
0.2751646447766322
0.3681160230501881
0.3854634751851602
0.4504406091774523
-0.12455981205848156
0.3835400095640583
0.385553603489318
-0.08440334912197298
0.001187712289706546
0.4373046420167407
-0.2846041751904157
-0.04374897812518318
0.2664787727448677
0.14940740308074174
-0.1907706795668591
0.3005741181746441
0.1393339864172042
-0.19598126416923292
0.20046546009426397
-0.4554774584894911
-0.41434392950945387
-0.47406178641282876
-0.25978132406525833
0.32678399140873987
-0.3218856455540538
-0.1236136767884358
0.00988672147019305
-0.4373727787828798
-0.09491833686992472
0.4744690482728387
0.3846877972944984
0.09793472131000867
-0.1832317419313134
0.21466055122215372
-0.16982494952050248
0.28500050037467034
0.0502619585022939
-0.5033055260821964
-0.35954431672808856
0.09823875573485615
0.11127932356491538
-0.4609434844466449
0.38671262040923565
-0.14470363992133162
-0.015569676596576315
-0.027496040708966444
0.4359043821919677
0.14543856166165084
0.06599919741369623
-0.43616581396101933
-0.45927856947039547
0.33048482554352293
-0.414552547473131
-0.3544650311525825
-0.14028785881592387
-0.13018226072076705
-0.41230795721621155
-0.313797890457444
-0.22632685288429713
-0.09476143986411005
0.20582544175316608
-0.1945348430293494
-0.0689622568997992
-0.4442035221168881
-0.3458292064254236
-0.34216629275005467
-0.3423763063253053
0.11706958559637318
-0.2576960257406431
0.2877566522232934
-0.24142831735885786
-0.2910907430701482
-0.3154211413740887
-0.1855537483438177
-0.4079986320775195
-0.13792427186861925
0.44223299020299633
-0.40390413686541426
0.15292484652745553
-0.16639511124649822
0.3466725161641209
-0.4118098830406053
-0.1231055976447338
-0.5625797272525526
0.4719869779308686
0.3001115102942898
-0.13420788996266503
0.025092065287794563
0.06701643374125028
0.1979255004020034
-0.40121151481965145
-0.31396952832078456
0.09960040815850063
-0.2932180554117386
0.3000303645543723
-0.13812375686336206
-0.08984984041289872
0.42113544809455783
0.09716817305691616
-0.5163547461776196
0.0011731513054282006
-0.21669437478029702
0.00830890945685592
-0.54133277529695
0.47460887372688915
0.06800558113238198
0.12221824730228091
-0.19183641876764693
-0.5518298032898641
0.020509358205014733
-0.2227835920862321
0.09689476474928589
-0.2539696950789627
-0.5204725683968886
0.10343185705602093
0.13985131587321153
0.022938568692324295
0.3713837015019236
0.29180750764916213
-0.20561969536118546
-0.14334223079360886
0.04027441030797822
0.3387814573081175
-0.3300847597044737
0.06423145716751959
-0.44890560379908045
0.06980553881227691
0.05485929072568714
0.007366398302907919
0.3870075423966433
0.226017424990039
-0.2972289810673997
-0.022307903266851458
0.43558831917871227
0.20196397534229382
-0.043725026397448734
0.08610547565611773
0.44070738119461816
-0.5509455410482709
0.15546953821674422
0.15736632961711827
-0.010638053885607181
0.0069095184331248
-0.1425771809405871
0.39100471911594953
-0.3237879556394512
-0.021023094694952893
0.07073616681729065
0.37034909039746344
0.1103155637522344
0.46928392489797927
-0.0754063349826533
-0.00027038654701731394
0.4322656155050809
-0.42659910310144866
0.18243268333925208
0.0028694969870841293
0.1922347114681639
0.22331955129526393
0.3105550475182875
-0.12643139260737687
-0.00581732154305023
0.25638152071343306
0.25752741134997
0.3645273972532655
0.304639755990283
-0.21152435199157732
0.22604395889137188
0.07247864286960785
-0.22664037896861725
0.12541517152468878
-0.17781286225925438
0.47170414805000915
0.3946005096602967
-0.5017728860093281
0.05959833475683334
-0.18400602367469227
0.30948250537948896
-0.014985149670747435
-0.13337047413175598
0.009158557069676825
-0.494835888820891
0.2316775420046599
-0.3996316975840722
-0.002595512741970545
-0.019644223165514854
-0.10832374576678146
0.1776732506709927
-0.11375751741198534
-0.0823085476884664
-0.07028485905073391
-0.4015555462562799
0.5107363192068531
-0.11897039775027017
0.4066290317906044
-0.03263450672736993
0.019646368321046954
-0.02804521169918075
0.15841887521780929
0.44465800442938463
-0.2322322486454773
0.21181277529781728
-0.3738983684411084
0.1654506881857418
-0.39416890186532705
-0.5209862607730054
0.33973518024979965
-0.1809438153445478
-0.1626673432343704
0.06424174609791053
-0.13220232030210216
0.440517720390347
-0.32007833415068304
0.3068083783253171
-0.37908863917574875
-0.18896656809550397
0.06080908137548168
-0.3367532897464517
-0.34433605139298445
-0.17663554684699748
0.3119541539804798
-0.19335461861623987
-0.012134948352565456
-0.13679525053034403
0.0986496778088395
-0.40337685717561217
-0.16042156626312284
0.09411305526731799
-0.012700146923372882
0.23353781098180756
0.15311524943075225
0.17055750242021447
0.2876188731263202
0.12672527048775262
0.0514927722620328
-0.006212392782123052
-0.5213178343175191
-0.21116421639982189
-0.35919272744577535
-0.03436254685477151
0.20191201046252524
0.42220055028174786
0.11750313087146996
0.3262497506938012
-0.42325660873302
-0.3021813924774882
-0.25842238446966637
-0.10973006356240984
0.26987106009117273
0.3717732494799547
0.01985958340873365
-0.020535131097963524
-0.33653167136228657
0.2820921481605008
0.3792924389485162
0.16743975924357954
-0.34162857067491154
-0.32055545191926155
0.0320315826219871
-0.25991747417009603
0.2662725438017194
0.05166427631201088
0.059261895209004836
0.23376852826928743
0.42333452157325663
0.04021705312731704
-0.14579509815497044
-0.27328335811681564
-0.344783786390923
0.41894428802162226
-0.4172042631724474
0.3613366334792724
0.5571559530864202
-0.2797706576596052
-0.15980056264242648
-0.17980349399193496
-0.5840004161735852
0.40814649844162243
0.20096660998942106
0.44101390439336796
0.37954239314520866
-0.42892485896743865
0.12768118171433118
0.3216525554324998
-0.3396884955476825
0.02877602915778381
-0.36163747283497005
-0.045913893589886116
-0.4554770302626093
0.14410659768653206
-0.44887248350800213
-0.28034525922477294
0.47945608868528083
-0.2182021803321481
0.26175970326351966
0.008762915803596725
-0.2386661374410294
0.21778876141610798
0.14223043264823204
0.40834188047222475
0.4007757261237184
0.09104709445624012
-0.4125918674195694
-0.05176740217107332
0.10452546339875143
0.10813887041142171
-0.16405428518425105
-0.31014087349910757
0.41010672067065257
0.42691941056635
-0.2748923817818564
-0.12592385584972415
0.35267082228973806
0.2706407399915445
0.13902078077452432
-0.1211533327214894
0.4927918911402091
0.11821445773051446
0.08191317103705409
0.17018070475283276
-0.17965332607895965
-0.3069142553649708
0.3176284539472055
-0.18595985268030377
-0.02459550452469624
-0.11836445395170549
0.144227936309745
0.5132028150922369
-0.43870457180732186
-0.4684378966029486
0.23255608198129768
-0.503353985325874
-0.04284157296100535
-0.40707015453252937
-0.49308050573634205
-0.4255547690283918
0.19611708579924877
-0.02114364745869047
-0.2422809217646758
0.4453765956302887
-0.17306135086746727
-0.21986811257465497
-0.10884603868066552
-0.1305932042030981
-0.29660240047744146
-0.21166625120268762
-0.1961928581009311
0.4464350136705218
0.29811478819494835
0.07607883897969761
-0.13971030893530287
-0.5537775720948855
-0.1213840763330036
0.4600027444136671
-0.10466555663581793
-0.5011806308265465
0.38002661593370973
-0.24196490991939748
-0.3134250813603485
0.441316254413613
-0.4730414347532987
0.4623340727236638
-0.3887937689425584
-0.04375325152699273
-0.007471996429006803
-0.3980000521858395
-0.21114997786177886
-0.2889428842655538
-0.3041873524063332
0.37341780431364807
0.10725666166296849
-0.34005657976227344
-0.3616869436741685
0.1066486571121137
-0.25384452825509135
-0.2628642829374168
-0.43453008195575976
-0.05076872425159946
-0.1416483203299625
-0.16241728708471975
0.1560376198778133
-0.30756339996941995
-0.20048080219191897
0.11160821374597935
0.0204208107218653
-0.45211787605075837
0.03585794836705455
0.06828890271745376
0.05343006958176485
0.12825241116515662
0.1026358693126505
-0.38721295802248823
-0.4091133044039948
0.09438617934551866
-0.32977658204199695
0.17169481280287224
0.1524682874443899
-0.013001748683157269
-0.1930726773284224
-0.18409625000580288
-0.05493303745062413
0.3051701115661142
0.039318827369601635
-0.43235095332826345
0.044489339613443854
-0.014928596422763113
0.21716524087500882
0.354488346445482
0.2780979245256757
0.4001866434507068
0.1642735147717304
-0.3530426673459444
-0.16908582995063234
0.21013413950295273
-0.4307965096832976
-0.14915293304024024
0.3062400679289349
-0.12705923841338143
0.11123270962937251
0.19688413910821165
0.16966622351191848
-0.1297317811996079
-0.22380411977037049
-0.012756425445055218
0.45554064515889503
0.46361634938030305
-0.3070951464561951
-0.42971878387387846
0.02258425426053084
0.08128580014664302
-0.3724716460959414
0.43408803028765924
0.42326218597124854
0.256856302846987
0.37410632462646315
0.191554738853088
0.07579318492191577
0.4918733656858885
0.32018549018317266
-0.08912325522945401
0.45776918445634335
-0.03376378630119347
0.24354037339528994
0.0825486097639346
-0.516285959312631
-0.08600066523081576
-0.2717534579841908
-0.05956147058061658
0.16299614152141736
-0.10866536670705984
-0.41843698928930917
-0.010736282294847741
-0.20071866393330767
-0.431717053418509
0.08589269224876048
0.09155712986054014
-0.0012406405899344013
0.33587917733459477
-0.24955616593895524
-0.04524628424465362
-0.4072660348846653
-0.24546267063657706
0.2806866571286741
-0.20678452205961717
-0.08246682713113679
0.13734921139704462
0.3702585256402289
-0.15762102728577387
0.3266674861025973
0.06819124058963419
0.2305643998829605
0.06289219864440969
-0.3474284535821005
-0.4348336322168223
-0.12782163154402382
-0.26566923892558447
0.5202400216143664
-0.38033704496130977
0.2667362582106209
0.2407276267677846
-0.3348412710948838
0.3435424019089791
-0.29972156805629174
0.13965133203527036
0.2505558381835538
-0.25834706054245304
-0.2033901734731746
0.5885786490541347
0.4264662916572315
-0.3521124582448632
-0.27943569267683505
-0.2673700208061573
0.5970386302360317
-0.3760414171255542
-0.4804751011897197
-0.428855041996232
-0.11738571194229662
0.24248344674394456
0.19556955126913766
-0.4656728234111403
0.09149591102079352
-0.09181879616308201
-0.17719394505045002
-0.32520643690923723
-0.14288089784507532
0.5318324303293936
0.14668066449452838
-0.04888991611474679
0.15687652299705235
-0.2404926332104633
0.4038808051656056
-0.35988765790193195
0.04176349024692545
-0.36991192817503293
-0.17929507714029644
0.14655771340671322
-0.3371101262892407
0.3393055164181009
-0.37897941436357285
0.16173920907900058
-0.18253999009542235
-0.5953394655369649
0.5838841840806271
-0.11857715923126903
0.18443273787777695
-0.10777151705728723
0.3299746484995074
-0.3296875220459094
-0.0655339237479647
0.1555061682635675
-0.08547848365127811
0.29905937685265
-0.23274231673916929
-0.005916772656455361
0.20163185847734375
0.5212222990718943
-0.04105715955432842
-0.21965874190211299
0.266854279328978
0.02750504403460808
0.5140050797339767
0.3854340961883982
-0.16584255768188774
0.15279351233876667
0.23362984474934123
-0.41038017218048456
0.052268284871647225
-0.20088940768578203
0.4720285979533296
-0.03576057649029533
-0.08512481756068799
0.41436690921415337
-0.26425549634999185
-0.3308139920337293
-0.019476313089174985
-0.18957610062406957
-0.009330442653027467
0.09544652590022759
-0.03412229046476324
0.4650668340675196
-0.000837525658534308
-0.3440893988351138
-0.4836891635100235
-0.09164649972861023
-0.1978293108668529
0.03062273759447817
0.442597473770798
-0.5660449504192794
0.4489370787587069
0.4562516534866486
-0.03974617328124244
-0.27662550969702476
-0.24791251961117688
0.37615366546761003
-0.0555189196750329
0.14759795814874907
0.043001441639419456
0.22798428110091679
0.2628179992607814
0.29640755932225865
-0.3660943550767748
0.29243262500238065
-0.3115761675348501
-0.47342875147168845
-0.043651334275842876
-0.04028623384076951
0.3917837692006793
0.017624073246373995
0.19675333119978783
-0.0910302975388732
0.3972081174443126
0.2753179440120664
-0.3636355234169669
0.19109271991442664
-0.0738921606380942
-0.028962387278196722
0.509801913172374
-0.13743636537982823
-0.280119894275116
-0.2030694192662134
0.47970478080812023
0.01842912913889619
0.303537435143217
-0.3953702772419559
0.33353650497124565
-0.1496220102364226
0.18520015047227728
-0.15197434276511704
-0.2603793738041688
0.23662505506294648
-0.23279392547347283
0.19539758527681528
-0.07272186488283452
0.28977667784855154
-0.24582769464212864
-0.5013620378498591
0.11521272631854938
0.16038897627180582
0.32554314296207404
-0.39850051856570257
-0.3826154398322095
-0.42766199574798963
0.22845649258890852
0.4266598447125822
0.40527579016388493
0.09604198596784436
-0.07841907538610053
0.401361773027279
-0.39744264845571836
0.3148561668839849
-0.13119225969192333
0.41015883882809884
0.1364385591191022
0.4621590748952271
0.25783899546351724
-0.28479313960931724
0.36941600144138015
-0.11307293143555361
0.11868582242154412
0.0880584931158072
0.5023688889139308
-0.49990914958878524
-0.07315378611593275
-0.3346715007643063
0.09241800434074725
-0.11864664440262437
-0.12784275871038628
0.007577257438499812
-0.10677905741248264
0.16489928983217048
-0.06015731530902886
-0.43319610097000194
0.2819859558604023
0.1418390973307933
0.367001827500017
-0.21579956839994707
-0.29173876834906365
-0.2529365409587459
0.11236249911103201
-0.4692695809192475
-0.03089627778478693
-0.01048170068948703
-0.23474097754973233
-0.4185330984886604
0.30975637796502453
0.45700515727525115
0.13970051152983684
-0.4508460597082244
-0.4132598380413143
0.24771150668828756
-0.30103491021894674
0.2300906760413478
-0.19083261978992364
-0.07641153603227854
0.12422457288325725
-0.4616297147590486
0.3591534854327274
-0.32632252605524714
-0.35661798924931626
-0.10659805411952872
-0.1356431315983665
0.041948138430602876
0.18742397113527046
-0.1154164280466683
-0.3531168697342647
-0.3111744447170865
0.47187673715283673
0.09576230716218807
-0.419182291074416
0.3622990741639746
-0.2895017435948534
0.2400468186829948
-0.3103410822658239
-0.4769036926293102
0.04548001447069649
0.1854729766137592
-0.4185300664435229
-0.22615476825548533
0.3340487781703116
0.4547178005746772
0.021714279968935005
0.24726599080325548
0.42279151592603037
-0.17707434260019994
-0.2601997602212633
0.061517563302149365
-0.34982980321482066
0.19114657545445107
0.013944019873639834
-0.03673293246026327
-0.2190279781487562
0.39781914039773003
-0.18276061503494268
-0.06159686659452781
0.16167390413467483
0.33258786576431554
0.31856885874168445
-0.2888956948130176
-0.07669447621686148
-0.0975942751674715
0.04057590813671376
0.010575989470411386
0.2830348565991727
0.17534505174223103
-0.18930992795610663
0.34741364771434524
-0.17895095954001486
0.4871802873971586
0.47350009420539513
-0.020933376016647784
-0.012952709216686174
-0.40038841121869384
-0.320014302438267
-0.2378338983439102
0.07451362816775406
0.27044438350095534
-0.010166562428851125
0.15176521864204692
-0.5026935921085358
0.11255476350436579
-0.418241082785515
-0.4183434539413156
-0.24212823529418664
-0.21272280902700816
0.19197887157092358
-0.41365632771825434
0.28204400607590957
-0.07383744304618985
0.4266490360774049
0.019139739211928544
0.2747587533211214
-0.24726856212746973
0.37869434752728964
0.28144314866302944
-0.13294605778706778
-0.4798606143105699
0.1436614087498714
-0.22352807359590546
-0.17481211915012115
0.1938643160067801
0.17937442720813532
