-0.0845
0.226
0.2025
-0.3825
-0.439
-0.0555
0.2995
-0.402
0.069
-0.2415
0.383
-0.0015
0.0745
0.4755
0.192
0.2755
-0.299
-0.4625
0.467
0.0955
-0.317
-0.4115
-0.1195
-0.2365
0.2885
0.214
0.315
-0.315
0.029
0.1555
-0.4595
-0.2335
0.1235
0.399
0.4495
0.1935
-0.42
0.0415
-0.4955
-0.134
0.0075
-0.061
-0.335
-0.0545
0.301
-0.007
-0.1235
-0.4595
-0.4135
-0.2035
0.3725
-0.1015
-0.2875
-0.142
-0.258
0.3245
0.058
-0.109
0.1925
0.3215
0.1945
-0.4335
0.313
0.038
-0.2755
0.4185
0.481
-0.484
-0.4865
-0.2845
-0.056
0.021
0.1035
-0.241
-0.0795
-0.082
0.413
-0.205
-0.123
0.3875
0.13
0.3675
-0.4645
0.0315
-0.4005
0.3815
0.0515
-0.3885
0.2405
0.0005
0.116
-0.364
0.031
-0.089
0.1185
-0.126
0.0865
-0.2725
-0.2475
0.2325
-0.104
0.3535
0.3925
0.156
-0.351
-0.475
0.1045
0.2525
-0.283
-0.079
0.4495
0.2245
0.0425
0.19
-0.245
-0.198
-0.125
-0.37
0.0285
-0.4885
-0.495
-0.1335
0.4465
0.472
-0.1085
0.086
-0.491
-0.3095
0.3325
-0.4065
0.4365
0.488
-0.023
0.1165
0.0085
0.2225
0.28
-0.138
-0.4435
0.002
-0.049
-0.345
-0.2475
0.0305
-0.1975
-0.0345
-0.097
0.263
-0.4765
0.403
0.3065
0.2775
-0.465
0.32
-0.0665
0.475
-0.003
0.4465
-0.282
0.171
-0.1565
0.0755
0.082
-0.1015
-0.428
0.408
0.204
-0.094
0.198
0.131
-0.2905
-0.248
0.461
0.4955
-0.2495
-0.361
0.495
-0.382
0.143
-0.499
-0.131
0.298
0.0435
0.107
0.465
-0.2805
-0.046
0.4025
-0.4375
0.258
0.0155
0.451
0.173
0.2215
0.2815
0.447
-0.0365
-0.0345
-0.497
0.2995
0.3545
0.4625
-0.1745
0.1525
-0.028
-0.278
0.3295
0.0835
0.138
0.2715
-0.315
0.1935
-0.07
-0.21
-0.0985
0.4395
-0.4225
-0.338
-0.226
-0.2515
0.4315
0.1465
0.1665
-0.335
0.0965
-0.074
-0.0925
-0.2335
-0.3625
-0.2785
-0.3015
-0.4105
-0.344
-0.2905
0.183
-0.406
0.162
0.381
-0.301
0.3205
-0.076
0.408
-0.4335
0.1185
-0.274
0.159
0.194
-0.2275
0.3385
-0.196
-0.411
0.2525
0.458
0.4405
-0.1515
-0.3535
0.0455
0.0645
-0.3185
0.3135
-0.155
-0.342
-0.3385
-0.2195
0.384
-0.1655
0.158
0.418
0.211
-0.3915
-0.0575
-0.2305
0.297
0.193
-0.144
0.3605
0.4005
0.4025
0.328
-0.432
-0.106
-0.2175
0.4005
0.236
0.14
-0.2015
0.4775
0.078
0.14
0.399
0.471
0.4115
0.1035
-0.4775
-0.397
0.13
-0.32
-0.0465
-0.4675
0.254
-0.135
0.479
-0.319
0.3405
0.435
-0.2365
-0.059
0.277
0.2525
0.4065
0.4045
0.158
0.149
-0.1035
0.3835
0.07
0.371
0.461
-0.4395
-0.327
0.4885
0.369
0.3825
-0.241
0.153
-0.028
0.417
0.2055
-0.232
0.4235
-0.016
0.4345
-0.281
-0.2445
0.196
0.4995
-0.364
-0.231
0.2655
-0.4115
-0.094
-0.3015
-0.37
0.398
-0.0995
0.019
0.4925
-0.157
0.1125
-0.4095
0.3435
-0.1845
0.1695
0.4925
0.0775
0.447
0.2345
0.1265
0.003
0.328
0.4505
0.2505
0.3425
-0.1005
-0.068
0.046
0.329
0.2185
-0.3375
0.275
-0.4235
0.0535
-0.441
-0.4385
-0.0605
-0.0345
-0.0225
-0.1075
-0.2425
-0.004
0.46
0.2245
0.1185
-0.1695
0.4835
0.2305
0.1275
0.465
-0.233
-0.2895
-0.444
-0.2195
-0.3645
-0.1705
-0.337
0.2485
-0.3375
-0.491
0.218
-0.442
-0.061
0.2765
-0.1665
-0.233
0.04
0.327
-0.1495
-0.1905
0.3105
-0.301
-0.153
0.3725
0.043
-0.448
0.25
0.321
0.1295
0.228
0.491
0.1285
0.1975
-0.3165
-0.243
0.481
-0.3935
-0.382
-0.164
0.225
0.3435
-0.3085
-0.0685
-0.038
-0.1615
-0.1905
-0.485
-0.3475
0.403
0.3675
-0.284
0.3565
0.436
-0.251
-0.0745
0.1535
0.0785
0.48
-0.1215
-0.4385
0.4535
0.395
0.4185
0.309
0.144
-0.404
0.206
-0.0915
-0.26
-0.1485
0.0685
-0.253
-0.3475
-0.4885
0.3465
0.0855
-0.0105
0.1185
-0.2545
0.159
0.4365
0.343
0.296
0.275
-0.343
0.3045
-0.1755
0.2845
0.0205
0.0435
-0.0485
-0.024
0.38698346574051307
0.30686804450448507
-0.3586196485832178
0.02401532641190399
-0.12899999755413669
0.25044532563934957
-0.49748871624733365
-0.21656189267084347
0.09846991406182184
0.40400023993489625
0.14750000014071596
0.3456508290538616
0.18285623837171366
0.137499861818037
0.43099999999761074
0.1838589197317453
-0.042976281709727775
0.43939359385972865
-0.166812919931854
-0.28650000288523086
0.4624585713766955
-0.11900002924582374
0.2052756341733959
-0.2935267801365253
-0.14289149553236097
-0.1563436603525624
-0.3999334349479649
-0.4565350806487419
-0.47499999601265075
0.44876877092229733
-0.21399470375326596
-0.1658664502487818
-0.2391904729688471
-0.35944849438757515
0.4060057448881832
0.18049983234930364
-0.16474858254867097
0.13086153190167799
-0.05800610712224004
0.03350358911231402
-0.12031938490159778
0.14097407413875465
0.4182354141535036
0.1439328202895424
-0.310931222313365
0.04577792964053366
-0.3499783797650241
-0.2079947270270748
0.29308604137736843
0.08830846125812754
0.24339408736419343
-0.2930555581862365
-0.4831091981992149
0.45243342200121245
-0.2270420843022289
0.37944904366188426
0.4615084809001303
-0.15501606494921608
-0.21799931570698342
0.009997511313326149
0.38966079689636773
-0.18209122309896045
-0.1417674477484132
-0.29561731084023013
0.04438664849012206
0.0053906686733009935
-0.42924731275838957
0.10247077542678235
0.10991333428070872
0.4877044540394717
-0.15699862521809163
0.13611032590674887
-0.3529710803819462
0.28924292505874905
0.4774940454858803
0.45393017347245124
0.23212158423373577
-0.054917338916585255
-0.3136132179085386
-0.338997336614826
0.09625835607303843
0.4510720677428364
0.30715215501499343
-0.1580762841373708
0.06448202602037469
0.5090901182159916
0.48130415894954365
0.2790802553074328
-0.05942519433752838
-0.2522429351996592
-0.15874853944855194
-0.1193658107132652
0.25028846706629043
0.43539175334686125
-0.4988679811690256
0.42321375299363756
-0.2842329878761368
-0.4270688302791117
0.4814994382908599
-0.04594025305796002
-0.30486003624863234
-0.42551673299578896
0.02003222550248228
0.2783469752789323
-0.08032708650451705
-0.4517220296931811
-0.20978576983413605
-0.2924979061165338
-0.2978112550938605
-0.04818343691537884
-0.2400349983257071
-0.047402688113612264
0.11405733910544083
-0.47159898221154645
0.008399817828996788
-0.33789913876827277
-0.04631675121404448
0.24480883525263325
0.09600231577240136
-0.48450275917043795
-0.4603396095942287
0.2906155236548636
-0.3858331819865978
-0.26484431017526333
0.3206068456878511
-0.2385323927245759
0.029060446154356483
0.3329701741133747
-0.20745300646894996
-0.22880598958850218
-0.14549741120413173
-0.17375215653867704
-0.4174806518490893
-0.4174896369712395
0.23699261751350392
0.36316375314596633
-0.44072500040329243
-0.06886236903609527
-0.2107728501586742
0.29472173781896416
0.28327695518761736
0.2673650771147416
-0.008732699988127656
0.43321629640717974
-0.2435176660652518
-0.2879108530911445
-0.15469459775155014
0.48272012658598884
0.3531231879077564
0.18571721787539736
0.01387602410815603
0.3676348141286657
0.12515713984728483
-0.40369285922772236
0.17013280827755678
-0.43737920847424
0.4117652006648287
0.4314425755358248
0.15199940435568896
0.4180594289628511
0.15312518464095362
-0.12334004396493234
-0.45396667075229485
0.1578575922331367
-0.11331902094613876
-0.3102339545537465
0.02034420168362495
0.4246485357141492
0.33046991270964077
0.1251088151046219
-0.39006365759468614
0.3090920613351758
0.020605350121235048
0.1094690224976882
0.1144697285018977
0.0011535470944282753
-0.04800789961762188
0.10728092373863277
-0.09799761110199852
0.18900209492030617
-0.22252341815476837
0.15989823596261313
-0.1436014243652454
0.11346108558646274
-0.2187441877764293
0.5317760364324821
0.21504680496893133
0.16762939451668346
0.4675969900081768
0.37604265751481586
-0.43875690882179136
0.4251663993539393
0.441619844098557
0.4461110812459457
0.1544921545256668
0.23523640673844967
-0.017762397957907055
-0.4232843879261629
-0.31641398095092754
0.38995973904190917
-0.06962231149062742
0.14624209314954087
0.11529813152534232
0.5426346320447216
0.039695449869723974
0.22413100007049067
0.14521755260079477
-0.5238219656944779
0.2309268726884856
-0.012509957362116575
-0.37525302262733096
-0.27316385612508076
0.07350257799180258
0.3711767714374499
-0.048306132331392033
0.04584008592324855
0.04182889237035552
0.15001298274037986
-0.007974063845166489
0.2411452040850805
0.34842528143371954
-0.39506374962640517
-0.3514388233939381
-0.26209049199720263
0.41325623074645335
-0.45345531389816834
-0.3429963942838252
-0.4940975393564205
0.1105297191451916
-0.4246694972601933
0.09674151557173265
-0.09505278323381557
-0.4584298765031563
0.3047339446845747
-0.24507070090548475
-0.18854670446330962
0.33614141225473443
-0.6114106279014634
-0.39363619926060756
0.4950256934833064
-0.3128097158846552
0.28492205180675245
0.21120252634290854
-0.3285158392560874
0.23107558447135448
-0.4176172061807755
0.4952570976837251
-0.4865698020848448
-0.0745219655236677
-0.17286109674552558
0.1506950090925171
-0.15890626445128023
-0.4834471108139292
-0.4178854010311503
0.08379525856158679
-0.37026073663555015
0.4455287275346255
0.18281126412277623
0.3315711069352627
0.24300634664034088
0.0013632641777994148
0.1648938259318997
-0.28225160686062073
-0.3781351043323533
-0.007693586087953752
0.36362670613051395
-0.233290163714673
0.27231688548339067
-0.10507898275079129
0.009695883381975754
0.08104781942802865
-0.13901733463282043
-0.007335250106259239
0.139825788575831
0.3037033388959832
-0.11347494978949899
0.3671833965304631
-0.34696376110047245
-0.10297328816532665
-0.05091407774314516
0.25007202429112974
0.4747769438999289
-0.11842534860268647
-0.44763885295353417
-0.39360401316260496
-0.049664110191050145
0.3636694841353181
0.2873721503795965
-0.17358543842430219
-0.2845752709214527
-0.3176391071624599
-0.0001031794151066146
0.3065693206747462
-0.28923797282641345
-0.20135601391236216
-0.4792461477837989
0.033869028537662826
0.305799097744142
-0.48313679723202535
0.11225582134718633
0.08345832370758605
0.23301625400578505
-0.16278755232028072
0.497984467642808
0.37805379112155657
-0.23307081112138084
-0.2053039313664568
0.37313456811167217
-0.03912018328607975
-0.004405492529772106
0.142120614027175
-0.4519062795446965
0.22792315790130752
0.22422500671125103
-0.07770451386763445
0.46574035281842996
0.3360315993036298
0.19509423681624136
0.2920904108525576
-0.4069930274192526
-0.1451184751400217
-0.0725756937347179
-0.0027516015267766715
-0.1621360152583159
0.30130697248096305
0.0936259780114588
0.12220973059006417
-0.30136807455007236
0.07230939396190222
0.4039517946605293
-0.1595210476432417
-0.19841228971837166
0.20352796722630043
-0.09253260135510191
0.24467203333504087
-0.4106198403040886
0.2506679884084618
0.122518063707377
-0.21893687892693636
-0.26191474201204845
0.23791613556766184
-0.37749557349410695
-0.2829311179947661
-0.4951348712953058
0.033421829726654737
-0.3116669645646088
0.03705716491510633
0.4627912090155072
0.32790847360414904
0.18685075752790134
0.43986188875648363
0.1316200735076033
-0.0952803980742958
0.09976267537790723
0.2057217945290937
-0.14458374890463005
0.23388175660478774
0.2986794748196941
-0.4747192628299388
-0.2597440452810532
-0.39035832657259967
-0.007230763776599266
0.27686994542016324
0.3137266645942539
0.12763347221890858
0.47389133790440674
0.07449352514216859
0.11528424298699318
0.1552203365893255
0.3349647892168515
0.11012016862600112
0.25680759676160125
-0.42592562361533615
-0.3160249217202211
-0.10469876336366618
0.123039899920501
-0.26696125841213547
0.20356861569445744
0.1754526013419387
-0.430987381585259
-0.4035977749631305
-0.09856732733097365
-0.295740292223956
-0.2989498304242923
-0.3966398183695342
0.12798732768541435
0.45971447010699384
0.14475396791760367
-0.2582672196363125
-0.11036135209469443
0.4235679966552714
-0.03202191317132645
0.12964803483400458
-0.16231934838037088
-0.45443398355051245
0.033668457225133695
0.05912956499245049
0.24191910948475687
0.35655164259350247
-0.4249009847666044
0.38649254983170556
-0.15152422161141982
-0.4098540800688945
0.028221907764907198
0.2509562627962951
-0.20023074154153617
-0.1313164406056348
-0.10726594973266658
0.20625648325489068
-0.08215435379491123
-0.4696169978048479
-0.29294784608264507
-0.01088858312393314
0.24988017267724058
0.20935975187247657
0.49547988727106096
-0.5090516246553763
-0.3096860457340609
-0.03272122835976256
0.40188905745407827
0.46210409864841445
-0.011309508574531165
0.4507278979187288
-0.10493891229204426
0.19571407222197526
-0.10192129616151013
0.3714835729540473
0.4528970737416112
0.14289028116383315
-0.434971351060989
-0.1063847288346571
-0.01805172152282613
0.1605438128929426
0.1713289179614191
-0.2586986724842313
-0.0038236222405276976
0.2810445182248466
0.06650734290587175
0.5073200521949458
-0.14797801383933296
0.06875434524784366
-0.04048018460345726
0.1903861669986155
0.2627165034949688
-0.15659766329478225
0.5159566389922295
0.30332970805031767
0.4121034366631111
-0.4089166287353618
-0.2023534863578704
-0.31198308451867873
-0.23603080813151991
0.06417376761273096
0.13272742415369895
-0.4659518471681692
-0.3526742771552863
0.3636206041625896
-0.4530682508066406
-0.25625897505817424
0.4685955249539955
0.02001177901163889
-0.30288063414279265
0.3510373125537643
0.03535189115778246
-0.1250461462758413
0.011976371035220333
0.19951931349724764
0.208732422625958
0.4717640617691958
-0.2661680448929031
-0.16661142156002334
-0.146244576001285
0.05711183693850989
0.011670092775509849
0.10648536649480686
0.3022228391552687
0.18127923782785405
-0.4135368999832316
0.29671556680743233
0.4658983213242243
-0.2703918324858148
0.5050624419937718
-0.25302769821619747
0.45038943098841144
-0.07593642588058608
-0.41857846221755496
-0.3647093981194247
-0.040880908364859164
-0.212320478274422
0.09476141297082016
0.2977732194356253
-0.24118218571556232
0.16378153839614704
-0.2015485920148328
-0.40666388916178653
-0.0651946498921644
-0.09848934504875206
0.39955070980798435
0.40809254166219144
-0.10019515111948699
0.15854415336878933
0.19271063980596204
0.5096036677514031
-0.3622045205681438
-0.4230130988328016
-0.28254282805394454
0.4653264009745237
-0.11803077743188557
-0.37073379542188917
-0.32851542011469814
-0.4216575823084514
-0.19366259437171307
0.11398465720300664
-0.41886808551354177
-0.506107869925532
0.4724948606798342
0.26271686551866563
-0.2606534101397844
-0.43029483009562725
-0.0011248298019213233
0.3071594700030931
-0.19957681202703514
-0.11117434932661092
-0.4658508987343177
-0.3050356355164088
0.4804867866972406
-0.06399570804403287
0.13449978045129035
-0.08300909471369844
0.32571008675134067
-0.07005312384288101
0.2895965389089049
0.012458818381267561
-0.2181381916129378
0.3709069738789397
-0.08797212308386503
0.40238649303878904
0.3845644324755002
-0.026702137845707893
0.08992203698367796
-0.49079065250386594
0.023411207871333793
-0.21578486290714624
0.31199772265988895
-0.06318667916089836
0.42253137910612615
0.4420799975554745
0.1937912489893224
-0.23686577644811663
-0.2373743137035434
-0.15244141865306435
-0.03570478070989736
0.109663074125815
0.04995565069059454
-0.2956633720254054
0.10115239208934924
-0.01950595017632328
0.28321938596443624
0.1156050989609469
-0.004241439323174942
-0.31022359345917166
0.39712581406549635
0.34034665368921185
-0.3686001925473867
0.3329215115374482
0.2378559939520447
-0.007177938453561126
-0.4659509889006054
0.2744584795504387
0.09976025271421458
-0.01903206703793819
0.3545930581173395
-0.09488161985358134
-0.4962793840364382
-0.24595105935433953
0.11828738715289543
0.2244890850130523
-0.18736542989318491
-0.11077067170737048
0.306546073733302
0.07630498838403986
0.11547102430622562
-0.2717665096889629
-0.13607502152619963
0.24937514061076252
-0.4097923532407559
-0.2464816884040232
0.3166588338417418
-0.010971095812386726
0.10189333683184183
0.19456947602954527
0.30768938713499794
-0.4220191499760384
-0.15990100855006079
-0.18240558004316795
0.1444064312121154
-0.25450943922270663
0.12439101488481773
0.28799825703094717
0.3374078986438139
-0.08856224334707405
0.00971063326560838
0.3552966434386362
0.19173126565999055
-0.019382858098786326
-0.07485365111729968
-0.004839406125051012
0.2607485411300096
0.17848517077774936
-0.029382329343985453
0.43456763117417824
-0.07089511213696306
-0.11985094414921116
0.16678203309075276
-0.20764944993179527
0.43459601558845634
0.030498855427677014
-0.2541464580909974
-0.2097891788291856
0.09236431738193976
0.018993661490398626
-0.4221910610515773
-0.4128733624772887
-0.06582676736999749
-0.0012392959352446698
-0.17811006174972957
-0.4080832940887357
-0.03842143922793937
0.294942892362994
0.24112427223669475
0.2515079147868731
-0.26179856264036355
-0.3877901133639594
-0.3570309433494679
-0.37100017115191747
-0.28430669435896677
0.4375527976471398
0.4253030593569258
-0.36654259898950553
0.3794477353532734
-0.16195633824170438
0.08765611976813398
0.3395056965153709
-0.10632914233337827
0.4165621816928639
-0.010690021751395598
0.26567823811179375
-0.4609658037932509
0.18452030257182273
-0.05032867657955219
0.2639226471150427
0.3825782764335003
-0.04829664677222451
-0.0031994140089916506
0.38787428219893766
-0.44803981039487456
0.2479460286630397
-0.40707358549658074
-0.01628822319191472
-0.17183317736304288
-0.49451865559998165
0.2715330953750126
-0.12245480136588495
0.35398159817501434
-0.13912623763891724
-0.39226558256984767
0.19246585260130128
0.10357539220169132
0.18368873901852603
0.3296610758697067
0.45800407623399536
0.1400236511922365
0.1087248031786214
-0.28508309033819834
-0.3649859764964761
-0.16826871647951608
0.009015891305467505
-0.18014622286503693
-0.15628058101480582
0.31512240328700497
0.3600646419215186
-0.25950480840060275
-0.017657489546382004
-0.15262194145820734
-0.29206801799959714
-0.06716218524765191
0.26853568933783983
-0.35812962491798755
-0.442177320164198
-0.48931792434989074
-0.007291565388618154
-0.31089937309875376
-0.19813506949561085
0.1946064486533837
-0.33913249178460003
0.08539366896157984
0.3365463423962704
-0.04816158378189321
0.0937197234532582
-0.20910182493261276
0.21764797328079835
-0.14536408678268029
-0.0578108362459335
0.13556506959721024
0.35385111842478734
0.278026508081687
-0.49034090729444624
0.43634436121724435
0.33949027278683747
-0.47373773920121626
0.4552863007571357
0.3406188135556939
0.38123581632653314
0.09809644861619593
-0.3205705922311797
0.28043446929761146
-0.08790710357371859
-0.3365479746647785
-0.14478740916376096
-0.02709202205092088
0.09396858861801649
-0.040777033149337207
0.4127842371152561
-0.302617000568829
-0.18666840337446805
0.0749608244320844
0.21083008472148673
-0.29894694435023644
0.05939477173182297
-0.16833872590193888
-0.1899148562725147
-0.40798943528044407
-0.40210018925557306
0.034206021490224905
0.2725129079518538
0.3805386537497727
-0.11102014942200474
0.19452680451636037
-0.34669924303993493
0.0979388123451842
0.4105617806112197
-0.43649096106032237
0.45196748997351466
-0.5038981361531983
0.22130191185820966
-0.4640135626864163
-0.3840165555601496
0.010048497360610557
0.3295658960199799
-0.0609618648290237
-0.03413888296022441
-0.36999449640934784
-0.1999807171808265
0.30967087614976274
-0.32598560295037027
-0.41814171404383216
-0.29550498324175134
0.3675409266988945
0.04877875774283267
0.2813985820087845
-0.15263109952475007
-0.3081188629212027
-0.2884750476621271
-0.44288123278275987
-0.1963142534111462
-0.18731111223872732
-0.35859848906095726
-0.28843103447218293
-0.19228285173448986
0.32268452394455016
0.21825632753363952
-0.10627563632407176
0.45778152443359355
0.1699486743535274
0.1964336086305635
-0.2825758095875453
0.3061951278032626
0.23788604691315016
0.4419219636231243
0.09490605242482426
0.3429685886180162
-0.03377703314933721
0.2862842371152561
-0.47461700056882905
0.4733315966255319
0.19596082443208448
-0.06766991527851314
0.03355305564976364
-0.04860522826817703
0.2511612740980614
-0.38991485627251454
-0.04998943528044412
0.1918998107444272
-0.3882939785097748
-0.39448709204814625
-0.2634613462502273
0.08947985057799526
-0.21847319548363964
0.2463007569600652
0.2384388123451841
-0.2544382193887803
-0.1929909610603222
0.38696748997351466
0.26960186384680174
-0.36519808814179044
0.22048643731358408
0.33048344443985045
-0.05445150263938944
-0.43393410398002014
0.08403813517097626
-0.3861388829602244
0.36800550359065215
0.07651928281917358
0.052170876149762915
0.32951439704962976
0.17785828595616748
-0.13850498324175162
-0.33995907330110553
-0.3962212422571673
-0.44560141799121555
-0.4031310995247497
0.49338113707879727
-0.49097504766212713
0.4756187672172401
-0.3018142534111463
-0.3898111122387269
0.4254015109390427
-0.028431034472182794
-0.24128285173448985
0.19718452394454966
-0.45274367246636016
-0.2732756363240718
0.25378152443359353
0.4249486743535273
0.3199336086305638
-0.009075809587545168
0.03619512780326273
-0.018113953086849793
0.3074219636231243
0.09240605242482426
-0.14299949918842525
0.14772377508483467
0.06799963267746437
0.0035068220963606345
0.46943345991859725
0.2460545035918932
-0.24549531174164657
-0.46753328901768554
0.07535224306943375
-0.24449981161067272
-0.2810000452554592
-0.22450059857227778
-0.3195046368515349
-0.25249999825681113
-0.3009999383058042
0.25899999739980356
0.07100001091594084
-0.2525529385298151
0.336500053985236
0.32899977591051716
-0.17699998281435955
0.009011255401616755
-0.19099998475413144
-0.3145209836454952
-0.3255000064082609
-0.24829831944781808
0.3686837244514784
0.2745127343011827
0.38100000094403186
0.4665000084756568
0.3799891662949732
0.10150033002045364
-0.28049928123225276
0.3059954738551902
-0.0480081296950486
0.000853811313607924
0.4059921835825737
-0.04449594785668009
-0.022353336268534127
0.02149999821027216
0.19998480227615287
-0.38898955676372327
0.018498748624101093
0.4930013205447263
0.11847979155526785
0.2990773606962306
-0.29299446223093834
-0.10300415025211355
0.14149999439059918
-0.43000008753274277
-0.3675014635711404
-0.25355621263000366
-0.3051469220631747
0.405500002709478
0.440924022337282
-0.04899857158852764
0.07804524989764265
0.47149464625632465
-0.3705000022290597
-0.14750026407184752
0.3045
0.1165
-0.4305
0.278
-0.402
-0.07
-0.1965
-0.432
-0.2995
-0.3225
-0.357
-0.071
-0.4785
-0.376
0.3515
-0.4855
-0.094
0.021
-0.0535
0.341
0.107
-0.064
-0.439
0.359
0.14
-0.0645
0.442
0.1655
0.241
0.119
-0.485
-0.5
0.0425
0.3315
-0.113
-0.497
-0.002
0.485
0.498
0.0555
-0.4725
-0.4535
-0.165
0.0915
0.303
-0.022
0.0375
0.0895
0.2905
-0.063
0.166
-0.3285
-0.3815
-0.103
0.0635
0.4055
-0.2345
-0.383
0.1065
0.316
0.4625
-0.498
0.155
-0.1475
-0.0355
-0.2055
0.1805
0.2245
0.235
-0.0375
0.2
-0.3145
0.3525
0.393
0.171
0.0255
-0.1475
0.225
-0.2555
0.147
0.086
0.4325
0.1565
0.1215
-0.086
-0.4965
0.2575
-0.36
-0.3805
-0.4995
-0.3055
0.471
0.31
0.123
-0.4085
-0.491
-0.1975
0.237
-0.3395
-0.065
-0.2945
0.0235
-0.4895
0.472
0.395
-0.346
0.2445
0.433
0.104
0.406
-0.4015
-0.281
0.0045
-0.475
-0.3655
0.2045
0.007
-0.31
0.437
0.1985
-0.2635
0.0585
0.2385
0.229
-0.1985
0.222
0.344
0.0955
-0.1065
0.439
0.4595
-0.1605
-0.499
-0.2075
0.118
-0.4285
-0.0535
-0.434
-0.0235
-0.4915
0.4475
-0.0925
-0.3275
0.0095
0.1345
-0.013
0.1365
-0.312
-0.042
-0.3045
0.336
-0.1725
-0.3415
-0.182
-0.0655
0.452
-0.004
0.0425
-0.0385
-0.023
0.2165
-0.4295
-0.4895
0.474
-0.125
0.314
0.3235
0.136
-0.309
0.304
-0.192
-0.183
0.096
-0.1215
0.404
0.085
0.4635
-0.2935
-0.364
0.276
0.47
-0.358
0.4285
-0.4785
0.2675
-0.1825
0.425
0.235
-0.174
-0.059
0.059
0.234
0.337
-0.0735
0.327
0.1405
0.0215
0.399
0.1705
-0.2055
0.432
0.2195
0.235
-0.3015
-0.491
0.284
-0.0315
0.3125
0.264
-0.128
0.09
0.1585
0.045
0.368
-0.114
0.3895
0.0755
0.3375
0.4225
0.0635
0.311
-0.4025
-0.3135
-0.4895
-0.141
0.2695
-0.234
-0.4435
-0.342
-0.3285
0.3875
0.447
0.4505
0.245
0.2745
-0.28
0.122
0.0575
0.111
0.3965
0.0265
-0.0555
-0.3925
-0.07
-0.4145
0.3215
-0.0895
0.386
0.367
0.387
-0.256
0.2165
-0.1315
0.2285
-0.475
-0.2245
0.495
-0.23
0.1845
0.2415
0.0835
0.3175
-0.003
0.0975
0.245
0.4755
-0.318
-0.285
0.459
0.011
-0.3455
0.051
-0.471
0.4245
0.2355
-0.0095
-0.465
0.13
-0.438
-0.449
0.166
0.09
0.3465
-0.072
-0.331
0.4475
-0.466
-0.3285
0.2665
0.205
-0.452
0.156
-0.11
-0.211
-0.382
0.2495
-0.315
0.104
0.0535
-0.1265
0.449
-0.317
0.1615
-0.3375
-0.222
-0.1525
0.2415
-0.2455
0.0205
-0.273
-0.073
0.2435
0.068
-0.3015
0.2235
0.391
-0.0925
0.17
0.214
-0.2265
-0.2445
-0.2445
-0.194
-0.3475
0.315
0.1555
0.1195
0.2155
-0.2175
-0.054
0.065
-0.2625
0.3665
0.3595
-0.1625
-0.3995
-0.236
0.1275
-0.32
0.4885
-0.241
0.4195
-0.2505
-0.0195
0.328
-0.0995
-0.349
-0.0385
0.3135
0.3815
0.1235
0.3755
-0.415
-0.3145
0.2415
0.2485
-0.194
-0.298
-0.4185
-0.2775
-0.1545
0.4805
-0.151
0.37
0.3965
0.3905
0.074
-0.183
0.0255
-0.136
-0.083
-0.1205
-0.454
0.3675
0.433
0.353
-0.411
-0.2245
-0.3525
-0.2145
-0.055
-0.2615
0.407
-0.429
0.289
-0.0655
-0.421
-0.369
-0.266
0.249
-0.0225
-0.1115
-0.1535
-0.481
0.3295
0.158
-0.1135
0.1295
0.449
-0.4745
-0.45
0.262
-0.4795
-0.4145
-0.0295
0.009
0.436
-0.1865
0.399
0.099
-0.205
-0.431
0.368
-0.1905
-0.1335
-0.1905
-0.2925
0.353
-0.0825
0.4035
0.458
0.4405
-0.3955
-0.187
0.024
-0.0565
-0.462
-0.4565
-0.428
0.1085
-0.4805
0.4725
0.156
0.0105
-0.474
0.1785
0.22
-0.3715
-0.393
0.1525
0.205
-0.136
0.122
-0.2795
-0.462
-0.4435
-0.382
0.049
0.2615
0.3455
0.484
-0.022
0.3005
-0.318
-0.2435
0.4805
0.197
0.0135
-0.288
-0.434
0.0735
0.4495
0.483
-0.3795
0.0005
0.4995
-0.488
-0.4705
-0.235
-0.2285
-0.0165
0.4065
-0.4765
0.1775
-0.2165
-0.054
-0.49
0.2805
0.0845
0.429
0.438
0.1595
0.3735
-0.486
0.2395
-0.3625
0.3405
0.3895
-0.3855
-0.038
0.0255
0.007
-0.167
-0.36
0.3865
-0.4785
-0.28
0.277
-0.1515
0.276
-0.236
-0.1625
0.404
0.2145
0.1565
-0.2855
-0.107
-0.24
0.4155
-0.474
-0.0595
0.072
-0.4475
-0.293
-0.3425
-0.1945
0.1745
-0.3595
-0.4135
0.058
-0.3935
-0.341
0.453
0.307
0.4335
0.195
0.1825
0.1055
0.4235
-0.4475
0.127
0.086
-0.3565
-0.1785
0.0075
0.3005
0
0.1265
-0.285
-0.008
0.0095
-0.4725
-0.4985
0.1655
0.182
0.4245
-0.3155
-0.309
-0.439
-0.4795
0.283
-0.1055
0.0685
0.161
0.0005
0.3815
0.349
-0.2005
-0.168
0.0915
-0.469
-0.431
0.3055
-0.1575
-0.058
0.451
0.4715
0.497
-0.4845
0.1665
-0.381
0.347
0.1165
0.1265
-0.142
0.3175
-0.4555
0.393
-0.155
0.324
0.0075
0.394
-0.039
0.149
-0.0555
0.2235
-0.408
0.3365
-0.23
0.019
0.441
0.006
0.436
0.1765
-0.3745
-0.3155
-0.217
0.1105
-0.382
-0.351
0.486
-0.078
0.275
-0.298
0.4505
-0.43
0.1605
-0.1265
0.009
-0.479
0.391
-0.483
-0.3905
-0.24
-0.3015
-0.369
0.312
-0.0175
-0.0215
-0.345
0.4725
0.016
0.401
0.2855
0.0675
-0.477
0.281
-0.193
0.2525
-0.09
0.308
-0.196
0.143
0.413
0.326
0.216
-0.4305
0.0545
-0.0175
-0.424
0.2325
-0.241
0.461
0.219
-0.034
0.4755
-0.4685
0.4985
-0.13
0.2935
-0.215
0.436
-0.4405
-0.099
0.001
-0.0435
0.1975
0.466
-0.456
0.355
0.1175
-0.2995
0.2915
-0.417
-0.138
0.1865
0.1205
0.0265
0.336
-0.248
0.0525
0.2655
0.0525
-0.296
-0.4675
-0.275
-0.456
0.236
0.3605
-0.0595
-0.295
-0.349
-0.2615
-0.0735
0.2085
0.341
-0.116
-0.3735
0.0365
-0.1915
0.316
0.026
-0.4445
0.401
-0.149
0.116
-0.1175
0.1605
0.4945
-0.0605
0.284
0.338
0.4725
-0.303
-0.006
0.329
-0.1455
0.1785
-0.0495
0.3415
-0.2025
0.3145
0.0825
0.1765
0.4965
0.207
-0.429
-0.086
0.013
-0.205
0.073
0.3785
-0.0025
-0.2635
0.0965
-0.145
0.179
0.39
0.2915
0.357
0.254
-0.2955
-0.02
0.134
-0.129
0.3605
0.232
-0.206
0.462
-0.456
0.469
-0.2955
0.229
0.2845
0.2215
-0.1395
0.4745
0.2965
-0.115
0.3915
-0.0915
-0.0305
0.3705
-0.2545
0.0625
0.1955
-0.4285
-0.1175
0.265
-0.4985
0
0.459
0.1195
-0.109
0.35
-0.2175
-0.1995
-0.232
0.301
-0.442
0.3185
-0.3345
0.0735
0.2175
0.0085
-0.3295
-0.1975
-0.26
0.143
-0.2845
-0.349
-0.4965
-0.1805
-0.0495
-0.3995
-0.01
0.1355
0.191
0.3455
0.0335
-0.379
-0.4075
-0.4955
-0.3965
0.443
0.368
0.4755
-0.4645
0.436
0.0645
0.296
0.102
0.18
0.3875
-0.4265
0.1485
-0.0115
0.3965
0.108
0.341
-0.2665
0.495
-0.051
-0.233
0.077
-0.346
-0.0735
-0.136
0.347
-0.251
0.1735
0.104
-0.0895
-0.008
-0.198
-0.195
0.1635
-0.3475
-0.48
-0.039
-0.0655
0.105
-0.1255
0.247
-0.1125
0.334
-0.4685
0.2255
-0.2685
-0.494
0.292
0.033
0.0125
0.2175
-0.4625
0.0635
-0.202
-0.007
-0.3235
-0.163
-0.2555
0.251
-0.1635
0.1705
-0.4315
0.2245
-0.452
-0.207
-0.3715
0.289
-0.0425
-0.123
-0.3435
0.1115
-0.1385
0.4355
-0.1695
-0.425
0.133
0.053
-0.413
-0.3855
0.279
0.215
-0.157
-0.3415
-0.4365
-0.236
-0.0315
0.311
0.195
-0.3185
-0.3645
-0.102
0.139
0.294
0.099
0.0925
-0.0935
0.077
0.1785
-0.1875
0.467
-0.423
0.4865
0.323
-0.337
-0.28
0.2865
0.135
0.2480246457396376
0.24370672311037772
0.23932242164545484
0.1563586061035266
0.005584304500972061
0.12463298234807625
-0.2945054351364727
0.049817226017752146
-0.2561911030387354
0.32651882237487023
0.28833125454534225
-0.07342594669162654
-0.41475664791017836
0.2859766372040646
0.43449969450092746
0.4542973742010233
-0.41120945500851347
-0.4408237432320234
0.21365641290829032
0.4562117578800121
0.44925697084856114
-0.04632153161423753
0.10586945090014743
0.417998565819233
-0.27106157012501186
-0.23918215553324693
0.3355794547403234
0.29850400745503813
0.39699135851600537
-0.2691016854038466
-0.4879921605634085
-0.07985319441717219
0.44440773647202036
0.48335324028482957
-0.0529258874601611
-0.4090533568763907
-0.42822073414220807
0.4493054967067371
0.4281924943842745
0.4484828291723996
0.06992015689568336
0.01739149552318794
0.21020749611460296
0.2579545625396867
0.19609057826702808
0.08650287735798219
-0.19045769401869056
-0.46202341866984814
0.17632106212902687
-0.00646914380205354
-0.42547125493800647
-0.09968282043726873
-0.2775526681167796
0.09270868222628756
0.189975963855251
0.16492650374079584
0.03981879854557281
-0.08133180307456814
0.4265000272814047
0.07482758355551856
-0.16049188851984955
0.3525747676148629
0.16620277306223705
0.0428739325154306
-0.21791569305316455
-0.2664216920125742
0.19000584861619305
0.1292553333469087
-0.24172118897691364
-0.19948093769023337
-0.1691687453139419
0.18422488236223508
-0.3984004095384646
-0.07802350097789833
0.27849969449853823
-0.006843706067231452
-0.26418573671824114
0.09706985062770541
0.20984349297643634
-0.3437882450052188
-0.05328445777474327
-0.4138215608600613
-0.19185491492645682
-0.043528214317292035
0.052546934342627305
-0.33252581588580943
-0.5023539802076419
-0.4475310731937037
0.35549136250335456
-0.15333291448154948
-0.1689868643166745
0.3447803553340462
-0.0347827364968269
-0.46409525410274555
-0.13492014257197782
-0.11355352452708715
0.11753068330912093
-0.3988329713915848
-0.23881361273796553
0.25148641828471363
-0.30789922800591396
-0.1426344303380574
-0.09405708973189328
-0.403112617170771
0.35465935595366305
0.1152808069985158
0.07256392621628538
0.41598185430307716
-0.22459289649360453
-0.32416068254392605
-0.10857716757381285
0.16876162137649478
-0.2681618663159945
-0.021857895772500007
-0.3105661204469781
-0.038624452597319725
-0.06817272055429693
-0.11084786802378421
0.3010007115744211
0.24432509486884463
0.0378008067697535
-0.3021226377008075
-0.28357961698660655
-0.3840139760325305
-0.14687095215442267
0.2793292662023212
-0.24117277468998044
-0.050282048024810885
0.1413844459498482
-0.3174160886076586
-0.1351832026526586
-0.2952837902795839
-0.32546725709496127
0.3298284178338091
0.169526089785614
-0.4668760208872494
0.4409482283940495
0.2838005880277403
0.3338376613719431
0.49087547197329234
0.3447264689016766
0.46464480660714175
-0.47553856633576785
-0.5031070949409909
0.43566193784468904
0.0006302547478312997
-0.4659978933047536
0.46076020114009686
-0.31481347171604734
0.06863948466250816
0.23940771318284768
0.14642825196583517
0.2966688237913785
-0.3915666432551335
0.26658386227038144
0.3729590558149657
0.4073676500669888
-0.1123336954688345
0.0742321118494916
0.010880602473139371
-0.11698692488079648
-0.37524813273685087
-0.1206710883215969
-0.40413207191372036
0.45709650734560475
-0.3111617582092561
0.27736926645693
0.22824673950223232
0.3788861917549625
-0.3154918444383361
-0.19080672382547886
0.25722108332695065
-0.33343929004344836
0.30659198570006324
0.26075456975472167
-0.4090864230907568
-0.003934128581192167
-0.03586054534993892
-0.43410085139767574
-0.1336609819483627
0.032158395668130536
-0.29374983171756186
-0.09157937089838257
-0.12225227286922054
-0.3351451103230038
-0.512043739267813
0.11883494013489906
0.16171777107494612
-0.16370438044997057
-0.13760060615338954
-0.20524744967167843
-0.24359193589167794
0.4818864775929199
-0.3945358912762422
-0.19363411680547554
-0.16107347863809834
0.43424632735017427
0.3629685788405096
0.28044933616991197
0.4187548667278276
-0.33971063367408777
0.34792188543859803
-0.5256088265840332
0.4675370498350354
0.08715495105011406
-0.3043947586610548
-0.13420315680607586
-0.26991050952710327
0.1343703286833439
-0.27032707120544713
0.06444558243751383
-0.3468742134194503
0.14337802614119624
-0.030358576856853146
0.14238461825108795
0.1274983784729633
0.08153098931438976
0.19800055810971018
-0.1179278069968615
0.057978766998022804
-0.4424658645235353
0.3878722631937409
0.40621088127537547
0.007009390426458103
0.5078951056517093
-0.22516487867921486
0.3823737006223489
-0.07702155541964566
-0.33410636525782494
-0.25729755298399143
0.3479657346200494
-0.26854057253069696
-0.4143310056755418
0.3902640590913344
-0.3352897305061606
-0.13284592117333982
-0.26076682206422386
0.37196067298568186
0.15658934916577677
0.2326762285164616
-0.5716913338131994
-0.2685601904855522
0.2313526956879883
0.44664748670261034
-0.11995198943080401
-0.05521772503708943
0.27596886769744744
-0.18764884332106743
0.2744119634169937
-0.00010228007550465631
0.2796192957434235
-0.12145438887519613
0.1766769004259071
-0.20202987027403335
-0.01877038537418916
-0.46276572545348377
-0.45403274413434325
-0.014076588281998802
0.4316076036381632
0.028480310819197857
-0.3124336164552709
0.0671824767457456
-0.35873914093412995
0.39866121582592434
0.3811281596851576
-0.32415956779761085
0.3692911848370443
-0.17496798695365806
-0.43515974401201235
0.08777026134614133
0.4321616302885251
-0.31108647878471846
-0.2970489462262313
0.05977480070549697
-0.07456444189311977
-0.20356950554357037
0.042952840331591975
-0.4509122955051494
0.4084412825490234
0.39276229767396736
-0.22916417712497217
0.015451310483661577
-0.4692207862349969
0.03589517991564409
-0.1659629087315402
-0.3974148818041142
0.07954612927225677
-0.16319356246508812
-0.12194138056474449
-0.0750158928800609
-0.3828064041462553
0.20861760206883692
-0.36488380761653494
-0.08856262894662417
0.05169350611574902
0.28768102636640686
0.10082595487448204
-0.281174023366135
-0.5156354221948986
0.17775524334488474
-0.21290024098985125
0.12147783028254482
0.14804632464362064
0.10110658952053347
-0.16309041335027313
0.3703303442358261
0.08621304916665606
-0.46628648040828524
0.20100031268234375
-0.036564207212231345
0.3707186633562731
-0.20824770696952863
-0.29514923928126297
0.3696424373712213
-0.44547854036103324
-0.22870696013640326
0.02920196962014064
-0.2780694676702997
0.4076774821969425
-0.35828437655174405
-0.18857826774392417
0.29863513019198124
0.2712925260698326
0.28973344571027904
-0.1930197517372817
-0.14379011785688445
-0.14915064000065328
-0.298824016143371
0.20547071519602753
0.07855824881071168
0.4142177936807231
-0.11676047470235154
-0.24196637846200686
-0.3949399054523931
0.0801881136439388
0.13796403876882538
-0.15121489307810396
-0.00869787962358978
-0.21112675375876885
0.1373388326308274
0.4897295505229365
0.2692845988126397
-0.09876381026895836
-0.09698434272708428
0.4632140570927507
-0.33357743754550034
-0.1518245003323175
0.264232091398018
-0.31737383307986583
-0.3286747033128728
-0.4090534276942689
0.06963796213043345
-0.01852091310873866
-0.5728884678910148
-0.0167247223536611
0.06253710703297688
-0.492553156637385
0.047549914333484426
0.32214526615063455
0.11047378265274628
-0.08978674643499755
-0.0018504062058338864
0.25873484715994977
0.2296092062879545
0.1068005482904501
-0.02141497500912626
0.50241661272419
-0.18381591387430668
0.5771777907028116
0.5102018420566937
0.0628701524510572
0.18013017080653165
0.0845497194856582
0.40205488994416105
-0.25478441609086533
0.2141430724816847
-0.4184485539670466
0.22723240148367
-0.0808028907896956
-0.19142172377618072
0.12323930442778895
-0.23685939929563407
0.21237089760746047
-0.2315390283453181
-0.2332756051522635
0.35311372215933057
-0.26209310120346685
0.23241490803228193
-0.1986981779852789
-0.007867969758652152
0.2955518947632087
0.19822230105031788
0.20624371195248964
-0.33966818123225034
0.32433271629506866
0.3564284350586575
-0.3682464874467463
0.2856556735170026
-0.4198069504204185
-0.06039425565308529
-0.2561753252674357
-0.017785811902138415
-0.1653752613954763
-0.05933982566489329
-0.3576304609347966
0.2933535086292456
0.4212489350502909
-0.4365359418038244
0.1881299169703782
-0.4347076771930573
0.04023741362020764
0.019817509268808705
-0.11811383783519759
-0.27281299022015953
0.04598315794310846
0.40468625042923134
-0.2628905497387614
0.2682734259827613
0.17727876841364879
-0.2623648117222895
-0.017272717216980066
0.3630700093798302
-0.03509163775667277
-0.0729546497496315
0.41955976906854014
-0.30996835967418745
0.4261739919883422
0.4388274733727074
0.5261532779688824
-0.37208170957935977
-0.410045998922022
-0.3377250624174104
-0.516223949042315
0.01777032578732937
0.0848044471634621
0.10897063929039232
0.013832715176379979
0.609681862714515
-0.137479100498963
-0.10025495149797238
0.20652235582784778
-0.4166006924742622
-0.13558315853139996
0.10810770590895205
-0.45450633058900114
-0.22316622613548576
-0.33980943334994895
0.018874393538590717
-0.2766331541162603
-0.2762859649714306
-0.09259486117932234
-0.31964641028609464
-0.0026112906657937036
-0.3314954534649337
0.19429961795587108
-0.41603235437489283
0.06547900015913735
-0.07659407536658051
-0.26330157654722486
-0.008432904226867197
-0.027666464021011947
-0.48534127398908533
-0.369953001489803
0.27865830080513476
0.02129798499612162
0.22049346871893305
0.3107556344265082
-0.0242818801210432
0.3250590853610556
-0.4083471918446146
0.3986577920836534
-0.2504511001991957
-0.2581206226854052
0.29473257305708106
0.2952526055397278
0.2407231092019627
-0.019494482584723444
-0.2281013212466544
0.23902484883371533
-0.4462025757115596
0.24683362495107852
0.015169671755965997
-0.12746129746928792
-0.0658003012184064
-0.1344885555657098
-0.3396448490018312
0.34618445210917226
-0.3381417479961301
0.3291101283164197
0.35106974755918036
0.3992610366685634
-0.01911172888293208
-0.700171320892528
-0.15229932690868475
-0.015549354253462468
-0.3372404728593229
0.25105833144752837
0.30052184403418014
0.2860419884010347
0.22282208243847096
0.40650587914382696
0.35652064245008597
0.08303889708783965
0.05388229247102576
0.3413837498180002
0.6632942452339332
0.2870596906884454
0.3727684365522153
0.14116636568001814
-0.24261586830472295
-0.05114839806154805
-0.06861730276435393
-0.23488882905499886
-0.13316199099241355
0.09852614745348727
0.13522968595081264
0.414317951004893
0.3676764017372808
0.4507986084501123
-0.21556001379728323
-0.13526156748898432
-0.11518969098046013
0.08105335755190311
0.21892555194574748
0.10994170519121449
-0.13090384607800537
0.3730375785349651
0.23592013450821236
0.2999552134577688
0.34423881323565964
0.060441715336483036
-0.09879038970426035
0.0008965526132655517
-0.07119762642298957
0.20684511194985924
0.26572585307561103
-0.36547573085025614
0.1261109683005311
0.4936640112193367
-0.3806448723431455
-0.15716410581530593
0.3966189154503452
0.27847486522954196
0.03710623033189548
-0.16768301828611887
-0.07524809658459841
-0.00579812730765001
0.20937752429162812
-0.25698651489447666
-0.3565200715935658
0.023019032726487535
0.20976692033723365
0.19598638550342104
0.05058839802692017
-0.22424109515781007
0.4702528270158936
0.3220997047081005
-0.32267457169313857
0.44774612373763756
-0.4061832237492935
0.42333592444654267
0.337655639158667
0.22297674141730012
-0.07861535567218834
-0.5423276136102037
0.3599450765440222
-0.15479200129609033
-0.10261039430528633
-0.0840174378510723
-0.022191777183691717
-0.08487370120184161
0.12992600158521395
0.15979833876882907
-0.2925675527136894
0.14332283159771203
-0.4107877736314124
0.2395480854660904
0.5076467957563607
-0.23014741844520753
0.3247597856222051
-0.33455068871668353
-0.104461167655575
-0.35602406173966233
0.36633720768823136
0.22069484770254005
-0.47303459705778184
0.4733665375510587
-0.3653152635887156
0.1561550338856694
-0.05801137120905191
0.25731661104732845
0.23626650687227901
-0.3186678579824994
0.07370823963470252
-0.09921103780142884
0.19787624532053488
-0.028415072441109905
0.029510438312898426
-0.14057281876784444
0.4685948447868705
-0.22717071746447037
0.04321698042358179
-0.06757075426849768
0.057920409807968705
-0.15007050807119576
0.3089912877704691
-0.0538255650758904
-0.050326015435624975
-0.10025541398648179
0.32627707186122584
-0.26439550043103655
-0.36458264605162877
0.06552465041967792
0.11721478195386512
-0.23632467299658402
-0.3876247581678904
0.45991986546971414
0.15553129989444392
0.394183504613334
0.3402586267662803
0.32592665736995907
0.3365713472033201
0.1693410199694835
0.09735265725528619
0.3376797135196895
0.49985268911022246
-0.08858889184959311
-0.575266642384948
-0.2603330262395596
0.13142531950383707
0.2934918313094998
0.12747299863619188
0.5233664611774751
0.1914824963898741
-0.04643024761400817
0.1586865819244542
-0.4269014126702139
0.19812384117746032
0.30331916403693376
0.13672371480325732
0.24600314420345357
-0.15736612701238173
0.44221820290705827
0.2676654145863046
0.5847755194945121
-0.34859878353978485
0.20615233810512135
-0.4790655038760098
0.40267241381629176
-0.07001805893552096
-0.10539664223736336
-0.24299779683490452
0.36623914413987124
-0.374132545557142
-0.2741825063416912
0.4374710905070831
-0.33266889747226874
0.2406857014061437
-0.32549286153565504
0.2361625404901389
0.37596616560842766
-0.1482017762758686
-0.02021297784070227
-0.10191519923658507
0.030243547364873304
0.08434853358666539
0.5722532120870836
-0.4168970748229083
-0.20470317716480554
0.0260008007170631
-0.01686638348382245
-0.28345044155150834
-0.406126685101349
0.32451653045856094
-0.4243643140069828
0.020248930538385633
-0.1213024785987681
0.3440304031452729
0.22027116636375685
-0.07425553778910884
-0.3611807160678648
0.42315998408360067
-0.42402941466185495
-0.03855621326600339
-0.24138553698311596
-0.1397805227272596
-0.37029308893606017
-0.08156729934708637
0.1278227475363341
0.4376096067044772
0.40265350826505825
0.14540194129560088
-0.06767250871549141
-0.25411265085137924
0.32323880018754014
-0.3830695366445278
0.40421487065021766
0.5693741511422397
0.16377655180103964
-0.47061495019982064
-0.48847042979053307
-0.11757973263582043
-0.25333257134494835
-0.5003802523105677
0.22981795037596384
0.1687823152726021
0.17498349948712774
0.3603985984128695
-0.08170945333802732
0.1732424051288235
0.3372890960542993
-0.5699733866332165
-0.16912541050475927
-0.31722816237456875
-0.05587809603235129
0.2666273210137332
0.0025137735292803495
0.35923435424183386
0.3225057553126882
-0.3401768167399173
0.34908639836370875
-0.3645137783445571
-0.31569701365556085
-0.30408785665353355
-0.34557221657163917
0.06828269059959008
-0.37631695584791874
0.36333722358617676
0.05174150352703382
-0.06193358862280186
-0.08707016839104811
-0.13697360160846972
-0.046993726050825343
0.11142835013445285
0.1221393825279723
0.0004255957799780236
0.36661039869671025
-0.08641055425551142
-0.11174624024911746
-0.07284863580666116
-0.03826236703750981
-0.5536228323263896
-0.47365725638934286
0.4473148330685662
-0.6210651366906682
-0.23287205201516611
-0.11306661642691895
-0.04164133405673689
0.36405832978933045
-0.08207106234832387
0.291617239764144
-0.10672954588625104
-0.2830805125052597
-0.09583356091624903
-0.4549207277073762
0.4248073003768742
0.16782012599424972
-0.05015156146079162
-0.3356656669067419
0.23355735973766378
-0.4628370889320493
0.22131317901987774
0.15315443495977316
0.36316574402898166
0.4633603651047157
-0.1975264977275491
0.25211045542492044
0.3098551684674439
0.151828622074911
0.5164999077988812
-0.4509485697168631
-0.20495226841697173
0.5411737840988201
0.27147621549032735
-0.23069698539865863
0.5171832539997104
-0.4070484698142858
-0.14280568731519616
-0.26241615301852916
-0.11086960124366446
-0.15787123336522596
-0.15731152345820695
0.3921374028445814
-0.012879667998679244
0.29489940754689464
0.3216491330724588
-0.1238687897473913
-0.3399212887491231
-0.06050695328382234
-0.09803832185795686
-0.39132804559921636
-0.0538913560769615
-0.5124553505161477
-0.18429007849693355
0.054102228048543706
0.3601764232837312
-0.2970439816702935
0.3725747130446528
0.4173355971322896
0.32062842733732366
0.011220199218980039
-0.02747567486460418
-0.1257408962444345
0.40735574748112174
0.3200449656551506
0.23087956906254342
-0.06614966998007887
-0.07571237715575634
0.4588914977100964
-0.0625468916826768
0.4593121861635314
0.3756849993135358
0.4173398956038852
-0.1935721057324772
-0.16130133221972823
0.21015325847963678
0.15481658096830517
-0.3540532666411005
-0.32322723433716044
-0.4736472101212213
-0.29174424786483416
0.35076172061052974
-0.47206087551350595
0.19274158106186604
0.5344182301859667
-0.1099255436766067
-0.2644244071547302
-0.4727540633220867
-0.2921522035289655
0.4877956926185571
0.3627896250026074
0.04195828727110165
-0.23464410957246598
0.4212298982963937
-0.42332292242527936
0.10851979978822145
-0.471378721852567
0.45487193411842763
-0.23305032020239813
0.4880034410238579
-0.4500593912513134
0.021972788578146243
-0.2945714282034519
-0.0658833000095261
0.1513981256628151
0.330542791542752
0.08458864867861861
0.40574225253392165
-0.06414862141184174
-0.35198065986281574
-0.16102656976724242
-0.0835137309980727
0.07825955731756012
-0.011344568341593855
0.062354842849868856
0.053284210369010605
-0.2023809762864118
-0.24287282739448535
0.16313833928451574
-0.358232103801347
0.46237099779958324
-0.4340313370805786
-0.32979957616087646
-0.4309592786131397
-0.4042841604792164
0.2636735622662282
0.4250154328065236
0.4669443881942038
0.2409350979983945
-0.08900118255953736
-0.17286505794006754
0.28965737394456254
0.3661429002228472
0.38805063239724114
-0.1410058625266389
-0.3011370951334088
0.33239125869075103
0.25212410447069183
-0.03614612389629026
0.2475795418274139
-0.44842646156521654
-0.16523791924076636
-0.5151679717461767
0.1407081413800556
0.5198587136825392
-0.2054791276729732
0.1429278221188444
-0.4781184599202731
0.06062612083455971
-0.38355820394023954
-0.15467578402149973
-0.14788130674479474
-0.03325327939539842
0.21924087495556818
-0.09804614278290602
-0.26549623855443366
-0.17473128457427098
0.24455353619114562
-0.4565541691790015
-0.340301145573741
0.21160646466203228
0.43550474036981224
0.09892658454937728
0.36456622205359557
0.08266003489886477
0.07371549521406548
-0.04379159726874526
-0.2832884674993048
0.284846058130495
-0.4708373156897882
0.3282673888242493
-0.2081228690527589
0.3104435523226029
-0.4519109967353794
0.3230697145562449
0.26957427905581743
0.1966759471309907
-0.029635625039356364
0.19733839731627098
-0.05605028076914275
0.34398722538071425
-0.07552702100887329
0.46367140443258525
0.20140601228191596
0.2847023005662901
0.4982864711564407
0.19470224988352466
-0.26372262031624094
-0.14572945650308072
0.13188244196799168
-0.444393275589334
-0.2923595468084763
-0.19438923277763437
-0.12740846224818747
-0.2736798186771773
0.27069008983509124
0.3770190325520583
0.39061012945305607
-0.3343390104220936
0.28412944724512007
-0.09844978113185221
0.18947755514898063
0.016229816361621945
0.38576176001743123
0.06177519022127803
-0.3139988073157779
0.20170959653587467
0.1651239540198009
-0.24592421242514076
0.5286714216648872
0.27772003559000136
-0.0951374355602018
-0.44897588977837194
0.011730820851976811
-0.3576087488978434
-0.23400928200089224
0.22006278201167595
-0.356136051004378
-0.1810606076737214
0.3974271304856473
-0.02032830119890456
-0.4608515003304173
0.3931305003813607
0.4001238431436486
-0.41706285625803285
-0.39725004624638405
-0.13948711698513594
0.3842292288459207
-0.33977810904542805
0.43979186227646366
0.04976406970871936
-0.3446673545710239
-0.08023956757847898
-0.03899022850971035
0.29636870874209753
-0.3332402914732768
-0.35444124356200235
0.3304773109916172
0.15191237361820667
-0.3421829463817068
-0.38794154068528763
0.36538104186143083
0.39874054390846553
-0.19565240757714555
0.12231324161242486
0.479410821390911
0.009646943349345828
0.39404957579129296
-0.12825980581141114
0.07578393457377577
0.23867469610528821
-0.427364192351258
0.34449253709514577
0.32982181003379213
0.3051107318691917
0.22573691641899926
-0.06121003797004198
0.305080429081424
0.45241668555858217
-0.3198396163280994
-0.3463273159276533
-0.17726049203321725
0.17222605763407
0.41963403369104185
-0.47373047023311526
-0.44824624572161953
0.3645171348739218
0.310134089922894
0.10499395305932269
0.27544062548714887
-0.07772481356727502
0.12427469678510575
-0.3698574982414226
0.41272570042924234
0.17065603083674694
0.00257782809139624
0.20359447907110262
-0.33700472760862077
-0.03956141379654238
0.30968229661283714
-0.3772824393014011
0.392131697065644
0.09292602627076378
-0.4097438894458394
-0.34245343966593356
0.4631528438646275
0.25995948737563074
0.23997909353948335
0.3351895420371269
-0.0891928926362088
0.08128818677709196
0.13867939419036537
0.2660620857355875
-0.043162245048500844
0.15517949052819177
0.0867273351434927
0.23185813117729506
0.5078080289262837
0.3529311385923142
0.4000120763794079
-0.43429546796962776
-0.2949323997437991
-0.09824767594641944
-0.4905097523413169
-0.16392438196326
0.37177096768981605
0.2998268579710325
0.192960692481831
0.17118297688470277
0.45986924497996556
0.36591490709418706
0.4026319962962807
0.3306226949206392
0.02955471482968189
-0.07334422072382833
-0.06772989016754792
0.14917592611152086
0.5219845661990983
-0.20610481570026262
0.3487639765445039
0.11986550171734964
-0.16819832713248214
0.4749383653978312
0.4831585443138449
-0.5475939523649783
-0.38006631409876873
0.3050576250684562
-0.2863351909756093
0.18389983621620637
-0.30058460636168327
0.21744394329697003
-0.021898762027175233
-0.3341327746952837
-0.2521644710382981
0.2714502838605563
0.17958189927888046
0.19744286386110807
0.2718301860205374
0.2080208229959884
-0.08772577796982284
-0.31752291112400177
0.15372662492880956
0.27476563756467426
0.3069660643582546
0.44732300972968714
0.1343423385449503
-0.08245224109022171
0.13251192827764305
0.08327925005408778
-0.4484705960592804
0.1147860003065573
0.4586115624351505
0.25933230410117186
-0.5071382611679559
-0.437785951096775
-0.1042848065609913
-0.26973413427946213
0.44151077210825723
-0.1504600007920877
0.3279722484328797
-0.40999864743333464
-0.1679492058709752
-0.4139262376561478
-0.21992906281891744
0.12664253598603295
-0.4967691069864723
0.10533399580175065
0.20069090250224084
-0.2414818165591481
-0.1214216446878308
-0.3360366082412508
0.04463582139352218
0.1573276990990563
0.09461934791957796
0.2058016631495635
-0.1857695496554601
-0.292646425033148
0.5851233707091908
0.18374738365773605
0.36428265544255595
-0.34582383982333365
0.21687311618758714
0.4869586698775414
0.2949333735274999
0.13513348026105793
0.29449954448593024
-0.10431957819410066
-0.07211348391935468
-0.33085594873549057
-0.17041096719054563
0.41312379194883303
-0.36592813171088495
0.2192454574411264
-0.337819488221282
0.07738773527017861
-0.2650744000253862
-0.1348260015075875
-0.24390299692853343
-0.3454957042362876
0.48277989803261073
-0.2967068181524512
0.1378648741545882
-0.4614032252033539
-0.12896414009802176
0.24350035730737896
0.25535647794481264
0.19208212406979763
0.2225003219744648
-0.05632239967980462
0.2363037606753724
-0.13570852129845393
0.19717788833343838
0.41400171997524543
0.18124674607747182
0.4878784787365847
0.05321300359125464
0.2308186210470743
-0.4774458604774635
-0.0835747101241253
-0.1649873677491134
0.23270447070593703
0.1326515330948738
0.004691526497391344
0.2402330187350319
-0.2616603869840273
0.12447981449309374
-0.07338162082586885
-0.4280482084666443
-0.41631076049033167
0.4655913310205668
0.44536771645051204
-0.16385300343138426
-0.32118418984398384
-0.24749851898159028
0.4426487628835329
-0.3419812775727649
-0.10214072807290467
0.25892222584909186
-0.14324598847302036
-0.3792362861347405
0.4216668777285572
0.3514585772464537
-0.12604376751715446
-0.12724770982917188
0.41401367729732924
0.0040119092884255995
0.1414441428090917
-0.3376767834491296
-0.4645660273554582
0.2714427858795664
0.1476524112642639
0.48650186529723993
-0.46649920202233774
0.38572312049356633
-0.007945657924030873
-0.004540338619446057
0.4010905356331393
0.024339182776093416
-0.34449645638947324
-0.25048190745787646
-0.26820681815245123
-0.16363512584541182
-0.2139032252033539
-0.38296414009802177
0.356000357307379
-0.34664352205518734
0.37558212406979763
0.06150032197446482
0.2936776003201954
0.4533037606753726
0.24729147870154608
0.3396778883334382
0.30350171997524544
-0.14425325392252816
0.1658784787365846
0.26771300359125455
-0.05268137895292566
0.16805413952253634
0.42642528987587475
0.1370126322508866
-0.19129552929406296
-0.4078484669051262
-0.4023084735026088
-0.2262669812649681
-0.4916603869840273
-0.2565201855069063
-0.4223816208258688
0.17245179153335566
-0.1478107604903319
0.08759133102056693
-0.37913228354948797
-0.24335300343138425
0.04281581015601639
0.15450148101840971
0.35264876288353286
-0.19048127757276492
0.021359271927095306
0.35192222584909183
-0.33324598847302045
-0.27223628613474044
-0.03183312227144292
-0.18754142275354663
-0.43104376751715434
-0.4717477098291719
-0.26148632270267075
-0.12748809071157444
-0.0015558571909082381
0.2823232165508704
-0.4250660273554582
-0.23955721412043354
-0.10384758873573613
0.30200186529723994
-0.19199920202233786
0.1827231204935661
0.15905434207596908
-0.4900403386194461
-0.13140946436686066
0.03333918277609342
-0.10849645638947313
0.21951809254212354
-0.03870681815245127
0.1978648741545882
0.3540967747966461
0.16953585990197825
-0.11849964269262103
0.046356477944812804
0.0340821240697975
-0.25399967802553536
-0.2628223996798046
-0.08769623932462764
-0.09370852129845399
0.1146778883334383
-0.049498280024754544
0.3937467460774718
-0.1976215212634154
-0.10328699640874539
0.4293186210470743
0.012554139522536272
0.1099252898758747
0.12001263225088649
-0.06779552929406295
-0.017348466905126203
0.45319152649739125
-0.31276698126496816
0.1078396130159725
0.010479814493093704
0.24411837917413115
-0.22254820846664436
0.2856892395096683
0.35759133102056684
0.057867716450512044
0.4046469965686155
0.09531581015601641
0.2080014810184097
0.20014876288353275
0.10751872242723504
-0.049640728072904684
0.21392222584909196
-0.03474598847302044
-0.23673628613474057
-0.4643331222714428
-0.2810414227535463
-0.4665437675171544
-0.10774770982917192
0.11701367729732938
0.07001190928842559
0.31394414280909194
-0.14767678344912952
0.15143397264454198
0.24444278587956644
0.05565241126426392
0.1275018652972398
-0.4859992020223377
0.0022231204935661522
-0.15544565792403092
-0.31204033861944613
-0.4174094643668607
-0.08066081722390661
-0.49749645638947326
0.42901809254212364
0.19662513640668666
0.4785519519761767
0.14108831287100174
0.2550393143322077
0.20700002595356132
-0.3884971150082414
0.17688339809941359
0.47963590735124684
-0.25950140110539605
-0.27299999975656813
-0.48249994747518415
-0.41956044251774177
-0.27899997639752405
0.3439996496568016
-0.2555009664020787
0.33143494293773235
-0.04327214155942097
-0.18190905701393567
-0.10898157451566534
-0.43468063808210616
-0.2250009280194016
-0.4377065271030551
-0.4925297609339423
0.31949655530940696
0.21948131355609463
0.43193763270718655
0.21215470553536286
0.18750010032522268
0.19300019066580562
0.30152091337862363
0.009999972136457452
-0.20849131199735554
0.4289986643224848
-0.3284999990582568
0.08401699022739309
0.19447135964853515
-0.37409851243147935
-0.21551294709299101
-0.031497559413622686
0.1144999998016759
0.015824535091668684
0.17748008399301038
0.26097987895130836
0.16200044736667524
-0.35701941747344856
-0.06171766353295018
0.23464495995867854
-0.004658986067318436
0.37318770874701024
0.13587971105310656
-0.3844228670563341
0.1755056249986572
-0.26064335849300563
-0.3899393381584583
0.33035360241212447
0.09639014373975606
-0.3800724979809762
-0.2324993746510601
0.12450000266042807
0.4504998582986913
-0.06287486359331333
-0.09844804802382309
0.2890883128710016
0.3085393143322077
0.14900002595356132
0.07700288499175863
0.06338339809941358
0.2306359073512469
-0.27000140110539605
0.3915000002434319
0.39650005252481585
-0.40256044251774176
-0.45999997639752405
0.3129996496568016
0.28049903359792133
-0.35656505706226765
-0.4232721415594209
0.12809094298606433
0.018518425484334626
0.23731936191789377
0.2219990719805984
0.3792934728969449
0.3229702390660577
0.23449655530940694
-0.24901868644390537
-0.46206236729281347
0.45915470553536286
-0.16149989967477732
-0.17699980933419437
0.11252091337862369
0.46749997213645716
0.2640086880026445
0.2704986643224848
0.30500000094174323
0.29501699022739314
0.24047135964853514
0.42390148756852064
-0.4865129470929911
-0.3474975594136226
-0.3120000001983243
-0.0011754649083313164
-0.3715199160069893
-0.25652012104869165
0.013500447366675284
-0.46901941747344855
-0.2182176635329502
0.25014495995867875
-0.34465898606731854
0.27618770874701026
-0.027120288946893428
0.4615771329436659
-0.1659943750013428
-0.28964335849300565
-0.17443933815845822
0.04735360241212437
0.25739014373975583
0.27142750201902377
-0.23499937465106008
-0.2004999973395721
-0.3230001417013087
-0.4455
-0.2325
-0.1285
0.101
-0.2805
-0.063
0.008
0.154
0.066
0.4555
0.321
0.428
-0.075
-0.459
-0.224
0.2795
0.276
0.2045
-0.3205
-0.3475
-0.0715
-0.138
0.4025
-0.0035
-0.355
-0.3385
-0.112
-0.456
0.164
0.434
-0.0575
0.1885
-0.114
-0.1215
0.189
-0.352
-0.019
-0.011
0.3625
-0.3175
0.3505
0.1555
0.1095
-0.2825
-0.019
0.0645
-0.25
0.125
-0.0955
-0.137
-0.2795
0.498
0.1725
-0.2415
-0.4305
0.077
0.2965
-0.3895
-0.173
0.389
-0.4935
0.299
0.2695
-0.051
0.0755
-0.1365
-0.4725
0.2635
-0.4765
0.15
-0.484
-0.4165
-0.0415
0.118
0.405
-0.4555
0.106
-0.269
0.0045
0.2065
-0.2285
-0.0895
-0.0785
-0.357
-0.207
0.0675
-0.4065
0.3435
-0.3035
0.258
0.1665
-0.323
0.2345
0.4795
0.342
-0.4025
0.241
0.3515
-0.3985
-0.0435
-0.2965
-0.271
-0.0475
-0.417
0.3025
0.354
-0.3855
0.265
0.285
-0.469
0.3785
-0.3765
0.2275
0.357
0.2405
0.144
-0.131
-0.1395
-0.397
-0.239
-0.199
-0.4115
-0.432
-0.3395
0.2045
-0.2965
0.1815
-0.0565
0.1525
-0.267
-0.453
-0.253
0.2585
-0.358
-0.137
-0.324
-0.2135
0.289
-0.1735
-0.044
-0.1545
0.1115
-0.0565
-0.2675
0.31
-0.388
-0.48
-0.3035
-0.2565
0.0235
-0.164
-0.4225
0.1675
-0.2895
-0.097
-0.4745
0.3145
0.3565
0.0355
0.14
0.214
0.456
-0.306
-0.2815
-0.339
0.356
0.0715
-0.3065
-0.43
-0.456
-0.0755
0.079
0.2925
0.4325
-0.228
-0.0855
-0.458
0.2455
-0.4535
0.2245
0.4715
-0.1155
0.103
0.358
0.0225
0.277
-0.1925
-0.4165
0.0365
0.3745
0.2685
0.047
0.256
-0.012
0.4555
-0.381
0.4945
-0.207
0.069
-0.235
0.2875
-0.23
0.2935
-0.2155
-0.1545
-0.2625
-0.0485
0.2305
0.129
0.0825
-0.074
-0.166
0.2045
0.078
-0.308
-0.231
-0.4565
-0.254
0.38
-0.022
0.1885
0.2155
0.156
-0.222
-0.0895
0.163
-0.4925
0.103
-0.477
-0.302
0.3385
-0.3975
-0.261
-0.207
-0.3845
0.4425
-0.4475
0.09
-0.105
-0.006
-0.266
-0.061
0.0725
0.1555
-0.4935
0.2475
-0.4125
-0.2635
0.0905
0.4665
0.4275
-0.4355
-0.4575
0.093
-0.248
-0.33
0.1595
-0.154
0.0765
0.0785
0.3055
-0.248
0.2605
0.2345
0.088
-0.335
-0.0485
0.1
0.292
0.194
-0.1275
-0.3705
-0.1205
-0.075
-0.105
-0.279
0.3155
0.1595
-0.23
0.106
-0.241
-0.381
-0.1975
0.441
0.169
0.2515
0.115
-0.2335
-0.134
0.099
0.482
-0.295
0.2625
-0.4565
-0.1115
0.4615
-0.277
-0.465
0.429
-0.462
0.33
0.2185
0.2405
0.181
-0.3295
-0.348
-0.2285
-0.228
-0.3315
0.214
0.074
0.3505
-0.246
-0.466
-0.086
0.1705
-0.4985
0.007
-0.403
-0.413
0.4965
-0.21
0.23
-0.3
0.188
-0.201
0.4085
0.286
0.2415
-0.323
0.238
0.1405
0.4675
-0.1015
0.395
0.2625
0.4505
0.2375
-0.486
0.252
-0.1815
-0.383
0.1785
0.2965
-0.4225
0.1845
-0.2445
0.4395
-0.0175
0.153
0.2265
0.346
-0.493
0.158
0.0335
0.329
0.4145
-0.159
0.3245
-0.044
0.42576493547933253
0.32444969215239733
-0.42978172686488986
-0.2012563718927974
0.2315887955453423
-0.2693651522927506
0.1821065636426058
0.2600920505670123
-0.2706418572877915
0.1779437990481961
0.08383045708407176
0.14397743530416546
0.3202356005448451
-0.31518287966801145
0.27500433203943
0.37026764572899973
0.08965425421742165
0.10964319319768671
0.39222311140073335
-0.486089204951362
-0.1793440257113405
0.1837025174481514
-0.1143820965928454
0.32300173472713095
0.3102245897654576
0.18478651222667564
-0.29180594719568753
0.08527143362190745
-0.2657780621818948
-0.040294364039546414
0.18929194375950656
0.493705874136249
0.3879090387868133
0.021260929748037356
-0.05242531631338444
0.4129029904021946
-0.31348904975107
0.4948139524415244
-0.19750112840534215
0.48330034239922304
0.08758161520143021
0.22972319259195387
-0.042165104659732486
0.30200809178185106
0.1829482980115916
-0.2278056552664074
-0.19718414664909523
0.0026413371399670645
-0.20797973302615116
-0.3828476045938345
0.48892197015501626
0.3115047013902034
0.4385776471812025
-0.4835953325114372
0.45299787437102695
0.1680095791238692
0.4260604196339438
-0.43801346516744655
-0.3160085932714307
-0.16417710326104704
0.1779557014769397
0.39484930520993666
0.2888760820089603
0.3172337531408706
0.4875753069627181
-0.38082169775098534
0.35265816055046034
-0.2793704790226363
0.29996487812466927
0.5033359807903072
0.20186217161598358
-0.14239726551637283
-0.1207746068389431
-0.4942455274160021
-0.44580399732551695
0.3064791448479851
0.14223947427405803
-0.46275049144219255
-0.2788437958869814
-0.4152631554866786
-0.1125260004047134
-0.4817483422236313
-0.14703351711768647
0.2106628535609568
0.18444083053971524
-0.27731408246975303
-0.1609316787853662
-0.44095905190317564
0.4851184346741976
-0.015349067788168276
0.4477136841251605
0.339708637346454
0.3270734556568507
0.2577203826012222
0.1373228055236825
-0.1945358109559894
0.1661691582086415
0.36264889565111924
-0.39048140301929724
-0.07034706196332728
-0.07078101173978316
0.4943826272878988
-0.2134429090176601
0.36489155550109564
0.39926108145048994
-0.49325910415075225
0.18483695461627822
-0.0015287033042950598
-0.4277635087584119
-0.11024636971643643
-0.21920936058420276
0.43692945980187525
-0.004349760386507816
-0.3691265549740921
0.5034943182454023
0.38549860801290636
-0.1563848984345989
-0.21260177378671746
-0.46670862454689227
-0.06917991880955472
-0.11864138893126322
-0.28611995655787703
-0.17180350736993522
-0.05462201507443177
0.499198488168755
0.22259043896501454
-0.44821498685189337
0.14820577714652122
-0.09653839681663082
0.2057992447357882
0.4608632542928756
-0.047296268098314546
-0.2574120858401069
0.25129321141056277
-0.411450619089188
-0.40752158229712754
-0.1557663574634051
0.08713436537274978
-0.0383240030497185
-0.10025972995038895
-0.24906369178788235
-0.05266580265969788
-0.4867753247657036
0.3691568438262252
-0.06846838606805188
0.27334824903918764
-0.16660802812985676
0.521288636488083
0.481758399670456
-0.10526969832179332
-0.08127638569726953
-0.229153117552615
0.33685902783642924
0.29488007361604796
-0.09816318706906732
-0.041966515938566505
0.036079187021238114
0.37757856424329217
0.1852986156452234
-0.477913208575582
-0.4726396878264594
-0.4609173263435633
-0.16926458020236002
0.4653239377447348
-0.045173028210617326
-0.11981679428575391
-0.2831812277550693
0.27037958282100766
0.1875759451473
0.4793759436043897
-0.26635053514795587
0.49204295005318316
-0.14019365834791078
0.16353846923879342
-0.40660037376163377
-0.2758857647350744
-0.4144688693781963
0.07559189850144503
0.4943593980627941
-0.39328236224104707
-0.04603316668476478
-0.29260370644742234
-0.336046664598904
0.08192611181776258
0.08549932404789896
-0.07843346350896803
-0.06389758517920313
-0.09427803869049205
0.4875856495725145
-0.08124945450036954
0.21238005118623662
-0.07454696078749767
-0.2593260738956371
-0.04405515492902642
-0.48576446265294965
-0.24481172627751802
-0.08778076395510885
0.437605735846874
0.2886022872721287
0.48089049418413204
0.012980535768100503
0.2721338720668582
-0.05527384304053847
0.40330132724032636
-0.5040190953471211
-0.19888016113753917
0.17903325800632278
0.25632463472777434
-0.21223342072716353
0.34516547122390034
0.07205681141667522
-0.4615741722984437
-0.1748649379012833
-0.06852251372744399
0.4591377573300668
-0.3757248443748597
0.4311209530758746
0.44619039015655365
-0.06304087473663324
-0.3084087625228151
0.1530153189432498
-0.21435906846125846
0.06038371105664959
-0.45511266881250984
0.15031665549192896
0.19626156407946557
0.1952358998614986
-0.053415393231121204
-0.34247988535216095
0.45552069368956283
0.2897897695229273
-0.2562925887734477
-0.20874195734554105
0.47166012985956013
0.07015455227830142
0.3035444068953431
-0.39014517876920235
-0.4384758993514675
-0.005606330586591036
-0.37576843091458617
-0.33603287433587875
-0.3140357882123305
0.25390356159560784
-0.4293379112201078
-0.4408408754389704
-0.4411877447461869
0.3077094774173662
-0.07402271560088673
0.37906027288367417
0.025506540905136692
-0.4507073141005418
-0.0847444567449387
-0.08102670701007082
0.10507051700620207
0.27058857285441923
0.2045539565664161
0.4204528130858225
-0.21340712767617173
0.4858502083585155
0.37173753052613195
0.5537759208180153
0.18371040376580333
0.4135069080526847
-0.3157815945901837
0.2783797424892604
0.5258936365325944
0.07082580630876807
0.2277477645826183
-0.43361748459401384
-0.1346762859219589
0.1551020601946075
-0.11648890355610447
0.20679238189979546
0.3031253527156949
0.15988665312248065
0.2765122981015148
-0.09473569716701885
-0.32695690272523037
-0.1489684593417764
0.12989480837026568
0.42792200902949595
-0.39014594378273015
0.20938455056819022
-0.10819183195235427
0.05319705480500693
-0.08519983699089245
-0.017171522289600494
-0.28792753963899487
0.07187456778607652
0.25192564921500427
0.4919715386511086
-0.09082895174654472
-0.1457295251435912
-0.16701842828677418
-0.50216780749581
0.0990198859518059
0.1197783396781549
0.15595288075392721
-0.46191639346243596
0.46537513344730175
-0.3685231177231393
-0.1675447201857024
-0.07504567233609563
0.4367188904098185
0.12434812684859507
-0.37841480622908047
0.34957384793552715
0.17611492177398455
0.45993253381274407
-0.3292724957693939
-0.23397744229989445
-0.04116484232052536
0.4274448696576355
0.41974019640327537
-0.33578588293649403
-0.27303639784062467
-0.21710051712298764
-0.11309890957386651
-0.10349609703869345
-0.19545442077328842
-0.18809364164973755
-0.04191330727672231
0.448326342104503
0.05352370295815552
-0.40876510306842817
0.5374793635043509
0.3869907141899065
-0.16656638076559935
0.26340065030504606
0.24192810273942125
-0.33867532176841203
0.37565770493018874
-0.04836293996859907
0.2140090895599984
0.2582202282686179
0.28595390677563154
-0.48826094513302404
-0.5117994666702214
-0.09086284037101844
0.4590384588426651
-0.21893040029417712
-0.09103665080791183
-0.4080630332820573
0.28995343875177837
0.4440561467687445
-0.16603138898485256
-0.27691714977168747
-0.1777779795603279
-0.24674488000652908
0.10768546840836402
0.21304379672813895
0.41758557470319957
-0.379686508770031
-0.0018784293497945263
-0.2174569171612693
-0.19757345477976032
-0.47526011771776194
-0.3007758622111577
-0.31423874210418296
0.17393158294171257
-0.06972195573650339
0.4614160766534557
0.05570438796648584
0.4110862824112312
0.18011648819529252
-0.22230729973974994
0.3967378552163669
-0.5551631603525564
0.3440146665162381
0.20767490753960807
0.452603176127612
-0.27968596425916153
-0.03221785054137821
0.12468133984552722
-0.1444524105398762
-0.1599977676127929
0.15640522940560142
0.5148108583342574
0.3868546009010423
0.4399342064153685
-0.017152868282768775
0.14300710747712297
0.42869996156990753
-0.23410092757322637
-0.31897837283124464
0.05632645430611928
0.07233151425310032
0.04825251939077817
0.19150847306732413
-0.08849595093706993
0.3171322980340687
0.19218629051234581
0.2605563594571545
0.21156649816213974
0.1369396187471004
0.3766141659105588
-0.14083670440626467
0.2316930077904805
0.2500956795949279
0.0730586358591641
-0.12614359146780169
0.20414302970718481
-0.10854698232993186
0.3104313706737505
-0.08205915746906856
0.2731597535687349
-0.3521501013768416
-0.32999770301149556
0.4450999398500645
0.3290355442011693
-0.5374221246917666
-0.3853281976656798
0.36343400879502175
-0.4235860113969504
-0.22722381933786476
-0.2742834451977914
-0.50654961696762
0.16611065653501625
-0.3716339540794218
-0.20487714060320592
-0.3471142320225705
-0.4825044591635904
0.31957012960768544
0.0457448218547025
0.43296294749015546
0.41760490252901245
-0.1589918592481349
0.32375684626184104
-0.17273965527490412
0.10259198129354136
-0.3694287928429537
-0.3585287087270868
-0.2654323367256572
0.3598972387871373
-0.2421720839503078
0.1268604947943511
0.4315740989591849
0.22649103124142517
0.15410937220176857
-0.37295922483472543
0.10117370322253635
-0.3261033541196821
0.2891858397877715
-0.11099513590123046
0.07457829777800125
0.10757857153103308
-0.01331630130582544
-0.4833427763488628
-0.23814438008317035
0.026485319693921636
0.030040737329874473
0.1855395330402852
-0.5572071157677914
-0.42965368845476926
0.3056801269045912
0.343188506552488
-0.05307553377020669
-0.5369986465273973
-0.16306107075190823
0.4802408336835312
-0.09524740229622859
0.03229938655687651
-0.21405564516009284
0.03667657523323854
0.38365868935316777
0.17139799861316374
0.24319864945645162
0.425896710417202
0.09423016911552735
0.10087982934086773
0.07997346839512925
0.4076986835205078
0.40204523569335643
-0.04426392536171731
-0.2653858392665351
-0.04535799677730358
0.05667599490099332
0.2907678151662779
0.4199175870943713
0.3943127545733786
-0.18932343452925865
-0.05350613210567656
-0.43063084090032666
0.060145921064363325
0.006262025279560366
-0.015235295158500835
-0.1173914481970455
-0.38084144105559126
0.6005409444204739
-0.2863871819456535
-0.0051307320032269775
-0.3002251105196262
-0.05341115627901203
0.3402650402891392
-0.15734717583877242
0.5617700004897763
0.12566353287730442
-0.2842647796237736
-0.10724070900108039
0.2749150316959381
-0.37249874733841254
0.28731076775184955
-0.055093465673333855
-0.20223085861846554
-0.21953520723430875
0.1593672065746319
-0.387537480102005
0.12823316135412727
0.12028419621243415
0.05725332847018702
0.018665838181657297
-0.2970978452030263
0.2785839899181788
-0.2804335597485898
0.46212355715286846
0.09933897710152825
0.11579361510390833
-0.5810735705518808
-0.20642978604228926
0.45201648800696254
-0.014222938280505379
0.20724751027760602
0.09182423893843973
0.35672595470287993
0.3506752888487272
0.2509312686485651
-0.3428781843360542
-0.3046385364853954
0.062044942066643446
-0.42461757326629246
0.24086702709459581
-0.04196095139448938
0.11716143655615485
-0.01321940589995776
-0.07288686639047329
0.17114939621060654
-0.2917182403883387
0.3326185894722183
0.5855423695122821
0.19196322755571105
-0.3128543736837061
0.18095805794116746
-0.6593981179534275
-0.5285183489562998
0.26504461144819846
-0.3186774841925823
-0.3814729424021673
0.133539170045526
0.1928403935184007
0.3015390031385676
0.31462818588249086
-0.21576041023071682
-0.31781504685630546
0.006541120605818246
-0.29170527918970207
-0.2609371044826099
-0.4597049289064474
-0.43241701996753223
-0.33467518360771226
-0.32751667624595243
0.2817543750361566
-0.09703241921768545
-0.36737854489854893
0.3032505794064983
0.12375902754868709
0.468162106755851
-0.48849083647137953
-0.08065210553275669
-0.4588948440277602
0.47757011165104635
-0.5682704066334568
0.5170004687925603
0.09849264543002426
0.13696675048886175
-0.058980459988288006
-0.20067574184360554
-0.14940453710029117
-0.264335506844064
-0.3231798256928155
-0.06085643816128796
0.3441687236406926
0.2839672064956198
0.4051614099118929
-0.3062043050743355
0.16271953925663257
0.12547436730120598
-0.045266942324119847
-0.37068323095112526
0.594497343583464
0.0498532276733951
-0.21723682402340388
0.4154062615422969
0.35871522318053617
0.22678342691649622
-0.25992542458809714
-0.30022130710104
0.06877434062448703
0.03877070280632945
-0.32442578456454324
-0.5090634546527132
-0.04182440070515306
-0.2630528635394766
-0.5706779661125895
-0.3099473491661577
0.14178839604319232
0.05202324951831434
0.16323906944099056
0.24901020743621444
0.4073452941905718
0.14348711738978204
-0.34971658266587147
0.33512023351811676
-0.18990506015741074
0.08642148252872449
-0.2029766641492472
-0.24614522093638178
0.21338252716269568
-0.2178508909038701
0.05590411725478649
0.38176423381911545
0.34169439845648525
0.4068689960371784
0.058492138575389
-0.04419324525832899
0.08107363539508625
-0.16261468380161134
-0.4281297020473888
-0.09560859655223004
0.1788048877584397
-0.38016539933111493
0.010129939416893462
-0.21573724504686942
0.17866845771312945
-0.27213611371596025
0.204474073436063
-0.3731814488288793
0.19515831775117196
0.0850314715760784
0.07206934139367081
0.007236009452188713
0.3992980635841043
-0.09869249389674652
0.3886179098615908
-0.29270337692229476
0.2640132415349719
-0.3951889604370808
0.39667557122044045
-0.37163313904485307
-0.3562175723678842
0.11693041031726283
-0.009368315533283456
-0.14950126175529707
0.308452319370228
-0.24027798478033383
-0.34701079608217655
-0.4591682175515312
-0.25637882215814334
-0.47650818417032803
0.21498202518888626
-0.22235683301359924
0.2573559148121384
0.004761356963888971
-0.3568415048253802
-0.16259920227936817
-0.26893760126433797
0.44297578975302276
-0.3313772150589035
0.0643046294571497
0.36518424355514234
-0.6150858018125313
-0.37070176464432997
-0.08587207580348347
0.08531837414021301
0.2876337920718322
0.014723293805487378
-0.42640834250696136
-0.1697609250204421
0.3796076375988921
0.039245766415763175
0.061907323507531704
-0.16534125099831726
0.5412778470714581
0.0005605070680646373
0.4023209760016096
-0.4132177704456343
-0.13440578532666128
-0.3155554909763375
0.07490146135050889
-0.09494433340327775
-0.30491048721211594
0.5352949349361742
0.41732633885053505
0.1528939407985511
0.03170724301787961
-0.1788323773890452
-0.06468735660638122
0.029730664980029714
-0.012827862735697554
0.1100672070867646
0.06183555571647935
0.34665161435940983
0.26624467043837785
0.005603523243904908
0.0931018757176725
-0.32599440856082196
0.3014500259056321
0.06204598994034978
-0.5091524042543797
-0.3788139932081872
-0.4347869525454793
0.45783986605043187
0.0847278220843245
-0.44398096699717066
-0.37072633457139753
-0.11837496747675566
0.26234523223299633
0.4561056832102893
0.19906586988894423
-0.3705071359053911
-0.3669526732589628
-0.13775897679510973
-0.09513935525519196
0.10280688188272206
-0.5200330574668995
-0.5643415034181988
0.41455542629843906
-0.3880608507155219
0.28397780257827615
0.2196247758555589
-0.48785149578934933
-0.21851995952190836
-0.3556112198228617
0.037692580061743454
0.3847725454536245
0.08483526862650849
0.1834091536260761
0.3362920290471262
0.18987844519601355
-0.42447667604260775
-0.27674178378108827
-0.33620503569952814
0.03638141212501747
0.521834728397094
-0.03373787525570759
-0.4690022895289629
0.5761461590748173
0.11339677154581643
-0.013033608229774667
0.5011397396814304
0.47423635227447364
-0.08212323892683908
0.39242717759151485
0.46780198245160803
0.13568592975827387
-0.1393787446614745
0.163126725211961
0.012317473051462415
0.524434990069155
-0.5440479224067342
-0.3698921172298806
0.24693808950140336
0.0928639555923116
0.17440046143670643
-0.28188014110490517
0.29253644608217255
-0.032069170435607884
-0.4003943158090327
-0.09062830748481054
-0.304107205443203
0.3742164148984397
0.3714911572186271
-0.5653397150731871
0.3619614780166144
-0.5837959777983583
-0.4257546807190496
0.033596702629443316
-0.4105623637035403
-0.36412888816763755
-0.341596071273864
-0.1463857507865043
0.162742246016011
-0.2322979274023468
0.17229325238799872
0.40024068537017465
-0.27437629733534624
0.5316561654667057
-0.2517660492767422
0.3311386433180404
0.13034906711492014
-0.03681138862186315
-0.15032002238683606
0.4072243004269504
0.019534682858008873
0.5069542036486107
-0.29311929491877803
-0.057033665240200246
0.5414954693411024
0.21260242044377695
-0.28355381120442663
-0.2689184318639762
-0.3248312663628175
-0.43515452281093536
-0.3035995086602669
-0.06338273035699364
-0.09534833627785679
0.6149416572527647
0.011738860122147554
-0.29796232206448076
-0.43578653662371325
-0.10353111469548389
0.4595433490815118
0.5729216200039866
0.40735213917218976
-0.06736998258512358
-0.25898127003252025
0.01748375835605658
-0.320568807364934
-0.21483430554181587
-0.40467303100354224
-0.15063150267598635
0.2164039316547105
-0.3699449361530717
0.19322143182333534
0.3472559133749177
0.4606150987500579
-0.3590605793431003
-0.27880769032604813
-0.06425141041661257
0.5400649847865432
0.09830409909755915
-0.30126546811379734
0.1278760666661927
0.05812803025605041
-0.36135365832180744
0.023440280762816335
-0.07963684069746585
0.2897949795558891
0.004828200747674722
0.06261002743077655
0.14611413185328617
0.2860452403352615
0.27907468716453526
-0.6255405463712781
-0.09767986052437432
0.344675647815178
0.49109714306290553
0.12449460950728847
-0.3019382943705594
0.020436845962351877
-0.2247073580481649
0.15264544409996259
-0.2700374632670306
-0.09647396705739839
0.4272686172807417
-0.2001705012219718
0.1662521148290759
-0.312116455858825
0.13921240752846248
0.05931387637867931
-0.061676518759476946
0.4375687111705553
-0.22595939481587282
0.4956290623111123
-0.2688916892305305
-0.6813986545672678
0.34092002133528193
-0.036029585891614244
-0.09487652977385021
0.497620294814975
0.3729521420296163
0.6021318985517815
0.0572522630570453
0.22874253898817148
-0.17768031939782694
-0.03341807581510526
0.36180124337387504
-0.3295572656575377
0.2097453702414464
0.3359673949997562
-0.157088311967949
0.23131315470862754
0.5373535565904352
0.28250092015992057
0.007519965235968678
0.17163448684925633
0.08728665294053976
-0.21381404614782573
-0.4361981513627909
0.24436326518421098
0.5210977850014638
-0.14863902279273303
-0.36099912855564725
0.3424600419045031
0.04018762977183401
0.1722156607007764
0.17066269708896142
-0.039113418868395804
-0.5518360864654888
-0.06163114845317583
-0.32767296211209423
-0.3652794697662545
-0.35289281892174246
-0.5072785279509512
-0.17849374756711908
-0.40966890172371967
0.43926312233371223
0.3873248766377433
-0.26878932762615304
0.4580590692037298
-0.06939528377280703
-0.37970622139513877
-0.10000216671121921
-0.004537780348702813
0.2935605579242925
-0.4138002422665755
-0.3614865446260481
-0.2384306783343026
0.3388798375834873
0.061564779510651486
0.023763984542877408
-0.08232829206831331
-0.023548604629953895
-0.3577593528692488
0.13314698572802333
0.028358280140957925
0.008713800996715745
-0.10133858186873343
-0.05822138234617469
-0.37535246320304755
0.24394823863152434
0.6544047832846527
-0.1836907747168199
0.49704317387267416
-0.29897372533339295
-0.5921610702985215
0.03420934002269199
-0.40639728025787664
0.07980768382771543
-0.13631966270973753
0.428996208128559
0.2725347149889262
0.5326203870529544
0.5367017458069049
0.18485813691187084
-0.3298629183904602
0.2489481996896203
-0.29372929648905993
-0.5197529412871996
0.3614255779231065
-0.13545714700158235
0.17785423569794262
-0.2727223891582954
-0.057575282469808586
-0.5355874320606948
-0.29127755523544635
-0.2623386852278069
-0.4179367577289635
-0.24106182682424973
0.2004515195992275
0.3516421203915113
0.1889580316833822
-0.4327534336694764
0.14265281123936008
0.14994945555735542
-0.05914365149746837
0.37019260083783195
0.10988159570216724
-0.41553987127953496
0.4496952657028094
0.10024344199560445
-0.3348973128269855
0.17390377478765448
-0.5239954179554633
-0.3376568492725739
-0.2593925115989486
0.1199832560329843
0.2576464151777541
0.4305109509501921
-0.1395669770640963
0.3270927247522422
-0.3139076102190708
0.3942185919845012
0.37694814696870055
-0.29493879414375934
0.2828899785017407
0.16608865102969958
-0.30796121560964906
-0.42915757246275693
-0.12061163482932045
-0.2860196795148507
-0.21914797849904158
0.17808895043237202
-0.0913238972339897
0.42970189919402674
0.23397727493825007
0.13258840549600107
0.2880365746214399
0.5484917437311158
-0.38113843665951425
0.39848744157660415
-0.16165859427152365
0.43472080475801217
0.06325825032445634
-0.2577843641977242
0.08211028835379751
-0.21558983055343922
0.18173922179742372
0.04660778329531033
0.6251829367889806
0.1271127210803071
-0.03698209629254719
0.29658312355883143
0.46001531738441515
-0.29203450006679854
0.24525439761780748
0.1797677870315549
0.10218577294331463
-0.032768728055219624
0.37693315255716636
0.06574636190792607
0.20906232055446952
-0.15464790746831544
-0.16913024823219983
0.10372649238398314
0.490429266781312
0.14227992141937354
0.19131104539382018
-0.41973892071678676
-0.38548840124987727
-0.23055306077670398
-0.359993153785986
0.34839552970457743
-0.14261592607080045
0.09013946048686874
-0.12627234623814432
0.24451061612623526
0.4016848849986479
0.513859931076336
-0.15584576513117332
-0.26069493557436524
-0.2952657286324427
0.352886776859928
0.0629390334685891
0.04513823010101131
0.06046196554125264
0.4854449289582586
0.06469225872301979
0.1674195285966367
-0.3579350373795601
0.11316282890305271
0.08349518830284484
-0.24146509815653305
0.29768988830017695
0.017637953264550185
-0.10158223599889477
-0.2721921028780893
-0.397722123954925
-0.20848065919695408
-0.44675195605553153
0.43752730464018247
-0.24620775884354826
0.05656395374186548
0.44437032794095804
-0.031081884115714227
0.1598326057570273
-0.09552833454107892
0.3617780442524742
0.29701962620153544
-0.14994744278592112
-0.040225350452285785
0.3106725936643527
-0.22604493465293948
0.25875499362488064
-0.43434203737243726
0.4180983402529584
-0.03862569328799775
-0.4250568694342925
0.29877208108423015
0.4199218556439962
-0.24226947242489433
-0.13488628934276523
-0.029015657937533378
0.4233722714606062
-0.3529668433624882
-0.27161623283234154
-0.4442476412591231
-0.1893133655335454
-0.05664455016766166
-0.2877907382058955
0.038900009608403306
0.14327362976995925
0.48609915746377835
-0.007464249453275408
0.29582436411112284
0.04257310920081441
0.06720507918064675
0.1683541995630354
-0.11763919086975788
-0.08962874854714181
0.2568129497858652
-0.12641928221983517
-0.3417837815979547
-0.30708052799257946
0.04571656003366774
0.09147200995776564
-0.3483676539327618
-0.09193523873568968
-0.22290787160907058
-0.3717505029549154
0.44917535886016474
0.10586788485283441
-0.16508121873821782
-0.26295874921452095
0.4050650905924432
-0.2556732841044547
-0.300157739746812
-0.00705042501674595
-0.09831580521503752
0.17251449791166973
-0.3349301219618892
0.07677862450788062
0.31033825681421073
-0.17542093231468148
0.032861006880627576
0.2976474678436602
0.5159001388739529
0.4255847092449255
-0.10741816164986337
0.5261731912984982
-0.19974209345168698
0.2229246568807256
0.10494755657502211
-0.3469806736450565
-0.05652684863579826
-0.0023687633758637844
0.2809782342792274
-0.47254583640436904
0.2752112762980329
0.2783956409533546
0.30633387584768346
0.33992777784322464
-0.1472209927971087
-0.4129548655544813
0.3276364929161419
0.08228287157189114
-0.43757474717621064
0.4821098012369921
-0.4009726164054268
0.08469782151384335
0.25063314674853765
0.45317309936709754
0.015050106282493503
-0.17628638920791184
-0.1766231961182192
0.21079841119275408
0.36588554799653444
-0.3696103873219524
-0.335560524762768
-0.3355453007656161
-0.09442340872011315
4.0315114452455274E-05
0.3612047307673571
-0.307677299139002
-0.24706835056856863
-0.3374240494990945
0.6429832890291387
-0.298049058153668
-0.03133221295315022
0.03895626891509042
0.43119659089914586
0.33392724108032584
0.09175815205869481
0.2856339912968812
0.04937199862758248
-0.4879693471469437
-0.0470730397608958
-0.01254683047573873
0.6446874569862503
0.22342111203006987
0.38739807758050554
-0.14668185852233845
0.25960233352568707
0.29053280564701994
0.31882514477085916
-0.2368622497019802
-0.11914504580521947
0.1294310484488615
-0.24623410605096022
0.09678553681180617
0.3327166115690478
0.4115777956999755
-0.37911687182493775
0.5780776397405444
0.4055318787683946
0.05382920438776626
-0.30265690176059035
0.1404606080316606
0.1256380489871935
-0.3618131351698911
-0.43917112950143394
0.2940545745179472
0.20801097056712717
-0.013811447783078605
0.3237492465467488
-0.407429779982292
0.352456020246263
0.49782244255791647
-0.20555129595479874
0.35551989784434823
0.06499452619964212
-0.0748000893333334
-0.08204145757242652
0.09775424999580695
0.41387396801502985
0.4630110084752473
0.04068830075619162
0.10073021873431995
0.08404280618714105
-0.43632092940059247
0.0910040853475756
0.23676082308952623
-0.33248266779777036
0.16538218811452196
0.3899898052190316
-0.2785768216010716
-0.3310018343547729
0.2019981412848212
-0.20156639446848829
0.24318578191457976
-0.15135927204918737
0.4735877077112074
0.3340366823450485
0.04124373780654587
-0.3216718838002585
0.25647595004921986
-0.32276615031269756
0.2209285850564418
0.13710532168900805
0.1769926103282264
-0.4626105175469757
-0.050498794336013515
-0.4818043907919496
-0.16423749144303243
-0.25905143612179715
0.17972497246038574
0.3957880104213913
0.4514316683914901
-0.054385596035434115
-0.2799008672636128
0.5109563080873297
-0.22268817183760095
0.38625612270985904
-0.026039269141724018
-0.08697043952644297
0.2947795953029117
-0.11020808854326643
-0.4320505292617797
-0.4217891689594349
-0.22222243359707824
0.2012974797861838
-0.36052488642165864
0.44996908183953754
-0.2520368883754077
0.145422232494714
0.2526404727313912
-0.053756892825484855
0.052158857847992304
0.36695922328359604
0.03876544839699175
-0.4815488678835477
-0.22678444178860815
-0.017218802073200798
-0.29308773090050133
0.04560714842397043
-0.21756967601538177
-0.4622182194822629
-0.2552404983235672
0.17778928468034053
-0.3172734132011674
-0.41373889260176255
-0.24728840284280384
0.0291534648126752
0.019049548923481745
-0.08567888868311309
0.23673495923590124
-0.42774533475610543
-0.41429101811022506
-0.31338493883807494
0.5336243333006788
0.2559203141651739
0.21029062973071094
-0.3032537855070757
-0.07385641520605844
-0.37488119161951017
-0.13808023235616998
0.08157003637562313
0.13079649584422007
-0.05919180729115901
-0.03709794293478845
0.29092695908614874
-0.12338088359420868
0.40933056140206353
-0.4140785473582922
0.16651537671205527
-0.24025441625498786
-0.3864267815683105
-0.1682512093662566
-0.12686016822287438
-0.40424064402788207
0.2957658285608854
0.039810564406553464
-0.24801344176304835
0.18757956174768955
-0.3402647166689187
0.21911010480182358
-0.3197024954475478
0.44173273774999744
-0.5030337086045699
-0.009757113244551302
0.007272871037762087
0.24439070033473906
-0.2659417345669008
0.5096724373506174
-0.09886793904060465
-0.21325033917762254
-0.08366125241998172
-0.2848012042708043
-0.09599834074065816
0.3366302989086776
-0.4647877597939301
0.2692180145070297
0.30025219054114327
-0.5679625405239227
-0.05355714460576624
-0.21432083046615844
-0.40877026106458847
-0.3241143662268568
-0.33644419507612444
-0.11526816080965942
-0.359641431378332
0.4352773567914341
-0.4754337900869391
-0.0550947035229393
0.39548588336381024
0.42186345831156336
0.5410976524079933
-0.004703839521437318
-0.043436850251427905
0.017338936522132625
-0.02407219020452195
0.32935501949229556
0.07730425024473313
0.27072928772358235
0.12334143764945514
0.30582957754971496
-0.4306858924751669
0.09135330283703236
0.34508221152163226
0.09034271823897821
0.29637123267533805
0.17871326830594575
0.29956567474127677
-0.04151553244039888
0.020744259770029697
0.4807176105352517
0.4396176497410752
0.1134987926153414
0.5029831472430175
-0.17777041972490581
-0.37249906190566523
-0.3365842775773807
-0.2244786098096352
0.2792767244334288
-0.061730926357823686
-0.18024289074111205
-0.00925912158063718
0.2898197537375324
0.2513648775793188
0.07631142127548406
0.20979847590923542
-0.17361284981796513
0.19938953330267112
-0.13253057600814702
0.4739052912564625
-0.4714148634057138
-0.14007682971311602
-0.5167680478275137
0.0021371381691592055
0.47717569533321125
-0.3461962072757699
-0.249856205963537
0.20861534410686272
-0.15382017442105078
0.319747087968511
-0.22812238423858952
-0.09477371700914747
0.2948662694622684
-0.462865818731973
-0.2839060041995997
-0.24645019460821896
-0.21480163406312688
-0.14159667288343192
-0.3322208180132376
0.30519033021653386
-0.2524439232783341
0.4898876169143243
0.23350347733835675
-0.1190478228295791
0.35955847958229314
0.3445949452438066
0.10303519137818518
-0.1526245644735893
-0.06933728785118097
-0.43519051179625934
-0.42576603030089943
0.3276131769082523
-0.03955249511749013
0.2892365406213262
0.43724960050663036
-0.33963534983995525
-0.4185106813301506
-0.20295931532056466
-0.2321466403562027
-0.2582485284839578
0.2689195497502198
-0.4533919851381372
-0.20353445630999478
0.340995854007151
0.26366549481696105
-0.32934637309159936
0.3978001720373704
-0.00042112582972326856
0.08095996838499436
-0.37075308825202363
-0.44137943134713453
0.29226938344363684
0.0710178177969906
-0.4964466590272585
0.12700820013002712
-0.2255323406907066
0.002918318254235429
-0.38458317386923513
0.2836850876676477
-0.20842482576581398
-0.4754996167390595
0.18135936293657137
0.2699655221692111
-0.22686377067428834
0.41017619921479936
0.3873037609188045
0.20479153122636182
-0.09838255418430357
-0.43249825642227857
-0.46475360426572665
0.07737751233450595
0.2796479465289869
0.44654647948765336
0.308645082508601
0.32594371536020944
0.4228319941687804
-0.46579645731346425
-0.3825549940081813
-0.04333823443655089
-0.22377042595556115
0.10082092657206711
0.49491744720028025
0.3987730847094941
-0.17854810814142166
-0.20431056982452628
0.4426122443991905
-0.3076323114130308
-0.34634431542874
-0.5106855255214985
0.26450148196015283
-0.1608342468890742
-0.18600991792422977
0.006760759495615974
-0.10359072124389915
0.1527564521133571
-0.42423628633306476
0.473991412820226
0.09943866123946404
-0.34456388856584597
-0.2607472624624965
0.14899425982388068
-0.3212057542445246
0.15508910276777027
0.16266423048355197
0.28562168139155203
-0.12317750306732697
0.03822954420792971
-0.10499250970410298
0.23085743948465665
-0.375716217664892
-0.2605920555119065
0.3883498051203097
0.04901803765216333
0.3703398081250332
-0.09899645372904506
0.40451795084081493
-0.18358168174576453
-0.3000831738692351
-0.012814912332352112
0.269075174234186
-0.1539996167390597
-0.14814063706342862
-0.05253447783078887
-0.3278637706742885
-0.17582380078520066
0.04330376091880425
0.4397915312263618
0.4366174458156964
-0.42799825642227857
-0.1642536042657264
0.269377512334506
-0.12685205347101314
0.041546479487653366
-0.024354917491399355
-0.1615562846397906
0.01233199416878034
0.34170354268653574
-0.44855499400818133
-0.1913382344365509
-0.17577042595556114
0.4813209265720674
0.18991744720028025
0.15227308470949402
0.02345189185857832
0.2866894301754739
-0.21438775560080928
0.12586768858696928
-0.015344315428739807
-0.431185525521499
0.3240014819601528
0.47266575311092607
-0.4640099179242297
-0.35273924050438393
0.47740927875610073
0.41425645211335693
-0.2552362863330648
-0.08900858717977422
-0.14056133876053625
0.09993611143415398
0.4507527375375035
-0.33100574017611933
-0.18320575424452462
0.3785891027677707
-0.2893357695164481
0.06662168139155215
-0.3556775030673271
-0.36827045579207013
0.31050749029589736
-0.19714256051534335
0.45428378233510797
-0.16159205551190656
-0.13915019487968996
0.09901803765216335
0.2098398081250333
-0.4954964537290452
-0.5009820491591848
0.36641831825423554
0.13541682613076514
0.2941850876676477
-0.08042482576581406
0.3410003832609405
0.12485936293657139
-0.018034477830788882
-0.012363770674288262
-0.16582380078520065
-0.17069623908119577
-0.13520846877363818
-0.3318825541843036
-0.1219982564222783
0.20274639573427358
-0.392622487665494
-0.15285205347101313
-0.20495352051234664
0.10814508250860058
-0.2455562846397906
0.3023319941687804
0.00870354268653554
-0.39455499400818134
0.389661765563449
0.4617295740444388
-0.17967907342793293
-0.29308255279971973
-0.29222691529050593
-0.4785481081414216
0.2556894301754738
-0.4003877556008095
-0.19163231141303072
-0.40484431542874005
-0.40918552552149906
0.04350148196015296
-0.36783424688907396
0.44899008207577035
0.2817607594956161
0.19090927875610095
0.31825645211335696
-0.014736286333064624
-0.49000858717977397
-0.24156133876053623
-0.441063888565846
-0.4187472624624965
-0.04850574017611939
0.4242942457554754
0.2410891027677702
-0.2783357695164482
0.08612168139155217
0.10232249693267302
0.1077295442079297
-0.24699250970410297
0.0628574394846566
0.26778378233510797
-0.4455920555119062
-0.15115019487968995
0.34101803765216304
0.1998398081250333
-0.3729964537290452
0.30051795084081495
-0.0275
0.297
0.0245
0.4185
-0.4235
-0.414
0.333
-0.42
0.46
0.054
0.1435
0.2035
-0.276
0.422
-0.2985
-0.4015
-0.1485
0.241
-0.45
0.169
0.32
0.2445
0.3625
-0.272
-0.1855
-0.269
-0.0345
-0.4545
-0.3845
-0.2155
-0.1815
0.4245
-0.046
-0.491
0.499
0.1175
0.302
-0.367
0.4565
-0.3545
-0.319
-0.355
-0.0285
-0.46
-0.2525
-0.3575
-0.0865
-0.473
-0.1765
-0.064
-0.061
-0.3355
0.491
-0.1585
0.2685
0.3425
0.316
0.104
0.0925
0.2075
-0.011
0.265
0.4765
-0.343
0.3705
-0.473
-0.354
-0.22
0.007
0.3125
0.0305
-0.3995
-0.4115
0.0135
0.297
0.182
-0.4755
0.28
0.014
0.448
-0.4685
-0.3915
-0.169
0.447
0.3075
0.488
-0.369
0.366
0.2775
-0.299
-0.4025
0.405
-0.4845
0.316
-0.311
0.4545
0.051
0.4135
-0.309
0.0755
-0.109
-0.103
0.2135
-0.293
0.1025
0.1825
0.3845
-0.4885
0.453
0.244
-0.3385
-0.4105
0.0385
0.1255
-0.4775
0.243
-0.3375
0.27
0.0255
0.14
0.108
0.2645
-0.125
0.477
-0.3955
-0.3925
0.233
-0.249
0.4315
0.403
0.272
-0.245
0.25
-0.1695
0.047
-0.2135
-0.292
0.4075
-0.059
-0.411
-0.0205
0.139
-0.169
-0.413
0.2415
-0.4645
-0.0815
-0.218
0.3245
-0.272
0.3515
-0.354
-0.2565
-0.197
-0.311
-0.4495
0.416
-0.3705
0.1725
-0.0285
-0.3895
-0.0805
0.069
0.0935
0.089
-0.31
-0.229
0.1425
-0.113
0.415
0.287
-0.0685
-0.4505
-0.1685
-0.018
0.268
0.286
-0.0675
0.192
-0.0735
-0.04349910051063293
-0.4332503866146673
0.4082435741831119
0.27163808169280934
0.2073492014551022
-0.4395187227348796
0.4522719299004183
-0.1273433563608747
-0.44007359391578066
-0.38521394733395803
0.2690084565692101
-0.08709431342273696
0.16448279750447328
0.40539839721059384
0.012128428884597555
-0.4631173893164777
0.4180166863417451
0.19789434499634326
-0.26788255995374594
-0.4429463573243912
0.05935364515567148
-0.40637423786672944
-0.1903266046635891
-0.06037898677473861
0.23075949466411477
-0.23045920105661225
-0.37803628716959886
-0.01583687126055565
-0.2462807785301887
0.34680658514385426
-0.443298110748322
-0.2504309294566519
-0.4675345395514165
0.3507774245737596
0.28902859813820064
0.19102238741943509
0.3286289939641413
-0.3744970793383219
-0.48300006110569105
0.08600000827036541
-0.20479447033156625
0.2637255309417378
-0.005872718202329553
0.09848359498954468
0.08929400051044349
-0.4335052296442935
-0.19014216751101534
0.004575509674240021
-0.00959243468079567
-0.12940924880123186
-0.0705096630845449
0.3974112783164482
0.37663714599136894
0.4870001766369388
0.20046792760619755
-0.22749555009145536
0.4956193464065706
-0.0989087342820492
0.00407832299640607
0.3931119277129309
0.05752649712488
-0.5031909148194265
0.48396079333585396
0.45109958531204847
-0.41556650423450586
0.11010532401040071
0.3773018583417745
0.4614738459829381
0.11523630117354909
0.40330487492548317
-0.38216029782050415
0.4546104078733329
0.4977261495942936
-0.032624967493189445
0.18113252761724255
0.4811318694679016
0.44905072163307586
0.40952029152963143
-0.19437934508779017
-0.003805747754796722
-0.3810414718478462
-0.46636492063857987
-0.18745716614635025
0.019619783005592625
0.3234370088282408
-0.1826744636421443
-0.3167835127720155
0.33066312418963745
-0.14378940948149738
0.4670078051405539
-0.11828835813761969
0.49421636840796335
-0.3941268130524074
0.27775027208520214
0.3766067853755333
-0.2870837208637837
-0.44135583643936577
-0.24819155507899696
-0.0030007361184113813
0.36748287070861996
0.07086738921911159
-0.04402440513757916
0.0004695385340672864
0.46093795926375514
0.4638014034572402
0.45706583605339873
0.42589988580649163
0.23221959008156962
0.2713632229383096
0.1315619454271139
0.09611615941600289
-0.17027140630409449
-0.09826270499860632
0.029869077936741473
-0.21408561631264128
0.16201281009084967
0.03461934834841016
-0.09142115438617918
-0.16641621286798622
-0.285558779788645
0.3669840214844363
-0.23987748126345107
0.033724011580490175
-0.05874397949522207
0.4269237412238525
-0.15794528970492874
0.28582013274942286
-0.22372637001298687
0.12799753308664227
-0.4171443176335711
-0.18962938071968802
0.20133827392714695
0.18277348727895115
0.1828691352556199
0.4887376295750462
-0.20958187302763412
-0.1380318239677115
-0.36363083842008265
0.23212221362841046
0.1402506850528842
0.04083493749934737
-0.04453576007775771
-0.2818601310839784
-0.1688081386165837
-0.2928571992630575
-0.01630901993116608
0.27916805086232177
0.08331291490840226
0.08681307759984008
0.17300721684143347
0.01538337210977666
0.044166501090824435
-0.4120307665084763
-0.028948905201928915
0.23685250302733316
-0.38881963117100793
0.515442582826851
0.2058034040063258
-0.37008422899264004
-0.25433204962928135
0.2860060260114985
0.27433998824258005
0.07756701167977514
0.31292250407341377
0.10755591039367941
0.013149030527009975
-0.4511226348466948
-0.014745885040930194
0.33622808932544435
0.09975766928064449
0.1892483477973624
0.35525760127923545
-0.27509682941100233
-0.09645359768160286
0.19184764243804533
0.242092732939696
0.036047082197425744
-0.2931315285825658
0.3787336546927254
0.3819204713493838
-0.24730717431233581
-0.06863844506457031
0.21033276937374606
0.018456314649399147
-0.16870428054019268
-0.2824029930967071
0.04251020301917741
-0.15867693843279718
0.389214867927821
-0.3064488490857159
-0.28412936380442055
0.049364067867013924
-0.08713994492256762
0.0928097112049364
0.3932384996508453
-0.31218019175497064
-0.23857727304079526
-0.3442351510743027
0.14693514600489369
0.26897295258945547
-0.47661362178890376
0.2508409186544842
0.09441059629880826
-0.2974644687090669
-0.031070948899845956
0.43298865404009085
-0.007339744736587411
-0.28521031971545796
-0.25270008662151144
-0.0860780843426019
0.23483024311182737
-0.10294628026218541
-0.0030314701278397463
-0.08911080261068846
0.3353367036510364
-0.19270363581432426
0.07644530652929615
0.4573649873373882
0.08362323506522114
-0.3653800413156657
-0.596179587664519
-0.0723539603884633
0.383547402975886
0.39503767777432947
0.44011890087061684
0.48125677981550985
0.15456176125279827
0.20701803533987215
0.11114271515604839
0.31351371575999076
0.32596235448178984
-0.33506288691309777
0.3734840054790802
0.3600796968350723
0.2054014244831898
-0.2939433332993373
0.27768682975196757
-0.1187002413814187
0.3754512106705515
0.15000630460590333
0.19829087828332156
-0.38505798755981835
-0.3825338937659591
0.1397636074192014
0.10720660830020037
0.12010692867058563
-0.35530468982240093
-0.3663549295088903
0.13692778898216168
0.3019481842115224
-0.3768272128360853
0.196122168088811
0.0786918118199181
0.28166067415780993
-0.45780918406223375
0.08379060985081979
0.1190574888738794
0.4773534472936395
-0.216127610754244
0.47118548724957915
0.4197593331087036
0.21328167055192052
-0.4377008880906147
0.47003091712374273
0.07653761732866739
0.26216261493184306
0.4594370052219303
0.3716148847783211
0.3530481762601145
-0.2925813960455767
0.017802155412945355
0.27424728347231475
0.17604744081330148
0.049766803373626836
0.2104476238957111
0.04259744591469445
0.006087176538061541
0.03347148599667843
-0.0062286297585485
-0.23373008592680736
-0.4143288279409761
-0.14805803708536777
-0.3175084755787421
-0.1890994962941584
-0.2852579868281548
-0.04712411102100487
-0.32606631881114634
-0.017278688218737164
0.3194928727407869
-0.13765354657475012
0.48013998981394496
-0.03948370422330842
-0.37233536984555987
0.44412479216989825
-0.3951911666955737
-0.3732759046288509
0.20092274149165504
0.2600020088152003
-0.04023116301412449
0.25459903609853385
0.20969715058416674
-0.43251825683658796
0.5477909876864854
0.27811641695602124
-0.28209446033064234
-0.4900783664009369
0.13140352952256149
-0.25396067455543353
-0.5379736149143591
-0.2317515043418241
0.05492748579660654
-0.1401626301774303
0.2782630496170955
-0.12220238205139931
-0.025403561561284017
0.08423221228595801
-0.0776882117889415
-0.060916383791857966
-0.12517012717996512
0.21348340168031205
-0.14050725053267837
0.37156829100316846
-0.009118763315964337
-0.0912433112849261
0.21520217199562675
-0.39454769670519724
-0.1666400069126489
-0.1902578943611821
0.0061783513833402965
-0.36159212942885394
0.3231326916245106
-0.10985681822352639
0.3947876911788616
0.2122704178537502
-0.06744300702787219
0.11430024014417249
0.11002727849313845
0.3107833994016095
-0.4880205777819255
-0.35789579090578055
-0.13890394257988684
