-0.4225
-0.0195
-0.027
-0.3625
-0.3275
-0.2965
-0.3525
-0.263
-0.029
-0.2915
-0.1535
0.3815
0.098
-0.203
0.4115
-0.1225
-0.4445
0.3665
-0.1625
-0.036
0.034
0.302
0.297
0.1905
-0.047
0.1565
0.1645
-0.2745
-0.463
0.2285
-0.026
0.0745
-0.482
0.3675
-0.458
-0.1745
-0.3295
0.0605
0.43
-0.439
-0.2875
0.4115
0.3225
-0.0465
0.146
0.0915
-0.289
-0.3205
0.439
-0.1595
-0.1315
-0.3175
0.3865
0.388
-0.4835
0.303
0.1515
0.072
-0.174
0.126
0.374
0.084
-0.3725
-0.3045
0.1755
0.0415
0.091
0.452
-0.411
0.1415
0.0135
-0.231
0.255
-0.4565
0.1295
0.248
0.2165
0.001
-0.31
-0.208
0.1895
-0.193
0.061
-0.16
-0.241
-0.431
-0.106
-0.0445
0.228
-0.098
-0.159
-0.3525
0.103
0.2175
0.4145
0.1515
0.383
-0.0845
0.0115
0.3495
-0.141
0.384
0.0765
-0.0505
-0.2195
0.308
0.4155
-0.294
-0.319
0.1965
-0.182
0.483
0.086
-0.0975
0.3955
-0.2845
0.376
-0.08
0.117
0.4545
-0.2055
-0.1465
-0.0615
0.26
0.014
0.1385
-0.442
-0.0995
0.346
-0.175
-0.274
-0.413
0.2375
0.326
0.027
0.393
0.379
0.391
0.4355
0.1565
-0.362
-0.3895
0.1515
-0.0575
0.1585
0.2005
0.3005
0.2745
0.4765
-0.4375
-0.1865
-0.395
0.083
-0.015
-0.224
-0.0025
-0.044
-0.1015
0.3975
0.171
0.097
-0.2255
-0.211
0.404
-0.067
0.029
0.0385
0.188
0.0675
-0.3175
-0.2935
0.01
-0.176
-0.0655
0.2545
-0.2905
-0.0925
-0.143
0.443
-0.009
0.476
-0.147
0.3355
-0.032
-0.0125
0.2015
-0.3345
0.0015
0.1105
0.407
0.206
0.4535
-0.0715
-0.4235
0.0855
0.169
0.0345
-0.301
-0.272
0.4235
0.2965
-0.1005
0.2
0.4605
-0.029
0.3615
0.221
0.307
0.2625
-0.407
-0.2335
0.289
-0.401
0.4345
0.446
-0.307
-0.2165
0.393
-0.39
-0.0555
-0.011
-0.246
-0.0075
-0.2175
0.1815
-0.023
0.376
-0.23
0.2935
0.434
-0.464
0.0555
-0.0965
-0.157
-0.167
-0.008
0.172
0.426
0.1535
-0.1645
-0.235
0.4965
0.078
0.194
0.286
0.0065
-0.3635
-0.146
0.344
-0.0855
-0.324
-0.39
0.369
-0.303
0.306
-0.4155
-0.162
0.0075
0.186
0.1445
-0.1515
-0.031
0.4485
0.0715
-0.383
0.3365
-0.0115
0.289
-0.4655
-0.022
0.1445
-0.3495
0.3855
0.373
0.199
0.2115
-0.421
0.3225
0.412
0.3275
0.4005
0.2225
0.417
-0.498
0.365
0.198
-0.347
-0.1175
0.364
-0.058
-0.432
0.3485
-0.176
-0.02
0.279
0.0795
0.2025
-0.2985
0.306
-0.11
-0.2805
-0.3625
-0.4335
-0.147
-0.125
-0.4505
0.23
-0.4065
-0.405
0.2285
0.029
-0.4945
-0.007
0.286
-0.3025
0.376
-0.2295
0.244
-0.3295
0.324
0.154
-0.046
-0.0945
0.13
0.1045
0.083
-0.181
-0.4685
0.477
-0.1075
-0.0225
-0.0515
-0.146
0.4445
-0.115
0.1085
0.394
0.381
-0.2585
0.487
0.261
0.46
0.487
0.067
-0.393
0.1735
-0.3545
0.0415
-0.4235
-0.053
0.2625
0.3715
-0.421
-0.147
0.1105
0.258
-0.243
0.18
-0.4735
-0.422
0.046
0.3355
0.244
0.0125
-0.377
0.4615
0.1145
0.233
-0.4515
0.148
-0.2225
-0.426
-0.0065
0.3885
-0.379
0.2135
0.042
-0.066
0.067
0.291
-0.2605
0.4265
-0.007
0.41
-0.271
0.2045
-0.341
-0.2355
0.1095
-0.42
0.133
0.148
-0.162
0.385
-0.3855
-0.1905
-0.4595
0.4345
-0.047
-0.173
-0.041
0.1555
-0.324
-0.4165
0.367
0.019
0.279
0.22
0.424
-0.2715
-0.131
0.3515
0.3305
-0.0425
-0.379
0.054
0.499
0.4525
-0.212
0.4175
0.3545
-0.2045
-0.0775
-0.4795
0.432
-0.2005
0.304
-0.2855
-0.4565
-0.4485
0.2865
0.2625
0.1545
0.228
0.325
-0.4515
0.13
0.3415
0.1825
-0.4715
-0.041
-0.313
-0.399
0.4595
-0.44
0.046
0.067
-0.188
0.496
0.0525
0.347
0.114
0.019
0.173
0.2835
-0.309
-0.4965
-0.006
0.077
0.4395
0.2775
-0.4995
0.29
-0.362
0.2755
0.479
0.4235
-0.4355
0.046
-0.0425
0.168
0.4255
0.265
0.35
0.0615
0.247
0.3615
-0.118
-0.342
-0.059
0.1000236964919624
-0.08699999359823507
-0.3554963130195032
0.2765325054268308
0.4720606859953533
-0.12195691416235986
0.27149588438661865
-0.08800295551421063
-0.2610292653279715
-0.012494969499451487
-0.03584796793360459
0.3639452758006299
-0.1116048574278784
0.07700061117145825
-0.2599996657821432
-0.4208410193004858
-0.06742762995352615
0.1839863477028505
0.42900161882037374
-0.06676568606110674
0.3330169544579095
0.04152729790925415
-0.1779999999972869
-0.2914968253408252
0.31447818414116635
0.08799999864355737
0.006659197860475723
-0.1684413845041139
-0.01595572475009868
-0.3011314800447329
0.057396564167700115
-0.47250000594740177
0.17184969541120154
-0.40039296625764786
-0.3789994843205585
0.09987789091141189
-0.2938967785063023
-0.030500011744416806
-0.3490017041151566
-0.17300769114676956
-0.46200000030794963
-0.1607116131683698
-0.24382889862820134
0.13795466037902163
-0.340500912753287
-0.016380115150874876
0.2789991016401822
-0.4689999997700065
0.3330879784414219
0.15155567346703636
0.3644175257473794
0.49298050748603894
-0.2574999625041396
-0.019108566234566464
0.35250000004164467
-0.04887727861298797
0.1586940685721216
-0.2584733624735787
-0.38798328097575707
-0.29400100611121954
0.05880906198723398
-0.21396038032623813
0.07019866560720775
0.19026129666697325
-0.06743921893368221
0.02493184415343495
-0.2724998062903769
-0.49576830677010214
0.16647246769878313
-0.3022388599097915
0.40797504740330437
-0.022468305253948957
-0.4457588938461587
0.28349966924624254
0.0038471515789103355
0.1877821229611509
-0.3261817541247575
0.32258263634696926
-0.4432263239767676
0.4845338443958201
-0.3826998904924441
-0.29482664101988154
-0.3813548101484741
0.2135952173843132
-0.26095157680773295
0.4925002555576243
0.13380366823556428
-0.17090663823186122
-0.07491913182309076
0.31353693697104085
0.47334835699294703
-0.0471140496900946
0.05801332108918848
0.22129528332486248
-0.33163561893954097
0.36038451784085235
0.24608870038352693
0.46087994266434845
0.017374990390848465
-0.1323900542614126
0.4260416057939464
-0.1880122756951376
0.11204887729740987
0.31916811435273473
0.03085647470959104
-0.39645799428711703
-0.4217496167648644
-0.26003249144646917
0.024863488218167886
-0.20372914301562403
-0.04802522025892446
-0.040094392865785825
-0.43458833700981797
-0.15561005929504518
-0.4994940485850642
0.2671748198541098
0.1470616083118501
-0.4229533328869805
-0.16193025964592492
0.1330010147036155
-0.38018854898481025
-0.4219609870010331
0.2927295803105104
0.2562613133082692
0.12644192894214526
-0.07171878668545976
0.26098264650033237
-0.2462451709842894
-0.2083690900634271
0.4599631020083372
-0.3752506166490257
-0.492832016653805
0.35481332606473587
-0.49700062477389934
-0.010763908937314555
0.15058331006548356
0.36078928001355887
0.45317103776928636
0.09177574807314118
0.3717618484193073
-0.33669920968239003
0.4506506395852255
-0.3413548549047195
-0.13490630493743777
-0.4454479030461718
-0.18499886933374807
0.009301135900020026
0.25522703941977154
-0.4274466513877899
0.38369395674869716
0.13371771787969405
0.3209986834309616
0.44191006411129474
-0.08244289245283506
-0.21855004917481094
-0.4458287449613832
0.259649792807889
-0.4361597694072965
-0.33711806401741057
0.20123980740623268
-0.1389583942490513
-0.17241902891391983
0.2584077747824117
-0.27483194777813724
-0.5151427772746332
-0.2339579939619071
0.049755440626224605
-0.48956895505700343
0.21269455564299578
0.07326629905254599
0.3785293774903392
0.11088116550959756
0.08690241052805624
-0.10510825205644628
-0.3389940453328957
0.1371773010362941
0.12976352744451677
-0.2659107283036291
0.2909174304554341
-0.02099897128487982
0.14328762900926312
-0.17490352719693752
-0.40955099323737154
-0.46736171316192227
-0.295963036552158
-0.4976575488736419
0.1806136863265424
0.05108786594473264
-0.28243146005883873
-0.11518368908149582
-0.1437884447767303
0.1932064215386814
-0.2506915314975309
0.058990696238230104
-0.249345386753729
0.24253590639671294
0.1291181551392254
-0.06784463337511247
0.1269892188241736
0.1569107317301247
-0.2572282956899288
0.026725583393796035
-0.3862545194123751
0.1625771087586214
0.20954561341825428
0.42500943336578717
0.0851235320915914
0.020203473461542824
-0.2887791766244419
-0.13275178998268913
0.3123109126357649
0.017738592035595756
0.27316992355174646
0.06297865943080153
0.2913710356511539
0.3830585154785453
0.007403168755736838
0.03354825005094686
0.19541338600948047
0.228679440276581
0.12541688569303308
0.27409803011794265
0.4655176558564244
-0.43308976608663813
-0.21924009914885606
-0.12727132428261503
-0.1961715199050203
-0.10286907385885391
-0.23035199804847578
-0.21250616087426893
-0.41584337873818633
0.041987438512590215
0.32574166832011875
-0.30019289664647925
-0.06316255901458546
-0.3100143865218999
-0.08801102425072833
-0.3964590895219662
-0.30751741996537785
-0.23577966000703435
-0.14199798822517384
-0.31790405288950907
0.16155653788526295
0.09549128602212187
0.25458928408389225
-0.3837554438058543
0.278235431206195
0.1579637542532267
-0.471929354278434
-0.20811534281225888
-0.03987894266119301
0.04752138670285907
-0.25572781954217094
-0.07201216662187859
0.14219443541075846
-0.10373896064048474
-0.03940639299040396
0.2838940789867498
0.10742926570865537
0.12084870790642327
0.5073103920180849
-0.20586273080260564
0.31721212015217115
0.36965577853992265
-0.17626749651540477
0.03158338971126685
0.1412589691717658
0.16592642916772507
-0.42301483438115156
0.4103115832504821
-0.5063925525407623
-0.41979309154141387
0.09418106527393352
-0.2409091190358443
0.40117478804436024
-0.05505530176288918
0.023059258237186395
-0.3242530615404926
0.13750036739847174
-0.26712549969636445
0.505445943977216
0.07040540110508686
0.22001381876340603
-0.1550086036918042
0.3282763437403782
-0.31277133644783356
-0.3211577062575163
0.40338737437722433
-0.0847993143874952
0.4059403623388398
-0.40183032992203616
-0.45493938336040796
0.40743205746083594
-0.11706347916965082
-0.32963902309495813
0.06364053513520349
-0.06267366479512468
-0.33776059547413806
-0.1844976209749073
0.31872569333230555
-0.35151529881925825
-0.15240066787802822
0.009119079001116403
-0.38780976794732747
-0.3319127243468432
-0.22189488550892095
-0.16557970428911925
0.21050417774333408
0.08757057541282444
-0.29075855229205083
-0.03519475029398962
-0.4266786683565718
0.049069993176441604
0.2023004483542822
0.028848270527100373
-0.4557390552074645
0.26913719338045505
0.07745405009515725
0.006428441115038093
0.39137619694192716
0.4558692145451822
-0.48884329451441044
-0.32319815261812346
-0.47008919577777053
-0.3627717477306492
0.2611704058795715
-0.37991065134047675
0.12254077581975209
0.4323374365064587
0.16731722173772012
-0.35739274024036505
0.19575261518994067
0.09836715702159973
-0.44691561274569885
-0.34384259028930675
-0.27135808621537155
-0.328862284017655
-0.32995055960320774
0.07865239746458587
0.0773258995624576
-0.20506880494757326
0.10902826185971996
-0.03503964091453449
-0.017045110916158242
0.24689870157842916
-0.46827346206982173
0.12800119689838355
0.5438969687368068
-0.1825356230206228
0.20693937128464446
-0.25266152031985784
-0.16625350378919276
-0.3639104753205177
-0.15640779531945495
-0.33415233515052395
-0.39785865747282523
-0.3404618973507931
-0.3061932283284073
-0.35104949564034277
0.26672962221562685
-0.1496577783137898
-0.3940194015016876
0.2559931282100339
-0.3353140846136243
-0.11226853401843781
-0.2990265375916775
-0.3183311296351451
0.021130978790006232
-0.2793931929074769
0.17589971634327314
0.2505980811445825
0.13822444175492332
-0.01583210689942846
-0.04769897251833472
-0.25995249489153555
0.38034948090440174
-0.22116634162373439
0.3067422550396527
-0.19602005050547638
-0.16052676674310198
0.31561380417593504
-0.2811093958657048
-0.46078437157625635
0.4799644686900114
0.4922445015579661
-0.4087937828869928
0.1684720134468275
0.10569123852390123
0.36572967640277304
0.09304026955203229
-0.09528896400502251
-0.15749777179009364
-0.27137994350344713
-0.33860749423447967
0.3302578083901517
0.3821041509187787
0.1470548747648087
-0.292078775023631
-0.31670128876639836
-0.02035076934623119
-0.2586053013899755
0.35757345199373103
0.5141997245583075
0.3365273244367352
-0.44014635316656264
-0.36072672750556356
-0.31712990360618926
0.08816372622852695
0.3354962341355045
0.323341805119471
-0.45491390898748596
-0.11652297570826446
-0.047475752158757184
-0.029609616561199134
-0.11766138266474509
0.3844958965474394
0.21004645897841334
0.4967255189302007
0.044885613646116665
0.21372891621728307
0.24080334361733058
0.16692437527964718
0.5025316841504902
-0.14057840689579534
-0.4552683573043748
-0.3220702843089014
-0.2401833513824456
-0.12579943749835845
0.20710657073947633
0.21885848254080661
0.363353432046993
0.3816968967007245
0.1603002440842017
0.08380720238408042
0.4207526544640388
-0.22357788107423465
0.29906913893148784
0.1792898446744979
-0.26669051945282723
-0.3175331313660707
0.3426109910039526
-0.2666513165341134
-0.2847895393172284
-0.06779112047880985
0.3514325233349835
-0.34588988400850357
-0.04005200068293431
0.40128408219331274
-0.1016945112445264
-0.18831162100679216
0.28367169359384053
-0.16498739215098296
-0.10238082950212905
-0.2282871589822953
0.06326750039105042
0.41226388265364544
-0.16690854341839714
-0.04475644259168679
0.40189919799455415
0.10383573541479382
-0.44460070005907043
0.24276057737865725
0.47318990976361697
-0.05287531881739077
0.45828166185049823
-0.0825304546835934
-0.29304763247768845
-0.1889530626651642
0.22447001984084747
0.11967185622808593
0.46862917737469284
-0.3593952822227597
0.4671643468217936
-0.22663225320644925
0.239839795539588
-0.26412032946990405
0.48088114038904844
0.02811326209355356
0.2464183844579466
-0.23977032458830472
-0.3583595671607882
-0.24458976346836755
-0.11655751210817474
-0.15910730895402347
-0.19064585666816034
0.47409415557273793
-0.142624728873976
-0.33086299040200423
0.34844916477090915
0.3515105157519211
0.062348370992069274
0.29281874033125355
0.3159743393755956
0.4459926718829535
0.10370972118304984
0.18012107089623236
-0.28291328838198204
0.48775788727760555
0.3477118379315631
-0.1542618277020451
0.3575514830350477
0.2815441859155375
0.34262053248069785
0.030280477012367094
0.2351645668947044
-0.11935963545434367
-0.37688028484320774
0.04001951832599544
-0.24169681477130747
-0.05770526058779692
-0.5187484605732762
-0.2556458299127998
-0.007944638710116116
0.3697453730260298
0.1911939915226421
0.05519861200053538
-0.4240480932779532
0.30298077845515514
-0.4065017743607759
-0.30262855988524956
0.12791408159082399
-0.15469513652849665
-0.4140851404595779
-0.33264173672902736
0.059658869142154035
0.2589423449902629
-0.10071157927757565
-0.23592670559853832
-0.1616392426388367
0.43667736253043093
0.0944060354370446
0.24795440802677784
0.3014733444522098
0.3810101493563404
-0.23964706131615343
0.07238396319814445
0.01749831772541563
0.21203593825677367
-0.29455831295113577
0.213225740087653
0.44639444486649965
-0.260676460784635
-0.08149034104683585
-0.3104053073588665
0.3634389824774481
-0.15808249218387715
-0.14801994041274386
-0.3481732516040477
-0.48552147060097434
-0.3865558601477521
0.3219772353280463
0.24756544740662764
0.1024894099107906
0.17498394124762534
-0.39548349082901824
0.25262870413459076
0.02544777104663615
0.2561438971275192
-0.26952312572623705
0.04953196484829995
-0.0825131781349594
0.061030726454862474
0.03396546740709211
-0.4091796685016808
-0.32143667194929126
-0.35363799823802344
-0.49783526719031074
0.19172287575905345
-0.31881925530658517
-0.4120522788597395
-0.5395416983538753
-0.4085318431639346
-0.2618196192888871
-0.38771745332009494
-0.129259501687818
-0.0444866824337413
-0.3260922421556621
0.03719940086263662
-0.36175283414153087
0.4927716943122452
-0.11525625873281187
-0.13018184365662286
0.32812910875364504
-0.2200509297210093
-0.15328852588976422
0.3008918602643723
-0.4434984290535625
0.43617428165505834
0.17930781596177575
0.15089940120373307
0.14325658132354158
-0.1479332479093291
0.4523271587759458
-0.38597556683926
-0.1288647948943253
-0.3764427361995527
0.3588292747626112
-0.3726255710462689
-0.4570742119048758
0.37723728865365574
0.4221657164561662
0.2810453743344342
-0.040509388582332086
-0.36348399216461313
-0.2504723381743154
0.3770609426295859
0.4998542834007214
0.3110778184717331
0.012474235069852293
0.09188197666446772
0.073295258091943
-0.23667700346402323
-0.2383064169691539
0.46114573542776016
-0.27770559594862737
-0.03890560220974887
0.41211993883814557
-0.22293533302244398
-0.11829116583908902
0.06741794091682715
-0.07158444780322448
-0.39491450047619686
-0.08874149850109266
0.09749390654593454
-0.1491942242966558
-0.14195459990830095
-0.5141487522891126
-0.05833055124580997
0.31658979186769826
-0.1300743613707999
-0.08736831662538165
-0.006195010819343803
0.43180852894351407
-0.0745277479910925
-0.2591400923626796
0.12417897296154753
-0.20524784999158313
-0.3816809670314793
0.09186314328379362
-0.47956839317595706
0.0010737835910740324
0.11963544589152901
-0.32229587915321095
0.04028243123240627
-0.13489571609812084
-0.4240944647019509
0.42003181109233617
0.24991836594606925
0.1963977478160796
-0.21977276412437508
0.07014498122587508
-0.037442841649696024
-0.45272305976895155
0.2671958238502344
0.4708110294303777
0.44551939208930647
-0.4765868700271516
0.11104178368748881
-0.3092344926002942
-0.4432358231067174
-0.015414432091254511
0.00405726374453508
-0.4417635952856049
0.04664832055735219
-0.16611989184158615
0.03485594587812883
-0.08756395924110075
0.35411141664390566
0.3310567582295626
-0.1908172196453396
-0.47969242305436666
-0.4035133484434221
0.32319058382012905
0.10115077538127758
0.1292685813422939
0.379369066127228
0.14209954622032803
0.297955944963478
0.03134035051701234
0.2300018859601816
0.1329135051627689
-0.11798301123657212
0.3612914470575587
0.1495926827817129
-0.2177249493611453
0.06842034568950577
0.48926489323702793
0.24046496170604434
0.4545976949502918
0.09540550266354171
0.0720031679920868
-0.31166334371522436
0.11779680817884566
-0.0711759856696094
-0.09374292145935827
0.1465243480680103
0.16490661757898914
0.4026203636980008
-0.43262545613499914
-0.38540924555539513
0.2710443315577683
0.032543677961228416
0.15091779728251226
0.3067390413777875
-0.44391249508170244
0.3039352544859845
-0.03098194773215575
-0.0538375881514877
-0.058218695201074935
0.08580482828351965
-0.4479930670835749
-0.30488804282200815
0.32714701499462207
-0.26033252540902163
0.4266731266111481
0.1492941390169068
-0.45453041394263516
0.48286118185903926
-0.35720863699575434
-0.3199718425214577
0.2663913847798765
0.26554833357331115
-0.15756116828280475
0.23071468961468947
0.2813385495494247
0.30756776483092463
-0.2477822630336017
0.05374141944691371
0.46902718030659474
-0.4979319190571539
-0.015444709342706581
0.49020475553937015
0.27000852279394805
0.3751591038549637
0.32963715520330483
-0.26663512446960447
-0.38476522341475133
-0.041424538449036125
0.4538711964927753
0.4052045669132057
-0.08508673986037736
-0.15078264778370776
-0.1641750126993557
-0.015263555494540582
0.3734736569282804
0.14844096666176948
-0.08792028957753034
0.3842919800704639
0.29472562691177945
0.04087027755371105
-0.4125690982962285
0.23473727833007668
0.22917347548762335
-0.21591638950174577
-0.18585939408897592
-0.2412194928684123
-0.29018939619985085
-0.11590057944179974
0.4656754853838881
-0.1668509559291433
0.14887706854805452
-0.02903214002850643
-0.2991425892395177
-0.4111154746412076
-0.2626533129100695
-0.4148175733926468
-0.42598100074386885
-0.22931977758790845
-0.2619415457195719
0.19741552471174484
0.20589191554557446
-0.060653765041699774
-0.05343678285897532
-0.05138305065144549
-0.4413848196577108
0.35182518660356676
0.19664178415115613
0.33937197217543663
-0.10006163630582607
-0.23449808431281013
0.03889138477987647
0.27104833357331115
0.14493883171719524
-0.23278531038531056
-0.41716145045057523
-0.05493223516907559
0.0992177369663984
-0.38375858055308637
-0.40547281969340526
-0.3399319190571539
0.15655529065729332
-0.03979524446062995
0.31800852279394803
0.19165910385496382
0.3651371552033048
0.03486487553039558
0.046734776585248786
0.1740754615509639
-0.2906288035072247
-0.1707954330867942
0.3734132601396228
0.12371735221629235
0.2628249873006444
0.32223644450545946
-0.27652634307171964
-0.23005903333823052
0.23907971042246967
-0.4142080199295361
-0.26627437308822055
0.10937027755371104
-0.26006909829622854
0.22173727833007661
-0.04632652451237655
-0.44391638950174567
0.020140605911024078
-0.1262194928684123
0.46631060380014916
0.017099420558200233
0.1651754853838881
0.1891490440708567
-0.13762293145194548
-0.09303214002850639
0.13635741076048238
0.25988452535879236
0.1023466870899306
-0.3513175733926468
-0.07598100074386899
-0.4213197775879084
-0.122441545719572
-0.4025844752882552
-0.17160808445442555
0.05184623495830022
-0.4304367828589753
-0.06788305065144545
-0.3648848196577108
0.47682518660356676
-0.48185821584884386
0.4928719721754366
-0.355561636305826
-0.09949808431281011
-0.21455158896577173
0.3764953358957141
0.49640087050338877
0.1469548410723423
-0.20710428661103814
0.4125000001289603
-0.33000039444352725
0.11212770268212391
0.43146354255825237
0.1149816583936529
0.32807195566282255
0.4026130961951763
0.44229233133579615
-0.13450017966874256
-0.4190665001075358
-0.41050158891012306
-0.049055414956825305
0.22557346511800674
-0.4194760948406328
-0.4138018887057683
-0.08050000109207274
0.35397497852338156
0.17090391944178393
0.1029964756737151
0.22239543474766793
-0.3629408713264407
0.3772504106022669
0.03434239649215991
0.4714717262640464
-0.46202669323928325
0.23943487421669818
0.09589807838556787
0.13049925941155155
-0.01751972438444337
-0.4777290126305597
-0.18013575928407624
0.4351532334178664
0.12146485630308253
0.29505943086064745
0.023416530635893145
0.2544975424252777
-0.2526541193854746
-0.32878601189382156
-0.10551786144124127
-0.18106098090757938
-0.051999999820052815
0.37150082887347236
0.10849970994401481
0.18518407650229216
-0.22608207415411027
-0.362591270995413
-0.3099979347881317
-0.24700109298674672
0.4635469552151639
0.3124412567591673
-0.29647447169223357
-0.49731456272994307
-0.002491702085836833
0.22548556323761693
0.14299667033522565
0.0335
-0.447
-0.223
-0.089
0.412
-0.323
-0.439
-0.203
-0.0575
-0.2045
-0.455
0.0175
0.4125
0.3135
-0.094
0.328
0.2425
-0.0515
0.2525
-0.1645
0.3615
-0.232
0.321
0.407
-0.041
-0.36
0.121
-0.165
0
-0.0675
-0.253
0.103
0.442
-0.4585
-0.4775
0.1735
-0.0945
0.054
-0.0895
-0.3655
0.279
-0.284
0.432
0.357
0.469
0.404
0.04
-0.347
0.014
0.1235
0.054
0.049
-0.266
-0.1265
0.351
0.3605
-0.329
0.165
-0.056
-0.1875
0.4455
0.412
0.158
0.2575
0.459
-0.4285
-0.3825
0.0995
0.1835
-0.174
-0.0585
-0.0215
0.1495
-0.4015
-0.316
0.061
0.224
-0.0025
0.415
-0.227
-0.238
0.405
0.2075
-0.091
0.12
0.2585
0.4015
0.257
0.4835
-0.411
0.2485
-0.198
-0.096
-0.057
-0.1425
0.0575
-0.4255
-0.207
0.3735
-0.0315
0.4795
-0.1815
-0.23
0.2355
-0.2235
-0.185
-0.1485
0.257
0.4375
0.4005
-0.4925
0.224
0.137
0.455
0.254
0.2475
-0.2885
0.0555
-0.217
-0.3355
-0.2725
-0.4825
0.2345
-0.3075
0.1375
-0.4415
-0.247
-0.4545
-0.021
-0.416
0.255
-0.2305
0.3855
0.029
0.365
-0.0965
0.2315
-0.2205
0.0145
-0.069
0.016
-0.2875
0.437
0.049
-0.457
-0.1815
-0.3335
-0.0505
-0.107
0.0175
-0.172
0.4695
-0.3545
-0.2845
0.2855
0.066
-0.091
0.2755
-0.1025
0.07
-0.189
0.209
-0.0605
0.4745
0.3865
-0.2045
-0.2775
-0.201
0.2475
0.4115
-0.4735
0.4815
-0.3445
0.0775
0
0.4375
-0.349
-0.179
0.365
0.3955
-0.055
0.1215
0.3415
-0.376
-0.139
-0.403
-0.2195
-0.044
-0.381
0.2045
0.0935
0.2695
0.305
-0.252
-0.0745
0.4695
0.457
-0.219
-0.1235
-0.3155
0.138
0.476
-0.3355
-0.361
0.463
-0.247
-0.1205
0.2635
-0.0665
0.179
0.048
-0.244
-0.4675
0.234
0.003
0.388
0.016
0.456
-0.3225
0.037
0.2065
-0.3945
-0.279
0.1895
0.006
-0.1085
0.2735
0.404
0.3085
0.284
-0.012
0.4025
0.049
0.2325
0.314
-0.392
-0.17
-0.1875
-0.4965
-0.451
-0.4785
0.0195
0.421
-0.029
0.043
0.1115
-0.2245
-0.1465
-0.0215
0.4145
0.3365
0.2655
-0.048
0.2415
-0.472
-0.109
0.187
-0.282
0.4115
-0.1
0.2185
-0.3435
0.2505
-0.4435
-0.1305
-0.4045
0.1195
-0.493
-0.4565
-0.3745
-0.2555
0.2695
-0.4585
-0.388
0.1225
0.2975
-0.4685
-0.162
-0.075
0.264
-0.314
-0.1755
-0.165
0.04
0.284
-0.1695
0.402
-0.0535
0.1225
0.343
-0.0305
0.154
0.045
0.1455
0.3005
-0.286
-0.397
-0.4315
0.2685
0.38
-0.1085
0.145
0.239
-0.017
-0.4275
-0.2945
-0.0275
0.423
-0.0125
0.02
0.216
-0.153
-0.1345
0.2165
-0.352
0.3815
-0.1375
-0.3655
0.4495
0.4835
-0.2845
0.4285
0.415
0.1635
0.3825
-0.0555
-0.4785
-0.039
0.3545
0.483
0.0595
-0.002
-0.391
-0.152
0.4405
0.037
0.1415
-0.0815
0.3525
0.2785
-0.236
0.184
0.117
0.4475
-0.293
-0.1045
-0.039
0.356
0.1925
0.39
-0.209
-0.233
0.207
0.087
-0.0185
-0.208
-0.419
-0.297
-0.49
-0.066
-0.0315
0.1595
-0.0695
0.2725
0.2915
-0.4645
-0.158
-0.1525
-0.298
-0.118
0.2335
-0.0565
0.4235
0.255
0.0655
-0.1515
-0.313
0.0475
0.166
-0.1065
0.43
-0.298
-0.3215
-0.32
0.4655
0.2945
-0.4675
-0.3035
0.193
0.0855
-0.252
0.4095
-0.245
-0.413
-0.0595
-0.274
0.466
0.3475
-0.2935
-0.189
-0.2015
0.266
-0.178
-0.0815
0.0585
0.0715
0.0985
-0.1365
-0.128
-0.423
-0.347
0.2355
-0.2245
0.263
0.0115
-0.1995
0.3105
0.0405
-0.102
0.315
0.295
-0.1425
-0.2855
-0.4425
0.393
-0.185
-0.478
0.0935
0.3925
-0.128
-0.271
0.467
0.089
0.2525
-0.477
0.11
-0.2155
0.4635
0.2635
0.1735
0.3985
0.2895
0.224
0.114
-0.142
0.314
0.415
0.1635
0.0435
0.461
-0.145
0.399
0.3315
-0.2625
-0.0925
0.2755
-0.255
0.284
0.163
0.309
0.437
0.4545
0.233
0
-0.0645
0.418
-0.0885
0.048
-0.3055
-0.0485
0.3215
-0.0765
-0.314
-0.0645
-0.0175
0.1855
-0.394
-0.153
-0.274
-0.1825
-0.115
-0.3695
-0.486
0.1615
-0.471
0.4875
0.173
-0.199
0.025
0.4335
-0.2
0.007
-0.1265
-0.14
-0.286
-0.1865
0.241
-0.114
-0.2745
-0.0975
-0.4045
0.1775
0.196
0.272
-0.477
0.0315
-0.4565
-0.232
-0.16
0.1685
-0.361
-0.2085
0.0405
0.154
-0.332
-0.021
0.313
0.168
-0.2405
-0.1095
-0.234
0.227
0.228
-0.4055
-0.222
-0.28
-0.3835
0.0205
0.1685
0.401
0.062
-0.261
-0.395
0.3925
0.2425
0.0705
-0.2935
0.291
-0.16
-0.2115
0.3945
-0.2815
-0.0465
0.1795
0.218
0.451
-0.324
0.1715
0.0995
0.4105
0.201
-0.37
0.394
-0.4915
0.009
-0.494
0.473
0.089
0.089
0.129
-0.088
0.202
0.0015
0.0735
-0.0855
0.1715
-0.0085
0.3425
-0.489
-0.009
0.189
-0.482
0.267
0.4965
0.4355
0.2075
0.2215
0.032
0.1275
-0.1615
-0.2385
-0.1555
-0.0045
0.453
0.2245
0.2865
0.1055
0.2215
0.024
-0.445
-0.0695
0.233
-0.2345
-0.4535
-0.2885
-0.4115
-0.343
-0.2525
0.133
-0.2465
-0.2055
0.0895
0.3525
0.4175
0.4285
0.354
-0.328
-0.3455
0.1815
-0.3595
0.098
-0.177
0.4605
0.2005
0.472
0.332
-0.292
0.048
-0.4595
0.08
0.4885
-0.063
-0.4865
0.187
-0.0075
-0.1145
0.2115
0.096
0.3345
0.0445
0.464
0.487
-0.46
0.052
-0.32
-0.223
-0.2785
0.0595
0.3615
-0.3985
0.159
0.152
0.49
0.2735
0.1845
0.446
-0.078
0.4745
0.4225
0.068
-0.09
0.4575
-0.283
0.13
0.4965
-0.331
0.0265
0.3145
-0.0995
-0.2315
0.2625
0.238
0.2925
-0.37
0.143
-0.0745
-0.129
0.374
0.2155
0.06
-0.277
-0.451
-0.422
-0.2485
0.236
0.363
-0.364
0.256
-0.2745
-0.1835
-0.0615
-0.4525
0.4615
-0.0065
-0.3235
0.271
-0.4965
-0.2785
-0.0225
-0.144
0.412
0.294
0.0735
-0.3405
0.3245
-0.024
0.4715
-0.0745
0.423
-0.146
0.322
0.141
-0.0815
-0.09
-0.022
0.422
-0.207
-0.258
-0.3925
0.081
-0.389
-0.1335
0.406
0.3595
0.236
0.4305
0.218
0.262
0.1465
0.0255
0.426
-0.202
-0.336
-0.419
-0.4675
-0.297
-0.289
0.423
0.1175
-0.479
-0.4535
0.2045
0.0415
0.441
-0.2205
-0.0435
0.0005
0.2645
-0.439
-0.3815
-0.3445
-0.087
0.3435
0.049
-0.072
-0.1195
-0.3055
-0.1455
0.451
-0.339
-0.109
0.224
-0.4885
-0.476
0.4295
-0.3005
0.404
-0.026
-0.0425
0.1915
0.407
0.2995
0.2
0.131
0.306
0.1415
0.172
0.0885
0.495
-0.2385
0.1675
-0.3485
-0.2365
-0.356
-0.412
0.3495
-0.4895
-0.0895
-0.3085
0.1215
-0.2125
0.363
-0.454
-0.3315
-0.4205
0.1915
-0.386
0.3815
0.1995
0.1275
-0.46
0.1385
-0.3775
0.3245
0.059
0.0735
-0.2745
0.3665
0.253
0.4315
0.34
0.168
-0.1405
0.213
0.27
0.288
-0.1565
0.2245
0.0415
0.41
0.3035
-0.456
0.0095
0.0325
-0.05
-0.4585
0.111
0.3045
0.066
0.141
-0.3785
0.493
0.379
-0.2625
-0.4875
0.292
-0.439
-0.418
0.374
0.411
0.3185
-0.4865
-0.355
0.0755
0.4365
0.2125
-0.0035
0.2435
-0.0185
0.274
0.333
0.096
0.113
-0.177
-0.2475
-0.322
-0.191
0.361
-0.0185
0.239
-0.2795
0.3335
-0.402
0.1515
0.207
0.3275
-0.3535
-0.125
0.2845
0.217
-0.3305
-0.4095
0.3625
0.301
-0.062
-0.4765
0.3185
-0.36
-0.4015
-0.0885
-0.35
-0.0495
0.451
-0.078
0.3485
-0.008
0.153
-0.0215
0.016
0.3015
0.374
-0.172
0.2005
0.0035
0.0045
-0.075
-0.345
-0.327
-0.0705
-0.4525
-0.368
-0.182
0.2295
0.3455
0.221
0.465
-0.077
0.38
-0.2345
0.3125
0.34816608995121434
0.3403942764868769
-0.046855978690553156
-0.020215137726466607
-0.4211466535356106
0.11315421610801679
-0.3302313049177652
0.45740866599262886
0.16510957255047454
-0.025599646153397448
-0.03974386849320703
0.019903106905063438
0.33936457944793996
0.26692198237590237
-0.47372717683415855
0.15998681005448595
-0.04027012309650897
-0.20025001090818967
-0.09949999211198592
-0.08162207592052215
0.154419925038381
0.09805687363806664
-0.15040111415725177
0.47777056377634664
0.2578769988642735
0.1588696125511213
-0.41534720261699
-0.06021023537567614
-0.2926478246315317
-0.24850891690333662
-0.24206892731908625
-0.37080672674498005
0.26315404830743205
0.16727433742615744
-0.25234358953997954
-0.31614225387192163
0.4251059311561447
-0.23342801284076367
-0.32848932908217876
0.1254714505415915
0.251927903013343
0.015087292014295617
-0.15480929892652204
-0.21117185132502087
0.06003813260913803
-0.010478824569603633
-0.12198233630503164
0.020105997842003374
0.41702153602011627
-0.23769938894631765
-0.3675624092335648
0.19503266756366988
-0.1675380487054384
0.15082109948838612
0.16528410687109674
0.43150076534444076
-0.4511112025386754
0.4600117605192419
0.39176466081211975
-0.08932257022564877
0.40868978644317666
-0.20960571711135814
-0.14485229171005626
0.46331736770036414
-0.1660859675402573
-0.020302698054343087
0.18426457946885325
0.4029057104784183
-0.36291969277749664
-0.4555946156528489
0.42040816357318833
-0.23915161729430665
0.41625972202006145
-0.11207740645263942
-0.21672684261630157
-0.00035420924599959707
-0.17769775305003505
-0.09176366320533913
0.09000162670838795
-0.2088877619816289
-0.14006312050370948
-0.40991582845267915
0.3735988858454613
-0.42622626156447857
-0.29164481699456013
0.22136961119467882
0.2053119952434856
-0.23215161987979002
-0.15210354938163023
0.21485960305193058
0.22682763684861376
-0.39930673269238187
0.4075037437186337
-0.49861862883149044
0.38365692613946195
0.3467356370394903
-0.10029084735015749
0.49957197541481946
0.23050896680266453
0.47796375939482183
0.2764279027053934
0.29787567884592575
-0.47013819755472364
-0.48971719094599914
0.4405372198558512
-0.38185893972047846
0.2715167653351505
0.4466059980719968
0.4551095144615382
0.21935628452071873
-0.4856448834861854
0.3210131750497087
0.047461988790422016
-0.3592874667461801
-0.0407158930872586
-0.06437651326854726
0.26808286603344617
0.2995383980456632
0.1367813798363626
0.42767642366313147
-0.1740863468318192
-0.17857241087039186
0.13315966340553484
-0.25347417156996116
0.0728064662240791
-0.06868140028446368
0.4583672989413358
0.28749273276666887
0.17323663324690508
-0.03605369400699649
0.12066941350384694
0.2749086201610297
0.24923687252866392
-0.4349674377897045
0.16864164891811778
-0.0008398303079090927
-0.25729283721935686
0.20201098288294436
0.11587494959033022
0.40924382327498676
-0.2695758717720288
-0.22471864328365765
-0.4797169272403285
-0.03116209932761828
-0.4523651967362556
-0.1477046383532042
0.0823755841183831
0.38989843158292403
0.43476668114725064
0.15129093092227835
-0.15664903606872915
0.43421637144357556
-0.4564409171206107
0.4198969903428187
0.4695315010173232
-0.41605614531237856
-0.021323267691142674
0.4792608650959712
-0.16810292892446066
0.20743615690718648
0.19590786394449597
0.5283485351897503
-0.483379955946499
0.31455730785153974
-0.23200139481342041
-0.1483943650816585
-0.504121119069612
-0.012680732976494295
0.3459560378590247
-0.0051738684533835805
-0.4441161004463877
0.22188186974538304
0.26532007717259953
0.37992060119662147
0.3643579456675652
0.184568686762891
0.44275624302227956
0.33260838677965204
0.43464662952078026
-0.41109656739702444
-0.13190222543880745
-0.02119921696126733
-0.47143202311848653
0.04184388341793131
-0.4432831875476463
-0.22833462921773884
0.17870805258648284
-0.2229333592272429
-0.30610183715442685
-0.33265407366134353
0.005407855725443304
0.05219769238934597
0.33028881274736366
-0.527825099096013
-0.17149866447584358
-0.5013049402172637
-0.39133228704985135
-0.4495515787784146
0.40892075439625664
0.16558671081893941
0.47918423833679885
-0.5241663777134096
-0.4331418442586631
0.46806594553790926
-0.40041899290481897
0.2014503619711425
0.12797368601740133
-0.057861125601946395
0.07539350498907318
-0.15460078362042395
0.1669749855006215
0.4157670568733577
0.3502595076037656
-0.125190045035046
0.3292526267174884
0.022775913859514826
-0.2035950267337966
-0.04265832152997456
-0.2779895139947211
-0.312614217309163
-0.4588499579798
-0.37344222240043107
0.22598382109320767
-0.2602911530516003
0.002572329132632243
0.49179777331858865
-0.050495365613476624
-0.43578585910663936
0.2818473292752917
0.12495318784988764
0.4702494806688967
-0.24819199297444253
-0.13909851346522278
0.15816973342768378
0.478378343790722
0.22472765145881127
0.29762151477876947
-0.33269530277392606
0.015092414103069674
0.12894384111409363
-0.5383301019157977
-0.4026985196340558
0.32413594375061466
0.1650616004336425
0.330583966890675
-0.18813204095226935
-0.27070851971071597
-0.3462069445846833
-0.008432264596220604
-0.30761955449291506
-0.0009386772688307518
-0.28402681067570684
0.10722896676792568
-0.3103141495367838
-0.3075643767523657
-0.08359612323150899
-0.11635161274654222
-0.2194726335993858
-0.20467803514505595
-0.010172387412860657
-0.31390303298461164
-0.3440408416731044
-0.29842050840759166
-0.16579168525501098
-0.35879439823985887
0.2690516998685016
-0.503311374081653
0.37632020887298046
0.03839716980149996
-0.39730103315630294
-0.3518022820246471
-0.26515352890236
0.023269184715412478
0.014157959166599277
0.44757369527531593
-0.10048482616355298
-0.1340810287961737
0.041819572306758625
0.43686357026278605
0.004930411658036374
-0.2999352325770309
-0.034730971063278174
-0.3995543110629323
0.39791818292904463
-0.44559623912442137
0.19999543809215029
-0.242563534447386
-0.206586256534563
0.25464145746153993
0.1396694717429503
0.508793640604688
0.16117170692442828
0.14588318057678493
0.4682361770823345
0.1736361635734607
0.399532913781365
0.4238209157156884
0.11051777991136404
-0.19567681634178097
0.27541976627945325
-0.38124140347728813
0.06758845191921187
-0.07948996426134153
-0.2395639577197376
0.01801971896778767
0.09027033667439899
-0.30663478459273075
-0.3769662816216705
0.41529427554350284
0.2186162116771861
0.03314484607879676
0.41474648560760935
0.17788478349071546
-0.1679149779719878
-0.49694341714196755
-0.5542184614463729
-0.15039882366027468
0.0835219161777242
0.10964408591957091
0.039490201145917975
-0.4797073797923065
-0.2522810628226487
0.1262004314024456
-0.2883107004807321
0.43244548977421543
0.17374777067799443
0.3493266815417225
-0.06288871392965473
0.0023466600209775157
-0.14317823717074762
0.22381172846328112
-0.34927475712046807
0.04693853829736912
-0.3653521457406053
-0.2306903438916132
0.5008528797740103
-0.2266127604577609
0.34189704147258576
0.42815134044110903
0.41069166257462897
0.2682683361637042
-0.3030381550611685
0.050574966659614834
0.2673690042518517
0.3343969500474914
-0.1462418564298691
0.21398301139053308
0.0031613001089318585
0.11195761514695965
0.19322550717806583
-0.2332916254765101
0.10372000829385218
0.12929384569599903
-0.07050848282679248
-0.3563400096565891
-0.12823079105532495
0.21719595860215696
-0.19506878621040252
0.22615635917782548
-0.17413106862357028
-0.04530752839884559
-0.20346120220794103
0.054770928059721086
0.24276683225585957
0.1581371111268073
0.09469001698033137
-0.4375514572628637
0.32364066253159096
0.16406876950405638
0.5206059163255495
-0.3741895802625708
0.026462263823294453
-0.29930087815393874
0.47477402075673164
-0.03454490821440819
-0.06671132234669189
0.40360476982469
0.2084104835702401
0.2096105352344082
-0.42272059270405105
0.3143345551123158
-0.37140018688123727
-0.3971787254487812
0.07564093854465058
0.22233302263589574
-0.023126697875348736
0.3205999522372083
-0.3202360873649889
-0.05500133571808569
-0.05160032532872895
0.4083487412635484
0.07797113233200238
-0.20300701653409564
0.3331203714792085
-0.35855303646126896
0.12118403271545178
-0.1653575476667011
0.21938874715404252
0.3854120964899085
-0.23528276168531792
0.19170848403936527
-0.4045715467262873
-0.236352046585854
0.02049600781782122
-0.17436686251189973
0.4618190461669189
-0.22735200385962515
-0.23745116822301926
0.10086782455776416
-0.17072199081580647
-0.504924817755791
-0.4531086614994246
-0.4620627655077744
-0.14046685228518008
0.04514097632338074
-0.17824423760606276
-0.05958365972017277
-0.49057484565349624
0.015371956474023521
-0.48346021394331573
0.34039694911986823
-0.2590494881913895
0.29201617031220806
-0.3974641518170371
-0.4313966195564308
-0.19523468400655392
0.1612563343720045
-0.2410099334471469
-0.2755969866515558
-0.2717325266787803
0.44439220080084074
-0.3010694400689021
-0.19864662771805056
-0.3964316154999581
-0.01489947103300903
-0.337309668267544
0.326867801179728
0.32840128839540245
0.10261778802746264
0.27277658477503736
-0.40977297051860956
-0.1606742971602883
-0.34929709910620815
0.12245287371165049
0.1704031865396726
0.26650373533363597
0.007575633205484711
0.24710649974304377
-0.29501302305015176
-0.019894349567155637
-0.0807531058834662
0.19969568883813435
-0.15395890819394467
0.47493944028400154
0.2709732169291309
0.530367627785358
0.17074573524798187
-0.07812651253365793
0.04512755268124666
0.39704136682460434
-0.43636714271089566
0.26775142441287475
0.06298070032129321
0.24900307087795392
0.10578566110397537
-0.2620528887951925
-0.30312713435168404
-0.40207399044044323
0.06239085617426344
-0.3465199141083195
0.20578046748990664
-0.10948997727977795
0.3315471790061175
-0.1085756142185069
-0.4478136508146435
-0.27412587833288926
0.2518106937755874
-0.5012280747481811
0.3452728081529014
0.25391062320680924
-0.19731398985606802
-0.07708107916599591
0.46037601804404216
-0.02237566757108893
-0.3788573717292325
0.022938071881264427
0.2502527562624334
-0.1672415907290979
-0.09092504918340481
0.31682956571367143
0.02811074643073818
-0.3121992322061411
0.46786275232565255
-0.014671735852906315
0.017709776401620813
0.15203903999254925
-0.3488321526233753
-0.20922595204944486
-0.2756042617041512
0.11078903918083137
0.2714621476726487
-0.4592365931524007
0.08614229459398806
0.025426618332952625
-0.419876171444737
-0.3860696479206105
-0.3928399508723345
-0.12820033004017464
0.2530959573606826
-0.15383877640209195
-0.15711815368574292
-0.22815193253345298
-0.4641360055005561
-0.11773567331652411
-0.12381876997642732
0.4581280306076599
0.19744703901129693
0.15455421287785248
-0.37669167596641906
0.04395751944499881
0.21637153787985575
-0.3620962683057553
0.39155323029405964
-0.33006936326916814
0.02599321449638532
-0.37562844063758255
0.011276457778463584
0.09182186310139062
0.4676948944937568
-0.32905334869868613
-0.30421123238074904
0.4787220601893406
0.2521933502594748
0.2643657031528678
0.25688343765569954
-0.22683785674601595
-0.2733513439967117
0.24214363926060398
-0.13738124295735946
0.3046205161629339
-0.08812107072852883
-0.44365473060248894
-0.38021830288161296
0.19427889014670155
0.011995357854602515
0.17470159080886108
-0.26703236069414776
0.05179145148834829
-0.045238759686583994
-0.11658607729330367
0.2905435321274264
0.2443313381124496
0.4963191165914401
-0.0701396675034074
0.20150896242399116
0.13624266635612897
-0.043950052242558615
0.08997193318479273
-0.31444467729924513
0.3239555075945507
0.02449090522253039
-0.3455140878066844
0.4262251538770078
-0.46892626468152343
0.5147025779409112
-0.43004712491668423
-0.07049941668022171
0.10991316411490616
-0.30950023814258804
0.141581507955552
-0.24619966249066486
0.36420924738964466
-0.40372828973732444
0.007972916631273998
-0.2065667876415531
-0.3491422708814293
0.09878812360211331
-0.4186664367931
0.03693486581323553
-0.26535645510529665
0.26098624937535353
0.18823014142528127
0.43712277761999346
0.3674574998124326
-0.0865174601519369
0.13151948896933574
-0.5176012337441328
0.33488020594463985
0.05253398191051085
0.13712503088441408
-0.23218556866072554
0.224512302137183
0.23184836844916662
-0.04187687663043328
0.27269495394992854
-0.40471305152711784
0.43854712862090817
-0.10799559512835699
-0.3292815162378113
-0.3599812845785549
0.036802874319328396
0.018538279200545415
0.4386769363305933
-0.09891443868078542
-0.47578606332862183
-0.4127388288843621
0.0030978660822506775
-0.11333877781666707
-0.1110907567563421
-0.45069449377147663
-0.18000827760139246
0.0705915437583715
-0.4155536340140311
-0.2650908250565967
0.4682341128667896
-0.45151435053476396
-0.46747043656592524
0.20068361991947
-0.05529112941036123
-0.45984099966002445
0.3950243632200187
-0.3643879140862592
-0.3851869261402191
0.5047804820039191
0.22444436439182966
0.07049246825631851
0.12426397764177245
0.03955268220123289
0.4316830581322032
0.5056173718031475
0.5025292914757125
0.009414532897253249
0.06398399320630611
0.1972739062514757
0.10160727503066669
0.3287861051833362
-0.3962716002690902
-0.06314237677112039
0.4989371494512677
0.2834147497199593
-0.36909874670119036
-0.3803755711338777
0.06195423215894478
0.18930705836645298
0.1901543871341101
-0.21780412248975
0.27139132847970915
-0.11422055966342194
-0.2456249364365629
-0.004793136725715913
-0.31160489274424846
0.05155570791512928
0.12285669446560137
0.1989426008115987
0.3642957430627381
-0.2040192142045708
-0.41207296984626623
0.4150525385071818
0.2666981571076419
-0.2264573442678366
0.45446474266796333
-0.3016674905519722
-0.09769767224619304
0.12143343306027245
0.06621265071328059
0.003679048709200223
-0.33016927366569354
0.48632452651155916
-0.10337822310291869
-0.25722598282653936
-0.5278343768074142
-0.30652258495765705
0.16477631679715052
-0.056499042928262765
-0.21367830897775383
0.08375877089282656
0.26610409150326964
-0.01021483328657056
0.3522047191244416
0.05698286138968779
0.10143110168226088
-0.20105936062265692
-0.013610091843593018
0.12229866906100798
0.35097819288302046
0.05797319916494565
0.1265242619899448
-0.204595316928261
-0.3655061594690428
0.08968494509881154
0.1683793811255331
0.06472102336390145
-0.3260195351394729
-0.14317518311459698
0.04602309004752354
0.41702457212260263
-0.4230266606865504
-0.12271155061532463
-0.13112343553006237
0.014042135510764638
-0.08925782584282946
0.22508080787887771
-0.3677962148462008
0.23563885802233606
-0.5019763891152256
-0.41573607115336286
0.14300471336682227
0.17962918493899824
0.37046621307065825
-0.052761113704135464
0.35703974624650414
0.07396224683597123
-0.4222068313169519
0.15372262621138608
-0.45305558496234477
0.3927380649978796
-0.37318769299561216
-0.2948526862079978
-0.05927003645336455
0.4283523742392948
-0.06246787237364482
0.30897579818197374
-0.0559340592715501
0.3587192510195625
-0.05393080530137502
-0.5188264625164767
-0.3680349427601285
0.35145408242470155
0.34824942649207263
-0.4465484012815168
0.050942507306716525
0.2669681641450647
0.40010767194792285
0.040068816862866466
0.1660809028702952
-0.38041034381877714
0.04985285680539761
-0.12746783125081712
0.02565866893717475
-0.05362852580316442
0.5015705279835889
0.327123591599615
0.017347977332172606
0.4434217746193848
0.06223950848443154
0.39027541274460664
0.14735678906013977
-0.15710039783412164
0.03686179779850068
-0.12413251862933938
-0.25126196870071543
-0.4207769219628052
-0.08565690314062517
-0.4465710079022347
0.24904264882227237
0.3370568481387765
0.30508549072225016
0.30313344898561
0.13896994763096013
-0.427759525622618
0.18937291454231994
-0.15281409861279435
0.21804272252496923
0.31528611052201533
0.1763846996514496
0.4005452776973778
0.38877165546956394
-0.08734188530070773
-0.4174663657726927
0.1426612130368324
-0.25798999649850335
0.47007413641157786
-0.42725338688655906
0.39117094908415934
-0.4502528847712149
-0.3928991106160051
0.1170125371714752
-0.028667272046888112
-0.34668738921290615
0.02447130589148266
0.05323224479364373
0.0834979196393687
-0.04944575066440219
-0.2333811724376294
0.32670791950055
-0.3187087083472881
-0.4655456984011818
0.06850205739959404
-0.07606959666216283
-0.002147213264992775
0.22546402962876333
-0.1975534557049755
0.051032673462580794
-0.2577242953004407
-0.3460417924721163
-0.37377749442370745
-0.37234416673116966
-0.46417971424649573
-0.06377767080544476
-0.2881864580960762
-0.30371977838859565
0.14517755873550123
-0.3499363869322292
0.3165149045367854
0.19218119184724353
-0.43216510638539946
-0.3047420424035556
-0.29480702578574697
0.03959255911362461
0.025509536284693435
0.20840651628961757
-0.005200816213643766
-0.46947981106490105
-0.04881518985096731
0.5147423832659488
-0.25344709215537053
-0.3625219547939988
-0.113626549569657
0.44549713065139523
0.27016588516265316
0.4956309849434312
0.4515707641077059
0.3571746452742905
0.4946396762944875
-0.4771248218065364
0.0823963925713805
0.09098487590438269
-0.08761042745185123
-0.061699016146841486
-0.4123640491227389
-0.35119002784812864
-0.11894731443165227
0.3925102462906842
0.20732566695296473
-0.2744440918491876
0.15728443331254519
0.201765855111633
0.15420864819296967
-0.40104438685406235
0.40955699135626655
-0.27677387824294736
-0.13504956411619173
-0.42400367931786576
0.22008727087952398
-0.48196721300009887
-0.4305515927842395
0.34200712514676634
-0.16603949485791974
-0.30895835888804135
0.24055928557949702
0.21989153803908976
-0.45209811153594354
-0.03515189757379003
-0.1514809071380873
-0.4421899250424814
0.19109860799269543
0.10918785266011426
0.5132621780150559
-0.20125338249599597
0.32239001917287446
-0.29630248407248655
0.07769569528443603
0.45730886248056085
-0.1389635451376795
0.24416668992617466
0.4165039529667077
-0.01343528123227088
0.190566131411524
0.13763713353021195
0.5011452710936155
0.35649188770911966
0.10200135609310496
0.06703714420130821
-0.46524915870159583
0.4450501890805796
-0.08463967875831337
0.11081262221273011
0.011517503598138386
-0.4661154110457108
-0.16938314889521805
0.027380393762062666
-0.183356938392386
-0.29464398652444407
0.2121530299240787
0.22277398887106392
-0.06512221458875363
-0.39088785317793645
0.33115838738864845
-0.21768832855466902
-0.39080577466537164
-0.4008551586264324
-0.10296580837688472
-0.11216259112772181
0.21668811013436776
-0.39867815991148703
0.500822772741175
0.32532483797376177
0.22296680509227437
-0.2887767396923218
-0.3699651598140361
-0.4558527619762164
0.4681730609886017
-0.03535521242139703
-0.5074365420933714
-0.32566318494742896
0.06994529408377728
0.28317374555451535
0.31644416195026465
-0.46378999560930356
-0.3813102977916366
0.2660940286623317
0.42468556412570957
0.2528098484613125
0.4343123706808577
-0.13179697080221733
-0.3087209209347656
-0.14687181663413107
-0.08575868350196462
-0.2934102436535942
0.28049948542730785
-0.20348406720095533
0.0821800440293513
-0.09445218441126262
-0.25984616528093685
-0.13731209461469035
-0.14212095143237982
0.2743652033964331
0.3301481520161543
0.4548279470545937
-0.2992474515273866
-0.13977032927102823
0.29713990261976503
0.043264320587911985
-0.06947951448498323
0.48541657500723634
0.45797534813456814
0.40838995578810366
0.30529697727668065
-0.42209662820461435
0.20831748013070173
-0.44613922611202417
-0.2546509637334837
-0.4910849712371855
0.13004918720367606
-0.29887566913194386
-0.4516401853090453
-0.2548165093016142
-0.4848441167878562
-0.013967252184318739
-0.21716247749242368
-0.12748074048966146
0.4212140641385266
0.30671199553020795
-0.2690592528308665
-0.3183755514322218
0.15258780869826213
0.1863655447820159
-0.47059728279118906
-0.41427097748890623
0.19863692492945048
-0.26983323449466734
-0.022396246399873313
-0.48558550174646165
-0.3976885531740252
-0.3687757486965123
-0.03040050096163716
0.16005014896628353
0.06534024817048634
-0.2307015583978805
0.29963795282597755
0.4361516393737442
0.42308579688330894
0.3593053936338351
-0.1367575448851836
0.05923050237969681
0.18353735532135723
-0.2812970029420763
-0.27751095466707215
0.434336170885296
0.336464335733163
0.42955147337966837
0.2355727316260719
0.2889639158371488
0.3089422140161626
0.20885003879933128
0.24125025500329605
-0.09470790354944848
-0.007465590178368407
0.02884475595792886
0.1573658016454642
-0.34176770919097665
-0.5063412876086809
-0.4019917609936592
0.10683016336134019
-0.45108101559650293
0.08102251159125141
0.07520054817572305
-0.41133710395605516
-0.33557081676144485
0.45961834240003313
-0.18438679309008632
-0.2864463543216022
0.26285688972748483
0.4920391394196429
0.3888588447189531
0.23440829410501074
-0.254489588697893
0.2974700549176163
-0.2506974165937768
0.5231880835561998
0.33063802455348
0.2207300661332348
0.47641779306129317
0.020649718757567593
0.05102766720249795
-0.06964964239948056
0.35165649788998615
0.25461014726097475
-0.39821231713613175
-0.06011679602764595
0.16243789483156937
0.4040550534213717
0.1350522028406058
-0.23030357815535246
0.3830878258051704
0.2318408362925468
-0.1156290603121307
-0.025244963259651393
-0.35972732539015484
0.42714824063677864
-0.10832990145191862
0.2748241785711796
-0.3351282639399732
0.0539158807695426
0.11068663439727834
-0.014223726486761954
-0.047111611452440603
-0.23298934469094648
-0.0724840188594406
-0.537830602888817
0.004638332434049505
0.13944304439540262
0.43797038998536286
0.24118210745748644
0.20742196561211165
-0.43410570321697145
-0.30949493267525713
-0.2634953471075065
0.4400818755665116
-0.2865407183714953
0.09945778143070134
0.49111526396915456
-0.3165088788710453
-0.33961205614322165
-0.4284087911320205
-0.3298081334777829
-0.48546942004318133
0.4198506627202758
0.2018553550377632
0.39089483094311933
0.40922511647635335
-0.4859873448802677
-0.04130682576971012
-0.09388865756638116
0.036838194956971805
-0.0898262023676099
-0.14200660364895984
-0.08567674734793394
0.23822283347295486
0.24505359023239703
-0.25233410490081615
-0.43161466484198924
-0.15323013794484128
0.3859958819744985
-0.10112504928831398
-0.2845919855939825
0.0676912702560901
-0.02685211991684929
-0.33506770976156147
0.3993726306555975
-0.21615210545935695
0.40155665307622046
0.14363724826751
0.22546134771304732
-0.35832587356899803
0.47153406263039893
0.01901702742032488
-0.14696737591658252
-0.4455879683636369
-0.1472672961151124
-0.42197111243923435
-0.4243495245066286
0.4184844319525918
-0.1919107233172766
-0.4249272194320339
-0.49296935295242217
-0.49935050010682497
0.3397278450085056
-0.2555507413571538
-0.02074344345637916
-0.3438678372968107
-0.03811201129823521
0.4605629958718008
-0.3784313965783834
-0.4314597750425944
0.4203111423824031
0.023536030325371212
0.1952316503641667
0.09156807925321073
0.25655644822546475
0.06498817911052975
-0.06028268081171385
-0.38204620760641095
-0.21931473405401786
0.05618176948095511
0.12574599455659505
0.47349664264207425
-0.12068435933804118
0.47560123353455336
-0.3267426448309473
0.07322402837466412
-0.13247592239296843
0.20837539758235218
0.42866476138211873
0.0652239622243283
-0.1682385354506915
-0.5222945972240205
-0.0744286794105898
-0.0084683966835387
-0.19317544918141294
0.31026869195775153
0.2749365490841564
0.37733576657735646
0.34328549431237443
-0.2425508015048221
-0.18585972612822269
0.3370077962994409
0.03652747754611372
0.20152485949422874
0.24876709431850175
-0.386080052483648
0.306000455004562
0.30282449353775515
-0.4178645554927098
-0.04530776954618473
-0.08237583576884842
-0.31302305470432523
-0.04195568780332498
-0.18230004032539932
-0.19072487156663007
0.2578427370771217
0.32354272282787727
-0.06581230936017432
0.2744247062854195
0.3791271319098574
0.12760774158265106
-0.39676535872333446
-0.3855540894578106
-0.09291757197164643
-0.04258600913432498
-0.19836647610705713
0.2441165890168914
0.23314642388440415
0.4955003729984061
0.16000822070639548
-0.017530816399434566
0.1767370496051274
-0.35788284559610184
-0.1515133985398663
-0.044646829668921036
0.08834703530615545
-0.1617832537225022
0.01549852876890406
0.380837684267702
-0.23800956893106906
-0.18618049957988908
0.3939964242440472
0.3359539904191286
0.1952478783311623
0.41292596993151354
-0.3795000253422071
-0.3155001083703534
-0.06591027971972463
-0.018154863209193975
0.4117524198711805
0.15211836994037525
0.42754181402880087
0.19625568974593846
0.0740011052141619
-0.10244470021998517
-0.1974799289643519
0.2190552507616216
-0.3854492731655498
-0.13520123055840524
-0.18411294317132185
-0.28256195866594536
-0.18636058252340587
-0.07450084353089304
-0.47482034273204093
-0.3297289758038404
0.2414199475163521
-0.06449954499543803
0.25532449353775516
0.08463544450729028
-0.41880776954618476
0.3436241642311516
0.31297694529567477
0.11404431219667505
0.03319995967460062
0.07677512843336998
-0.34215726292287835
0.07004272282787732
0.16418769063982563
0.12042470628541939
0.45412713190985743
0.43260774158265103
-0.10126535872333448
0.3489459105421894
-0.001417571971646441
0.3279139908656751
-0.45586647610705716
-0.05438341098310863
-0.22835357611559587
0.08050037299840604
0.4865082207063955
-0.24153081639943455
-0.47326295039487276
-0.37038284559610185
-0.30501339853986636
-0.1421468296689211
-0.008652964693844547
-0.3362832537225022
0.394998528768904
-0.24616231573229808
0.03999043106893094
0.33881950042011094
-0.21150357575595277
-0.3520460095808714
0.07474787833116231
-0.05157403006848643
-0.46250002534220713
0.1924998916296465
-0.02641027971972462
-0.316654863209194
0.11475241987118047
-0.32388163005962467
-0.36145818597119916
-0.2877443102540619
0.1525011052141619
0.19105529978001487
0.2265200710356481
-0.43694474923837845
-0.3824492731655498
-0.33570123055840534
-0.14361294317132184
-0.4885619586659454
-0.0003605825234058319
0.009999156469106964
-0.001820342732040866
-0.4817289758038404
-0.472580052483648
-0.442999544995438
0.3483244935377552
-0.4918645554927098
-0.09830776954618474
0.3681241642311516
-0.43702305470432523
-0.4029556878033251
-0.24430004032539931
0.13177512843336994
0.4973427370771222
-0.14795727717212268
0.45368769063982567
-0.37557529371458054
-0.17137286809014282
0.266607741582651
-0.018765358723334475
-0.28055408945781063
-0.3909175719716464
-0.26558600913432495
0.10413352389294284
0.1141165890168914
0.4936464238844041
-0.008999627001593954
-0.2309917792936045
0.2884691836005654
-0.4322629503948728
-0.23188284559610178
-0.1290133985398664
-0.18364682966892107
-0.4246529646938445
0.29121674627749783
0.08049852876890407
0.11033768426770192
-0.01200956893106908
0.12781950042011092
0.43599642424404716
0.24795399041912855
0.4972478783311623
0.42592596993151355
-0.4475000253422071
0.1359998916296465
-0.24491027971972465
-0.358654863209194
-0.035247580128819546
-0.48988163005962465
-0.49195818597119917
0.21525568974593845
0.0460011052141619
-0.013444700219985154
0.069520071035648
0.20505525076162162
-0.20494927316554956
-0.4097012305584053
0.4353870568286781
-0.10156195866594538
0.15363941747659413
-0.3495008435308929
0.04967965726795914
0.4572710241961596
-0.08050114190825336
-0.439997048189529
0.1355117077535931
0.3120000000646711
0.4876123141628602
0.4382544518627602
0.4938862392076798
-0.18294519239112833
-0.30373201557717333
0.38199985219382127
-0.04443890051390091
0.3594320002746481
0.2431986635557931
-0.24249999858480278
0.2821119583626349
-0.3836688811226933
-0.35276098818322893
-0.16355209572150356
-0.10104662125062039
0.06608256883399218
-0.4197106329089692
0.5221851310647448
0.32700003913548475
0.23350000215384345
-0.04550004938035357
-0.29049918568236366
-0.339228944250314
-0.01300725167783533
0.44249987780552774
0.4874107692934969
-0.2884165189199903
0.15249998333093853
0.2676232472037659
-0.38893657445492974
-0.42315735311926844
0.16601455713495397
0.24157485169700335
-0.15749152694206847
-0.002000107607245299
-0.35600363372139776
0.23050000008953453
-0.10630587354512676
-0.00821986076788633
-0.1775547658348934
0.22549999995964135
0.4853171363120611
-0.07150456326382153
0.29550000582047187
0.29181950441220744
0.38716121630038874
0.37969893245535885
0.330502681660088
0.13900961711242096
-0.342349134969203
-0.20249997389775057
-0.26750005877548205
0.24550947699159262
-0.25463997935421234
0.08669692131028506
0.197501362084025
0.22099885809174666
-0.08799704818952905
-0.2414882922464069
0.4665000000646711
-0.3773876858371398
0.3102544518627602
0.4208862392076798
0.3740548076088718
-0.16473201557717318
0.37499985219382126
0.05106109948609909
0.45243200027464814
0.2181986635557931
0.4545000014151975
0.1246119583626349
-0.41016888112269334
0.27123901181677107
0.045447904278496404
-0.1380466212506204
-0.34341743116600776
0.3212893670910308
0.06768513106474497
-0.07099996086451522
0.31100000215384344
-0.2935000493803537
0.06500081431763634
0.481271055749686
-0.4895072516778352
-0.41800012219447225
-0.48658923070650306
-0.1989165189199903
-0.46700001666906155
0.47512324720376586
-0.13993657445493
0.46234264688073157
0.267014557134954
0.09957485169700334
0.3295084730579317
-0.20000010760724535
-0.3900036337213978
-0.32449999991046535
0.14369412645487326
-0.23821986076788626
-0.48155476583489326
-0.3945000000403587
-0.03568286368793873
0.4709954367361785
0.04450000582047194
-0.016680495587792547
0.17216121630038872
0.39369893245535886
-0.370497318339912
0.23300961711242096
-0.2088491349692029
-0.16799997389775057
0.09549994122451788
0.33050947699159255
0.4698600206457876
-0.42580307868971495
-0.3624986379159751
0.137
0.2255
0.21
-0.3335
-0.1885
0.0845
0.1025
0.1325
0.194
0.328
0.334
0.2125
-0.0185
0.166
0.2865
0.1935
0.4205
0.335
0.097
0.4745
-0.1085
0.1185
-0.3175
0
0.3765
0.193
-0.101
-0.194
0.1635
-0.0565
-0.1575
0.058
-0.4475
-0.4685
0.0935
0.464
0.3485
0.0155
-0.4725
-0.0835
0.111
0.4395
0.124
0.3925
-0.2115
0.055
-0.011
0.1605
0.2485
-0.4375
-0.2975
0.1985
-0.104
0.0095
-0.2495
-0.2535
-0.0185
0.391
0.033
-0.4845
0.053
0.039
0.0475
-0.3175
0.4145
-0.313
0.093
0.2935
-0.2715
0.462
0.1075
-0.0685
0.36
-0.195
-0.024
-0.103
-0.0565
0.24
-0.2235
-0.313
-0.2855
-0.3395
0.39
-0.0975
0.2
0.0005
0.0805
0.2895
-0.488
-0.092
0.3065
-0.4065
0.313
-0.1455
-0.465
-0.374
-0.2925
0.442
0.2735
-0.4235
0.3175
0.146
0.099
0.1185
-0.0795
-0.058
-0.1955
-0.239
0.059
-0.311
0.004
0.1465
-0.339
-0.0615
0.461
0.256
-0.2305
0.293
-0.178
-0.2715
0.407
-0.214
-0.4145
-0.2625
0.309
0.1505
0.284
0.2615
-0.0085
0.0975
-0.1085
0.2535
0.3395
-0.2325
0.0225
0.1645
0.437
0.278
0.2365
0.2935
0.306
-0.3655
-0.2345
0.204
-0.1705
-0.063
-0.334
0.381
-0.092
-0.1635
0.486
0.49
-0.2435
0.38
-0.3725
0.273
-0.0735
0.206
-0.1945
-0.263
0.4055
-0.0195
-0.462
0.029
-0.139
-0.1335
0.421
0.1785
0.1755
0.425
-0.3845
-0.3095
-0.386
-0.4935
0.4785
-0.2505
-0.0045
-0.2505
0.2735
-0.354
-0.395
0.0255
-0.1845
-0.0855
-0.4655
0.0965
-0.2015
0.4245
0.362
0.1895
0.377
0.083
0.038
0.079
0.2725
-0.0775
-0.216
0.4145
0.1025
-0.192
0.113
0.1865
-0.4165
0.4925
-0.474
-0.0575
-0.227
0.056
0.444
-0.4805
0.1505
0.1315
-0.1865
-0.1475
-0.2675
-0.141
-0.414
0.102
0.1975
-0.3
-0.445
0.136
-0.0525
0.1215
-0.317
0.0845
0.3945
-0.157
0.094
-0.1205
-0.2535
0.1165
0.2765
0.2815
0.4465
0.3175
0.2365
-0.11
0.3865
0.3165
-0.3165
0.057
-0.4665
-0.088
-0.4585
0.217
-0.0525
0.473
-0.0955
-0.0925
0.107
0.2635
-0.077
0.3735
0.0435
0.2905
0.3535
0.004
-0.3115
-0.2465
0.33
-0.441
0.1555
0.358
0.086
0.0235
0.1095
0.0695
0.0095
-0.14
-0.314
0.3865
-0.2625
0.1
0.033
-0.2165
-0.2345
-0.016
0.472
0.2295
-0.3385
-0.377
-0.4155
0.1015
-0.0935
-0.061
0.2175
0.0315
-0.0195
0.2115
-0.4085
0.2625
-0.35
-0.135
0.0125
-0.4645
0.0635
0.375
-0.415
0.098
-0.3215
-0.179
0.029
0.4075
-0.09
0.4685
-0.444
-0.276
0.229
-0.003
-0.2605
0.094
0.3585
0.0505
0.3185
-0.222
0.2835
-0.423
-0.1815
0.417
0.0805
0.1505
-0.327
-0.309
-0.153
-0.0215
-0.381
0.3995
-0.218
0.2305
0.334
0.2555
-0.0605
0.339
-0.4985
0.0425
-0.008
0.3675
0.2185
0.1925
0.4975
0.309
-0.012
-0.3245
-0.313
0.006
-0.3415
-0.2795
-0.4445
-0.465
0.1995
-0.259
-0.288
-0.292
0.1365
-0.2135
-0.0675
-0.241
0.1405
-0.4445
0.025657843950512068
0.45199942394274967
0.42576241109685964
-0.43201779606865054
0.39755885351985787
-0.4818286408983863
-0.08154832534576922
0.24150506382978731
-0.03259921124074857
-0.4364494388185176
0.46240449896024266
-0.05124214427378356
0.2285021132303313
-0.28250898311853256
-0.038833703512766354
0.44451669662384946
0.11452265730377298
-0.17379659125958463
0.10780582993528087
-0.2222876720729999
0.3155591811905038
0.030528965500922794
0.4216303995672794
-0.37201019998037466
0.3698776078180568
0.2754614684578633
-0.09233344937646769
0.18443992028490716
0.309998220799818
0.07654907647012485
-0.13462816542489195
-0.1905317574987505
0.38052207910003416
0.16553270555920688
-0.05806002892780736
0.13846981471709402
0.0609863113261772
0.03950037206841433
0.07700689526320685
-0.22945333257733413
0.354427682200181
0.32386717554649
-0.4892090039788534
-0.32822036914020747
-0.2569058858486852
-0.3911910222896805
-0.02349075236285913
0.43860932765836724
0.2127894470973427
0.2774806494028922
-0.052657412776417035
-0.4358060741888617
-0.31503339071922903
-0.11661519521669396
-0.18250904732917367
0.13877549937741812
-0.46661101061406457
0.31668670832701173
-0.08952923575503718
0.017120260440657238
-0.2674188309529642
-0.0951194077503947
-0.43124324778733464
-0.44860422487271817
-0.3443372411268113
-0.16002174510105774
-0.3536665268222185
-0.34133439595973114
0.14808543740763908
0.4773751505422374
0.1658465176311962
0.0771389970557561
0.21962440477688897
-0.31863798565086443
-0.3361725519516426
-0.13742740238110593
0.5130872886472282
-0.384233525380146
-0.24086529317685654
0.4494389853238391
0.31961081480323655
0.0005592834208601207
0.12107530483824654
-0.08424054573268766
0.006424191585459583
-0.040961267586397815
0.33465102322677426
-0.20142508182467567
0.12785141854246954
-0.014451420180409633
0.3972915264724971
0.05956910073291549
-0.525870903388028
0.18512964267216
-0.3115234390297461
0.497390028916053
-0.1911943490265489
0.2968170465567049
-0.27557790003191424
0.09621522811602894
-0.018690488059194044
-0.06477179663381577
0.23118540597476625
-0.054013184962875806
0.13245470928393055
0.3259832100117186
-0.47180569344611195
-0.07290844899327381
0.1984970567947107
0.42483679277145764
-0.014242478880335608
0.23458762223785387
-0.4751963552292596
0.4826254375406957
0.46951364139672663
0.30189979090495656
0.029819788413806846
-0.12526245432609848
-0.02804626135898021
-0.2593311594721079
-0.2146612100946961
0.4030566097789986
-0.055787522143902625
0.21463801634935534
-0.3189444365020594
0.10580041284564222
-0.37108040973649975
-0.35498581314434813
0.011837949039731522
0.17059331911315673
-0.10643440059402577
0.016008391002172627
-0.07552415601229687
0.1645069601719975
0.3095677705663822
0.0004102116993705868
0.25042357795084536
-0.11082865073612305
-0.43946934471019106
-0.11056097842347938
-0.16150688178156675
0.05156736924305594
0.4391705238993579
0.14672626454631998
-0.4880745583526818
0.09421413477961572
-0.4322368184196223
0.295488375855653
-0.2807199507547997
0.044822078649200806
0.20136222901307366
-0.3698471916803048
0.06710392305113616
0.08108091544939487
0.15033057659624563
0.4154823742021597
0.3157999214867417
0.32545022388852074
-0.10738148225032132
-0.268323288832333
0.42924843429532755
-0.41914228723922886
0.19526816147497209
-0.17494653632598345
0.04964618332306662
0.18719355473290597
0.04911036701566102
0.4257063546744856
0.455948481385087
0.00801039758290166
0.05958133582689667
0.09407683736337807
-0.29142048479602023
0.4770967709677533
-0.08687230639062296
0.2194616838566546
-0.008487012110838773
-0.07706330583874646
-0.12040831851938481
-0.21656591360567012
-0.18281580450901982
0.0210196750210476
-0.44949287331272053
-0.02452407347235947
-0.1964859060431667
-0.28689217644924436
-0.2705174282935553
-0.10936296975620338
0.3407158609574216
0.42148010831533267
-0.26404940322986925
0.13008711136010526
0.23504980165620848
0.1993834182800733
0.3898038986711797
0.4493224180147553
0.41794206797056865
0.15564188867309112
-0.20574314673368518
-0.3465271382050279
0.4333611022707653
-0.20515108881982458
0.07216863048833629
0.3102353344158841
0.39792777059396583
0.1720496219613499
-0.24662387036775593
-0.27638734635006607
-0.3032040758522418
-0.4455911361623279
-0.46966441511171286
-0.3224051626367931
-0.12356636404053825
-0.04938468845957673
-0.1908742741840503
-0.0042209861833260014
0.219231129702371
-0.08284774129560576
-0.35671490187562266
0.4733807559458267
0.5238389511903184
0.4103767845004835
0.15358063902687824
-0.16990711947619444
0.019225114076652405
-0.16714003129369798
-0.3398323953268018
0.39169331246856837
0.20142843759197107
-0.3137937195189084
0.38946281035340197
-0.07219337682805053
-0.25190384597753884
0.08121066544446652
0.29404608145479866
0.17557296623602275
0.44353354415927415
0.3936478488268928
-0.07205530796316148
0.09055002045255132
0.14116343952934793
0.06009726258602404
0.3021361532927866
-0.1559574081647952
-0.2909292067581365
-0.3969520560282741
0.2587018186425442
0.2881495466631113
0.4541703055908871
0.16814969211321623
0.06382591987064447
-0.3012879371743327
-0.5158361932383677
0.220824057477594
0.08054315463759372
0.09847001948921189
-0.1832297685528755
-0.3647446094606126
-0.4584414039674041
-0.4573329312444906
0.14157147764912922
0.2877485824227319
0.3069622542559706
0.35951668824685795
0.22768768472383663
0.08347089921248486
-0.010173251846253728
0.2390540390241024
-0.056264760869149937
0.2573782848362006
-0.2214785006949376
-0.05542720482668219
0.39043079782105866
-0.22531041586253858
-0.04004393604982088
0.058685716590282724
0.08061035971895467
0.4765348443780691
0.2832802609330905
-0.04720693889100083
0.4983305624173249
-0.3321025596311026
0.2122605189719951
-0.3454292516837792
0.01613943245529625
-0.477243212097313
-0.3481295125467196
-0.3364515128969886
0.32752792357320565
-0.1741377972125364
-0.24720767589809167
-0.12045930332414313
-0.06151726182721452
-0.31643187332262335
0.316513209627409
-0.46114735504055443
-0.1854863184727213
0.21174438107706214
0.3772280479505457
0.32769102185725346
0.214004173506132
-0.35746387945239083
-0.1892042726007602
-0.23189798415097496
-0.15946244710076335
0.06829488158819257
-0.2553740904152767
-0.1342326001274693
-0.24890913436430695
-0.09626907866346837
0.4343126159213612
0.3971748563167894
-0.27430860822950254
0.4514971896752732
0.4444759781626196
0.2071988162495759
0.16490148115002215
-0.3963435574244017
-0.4055270775334498
0.07949634871409092
-0.2553272896267399
-0.5585576940936676
-0.49574943407091704
0.4376236544828835
0.004100899667737789
-0.04723790047330128
-0.3176473740648774
0.31699903085925185
0.4145172700450993
0.5174265321106192
0.26595628865857074
0.07562817550828273
-0.30783161964847694
-0.02052653942738312
-0.30449306924334524
0.38827784123302345
-0.16260051536002576
-0.32494664404830487
0.34647096649137094
0.49990368440746147
-0.3977269163178224
-0.3831570689479674
-0.2634007822350086
0.3825864224218552
-0.257390709490701
-0.011005414683482736
0.30790011442354615
0.15991546254677458
-0.06756335825613462
-0.18397798916881603
-0.374220861882316
-0.07955011000683558
-0.017253049110422965
0.06527622717589887
0.29963134559742755
-0.43712299807673544
-0.019040700466047635
0.3531000391429451
-0.32616423089949775
-0.436889835949443
-0.34256602296329414
0.41974295020650176
0.07738242935388297
-0.31319606478746187
0.055067383838138424
-0.31885446112639404
-0.05232891580013397
-0.09037152740770413
0.43152910456997867
0.4015692446337797
0.3460761434481026
0.06898963333930512
0.23834619158845344
-0.2851161092009703
-0.08489553930281545
0.3218795611065212
-0.2879769292283826
-0.2622372575303436
0.38860473673110524
0.38605672881318714
0.41004735126321884
-0.33870483567665993
0.4338858354282619
-0.10689435164491205
0.3310475531216171
-0.4002178831645612
0.1522373693037919
-0.16387126178810096
-0.07928395805387364
0.10924168220927162
0.0008704572583801549
0.12703170590020038
0.11018877364929817
-0.1597749134206596
-0.12458076100411933
0.12895669045136535
-0.07167575533334243
0.27062019599712783
-0.18518224392433316
-0.41722768494564216
-0.08966470126558075
-0.39736215484334136
-0.2504237857855812
0.34111000663597185
-0.42943606241569016
0.14184978066730297
0.4425050393489181
0.5677338716589246
0.020349771505062873
0.18190106086091468
0.1358882042274339
0.3422400971535146
0.0022000417395076455
-0.013833199823184424
0.0996936306741473
0.24644247171067174
0.21563188148736698
0.19076174726002487
-0.43257959141083996
-0.10217185558373384
-0.07578081218506902
-0.3923219091977924
-0.38230054711756883
0.6004437103393835
0.02751987055361179
0.2637321267837939
0.08659217877027324
0.35582452234406375
-0.43877927162888797
0.39363906500293155
-0.14794545795205266
0.5028051070982418
-0.16845752183347606
0.50028209930784
0.30280313475429943
-0.4256823526836503
0.14950189902472155
-0.25289978130648666
-0.07039940926742631
0.380617405489037
-0.12222804531320793
0.23410405686343022
0.1576049448385292
0.2179275226145631
0.20819157973696578
-0.0613491089588621
0.03788484541825512
0.3583286376604549
-0.17403355834855855
0.3369950004890079
0.046477766891407965
-0.2393519333805335
-0.2634521907022588
0.15219376337623572
0.3632645486135329
0.5260167956207421
-0.21736316989653776
0.2137681367534461
-0.026386763166639033
0.14687741480203487
-0.1577541436791336
-0.4757707124056953
0.48592732851416354
-0.017172713753626
-0.377924334171189
-0.126759425571325
-0.4501045767440111
0.010199914743056057
0.20742660741678814
-0.15863392311163454
0.25376880674953384
0.2711593263070073
-0.03857061988422683
-0.2603068728896663
-0.3691679428742061
0.26946614731061325
0.1964306736870828
0.4497442573558878
0.4838403599784618
0.36068325321792294
0.5131347048624341
-0.17234071328577663
0.275872062174901
0.5023103396897871
-0.04979157558598381
0.11223556980217628
0.2369820892164608
0.48797225526620613
-0.3541369922261626
0.022452737521668317
0.27986832780178694
0.011265773711999534
-0.2861459141471279
0.2989977528422584
-0.37102146062020147
0.13099279120036744
0.31487094093287754
-0.47324305323170257
0.16381131413172895
-0.2972511376132546
0.013492509860338366
-0.5872084719740817
-0.008552322211965065
-0.3545104105704253
0.4047309046802488
0.12512452082499356
0.6736612735037105
-0.3153106763500844
-0.16660256297238588
-0.3419661149180886
-0.15535321356310647
-0.3292520794620814
-0.4447883735570508
0.005042478716371253
-0.43984030006069647
0.31814399683419176
-0.42158269970644646
0.33923860178766563
-0.03663152690307917
0.1779205225351023
0.4934649439476848
0.3367383722806015
0.4279890380659298
-0.27812947508080327
0.28152996119656876
0.014747058448407353
0.3510074000714851
0.31121202416688043
0.055760069780186446
0.5685978972684976
0.24799048017279385
-0.22612147844955344
-0.43993555549871877
-0.32211036418493155
-0.10050109151232742
-0.33541201348276717
0.31514203042764044
0.3425502419337674
0.47180612648901404
-0.28347346916129146
0.17988605631491528
-0.2228235729918504
-0.3490363383935318
-0.08037188372919614
-0.1631699163322747
0.6363560788268466
0.49864194257580824
0.36971154629939407
0.10478382772967026
-0.07867058472237747
-0.31473012966820774
0.014262782274592385
-0.23103820914544068
0.0557052556570292
0.0673592907959814
0.11723111318580189
0.34386022779164716
-0.585846209686377
0.15826653398112234
-0.3258083933832397
-0.4025740869880898
-0.4527124421807926
-0.3353531706831358
-0.19207506594097587
-0.3476314829993359
-0.2838613268427179
0.5697143492844708
-0.10101284295626954
-0.028482787794017212
0.05548505115945998
-0.12702098243566756
0.4288350924986823
-0.09666964068890449
0.5537241782280727
0.4764964910870752
-0.1514096882544025
-0.37539706813451806
-0.4113208961762694
0.23401457329769662
-0.2846055555455229
-0.24614011662775537
0.2532482743308261
0.06364680432354206
-0.15799407076301497
0.3255271603507813
-0.4272317441722836
0.3277184694128536
-0.2545501897257327
-0.30414686452809286
0.013592516466941417
0.45867918824175713
0.10199243639594648
-0.005834923482327482
-0.07818311755312884
0.028486408385570254
0.1596709059073809
0.2505101209350859
0.22616311102548098
0.32509849811390684
0.10286993270598661
-0.33144996124836607
-0.3214910003290574
-0.2462212654128941
-0.22028940534046185
0.11309537139198902
-0.3125894026439675
-0.20519947808520847
0.20290520328413658
0.3970726531991057
-0.31878132073406157
0.029750751573294584
0.18979268843408725
-0.18451418600783387
-0.012255226739119898
-0.3023441732054465
-0.3994673638254567
0.1402280300184432
-0.3448610717577049
0.17419717970257723
0.05775478868797891
-0.10215224846040499
0.09321272101842158
0.04293194784193204
-0.1856156284958152
-0.37047816135283274
-0.045490466358294714
-0.25976932967830885
0.04138423219404944
-0.12938510711471227
0.30827010850818337
-0.2278374728251999
-0.22122764385385443
-0.5108708593936472
-0.19153049999391503
0.001430107513783942
-0.08040457407601355
0.1659237237506749
-0.12374037083733957
0.2398267287644625
-0.3105779356276289
-0.08035675212769697
-0.49594078969281075
0.2419037401998355
0.0930716202791814
-0.27298999288747
-0.32162292380801566
0.10029715660500137
0.3142228066268493
-0.026002866163742148
0.10297757989250388
-0.16800444452774593
0.253459349152438
-0.4807197687317509
0.20674886789660984
-0.23938361864113433
-0.08968207591733995
-0.11978426662830144
-0.2254593568821912
-0.4116154788832838
-0.4254787644262357
0.0942013142069137
-0.03715671297792573
0.02098188218538779
-0.1604420297762449
-0.07958090231882375
-0.4475450132388061
0.33509081652436434
-0.3134972149170977
-0.05456919938573111
0.094176018733722
-0.2704992503705658
-0.052880827533317194
-0.07596776390519473
-0.030347799980832604
0.3153748267228935
0.10860090683964571
0.4879764712157236
-0.0494899642438876
-0.2855682402140043
-0.15601330976394767
-0.41932650713701863
-0.5256279918950725
-0.27500582145452424
-0.13334824277583313
0.38944856704750935
-0.47859841848569934
-0.7589260657229384
-0.19497506782354743
0.0461416326296801
0.34613108840935075
-0.40926003709519393
-0.1313852335466411
-0.08769170670706013
0.3620423701189395
0.4377866713322309
-0.02484189465572109
0.4732812798831186
0.2570434905087256
0.49004833997669944
-0.09785338440745377
-0.0782487373077941
-0.04106705095557258
0.03819557603700429
-0.07224974601612343
0.10571464273443702
0.2027160865277362
0.40795201812650755
0.2410052955983194
0.39639398732999975
0.004706699371857289
0.25986665156194216
-0.052911725450504044
0.24008320353392357
0.27147976899893206
0.24913035785258072
-0.27991018257980205
0.6497207927698462
0.03327368034528123
0.5477459164060596
0.29424315827276376
0.24378076626889658
0.33045140029406045
0.42410595528817224
0.12857733862655069
-0.2870336282372009
-0.24366167912563516
0.0689648020170261
0.22346040132491543
0.029699234564092954
0.03395695447352489
0.47126079850729724
0.36608685053552864
0.41354581128180584
0.04333385988094834
0.06039836789829593
-0.3955033626068132
0.3109976893401714
0.18870658565657483
-0.1154549790475518
0.09899459317791535
0.35571380793636653
-0.2245612709027375
0.49011823841809893
0.45533799959039517
0.2438991401812173
0.21304673249315384
-0.242106996608286
0.25915033582766017
0.04784385572892551
0.3516051733167752
0.41429152993043494
-0.4588642580528446
-0.5520280455321533
0.027578359544532013
-0.3509103715037541
-0.16484657676968584
0.22662215377600756
0.29340545997226203
0.5760690914052896
-0.29152375629313737
0.556220812001658
-0.45060327017782553
0.06236213965276475
0.2830631981713791
0.3557874320099679
-0.11576864325270717
-0.7233327551082297
-0.35784421855011506
0.40249319884891155
0.10543799082428416
-0.60778374715254
0.27314317223975065
-0.37588525833102815
-0.0428055982776453
-0.452148475716378
-0.5576241237988839
0.29991026652560265
-0.3261956927487478
0.2748323766054195
-0.1064663205238125
0.3183445494797018
0.40173314372444935
-0.19805201153526464
-0.45400741941655187
-0.4159669483878696
0.1005634564335726
0.4780117961315532
-0.37273624335061517
0.2651193155167302
0.2920789542569152
0.5168543388600443
-0.043870050236484194
0.195569536919467
-0.20339360220143407
0.0684108149598864
-0.45543201003315054
-0.19583267807542526
0.09870885285592368
0.19048734576833035
-0.3873620082694932
0.31689533766796996
-0.023522013421249436
-0.3343149166353775
0.14166474326813738
-0.06090602297906205
-0.35730961318562504
-0.40459116573877585
0.24279928260491765
0.1398214005353902
-0.16577526095991446
0.21317002746982797
-0.023339930532684534
-0.5660419513130047
0.37736617294220426
0.4133083105831783
-0.059483195902810745
0.40994417305315356
0.3100859521602104
0.4855948150413559
0.1975060121450454
0.19284387277223594
-0.5113384511885528
0.31939730511822173
0.02563176297383958
-0.15811660701160285
0.24341535249971497
-0.6273889968183507
0.39428585459375676
0.4458868402792737
0.33574761430889455
-0.023071849875843892
0.3058002564286077
0.20276008882184926
0.707207727145832
-0.31898649317107525
-0.36661689159917893
0.1531161783045382
-0.5477050073152224
-0.12251011084743091
-0.4870081445805874
0.19367224649316409
0.16592957527395236
0.23070885871557906
0.45953623355170814
-0.06692416516870031
-0.31510844220821344
-0.09815751068411756
-0.04292586371661758
0.16020488264914615
-0.2821316231066375
0.4330731309142525
-0.12294749461118094
-0.3442016675402647
-0.4340825001976351
0.4940469314514908
-0.03507859343844758
-0.22192977600769395
-0.34823448303752685
0.4913271305549958
-0.4580573956132977
-0.1357752160013105
0.11801018472394185
0.30640626258684583
-0.2786492628497608
-0.26344269585603963
-0.30242350722975003
0.010607287044160557
0.18423191663193939
-0.3150821933250211
0.09826233106931725
0.49036774789817117
-0.3127522076807523
-0.6460666325353028
0.21731773336144203
0.26934131952742874
0.005080750877501915
-0.35510702365203584
0.3281373131112151
0.4137365233255444
0.33629937691801737
-0.3841417413065872
-0.09324494811402291
-0.23522880327351745
-0.4739187163705703
-0.12229170061518867
0.20475887985177424
-0.5600831481593499
0.21829829703210216
-0.2449926588604894
-0.06792330642019556
0.3063951844438545
-0.359575586718916
0.16283495785918936
0.32513678417033853
0.20909745218266207
0.05626338509847657
0.18581035546620778
-0.24607972792430965
0.2030884355092054
-0.1392128175203825
0.398147836839398
-0.17381264741951474
-0.1355151260914862
-0.12986011733149577
0.28874832583713556
0.29242871226378964
0.06812706544038125
-0.30807067066792476
0.3474823555781205
-0.33551294355528044
-0.2637953538805883
-0.2945131847347756
0.46499482809459614
0.2631058565361829
0.24955929908482732
-0.10957061103851029
0.22661135871470942
-0.326516011184761
0.014938374717958457
0.222541382841647
-0.06145798109195237
-0.4159685802986997
-0.05304687630924347
0.5995335071772419
0.4468230840077217
0.07350891135227279
-0.44311014366457824
-0.09552776855959912
-0.18905811706830572
0.009564459800444847
-0.17315345718256375
-0.046689882957604255
-0.13719377069769462
0.3805930914726823
0.3234055255631746
0.20693420463857018
-0.23303381134680679
-0.3120727831476846
-0.22122451772154983
0.40317943556741254
-0.32847615058220225
-0.10995815181489305
-0.36796426501896107
0.041533934531382564
-0.2752663176400134
-0.391517922916868
-0.13248677373582798
-0.4064806605591251
0.14207356808021024
-0.3156051498324576
-0.16695240277507206
0.616751092597431
-0.011518414830376038
-0.16275980054686395
-0.4623582486973992
-0.10016963596178252
-0.030896884288220978
-0.07714200626321313
-0.1153115609824712
-0.34006202896147286
0.006078333494532144
-0.01066404031356273
-0.04540808746845431
-0.04228966857368944
-0.17932593299958619
-0.4260562781925604
-0.3144485610614308
0.28841529430719715
-0.39533301330777465
0.2768908078761661
-0.25547183311671656
-0.43139885899988767
-0.1775926945975624
-0.48045584520311635
0.3709699251984381
-0.4393043315163268
-0.4329283879702732
0.2873604031633858
0.18194202697212847
-0.34013019922764653
-0.32094329566537677
-0.03627851730356212
-0.4033794346508399
0.0821104423531849
0.11734146859819826
0.08821153294705905
-0.3577510321941716
0.4187088226411259
0.02956024325065619
-0.07754120207167046
0.40246571562489536
-0.30849950471540893
-0.2977514539141096
0.2633445783736461
-0.2856258420684928
0.30338377877531747
-0.025515157547088323
0.12689492313729728
0.20740757414538863
0.32689046625244966
-0.26467789356292915
0.33506980696745275
0.0015997831723836523
0.043984717475559335
-0.19329571331303086
-0.11686129831898781
0.2845173998742229
-0.11272573340568558
0.33947882530999207
-0.33296953773898763
0.18115077677341654
0.22221103896954525
0.4093185176063708
0.6031317543566459
0.22680682842802968
-0.225128590701617
-0.22686001400097575
0.2376050799957435
0.03281071216241391
0.039634467033944264
-0.41155892693342094
0.06658963509814511
0.3368315622745928
0.226227548571903
-0.10086349109079165
-0.24989701522881208
-0.1057248599165646
-0.3823453411988147
-0.27173602878843867
0.07367114306394147
-0.1602065690048573
0.35863647272610855
0.049509434336912406
-0.03602621800833428
0.3709403952864996
-0.43472097090519407
-0.6161092201446619
-0.31578150786104925
0.5277779746927734
0.43126010862012326
0.2022703804193182
-0.0749738048775816
0.2107023263213355
-0.14482679656931885
-0.006934787084647391
0.12403924051024406
-0.24403890938711909
-0.005575724285811785
-0.22287139144484333
-0.1797835280548603
0.14206708759704992
0.34404916001053376
-0.215742259360626
0.06713814931490264
-0.22674845079474668
0.3204404092410506
-0.036100365037706326
-0.33682127873140427
-0.40027634479570684
-0.25710288577966117
0.10902997144161926
0.3964165673233537
0.42445655233669577
-0.10270609479997798
0.1616918756733099
-0.06434425226496869
-0.2000369111611707
0.5256724033979354
-0.3122063030602735
0.2557911727016736
0.2284851326089337
-0.2768715123463586
0.35491975193987996
0.03419994325525534
0.4202735763504185
-0.2229369713723994
-0.49269510445992093
0.3430829928824128
0.2898582614239258
0.17608097137756346
0.07214483099311085
0.09195915641695691
0.01411267376304662
-0.3248979142401116
0.32639764430228974
0.1806628984265359
-0.6534674399371081
0.28783468045097954
-0.036330473361030874
-0.22660317982030106
-0.13361329468574568
-0.07044416098004826
0.5055117779202454
-0.4798683801049188
0.10311536861504825
-0.2916026908405335
-0.3776440267726538
0.21350476801197507
0.10778928776329172
0.39216949471066687
-0.06851063122275654
-0.03177425918356884
-0.25288371508044627
-0.37385349580274296
-0.15665906193576076
0.48728321826300103
0.32455838628304623
0.5464393460251252
0.12995336723832898
-0.2594422202495474
-0.023487156456418558
0.06436743536150515
-0.26263309938026946
0.313530046588448
0.5588938329244814
0.1364138109929128
0.31473715855077394
0.11247833013912321
-0.21626372851497422
-0.08245100666538586
0.34730577122536804
-0.4045865528433766
0.26405135214417724
-0.259466829892994
0.017946363600790407
-0.47308574082694543
0.13302401962531624
-0.43756911729427544
-0.4817249574697105
-0.07017476352343967
0.13972962910757314
0.3059856761787356
0.10071379190022008
0.2596762088741872
0.43021472368038716
-0.03940122443088002
0.47205037669542904
0.42592659372526004
0.18987159035976015
-0.2768971840182878
0.23567391043860847
-0.3971713205087958
0.5093853264124083
-0.45925542465712244
-0.0444976020585684
0.09943795768678286
0.23853020934224534
0.10570371273774881
-0.19045253471269807
-0.24616179043278222
-0.40457200329943044
0.42535233922963644
0.17760993693674465
0.05928260672626198
-0.447094562734789
-0.37219726764269223
-0.18057291686614038
0.1733629598997656
-0.16635947794218436
0.09689787652400826
-0.2682562622835988
-0.23244977119876578
0.2679516031836358
-0.43738811237756803
0.36029161183259345
-0.2888342307472253
-0.6423524988703717
0.09873407653730268
-0.23709092081862243
-0.26713288585534467
-0.3245118663750998
0.2191360976572139
-0.6360961001005584
-0.03888379805676542
-0.020557293182388883
-0.10826712690163917
0.07464163185359775
-0.20910567740553396
-0.10146473492232841
-0.2859589357560225
0.18248677678635167
0.10696978896303112
0.12953157638006102
0.46580150168311013
-0.025472460714760305
0.434488306841805
-0.27511957851720753
-0.38488918146518936
-0.2592653354279268
0.5406510921670264
0.10084772564102629
-0.16744001106625048
-0.022943863833329994
0.3277219775671643
-0.3407243640073065
0.22518855801417495
0.12630444100729785
-0.17276926237823675
-0.2215377494811712
0.17166935771697536
0.3603424945284822
0.10057728897046557
-0.19583710330246126
0.2862003129708306
-0.21786375743279326
0.40403026429185634
0.21999205419248877
0.10968891336736902
0.44557903868356236
0.296997777025534
0.2070777253124184
0.08210020531461348
0.42255760795277947
0.4776288333519219
0.3041144250000113
0.14262161718669672
0.09916169943044968
0.08259029190705049
0.1266520020662836
0.2943227178326478
-0.13451787960276002
0.014581734359248694
0.011751208875597368
0.36075493372468187
0.21142056694363662
-0.07032674862692127
-0.1663953963995933
-0.373503333244703
0.01683422735829466
-0.2808430269087155
-0.18844885977253828
0.0032872151460158297
-0.33338074890875463
0.4104918820222185
-0.09455035354503792
-0.31527688225451783
-0.36264086160904585
-0.010411654119665256
0.453320771069277
-0.27668146654799
0.3975078542135703
0.3933319433660323
0.3652537366561677
-0.11078867476939039
-0.36180389824117054
-0.34876507848491783
-0.18352716285244686
0.21374881586144556
0.11145851597548834
0.3279686151207991
0.33169798608688456
0.4539509107968694
0.45907905483035166
-0.11976687700297822
-0.016434533164679323
-0.07205664741533392
-0.42829727524754646
-0.45721245395192456
0.49789194257932456
-0.038585329631526846
0.3262968643750379
-0.39515918304280956
-0.0415397666071153
0.3012463352757462
0.11654965397432422
0.4768564265135496
0.40972767572324525
-0.035310148172950605
-0.2084060211302652
0.39119745283477125
0.1631293851860932
-0.39143973934851634
0.3825124273871026
-0.03954328580479806
-0.4090888815029209
-0.4622168431967109
0.09893420448618
-0.09329826638063601
0.00208518420846502
0.2549878860262566
0.1604112754278954
0.39272239007300136
-0.3936196010594674
-0.34418105733589716
-0.3528297906620154
0.22830452579185617
-0.019890745281828225
0.028884348490618016
-0.07245810225660848
-0.30681724788567893
-0.039233400360796096
0.20036745295479902
-0.10228932995398095
0.4541910372437153
-0.39679959584540214
-0.15088171590813143
-0.04616625540510376
-0.26266425556934975
-0.26291577880816364
0.22937162334882147
0.03709590659857505
0.2270037638741318
0.016277218019052415
0.294587604882193
-0.2839105245085418
-0.21356968503057086
0.24239224663131026
0.06016306128961598
-0.3646645789788423
-0.05925863329311711
-0.24126567068051732
0.22445939772618498
0.3826325351381056
-0.44922441892734993
-0.12480622811289092
0.45604823503991165
-0.31387207473740936
-0.04191532867228798
-0.21565496819493912
-0.15376021103414
0.055560241807041305
-0.06763913887731154
0.4062072195004746
-0.3465865589198902
0.20618189610416512
-0.4169581737700117
-0.3535387898360099
0.10631521219768204
-0.2827518946248617
-0.09410825922541548
-0.2814222158900383
0.4599028559869222
0.407274801610087
-0.38553908222413147
0.21129906483418104
0.43255238803390095
-0.32723669346344036
-0.19656899400504438
0.3608930071316357
0.20749681779400453
0.3052585907976314
0.2681676983507701
-0.13952003275531688
0.08329366142833573
0.08022017928748863
0.17092267787420193
-0.4315336893137297
-0.08359894913746235
-0.05990502699914248
-0.13724679412923194
0.4151600901022389
0.24366505637525004
-0.19747942775748295
0.19464727923329694
0.04698603895361667
0.4285515050207436
0.22212349099650702
-0.3296998619209308
0.1976084229304111
0.197579318513605
0.3671274293820556
0.20227678306941224
0.38157586721469305
0.14446458073080162
0.04701788026316576
0.3478013835867892
0.09463051433374658
-0.44553313971745334
-0.43318913759858707
-0.4436668246436006
-0.17420613545324504
0.2663869149638927
0.24584149500485103
-0.5026715591947112
0.30874618118638547
-0.14471036552521876
0.1179995467323821
0.27813865586874914
0.15923111584617325
0.4004060647018442
-0.3058441279978163
-0.31599219160746495
-0.3220358808963936
-0.11433178798022312
-0.16062034247266185
-0.4437870306518183
0.10930424164668741
-0.020848188544363246
-0.01724176368794162
0.22864279795920092
0.08727951164584201
-0.2287332360625071
0.29759413298229287
-0.4145752922339034
0.04701632292213557
0.3669340668392627
0.26047422814740634
0.46837422459159855
-0.2672154414505437
-0.0925455920529393
0.23393469382580903
0.16635161590914765
0.4745795208262361
0.07350038795966081
0.250453050279403
-0.36918752022634005
-0.3783947792363808
0.11215205697879008
0.061975737994003584
0.15554989085922116
0.13842972663115613
0.2627167447195628
-0.2593782209874206
0.025365603564172005
-0.47900048910121706
0.19454138238218419
-0.10839635780014653
-0.13162396389083977
0.13703872720696636
-0.2914719211973095
-0.12288717094644981
-0.11588017704018813
0.4694249461073886
-0.0992393520446373
-0.44280934044521153
-0.369565495736071
0.3425372197690047
-0.44583857117249087
0.16540419757251731
0.3837182315041889
-0.14297964827371212
0.2740567563199692
0.1549160948150511
-0.42717815603420894
0.46737674864335077
-0.24905806880259976
0.48889902321309087
-0.1411533648554774
0.04295829645188877
0.21927892210741823
-0.41158119439190133
-0.388996593184967
-0.3941637987086517
0.1701354445719614
-0.1446954553833244
-0.00962138390608826
0.4143631845033546
-0.4654008801944533
0.3914679440974273
-0.32222501937280873
-0.22659616343677916
0.29547472310252537
0.4028863541956188
-0.0475752922993833
0.30973909027249236
0.19743886045995787
-0.13352634690656345
0.04639381482068587
0.4175358067777333
-0.16350344030033276
0.08792289098397364
0.27430172008163634
0.38514646301988886
-0.38549962484775047
0.211508171326042
0.3639699979182017
-0.02749189464518666
0.16260990272606282
0.13898647926566143
-0.052236060375424005
-0.1395694836138349
-0.20928327039156366
0.24812177597266996
-0.2835988901872277
-0.38866692205033754
0.2628340575550649
-0.1974287240589494
-0.23453753652293974
-0.033252229276083
0.17642233621011583
0.1024999747473275
-0.0013059819154802965
-0.20313014048761094
0.4867903709559127
0.057252419830821806
0.007435506252436506
0.24753725076497954
-0.07574430443358972
-0.19167939037363063
-0.22628348391959638
0.41121900349100693
-0.05344206757829038
-0.3644396560531287
0.3019496344723917
0.0008870829309275693
0.29943798255857257
-0.44585110553181334
-0.010140822885105413
-0.045623421421755815
-0.05922761371981534
-0.16058119439190124
-0.10449659318496708
0.08383620129134824
0.10863544457196139
0.2358045446166756
-0.4126213839060882
-0.46613681549664543
0.1670991198055467
0.2429679440974275
0.013274980627191258
-0.45209616343677916
0.3244747231025254
0.34588635419561875
0.4874247077006169
-0.044760909727507785
0.01793886045995784
-0.06852634690656345
-0.35110618517931413
-0.2604641932222667
-0.3480034403003327
-0.035577109016026384
-0.31969827991836364
-0.3518535369801111
-0.49399962484775045
0.2625081713260419
-0.4565300020817983
0.34500810535481324
0.4361099027260629
0.14748647926566144
-0.19723606037542402
0.06443051638616512
-0.49828327039156367
0.17562177597267006
0.39840110981277227
0.1983330779496625
0.4033340575550649
0.1850712759410506
-0.4540375365229397
-0.15425222927608306
0.012922336210115825
-0.45400002525267247
0.018194018084519696
0.14036985951238906
0.39479037095591274
0.37125241983082186
0.26643550625243645
-0.4674627492350206
-0.45524430443359004
0.12432060962636936
0.14321651608040362
0.0017190034910069217
-0.14194206757829034
-0.2774396560531287
0.033449634472391875
-0.2251129170690724
-0.27656201744142744
-0.06385110553181322
0.02435917711489458
-0.3671234214217559
0.15977238628018461
-0.3395811943919013
0.13050340681503292
-0.21916379870865169
0.3136354445719613
0.1648045446166756
0.29037861609391175
-0.14763681549664553
-0.10590088019445328
0.030967944097427366
0.08277498062719126
-0.15709616343677915
0.0559747231025255
0.11538635419561878
-0.3685752922993831
-0.059260909727507784
0.2929388604599577
-0.2715263469065634
0.01589381482068587
0.21053580677773312
-0.24200344030033277
0.10242289098397364
-0.3626982799183637
-0.44185353698011115
0.0765003751522494
-0.33849182867395816
0.2444699979182018
-0.47499189464518676
-0.4588900972739371
-0.18451352073433855
0.16376393962457597
-0.09056948361383486
0.4737167296084363
0.2786217759726699
-0.22659889018722806
0.41233307794966245
0.5063340575550649
-0.4914287240589495
-0.03953753652293982
-0.284252229276083
-0.11657766378988421
-0.2740000252526725
0.4426940180845199
-0.38013014048761107
0.2977903709559127
-0.33874758016917816
-0.1425644937475635
0.17703725076497936
-0.2487443044335896
0.4243206096263693
-0.29278348391959635
0.29971900349100694
0.25555793242170965
0.01206034394687138
-0.05805036552760812
-0.1591129170690724
0.36043798255857257
0.14264889446818674
0.03885917711489458
-0.20612342142175594
0.3207723862801845
0.2245
-0.071
-0.38
-0.4575
0.389
0.024
-0.0785
0.1435
-0.3715
0.353
0.219
0.3515
-0.066
0.0835
-0.297
-0.0775
0.2235
-0.2115
0.169
0.1295
-0.0515
0.3115
0.353
-0.484
0.3655
-0.2415
-0.123
0.3135
-0.147
-0.3875
0.242
-0.267
-0.262
-0.485
0.2485
-0.2955
0.0455
-0.1195
0.2695
-0.12
-0.1155
0.222
0.498
-0.0495
-0.295
-0.1315
-0.451
0.3985
0.1405
-0.441
0.3485
0.24
-0.481
-0.4565
-0.4565
-0.304
0.299
0.195
-0.41
-0.1825
0.135
0.4
-0.1795
0.3655
0.13
0.4895
-0.3135
0.093
0.157
0.1105
0.0365
0.4255
-0.0565
0.3905
0.406
0.0685
0.3255
-0.4195
-0.034
-0.2765
0.19
-0.293
-0.365
0.143
-0.193
-0.027
-0.1795
-0.1475
0.4185
-0.193
-0.208
-0.4345
0.2235
-0.1185
0.147
0.148
0.496
-0.487
0.202
-0.307
-0.022
-0.356
-0.054
0.001
0.3945
-0.447
-0.005
-0.031
0.436
-0.3635
-0.397
-0.2845
-0.47
-0.2915
-0.0065
0.078
-0.1875
-0.072
-0.1345
0.1375
0.09
-0.3505
0.0865
0.1615
0.372
-0.087
0.0865
-0.052
0.292
-0.4025
0.1055
-0.298
-0.3215
-0.482
-0.3095
-0.2715
-0.262
-0.3485
-0.0605
0.2745
-0.2685
-0.071
-0.088
0.301
-0.362
0.0535
-0.402
0.251
-0.1375
0.286
-0.0215
-0.472
0.296
0.045
-0.004
-0.2655
-0.18
-0.138
-0.1745
-0.18
0.381
0.007
0.4725
-0.4155
0.1535
-0.286
-0.139
-0.489
-0.003
0.13
-0.186
0.396
-0.2755
0.38
0.001
-0.107
-0.1135
0.363
-0.2405
0.172
0.3178975732263913
-0.11750049471754251
0.4689432759202248
0.2529464217095775
-0.439198468733295
-0.27168718403337005
-0.11357750235962313
0.0711171482435139
-0.17189838775672517
0.44569559456623575
0.46063824283182675
0.06590175508292205
-0.3378826644478889
0.4475105063068728
-0.23500015607741592
0.03873428889861724
0.3553162919216882
0.27102936226260177
0.36959892999047256
0.39132786129377023
-0.18511974167869147
0.24721229927645685
-0.3531249430685525
-0.22849972811273186
-0.12199958561027478
0.15206388953637914
-0.43852114800308656
-0.0638545724674834
0.11307094922281519
0.321481906148235
-0.3725564838383789
0.32295906177239925
-0.5162770983662546
0.21621769820030204
-0.4436380949964584
0.3067200666400727
-0.08718677541094559
0.3769663941968066
0.17025319423881477
-0.29425840625428656
-0.4960144464514056
0.31794093251224076
0.2121936493738792
0.06331168771585832
0.1515574653468883
-0.1258275268202829
0.011307700918016327
-0.15367154930473728
0.376996976013444
0.2470956609059994
-0.2501918979568813
-0.16047414441041633
0.059360960076431143
-0.43308742267617373
-0.35653441893290805
0.4509386672384765
-0.19016703570542182
0.047369719104728904
-0.15882217280129118
-0.26148611950205
-0.16743602530758442
0.08099952650057562
-0.30091161238384906
0.2992350978657891
0.2914538836115051
0.3988128161344153
0.13531692289400934
-0.39878197364545676
0.3284674098654641
-0.24479289814995403
0.23965540069164337
-0.27144068376890157
0.16449618616199105
-0.4029896625376553
0.19112535616935536
-0.17231075311193536
-0.2671604177359643
-0.21817432581158558
-0.1949011754898564
0.10501661863728018
-0.05456490935772603
0.41122427643125736
0.48187511909268826
-0.23122916334920005
0.43037741280257985
-0.42253814573270443
0.2806319561956281
0.45946360640122313
0.08739887192931411
-0.32252547693005507
0.31732097522711267
0.07095905021971369
-0.10827709840729219
0.08122847729115075
0.12785498787790478
-0.2256869812932962
-0.2084905640130796
-0.15103360799312854
-0.09925147411442048
-0.2797838920167335
-0.42708654914241884
0.3901260219494824
0.14142541230564376
-0.34015425480597616
0.370095568728407
-0.4407894617977103
0.3548077007362815
-0.11267131274503607
-0.42596350472589956
-0.10785750943835205
-0.18899406162865276
0.13252537385167065
0.10282464823390874
-0.4779994789318454
0.10874974385881385
0.04593931511900236
0.4167216865855003
-0.08817833359996634
0.08768417863957428
0.1656340631796658
-0.27398511064171965
-0.2514886782117539
0.36877318681497584
-0.507955407061736
0.4623634386657048
0.10834371913434535
0.3514425655968316
-0.2585892210134861
-0.01684841025528274
-0.012115589430525073
0.3752900192683888
-0.3761436022242576
-0.06187542214206213
0.2583828912962685
-0.15211458049804902
-0.011442795000668181
-0.44964091319498856
0.25768705989085616
0.4632012806098402
0.36537554614394474
0.0898639264732077
0.4039103053441551
-0.2646177609343512
0.3391027226715526
-0.148501963680841
-0.4110061016652295
-0.006702154112804174
0.3346870815945085
-0.288366550788312
0.25166212421457596
0.31939426388574266
-0.22462651551073773
0.2914140050410806
0.06874009002867872
0.01568498380224674
-0.09311645904082902
0.22489691341746507
-0.28439893281844375
-0.4458139931293488
-0.14460156419883927
0.32068728567970595
0.21822401094447572
0.16235324591629652
-0.08041406995131554
0.4495164306500112
0.1586734604104506
-0.14154811265160663
0.4397808127573244
0.358705026191504
-0.24340443629184055
0.4412852674517269
0.12707433316667271
-0.36937289212081215
-0.2034886354992113
0.32705213065819294
0.2901742649213192
-0.07203525896297569
0.2456880558782648
0.36299551482868625
-0.4882279201744659
0.47458232275845746
0.22254487914555945
-0.42409052483549614
0.30688566732896244
0.254084785607396
-0.3345889620273078
0.38472317641541387
0.2017384331964699
0.40272341487270263
-0.3046746692128509
-0.4584835337788753
0.4225182767624919
0.3405979564202405
0.09918182711773084
-0.3105652036129476
0.08674457116079215
0.06749677137992428
0.0870609778207037
0.3821645154763247
-0.29599335076707955
-0.3375661072444433
-0.31320576386016946
0.09743618479249612
-0.4074047766408867
-0.2501050349697708
-0.2087374212959719
0.37101603453754745
-0.2175876227080374
0.2911390783201822
0.17316756053638768
-0.3779365783249677
0.39506660614117567
-0.02471144186732096
0.15620229770337649
0.07884700149170366
-0.2782712494871496
-0.4174379365096575
-0.49010274521352637
-0.3650391901903575
0.20471088007551702
0.339233965970743
-0.44460098625571154
-0.16681459330919923
-0.3625716071488274
-0.2707959742984169
-0.0917793339779752
-0.19672206331111716
0.4154240599043242
0.26358407503824277
-0.5038838030242071
0.4570363991908366
-0.020820436736553042
0.4149391504006161
-0.08529825948762876
-0.488483803085021
0.45112650876452737
-0.4765358460242644
-0.12704534809676005
0.366099793836136
-0.009659337099810603
0.43367647990007785
0.05585023402347453
0.3353878882772128
-0.06459304140490447
0.08699268429406565
-0.15992764047162938
-0.2700045559230427
-0.45288790067231205
0.13446296211083733
-0.16898586208669703
0.46590100416361685
0.4277104927343885
0.4191753283080374
0.33633040976796513
0.1461609926594735
0.4338947506495892
0.06295313638360421
0.10060936043925203
0.4377150260396322
0.005510598937881205
-0.0008968345879923753
-0.16819290259463898
-0.23046549257082732
-0.2083347592511367
0.2687669657580205
-0.1187461561065821
0.059773635397460605
-0.3115810007843247
0.10633967507680234
-0.27613843243510966
0.0009743731100128158
-0.49418984399406496
-0.3566475476495723
-0.2619190622111291
-0.07084410487868523
0.39717326995706975
-0.3974961265790253
-0.096364224398224
-0.021453260085553604
-0.12010516664625238
-0.27201400643623624
0.04651184816782447
-0.18732923157409026
0.21139545365975518
-0.5056580607128837
0.2822559200304525
-0.31401720789743026
-0.04448313923482901
0.3864276921698985
-0.4897232691678228
-0.3374297920528422
0.5143985564629828
-0.1492762582463707
-0.13266013512017155
-0.34039967913754265
0.1795327967453575
-0.4502616540098912
-0.2923500951966148
0.008240949868666221
0.11899311263807699
-0.4253984170747699
-0.4053414094208816
-0.044652370095844336
0.40983421433964295
0.266076491734171
-0.25097978690601835
-0.28436454364095926
-0.3131807646237904
0.3194284000759413
-0.09992760287468695
0.1765104606722462
0.32574606082566976
0.4926540565865995
-0.31253813961057747
0.22506394478669076
0.13017415881887148
0.3698030257557513
-0.5149016835952313
-0.2819702568780975
-0.29058850379051143
0.21578734350825282
-0.5197846894961088
0.2839640803939551
-0.19853250691152438
0.31641965455863824
-0.48131716923619206
0.15368743580781433
-0.10718491984218456
0.12104092182758848
0.4535323458123789
0.005767025028769634
0.24074552285334502
-0.09859793030228751
0.13991324842897768
-0.34082532395288556
0.3135158351183789
0.16662433529085374
0.2719122187547641
-0.16887555812349098
0.23501657457831376
0.3224158442457299
